solver_type L2R_LR_DUAL
nr_class 2
label 1 0
nr_feature 45383
bias 0.000000000000000
w
0.02123149314611646 
-0.4216232296046009 
0.04160522768189997 
0.04160522768189997 
0.3645916331256336 
0.2144979023970179 
0.01814643913494476 
0.04160522768189997 
0.1836721395531303 
-0.01970376679826150 
-0.3765654619151965 
-0.3561357048876471 
0.07644696564867730 
-0.1684095635568674 
0.09427595451561656 
-0.3651502863131380 
0.05965340925178687 
-0.2161212736166976 
-0.1952713051126697 
-0.3192121843423066 
-0.2732918091503356 
-0.1533603557062123 
-0.05716781703967871 
-0.2590095231598081 
-0.1554219360467464 
0.3592387832387825 
-0.2502524128043983 
0.3041528977502419 
0.1762471921442191 
-0.05482106032978919 
-0.2282046361424001 
0.3582751482881461 
-0.2735394040956093 
-0.3674890858785856 
-0.005654571038616170 
-0.1723487937755740 
-0.1048168001485741 
-0.2949961831880391 
0.05660153363702218 
-0.2412590063505264 
-0.1842710230358495 
-0.1808212151107837 
0 
0.03189210148612074 
-0.07817886188710987 
0.06217100972456641 
-0.08090180536164486 
0.2454813567067103 
0.06304693766283880 
0.2324172303609484 
-0.09971084188334356 
0.4419948056161540 
-0.3006322619423560 
0.02583605401839288 
0.1077926208531562 
0.2807425053577748 
0.09473794762868150 
0.1515904509649278 
0.1044364332982086 
-0.1607301007632770 
-0.2957397425385637 
-0.1031725457218150 
0.02979052398055582 
-0.08731700587544353 
0.2204170175272266 
-0.1221112936909112 
-0.01314912642507948 
0.1513585423549554 
0.01130543501196015 
0.01190360646826648 
-0.1431341498555712 
0.1074346056529031 
-0.1729846610011943 
0.2595724673005158 
0.1922462690803543 
0.06627805858692726 
0.1542953946774383 
0.09795965189743085 
0.006637689302064188 
0.04294347437749621 
0.3076410202279040 
0.1608760971181327 
0.2820383387413423 
0.1312035318818760 
0.02049699313027967 
0.5094553074864558 
0.2652408546329249 
0.06274331513550531 
0.1864293632064653 
-0.7570940414583448 
-0.6474122746978276 
0 
0.003468263331377179 
-0.1144956567431369 
0.03124571384669600 
-0.1341142287929188 
0.3511495384929949 
0.0004133629115894884 
-0.07718689574996358 
-0.1144956567431369 
-0.1598189954902825 
-0.3078448783505673 
-0.4491815354032459 
-0.6792700150506036 
0.02426063173097539 
-0.6541069700187676 
-0.08041638080206832 
-0.3334870551201892 
-0.2012648526748265 
0.1250542942498469 
-0.3010354576758265 
-0.09928907586099925 
0.2756598909098996 
0.4181485567157092 
-0.03205862998587385 
0.1093220091189154 
0.01838458054366054 
0.3074264579848064 
-0.2985887145509973 
-0.05749744195598219 
0.09832241562459139 
0.03806799987797552 
0.1500926699563818 
-0.3480984185498928 
-0.4895509664213625 
-0.04976393016435531 
-0.04751843587779751 
-0.1914540889292854 
0.1794190781908420 
-0.08898002777328703 
0.02095636531416893 
0.08199764003941494 
0.08524392490115205 
-0.1955716981618115 
0.1994917597987517 
0.03496784753075364 
0.04286463416393067 
-0.1175016946982513 
-0.2027236189533563 
0.1667383932780449 
-0.05637932777227197 
0.2482968547360651 
0.1611145017550758 
0.07594401140634234 
-0.1523743689804635 
0.003793832515745977 
0.1627664083584745 
0.1627664083584745 
0.1627664083584745 
0.1967719499251801 
0.1967719499251801 
0.3153276783073851 
0.3389734003440141 
0.2246838329600654 
0.01800657478981735 
0.01464714156321272 
0.1621881889484191 
-0.08681689309522043 
-0.3753193549830695 
-0.004463069969225800 
-0.2400924506618807 
-0.2487259814225256 
0.02764316411483914 
-0.06289866321042720 
-0.1822058034937704 
-0.04370996399605314 
0.06441337910447166 
0.09023597416339024 
-0.7883242787148182 
0.06441337910447166 
0.1760388585147498 
0.4757055086511052 
-0.1477934134753101 
-0.2561829941179943 
-0.1300444113091618 
-0.1319214424849049 
0.1015802455715946 
-0.02977581227379007 
0.04112724708525994 
0.06326955538656644 
0.5078586052339500 
-0.1713812167082147 
-0.2842924666392271 
0.7524695552590268 
0.04358215442402150 
-0.2195755250412522 
-0.1417689292090814 
-0.3727524614993770 
0.005222045824504045 
-0.05547416585118500 
0.06544553890413275 
0.2878397863510113 
-0.3358094464378554 
0.1814098891543922 
0.5645085302103938 
-0.07831332846314656 
0.9309338742622068 
0.3914986320991002 
0.3638978485652493 
0.02564930050384946 
-0.3860306844885351 
-0.3924054481841177 
0.1025765091799813 
0.1195716114474279 
0.2768321776821386 
-0.1503608451616156 
-0.1533265953769640 
0.01351655171487159 
-0.2545907117831519 
0.1507047550054710 
-0.1963849684490538 
0.2424300442317859 
-0.02704217523366341 
0.5117805222498034 
0.1697892204791950 
-0.3910626564955502 
-0.3506660448991890 
-0.1384200252684228 
-0.1032446669780919 
-0.002410998538378453 
-0.01264183999170864 
0.02563049072884072 
0.02563049072884072 
-0.002121416389483772 
-0.002228658739698659 
0.3494361421591081 
0.1403743139549094 
-0.3786151140008193 
-0.1299410337920361 
-0.004056390261712705 
0.3791536132165280 
0.1506558885238473 
0.1655082266333115 
0.3362024089697662 
0.2053815566245163 
0.4037604420034039 
0.04972450656051774 
0.1644275637947623 
0.1077611930304018 
0.3610556183270863 
0.2260373353372271 
-0.3431354341069102 
-0.1661980495533728 
0.4826871337105966 
0 
-0.2301327396859183 
0.1459434580607470 
-0.06151719819887377 
0.003225027242685470 
0.05277529670504538 
0.07297865474721686 
-0.3591591769448846 
0.1568258352447074 
-0.3877024417567328 
0.08483394439324790 
0.08483394439324790 
-0.4002935913395863 
0.02751050667660551 
0.2594827768204907 
0.3657418232879669 
-0.1175429438209104 
-0.009212237725917610 
0.2307324926258592 
0.2498247726943539 
0.2030899854668008 
-0.01621576701165674 
-0.5797814898663033 
-0.05992629518352693 
-0.1193999265708792 
-0.2316488177805547 
0.1799662851324895 
0.3217286155913309 
0.1891230228945509 
-0.1069316239229865 
0.5994993480317816 
-0.04803449885130930 
-0.08612185477558962 
-0.2283113653045470 
-0.1234123969650174 
-0.2174185211676328 
-0.1234123969650174 
0.03895719230286630 
0.3539915864350498 
0.05157350257404707 
0.07624773449229410 
0.1759031042784512 
-0.08619818179097088 
-0.2956755417087673 
0.1022448525325611 
-0.05310745791512729 
-0.07550032828299882 
-0.8626308877267692 
-0.05481508535920261 
-0.1004637199715724 
0.05401415723279020 
0.2355076209454501 
0.6265567960813943 
-0.07947107159273775 
-0.08623150854774314 
0.004909435810870771 
-0.05095837840022496 
-0.5185602733482589 
0.2581447986635795 
0.02714743673253575 
0.02678478190683226 
0.2820024310387815 
0.05583576442137252 
-0.05804930452770591 
0.02678478190683226 
0.1614339125356563 
-0.1459987355473599 
-0.3650003658260565 
-0.3138258823037394 
0.05429166570370069 
-0.04901169989379569 
-0.3578452981387229 
-0.1109689220673502 
0.2676803833911033 
0.07217943849067729 
0.07869017577594861 
-0.1613507036496709 
0.1740890052348346 
0.007468028789671716 
-0.1015578849061252 
-0.05176582672960370 
-0.2826361345970000 
0.08400037798267429 
-0.04044238335361562 
-0.5804693025913767 
0.04703068773490224 
-0.1348145694533745 
-0.1173035052902076 
0.007018054290997377 
0.09966239378109890 
0.1722642149955735 
0.6703360938599016 
-0.3187772648679340 
-0.1222700223494256 
0.1949660583118813 
0.05286039602947840 
-0.02203023591580045 
0.2917305885451522 
-0.01687892891940690 
-0.4124307970275892 
0.05861991037154030 
0.08434897660179609 
0.05238041518685807 
-0.1093795596940305 
0.01854696094601524 
0.07178948673100068 
-0.007394510526963695 
0.006454841890465476 
0.1666468224796720 
-0.1215739078225840 
-0.05498811786809108 
-0.05498811786809108 
0.3196452602945997 
-0.05079544293589425 
0.03585003715204602 
-0.1330070662204846 
0.01729777353527241 
0.03548615315856992 
0.01729777353527241 
-0.4374383071592264 
-0.7643655453011616 
0.07182176125567172 
0.07182176125567172 
0.04062802835573529 
-0.3075206252189027 
-0.05663366704563942 
0.2678928998378855 
0.2283837124891510 
-0.2825955998319548 
-0.1585743753159168 
-0.1652268968548060 
-0.4637947612727280 
0.06491492344045610 
0.002641450867963013 
-0.02452202629222004 
-0.06831921624957941 
0.5143269909332893 
-0.2077852444018880 
0.4577448374777595 
0.5241128406282648 
-0.1318213680947348 
-0.1035202101696361 
-0.9383122321841403 
-0.5699377344358169 
0.4618707434671211 
-0.3273403971644916 
-0.1303395928583431 
0.1879535104531911 
-0.3249875222003668 
-0.01130925625560986 
0.1305846466847922 
0.03418923455166666 
-0.1544680496080197 
0.01801251861870975 
-0.2969290590703854 
-0.03367447772206407 
0.6348780291453076 
-0.4742301852178284 
0.2593947321096948 
0.1461892632645110 
-0.2715309214918199 
-0.002516933017489086 
-0.7742083701141715 
0.3193826379475397 
-0.1666804259600719 
0.1271407697806424 
0.1612308529359249 
-0.005609026507196510 
-0.1099536122633432 
0.1359804993733437 
-0.007609634949685303 
-0.07419118700341100 
0.1029504780082106 
-0.04736590853735898 
-0.2400048482877883 
-0.04736590853735898 
-0.4232255775042049 
-0.1054679649707324 
-0.8153216951574660 
0.3159851527242704 
0 
0.1745008891579861 
-0.02510094763346718 
0.2517150854777323 
-0.02693977728098263 
0.06880596993733468 
-0.2687308280426364 
-0.2404392335012217 
-0.1374682919385143 
0.03108067955709399 
-0.2282363588355919 
0.07321689362708526 
0.2754395480905463 
-0.1703130050694048 
0.2145157191150680 
0.05743152273451912 
0.2393285092878148 
0.07321689362708526 
0.03813246669937148 
0.01798998027450239 
-0.02616373332856712 
0.01798998027450239 
0.1755053096381691 
0.01798998027450239 
0.0008162221808018892 
0.2287264644828448 
0.4057183768425260 
-0.4990688883021823 
0.01798998027450239 
0.1669641021808906 
0.2227976973661626 
0.08322026482286242 
0.2849643838720058 
-0.04099484338498354 
0.08322026482286242 
-0.005396192490262146 
0.4055347351532557 
0.1902768207774496 
0.4701709323252005 
-0.1025394942528755 
0.05503512502950996 
0.2501354115251123 
0.2363938914871002 
0.02719505397908247 
0.03986108416008778 
0.05886963351649097 
-0.02779737991092345 
-0.3269475909233156 
-0.2458767027733121 
-0.1897174017631627 
0.05886963351649097 
-0.1204434246450693 
0.05886963351649097 
0.1985266250361641 
-0.2045333604390383 
0.4512712055765903 
0.1099468715300156 
0.1135796508694392 
0.1135796508694392 
-0.1030090406857641 
0.2352602601224751 
0.4687622174615597 
0.3240969519089100 
-0.2596429919552914 
0.1407091477735751 
0.2015000923800206 
0.007880081264992768 
0.1515188403417467 
0.1898997651685476 
0.1515188403417467 
0.2580283506715750 
0.2268276333678572 
0.3080648694192103 
0.1149695091229378 
-0.1214388240649050 
0.03459008629935106 
0.09610168880931720 
-0.2105721972494715 
0.08598307152024426 
-0.03595647128695174 
-0.1419157776049270 
0.2834134623087539 
-0.1692566997087222 
0.1200169113175055 
-0.01188533534977071 
0.2959225233133717 
0.1283555602095342 
-0.3094755930847182 
-0.06750284743508700 
0.2129923473553716 
0.2129923473553716 
0.8092178261452534 
-0.08039760359264327 
-0.1440671188605683 
-0.2625533957478937 
0.1317574216379784 
0.2640369360883711 
0.04951276264632981 
-0.4583873917189280 
0.1149628128840385 
0.03838092482680094 
-0.7107092961929208 
0.2483998852695035 
-0.1413603462721593 
0.5248302736265865 
0.03838092482680094 
0.1099977214127059 
0.01694668775403277 
0.2653103623670124 
0.01694668775403277 
-0.1443529275768606 
0.3349471279343795 
0.6797605522941930 
0.0001577712169321027 
0.07610933782662559 
0.2485015494956205 
0.1338935301891079 
-0.009119065762701710 
0.05235722940809776 
0.2241558116003936 
-0.2110211484362732 
-0.3669695124951582 
0.2468825934359611 
-0.1160185229520586 
0.007406286897911092 
0.04665554441748959 
-0.02142161960718371 
0.3994614325475071 
0 
0.2457546115686833 
0.2190475302977410 
-0.1310004147719754 
0.09675789320504001 
0.1520694829302239 
0.3203406291649324 
0.02799422561430808 
-0.4327276660100783 
-0.3032338430503694 
-0.2390788186958221 
0.1893505628696000 
0.1371963504013675 
0.1814085058188089 
0.1323044885667139 
-0.6373018780413511 
0.009939437608874896 
0.1039568176842431 
0.1036388485147425 
-0.2862957904674666 
-0.3106856199683646 
-0.2033616758116765 
0.03409918963530333 
0.07685168985165040 
0.1321659579293028 
-0.01800053900522483 
-0.3076851006228656 
-0.01864074054431447 
-0.05119491634572874 
0.1163371361490237 
-0.03324067862224910 
-0.2604581160137100 
-0.05879526971540981 
0 
-0.07949051191129329 
0.02635299468634723 
0.1953269746028768 
0.06509034880949385 
-0.2904360463706019 
0.06478152018846048 
-0.05883492102596205 
-0.01840269627506271 
-0.05736498218550734 
-0.2363683175414428 
-0.4448023773624725 
0.07518512939957654 
-0.2026332096685014 
0.06291908737190860 
-0.3019575506500130 
-0.3326171849700478 
-0.005462492260621729 
0 
-0.001193731185009907 
-0.01026912828796111 
-0.07568654544278010 
-0.5537744863648019 
0.3859720025802458 
-0.3614439792855703 
-0.2905337963024689 
-0.08833842115802543 
-0.2641788455767494 
-0.3302421666261164 
-0.1671365027793773 
0.03129276459437701 
-0.04789974299570270 
-0.06557905868634283 
0.05936689610089057 
-0.2779896132934184 
0 
-0.4495386681938328 
0.3952634114726634 
0.1003321604801330 
0.09996988177337378 
0.1439381680091996 
0.02017380548647660 
-0.01623941373950963 
0.05516926945672425 
-0.5023210657840861 
0.1612247788098964 
0.06286524769199775 
-0.09134731081884210 
0.1254748813963830 
0.3013832364831137 
0.3013832364831137 
0.09706660018395027 
0.4662097342404036 
0.06713652370468608 
-0.05089499969992333 
0.07249285231500896 
0.009948437372675626 
-0.1774243477613922 
-0.05158678309668949 
-0.1352803541172619 
-0.05987867814376607 
0.08024432895547275 
0.3015308434150056 
0.2142992858678249 
-0.08732352265968886 
-0.1680444937184826 
-0.3909708395289791 
0.08353067041462730 
0.02501971444149259 
-0.03314742032660738 
-0.3722692257600784 
0.1520119123334249 
-0.05323686832487946 
-0.2739711242119498 
-0.1481323988444451 
-0.1321944834243130 
0.02541296291057591 
0.02541296291057591 
0.3608198960689999 
0.3962568331680819 
0.1893695484862210 
-0.01942548254566866 
0.06801717007503302 
0.06407230501884070 
-0.08141224767047148 
0.02151523150735989 
0.1141396007381200 
-0.2220111365573741 
0.06387351160098352 
0.1001157351935751 
-0.2030428976462951 
-0.2612709009448406 
0.4068150463112419 
0.2688813985467380 
0.09707760812553419 
0.1184872852145582 
0.07918971243208378 
-0.5100881459194683 
0.3993293313693137 
-0.3096774499581910 
0.1562080081726370 
0.6135077755897567 
-0.1897804228876782 
0.3022037872505800 
-0.4570597540506231 
-0.3871960281160967 
-0.6535534739852832 
-0.3911262898557857 
-0.01864126728690844 
0.1661434577228700 
-0.5526091481058224 
-0.2079491612264556 
0.03655584175178145 
-0.4740694552091271 
-0.05541614716552112 
0.5495133817272623 
0.02407086848267817 
-0.01107119418424665 
0.1222784574380766 
0.2382890997407559 
0.2382890997407559 
-0.5060005076541777 
0.2605753909447894 
0.06434002254144540 
0.2935891255009101 
-0.3498826445839383 
-0.1605402082637920 
0.2494685204061262 
0.02885476799323247 
0.05494141403020352 
0.4126297574183206 
0.08651687484975445 
0.3068388120211201 
0.4910294947132907 
0.05532892866552405 
-0.4655675132111379 
0.04334357088576769 
-0.1906140829743361 
0.3075435220169260 
-0.1199232374181528 
-0.4116311189480227 
-0.1174144627280907 
0.03218278831736297 
-0.3569556727338394 
0.2375835548344570 
0.2436048692465588 
0.07807725457660354 
-0.3981497538885878 
-0.2418382759778691 
-0.2448989770048775 
-0.5468096067024695 
0 
-0.4093013128182149 
-0.09927745765498895 
-0.1609537041008517 
-0.09927745765498895 
-0.04893887383943375 
0.1856028248724549 
0.3215002311395498 
-0.03867623287950480 
0.1523705236820925 
-0.1174314460522703 
-0.4116613382217149 
-0.1174314460522703 
0.4519175476654828 
-0.5324937507709910 
-0.1174314460522703 
-0.1209859263087206 
0.1272894738432799 
-0.2319034859385104 
-0.01180741057943232 
0.05792441575431975 
0.09931139383894907 
0.01570552943187393 
0.2377991571197403 
0.1311550172992785 
-0.2137143303781651 
-0.2606084265371411 
0.1192927968969363 
0.1204914122128572 
0.1012650489789603 
-0.3441838255467142 
-0.07309314388633019 
0.2224314595221726 
0.1051627940893049 
0.2520469641361678 
-0.5419071463410162 
-0.1755383358558937 
-0.2175651740978458 
0.4019332360306890 
0.1369802287572760 
0.1785101331287955 
-0.04567275651133862 
-0.008359553434746612 
-0.6240204273573170 
-0.008359553434746612 
-0.1001665649176156 
-0.008359553434746612 
-0.1304542963186137 
-0.2438372532048268 
-0.05273750238956127 
0.07571179237435163 
0.2753887949069681 
0.1740663595032845 
0.1084628725695145 
0.005369049978172603 
0.04321385079477139 
0.1679427063751334 
0.009213267947785219 
-0.07211642831154510 
-0.03609973275969006 
-0.1248525961167001 
-0.08624227297135184 
-0.03738307327066062 
0.4124655098998615 
0 
-0.02421607340526526 
0.09469158724053586 
0.4989274756642391 
0.3291179444058131 
0.003380770781495600 
-0.03699664648551077 
0.2820265256771545 
0.03602566722881005 
-0.1311793771929271 
0.1136831607661412 
0.05849748929840842 
-0.5022629907306210 
0.07070732198012517 
0.07075222964629474 
0.03957877839367954 
0.3091043263203480 
-0.3358898130606169 
0.09464889799573564 
0.05384090349358216 
0.06881028156872822 
0.02683082749007783 
0.02766100549237802 
-0.1379600651514531 
0.04324302242222285 
-0.1909534254514098 
-0.07102190333134557 
0.08208639034859555 
0.01137096555319912 
0.2426493423840972 
0.1701594527138587 
0.2363271347457425 
-0.4813822217936651 
0.05617459626510279 
0.2837102432317138 
-0.09691642536205074 
-0.1893542581044148 
0.01358125933025287 
0.05320294135940434 
-0.01028550142877932 
0.6789826833807162 
0.3545730089202389 
0.2191664111776160 
0.1325543395200012 
-0.3859984900337239 
0.2391193800748342 
-0.1298854313198683 
0.08950581470452261 
0.01293155576395197 
0.07388538013086994 
-0.2455205298257832 
-0.02687875944631152 
0.1296833991207264 
-0.2713698518527238 
0.04069076841654910 
0.1820684862617712 
-0.08160212981839757 
0.1047390997455272 
-0.3244081715278057 
-0.006262155333815521 
0.02131231734625156 
0.1227444154093327 
-0.03447541485057864 
0.1949524044864614 
0.001770291202295370 
-0.09096713923833195 
-0.1095964540485038 
0.04988249848680650 
0.02587571480648701 
0.1080636098018524 
0.2113400117233495 
0.1146492412474268 
0.5885354519283598 
-0.06619490554654556 
0.4284855966202880 
-0.1234362639341790 
0.04298863903647734 
0.03008105878739125 
-0.2251033492981630 
-0.07906782503554083 
-0.1738159660490246 
0.06988944136498856 
0.2025096629084338 
0.06988944136498856 
-1.100444069464430 
-0.3366990947104738 
0.2240980884188605 
-0.03625806866418231 
0.1947884092902375 
0.08282397668947339 
0.1326202215434452 
0.07705922604512480 
0.1864532139407903 
0.1293313686111076 
-0.4797491530258118 
0.1190455478292021 
-0.3418153372246378 
0.2791096862643115 
0.02334652263486198 
0.09462722646264040 
-0.2264841153345511 
-0.3782359511896068 
-0.1440103625015355 
0.07139160658401311 
-0.003790027768561262 
0.2645880129361065 
0.01341502224072171 
-0.2415328393611459 
0.2218689656991598 
0.06576371373971304 
0.1430616194077339 
-0.002775594953828304 
0.4058071403069374 
0.3561160171798095 
0.01301271387954665 
-0.1279636248885562 
0.09177376488033848 
0.1283280166266179 
-0.3052831299260562 
-0.05933249822382977 
0.1704559139300196 
-0.1804088946875266 
0.2852592956890140 
-0.3039610709033311 
-0.1378181564813232 
-0.1380909912595472 
0.06093792667376979 
-0.05744396727673843 
0.05269471081707429 
0.09696653361630111 
0.03588544406429343 
-0.03330054324342913 
-0.1174250567233749 
-0.06647885432610043 
-0.2064428474950754 
0.2664636090453596 
0.07745548652874440 
0.1888412104465216 
0.5026798831337368 
-0.1097200644663406 
0.3304884415195714 
-0.3939966063263731 
-0.3255011651268325 
-0.4494740163545480 
0.1677328465262385 
-0.1340500304544477 
0.1319260797775674 
-0.1307532224180434 
-0.2333524646892252 
0.06400529814922853 
0.009996805708031468 
-0.2339981627865599 
-0.1550455466282033 
0.3667611246220555 
-0.1416587572861915 
-0.1576639941227465 
-0.2337058073819608 
0.1441071208139362 
-0.4068879639057277 
0.1441071208139362 
-0.3373096057898732 
0.02180076363703497 
-0.05554739798324423 
0.1365745576046455 
0.3095995150865029 
0.1827367096946093 
-0.3485818629558299 
-0.1550924915479658 
0.2575578529295281 
-0.05586434993102907 
-0.2686455069735306 
-0.3406098796400619 
-0.1360426006159626 
-0.02141799726825209 
0.02249786342858754 
-0.3446517332768214 
-0.008026950340660859 
0.003713296820762501 
0.2778177360892207 
-0.2479927738923884 
-0.1882784499006808 
0.03633081936541813 
-0.05584894745822570 
0.2498106331949856 
0.1325903370158383 
0.2166750347367400 
0.3710660003424359 
-0.1795466187304965 
0.09625920897833629 
0.1369155257429074 
-0.5720299738252361 
0.08979157076752133 
-0.1523466217685051 
-0.1722681545510018 
-0.08770563603525983 
-0.1804060464554266 
0.3590912056942722 
0.1263813757483164 
-0.4085784805796358 
0.1145164951217743 
-0.1307075433819215 
0.1128526083795706 
0.02357696100766679 
-0.03047552753862341 
-0.01830689841417471 
-0.2184960316835440 
0.07768220558575152 
0.3353242179082556 
0.1144143666579825 
0.07129244006496008 
0.03932522389683212 
-0.01083955134003545 
0.3218407334882888 
0.1858359584135372 
0.01122401959950539 
0.07037734268847610 
0.04625463283792607 
-0.4964276426482412 
0.2913965023775824 
0.1609359224005215 
-0.009253093006706520 
-0.1555936725250827 
0.09382833950095258 
-0.2759137036474325 
-0.02685965346759788 
0.04282193108141316 
0.04282193108141316 
0.04084575821661528 
0.04084575821661528 
0.04084575821661528 
0.04084575821661528 
0.04084575821661528 
0.05331232869756972 
-0.2745991580320616 
0.2335850279596997 
0.004124396214393917 
0.07575551195365703 
-0.2308730828009791 
-0.04026770860802549 
0.2544940660563989 
-0.06520296099961123 
0.1025019682798079 
-0.01391416169547705 
0.05265762566367646 
0.08382386590439155 
-0.4229286223859295 
0.1903611527981078 
-0.1913501620643651 
0.04794076415612407 
-0.1811762003092749 
0.05634822512585291 
-0.1890927054356064 
0.1834086565286778 
0.05500992915568670 
-0.5466127993080624 
0.06071330540836885 
0.06761051319830264 
0.06761051319830264 
-0.4546297911190698 
0.06761051319830264 
-0.07299589168975174 
-0.09205685765076796 
-0.06624209938553840 
-0.1900722114193370 
-0.6858174699723681 
-0.2571309715542223 
-0.4978047453190812 
-0.1084782439875759 
0.04380717214216515 
0.1568231935831969 
0.06758852892368750 
0.06758852892368750 
-0.1778947849396278 
-0.4556177878874153 
0.08626571089545935 
-0.2006742636977301 
-0.03438161874923703 
-0.1663711491887537 
0.03292683688766764 
0 
-0.2010720918824780 
0.08993268683777965 
-0.3273036555067046 
0.2833938118313037 
0.05054053626855294 
-0.06170191859125604 
0.01189757674214065 
0.2968838216348989 
-0.5548009243881991 
0.1268498546404426 
0.05614897043990665 
-0.05902251610402807 
0.2157203553279098 
0.2157203553279098 
-0.2637007356208233 
-0.01411143408830669 
-0.2832106383540274 
-0.3581203832477380 
-0.3212407281936426 
-0.6490375708606461 
0.07801433950327008 
-0.03209778690755952 
-0.01922014589940482 
-0.4894766136594028 
-0.03726331122626810 
0.2896514833357007 
-0.01083834362522165 
0.1198873749224480 
0.6485377714519519 
0.03463635640769927 
-0.001949903349530864 
0.4186135241735512 
0.1646606673674761 
0.1939367991627250 
0.05897793255668239 
-0.2754196581715172 
0.05897793255668239 
-0.04094089932893892 
0.05897793255668239 
0.1793551381111130 
-0.02696514572461817 
0.2451194707443627 
-0.3772572944272454 
-0.1865499837511956 
-0.2716532638957973 
-0.03198179757721890 
-0.3694372932977560 
0.09920882781625726 
0.09283415104111069 
0.08677713101618048 
-0.02941047047174111 
-0.2900595977264870 
-0.05892633963319877 
-0.05892633963319877 
0.02123107607045004 
0.02123107607045004 
-0.008125642063211834 
0.4723479934676394 
0.1354304587027700 
0.3908520409156288 
0.1460316748146432 
0.06312265311482945 
0.09769900054325681 
-0.4736309590689551 
-0.2590967207553560 
-0.05160039015424953 
-0.5600472903617197 
-0.2106851855655995 
-0.8870731598131837 
0.06823230001282640 
0.06823230001282640 
-0.02776510355132358 
-0.1181754347271530 
0.1056681171141564 
0.1279020071282674 
0.1249202282754198 
-0.04336661528218986 
0.08863614727050893 
0.04740839222653592 
0.04740839222653592 
-0.1966766331962540 
-0.1966766331962540 
0.1602191226828599 
0.05496010951551109 
0.03884336792637275 
0.03884336792637275 
-0.1043371646432076 
-0.1730136751602160 
0.1557903295039134 
0.09325542594867667 
0.03884336792637275 
0.02910613662235260 
0.1359419365764530 
0.007110288162133316 
-0.08703593418979645 
-0.02150586118139915 
0.04188212214307104 
0.04188212214307104 
0.01501056248982972 
-0.03876664555710484 
0.1176546368578370 
-0.5216422480612709 
0.01501056248982972 
-0.3075396006039027 
-0.07280063189752861 
-0.003895424646879359 
-0.07122752163688970 
0.07893500022242692 
0.06149480006780406 
-0.09860512540119892 
-0.1252672409440253 
-0.4655483701907532 
0.2828967347675923 
0.2444618857524507 
0.2221131674826736 
0.01374152003801219 
0.03742849785792710 
0.05254008624625929 
-0.02234690525812498 
0.08147422964602967 
0.1246523862051460 
-0.1569409008020310 
-0.2233645161511082 
0.01104805711544893 
-0.01035274830847319 
-0.02316817617715465 
-0.1139265328249948 
-0.2004759864221766 
-0.1182073088226553 
0.2762650148442061 
0.07982336614078969 
0.1444680524822330 
0.1407147044259342 
0.08878489902891233 
0.07608960335482800 
0.1262649367186726 
0.09254547929411203 
0.01632543603243455 
0.01563246439212718 
0.01563246439212718 
0.02410327348744841 
0 
0.03970327747222291 
0.03970327747222291 
0.01289945327701726 
0.05022732275506860 
0.02902413087393000 
0.02902413087393000 
0.02902413087393000 
0.02902413087393000 
0.02902413087393000 
0.02902413087393000 
0.2399346260003332 
0.1180615235271537 
0.05141875487031490 
0.05849992258878776 
-0.1494875795275804 
-0.04772530127672628 
0.03212308442692644 
-0.1103219220725845 
-0.4536184174272109 
0.09140943578135950 
-0.1713121309043682 
-0.5833306849045742 
-0.05647066981647345 
-0.1915973155706946 
-0.04824040307068164 
-0.04824040307068164 
-0.04824040307068164 
-0.04491103781482431 
-0.06018434208808192 
-0.3244230114307936 
-0.1597733146707402 
-0.01552862827589597 
-0.002173291483345835 
0.1754521574448991 
0.03733115345008373 
0.04501936731865362 
-0.4984517065139110 
-0.1203378102624469 
0.3073229884084528 
0.07443140751879376 
0.03028345894136886 
0.01759345773803132 
-0.2648724693613552 
-0.1788509722710711 
0.04142734659033975 
-0.2295602246058849 
-0.7120547080413859 
-0.2787446135088677 
-0.1830483128506626 
-0.01682337724472468 
-0.2634061266828763 
-0.006179485845833957 
0.05440895064756234 
0.1221402105310069 
0.09972702900735227 
0.03718851509222085 
0.05087463393003944 
0.1175394642897627 
0.08852155235357140 
-0.01217808295648287 
-0.4551399003822034 
-0.4414106803033715 
0.07984273866389355 
0.4796573937462385 
-0.1007825983343519 
0.0006929716403073632 
-0.2469511110091750 
0.03027476534925489 
0.1319413877099563 
-0.1284308668744152 
-0.5103486870858702 
-0.7366365344667993 
-0.3100315953737312 
0.1176304799992868 
0.01399687577430408 
-0.2714602896284165 
-0.03794197674332721 
0.2224130832775454 
0.09980731605172752 
-0.1803296117742225 
0.2282100997093174 
0.01767468764414984 
0.1434398799972877 
0.1397392562476943 
-0.2270055211197427 
0.1003063149531648 
0.3004413879811836 
0.1268564206802038 
0.1771414253518352 
0.05025661254229318 
-0.3465331662192059 
-0.1016565502269029 
-0.6815770067409606 
0.01832029123553375 
0.3867831579444609 
-0.1200709205454499 
-0.1668313790256513 
0 
-0.1665215234149813 
-0.1665215234149813 
0.1892795714263323 
-0.3507010692729124 
-0.1489012560945304 
-0.1813490564495204 
0.1166812079409805 
0.05218451413067123 
-0.06413703070230217 
-0.07894960987151638 
-0.07894960987151638 
-0.1532466340154186 
0.05400034356741799 
-0.05394207140794514 
0.06847987602091954 
0.5369721829425775 
-0.01269690638226131 
0.1058572228543908 
0.01984393351815939 
0.1797846230543942 
-0.0006042671107190376 
0.1297756668028397 
0.04186035390781746 
0.1573365329561680 
-0.01479840723425446 
0.01679786118814840 
0.01679786118814840 
0.06247032479186897 
0.1122546135744670 
-0.2785572389758311 
-0.02860756266597925 
0.01464110061914804 
-0.1493141665205976 
-0.001842827916187570 
0.09495419318069060 
0.2199950431338652 
-0.2685628899761859 
-0.1750657570917686 
0.1253821853584980 
-0.1556348990401438 
0.2634858393077405 
0.3414679588699975 
0.3414679588699975 
0.1296434415506798 
-0.2722465704028138 
0.3598779875411968 
0.07381527256870189 
0.1426627768176922 
-0.2684909257746291 
-0.08438247384374283 
0.08169789126676062 
-0.2987876868073685 
0.2246718211706637 
0.03208436084459734 
-0.4014449791104788 
0.3767690039460594 
0.4572127044346909 
0.09929899010211875 
0.01385018408091927 
0.06812290011263658 
0.2214681784606108 
0.2597287082452451 
0.7437611604922344 
0.2170810424471162 
-0.4014935902076567 
0.01124992209534670 
0.06041989795598241 
0.4606358901229309 
-0.1238681611389383 
0.3334072366343223 
-0.1497323553636633 
-0.2061868702088872 
-0.2650202622615705 
0.1277882065256829 
0.1277882065256829 
-0.3447449611107479 
0.08259302132273197 
-0.09435882460906476 
-0.4096182019483295 
-0.2068176887974609 
0.3326576912384108 
0.07210912758476634 
-0.2933575194262004 
0.02904877295927911 
-0.2179255983971465 
0.1305447677483642 
0.1305447677483642 
0.1305447677483642 
-0.1077649820098867 
0.05533077735238810 
0.06908274589492054 
-0.1110827693455493 
0.1292507143273006 
0.1292507143273006 
0.1061752649105953 
-0.2655895530407425 
-0.01445675818978181 
-0.1887156371972926 
0.1143549195812625 
0.2732385298264459 
0.2661859194424160 
0.06165272509814765 
0.4336954542743249 
0.09652024977318091 
0.006329464934563919 
-0.2459737349914241 
-0.08391155102409370 
-0.2862543388902146 
0.08811045378652539 
-0.06673133567306509 
0.2290998753308230 
-0.04300104612161870 
-0.1477932123552905 
-0.07276203923088138 
0.01746907509142295 
-0.01102187441091861 
-0.02643757434860765 
0.08007861133771481 
0.04081410945773570 
0.06130665052285218 
-0.1651756857775015 
-0.1074894801526816 
0.2328963778376150 
0.3457023938479626 
-0.4138891957697022 
0.01829109148891636 
-0.03096763246757863 
-0.2804226512065846 
0.1169719525849037 
-0.3806733215693460 
0.09267701020112727 
-0.002785978348974658 
0.02646033512717712 
0.2502444704525806 
0.2286688017066770 
0.1169436596783602 
0.003944865056192287 
0.07329039134162259 
0.07329039134162259 
0.1971005677302948 
-0.3833430899834097 
-0.1887700632307691 
-0.04213945804379816 
0.06139748482429220 
0.04858056402514556 
0.1835336118525281 
-0.1407714725174170 
-0.1746773479405664 
0.06446247564752196 
-0.1393646879772485 
0.05017359299088798 
0.05017359299088798 
0.05017359299088798 
0.05017359299088798 
-0.2709194678163265 
-0.1206634122940637 
-0.3635262169231298 
-0.1503168896426989 
-0.1206634122940637 
0.1851656637541668 
0.2660637265684162 
-0.2228460332502997 
0.04176797093840038 
-0.002324051375299088 
-0.3620698293092972 
-0.008115742310326563 
-0.1053798370631227 
0.09335761467837647 
0.2922035680509370 
-0.3785852271530885 
0.03497471842282509 
-0.05177208497039208 
0.1911325578714489 
-0.2980453786938044 
0.2442683776289392 
0.04248298226382255 
0.003429528920530893 
0.2377107324579352 
0 
0.3176794740428374 
0.04280178710833507 
-0.5121668428434352 
0.1029599474632597 
-0.1710705570889614 
-0.1302790787232922 
-0.1401109140196502 
-0.0007615445212924860 
-0.1246882245720948 
-0.04870431204610525 
0.2392047547015004 
0.03398149733358011 
0.08454959739997298 
-0.2774818168299572 
0.1936422709349986 
-0.009696502663380575 
-0.09249715765723067 
0.1842668769627714 
-0.1539845310511684 
0.06188349316306582 
0.2676189314282544 
0.3077387073297572 
0.07914425544379310 
-0.002832493328590070 
0.2514897041401301 
-0.2742120425991388 
-0.05284761635934408 
-0.5588546677962236 
0.1327803557643936 
0.2944902725985835 
0.02345830714747059 
-0.1905181652709773 
0.1434147534852686 
0.09773423669766632 
-0.1160470939915671 
-0.3773633108315632 
0.3466252463133175 
0.08236335436721831 
-0.3487666914637336 
0.3986888888076977 
0.1943710591529385 
0.2285230625705465 
-0.2817688232675986 
-0.2565472183697720 
-0.01592485719434584 
0.003565086942856850 
0.04268102731295160 
0.04268102731295160 
0.07198128549402749 
0.04268102731295160 
-0.09270075776048906 
0.04268102731295160 
0.04268102731295160 
-0.1151854978982094 
0.05149930831386683 
0.03712359543675098 
0.03712359543675098 
0.1226827018250240 
3.169902558974218e-05 
0.1226827018250240 
-0.05779587501189460 
-0.04296576352626759 
0.4081355723115879 
0.1646184207213458 
0.1007994364248621 
-0.2561637236330159 
0.04805109608153167 
0.1959063941095507 
-0.09586855667266121 
0 
-0.2134367785980489 
0.05084161165279726 
0.2873979737284238 
0.1067082424450303 
-0.02066117116081408 
0.6006563258696738 
0.5774819835173902 
0.03206281671860747 
-0.01894367596624875 
0.03777038291618685 
0.01469115056077763 
-0.02551504558667120 
0.01031950110418683 
-0.02771959163634751 
0.02300607953461129 
-0.06761073099553642 
0.3334547199835076 
0.2194045894251580 
-0.1236152885942966 
-0.1021100031147767 
-0.2502542615961367 
0.2464762335175729 
0.09389711222570334 
-0.09215233638607528 
-0.5227167805475759 
0.02568031142321370 
0.03840212523150766 
-0.1708890611797802 
-0.5001355665118892 
0.1848126866170726 
0.4476879088254526 
0.06501769692798708 
0.1783526016368007 
-0.1362677465606597 
-0.09559271714359123 
-0.5858877771205966 
-0.4530078399141552 
-0.05339084928666224 
0.4053550661129426 
0.01546528795847757 
0.09266639461305379 
0.09747041650985969 
0.02178443705902800 
-0.1380455701671978 
0.01636664235629864 
-0.02203879071182646 
0.06981957010996238 
0.06981957010996238 
0.1512025628979799 
0.2075874661774844 
0.1377266314876467 
-0.3109714576385305 
-0.1806535879170671 
-0.005036894683080420 
-0.1957342181633124 
0.04857578034509993 
0.2519515008921255 
-0.1333719373213630 
0.2384082815012352 
0.3061081667685754 
-0.05152968938816634 
-0.05152968938816634 
-0.2320948601044084 
-0.1939137367195832 
0.1724453212330190 
0.1858453973107622 
0.04371631161780754 
0.1383259955874341 
0.1383259955874341 
-0.4839551300804341 
0.1000282683406565 
0.04136499328754804 
0.04136499328754804 
0.04136499328754804 
0.04136499328754804 
-0.07431059450437072 
0.04136499328754804 
-0.07785092288272084 
-0.05198782208654075 
0.1174968437433744 
0.1241665834920083 
-0.08726922202499560 
-0.1148057223143193 
-0.02732826435821606 
-0.04832476454049638 
0.2173825808897545 
0.3811034397771489 
-0.05866140613954153 
-0.07003315257182709 
0.01378732126001028 
0.08344196966170807 
-0.1178829039095507 
0.04151722209436964 
0 
0.2943800142913937 
0.07536463478509701 
0.1348480981439006 
-0.04786274120827504 
0.09622571495596242 
0.01277095931427028 
0.1883434815003167 
0.1883434815003167 
0.1883434815003167 
0.08527904021304010 
0.004449012604637891 
-0.006117056261666174 
-0.05717510769395297 
0.1723185690379944 
0.2344758883784926 
0 
0.1167837195281938 
0.1239106842875331 
0.03790438606999354 
-0.09974093511247856 
-0.005075021190138356 
0.005132096335636568 
0 
0.004801506942297472 
0.004801506942297472 
-0.1937520353917843 
-0.02361296599717087 
-0.05069966521355467 
0.2066040307454796 
-0.1130617073548320 
0.2096341321967292 
-0.1731205785916383 
-0.06160548661188540 
-0.1243433844269063 
-0.07264387242313954 
0.1017934421106700 
0.2867247478074006 
-0.005075021190138356 
0.2182054075457943 
0.2138461636858870 
0.04703415178445494 
0.3222787218993441 
0.4274365465761260 
0.2764937951608236 
0.1143591610464878 
0.1143591610464878 
0.1143591610464878 
0.2901361417633827 
-0.05613612753647607 
-0.05488329740442940 
-0.3228188821409258 
-0.08235527321077016 
-0.1058978387071388 
-0.1532554815910676 
-0.003244920440509572 
-0.05635851028843345 
0.2317489093377736 
-0.007398617995684611 
0.1904462112270805 
0.1950094860274591 
-0.1330579987774005 
0.07598583204856565 
-0.06506355287036380 
0.1447634448978653 
0.01214474397479029 
-0.06075548708671891 
0.007154760603355140 
0.3554565683038626 
0.03146671990641980 
0.04356740392097182 
-0.02659227519313972 
0.07506465178350064 
-0.1201752123890372 
-0.1380647409046065 
-0.2872362562635619 
-0.1347547354732728 
-0.09638232487731813 
0.2995578717036971 
-0.2629532053909886 
0.5805745531917317 
-0.4543817762321463 
0.02012188866427269 
0.01268898149265107 
-0.008685085942153364 
-0.1984221576924997 
-0.07495041653041760 
-0.2607461068070701 
0.01571672492839952 
-0.2548251603722206 
0.2342588337852089 
-0.2287376791864892 
0.05188696762031582 
-0.1138292040997587 
0.3779309833043369 
0.05819909943681199 
0.2800009433910490 
0.1998849935939947 
0.01725465934573696 
-0.1351871075070759 
0.008562179429483232 
-0.2942943966479067 
0.3265940583552316 
0.1232332476090784 
0.06934328459547912 
0.1173084023107283 
-0.03184731696417513 
0.05166010201651889 
0.08841089368989886 
0.05222314932835182 
-0.03371983599371578 
0.1324136642115550 
-0.2683153481838859 
-0.2735234070496715 
0.1374561631629103 
0.1328116484511128 
0.1209537464699461 
-0.1717710068314249 
0.3317812984772725 
0.008570829955517832 
0.1091763871049058 
-0.008437868918789665 
0.1091763871049058 
-0.1561815818939571 
0.06912885296959789 
0.06912885296959789 
0.04430855775626860 
0.1321857448993792 
0.3015502160076375 
0.3173815177492584 
0.1337102282036378 
0.1337102282036378 
0.007649654734515309 
0.1444894816009164 
0.1954197158178012 
-0.03178520718472971 
-0.1676113242362190 
0.3955043762792951 
0.1074756797393411 
-0.005323849534795682 
0.01085872776020466 
0.01085872776020466 
0.009849152452308094 
-0.3362033879645489 
0.01058747565982303 
0.1179959528549952 
-0.1778662717595116 
0.01407752673405443 
-0.0001153076293876855 
0.04014246713703042 
0.4658134627900289 
0.05990790087128987 
-0.1746793618008376 
0.08189540382407007 
0.08189540382407007 
0.08189540382407007 
0.07398183194875116 
0.1680156973721760 
0.1919437984935660 
0.1919437984935660 
0.1143826627066870 
-0.06799973536756655 
-0.3996845162423517 
0.1251189021604436 
0.03834564673286188 
0.1150230287963477 
0.06093192907700289 
0.02222849353953531 
0.06849724837276791 
-0.03922259565216247 
0.1015084567189212 
-0.1761637469609109 
-0.2585515555140574 
0.05035173811742145 
-0.1065886499640402 
-0.1522699446250985 
0.1317639893278647 
0.1317639893278647 
-0.008763187928191226 
0.08352585088313373 
0.06785547474738142 
0.05147772862017461 
-0.3049223267071342 
-0.07286310591439078 
-0.4289863037446857 
-0.3136757110335794 
-0.3873063305996259 
0.05371327070639695 
0.05371327070639695 
0.03148684039252900 
0.02724894412817894 
-0.1701356551568567 
-0.3474457164954527 
-0.4743703009631558 
-0.1480585345516973 
0.2365507533226271 
-0.2320899627898481 
-0.1190991203513317 
0.08390748818218735 
0.3000525864625885 
0.03879396417270415 
-0.4794780156496695 
0.1236805973064383 
0.1888523374162736 
0.1059895081390926 
-0.05362873988609341 
0.3875042157136344 
0.2536972760843296 
0 
-0.01505909560904222 
0.1036348448896948 
0.1036348448896948 
-0.1585851090672144 
0.2021523571000960 
-0.1435255123170117 
-0.07494276127918055 
0.05995635914439339 
0.2655699320648982 
-0.4395020258426990 
-0.06272521883932852 
-0.04406932892118334 
-0.5663212700328795 
-0.2332863003354057 
-0.1651885308920254 
0.03068051001532091 
0.03068051001532091 
-0.1993265538178927 
0.1518602108706997 
0.1127847837594223 
-0.07752764851350791 
-0.3598971996285219 
0.1209096248226491 
-0.06879783250979504 
-0.1633690329226100 
-0.03112258819210643 
-0.05378081740338233 
0.2051653548793702 
0.006469499656694104 
0.07294424821638684 
-0.3598136595845671 
0.3209721773566981 
-0.5142721872859230 
-0.2232943805302842 
0.1468005265207346 
0.03323921890545940 
0.06567462207257643 
-0.5149822647655329 
-0.1042454119287819 
-0.03798708813725760 
-0.2886112828669017 
-0.09807296413070934 
0.01983744780202348 
0.04219315386161769 
-0.08870664083878038 
-0.0006032743704899409 
-0.02150050215623300 
-0.3452080585699935 
0.03613521589742245 
-0.1091779026472642 
0.1108806078782531 
0.2556063880039156 
0.2347192083312260 
0.08760902903953260 
0.2389392817749728 
-0.04379817339335320 
-0.04379817339335320 
-0.06097561767138928 
0.1441778367973582 
0.06633831900125717 
-0.2414531212521173 
0.1820964515983902 
0.05289710216430200 
0.2163008437013828 
-0.1876533397083781 
-0.1031178019294071 
0.07264930138029331 
-0.03519273394477841 
-0.1138531997958091 
0.1358308802910613 
0.1358308802910613 
0.2063613248770528 
0.2727902813860412 
0.02456327281709970 
-0.4351603782917947 
0.1377516777589552 
-0.01490955426521308 
0.1987919978148174 
-0.2663048079076685 
-0.001951284365323966 
0.5605449428017837 
0.09152995627823977 
-0.1577075896677499 
0 
0.02178377967488362 
0.2765792732611524 
-0.02529361360023948 
0.01937926243317655 
0.02595309125189348 
-0.02057988821364808 
-0.1512062714495221 
-0.2025740610293365 
-0.07702126026175238 
-0.07702126026175238 
-0.01406443524668054 
0.04053095646938054 
-0.4512591232960679 
0.08442530794265693 
0.1694790402677463 
0.02056674156273358 
0.02455722604283344 
-0.4133342585668370 
0.08712338855808080 
0.5599254611269467 
0.09965309649489391 
0.09965309649489391 
-0.2377558727832613 
-0.3111645594586443 
-0.7339728993761460 
-0.1482355924078198 
0.03353093879839434 
0.03353093879839434 
0.1821291940972736 
-0.1194640552999760 
-0.1194640552999760 
0.0003332842311579744 
-0.3384519620331857 
0.5055891939733932 
-0.1379212417723706 
-0.1379212417723706 
-0.1194722865420673 
-0.2016291306241766 
0.01667098038641103 
-0.1474732960851446 
0.04719747449020733 
0.2749453984237941 
-0.005476865200981715 
0.1108803614005372 
-0.1829689848445771 
-0.6560137060367643 
-0.1309972324056871 
0.1976364090408574 
-0.1009786825315130 
0.3715045389808350 
0.01518324513730013 
-0.2498102684480760 
-0.1246439002902973 
-0.08884943250645550 
-0.02649771558023372 
0 
-0.09231689377890673 
0.04917089312910791 
0.04170644048041792 
-0.1793475449467111 
-0.1776503514746798 
0.09638550861023445 
0.09855369568838210 
0.06359870831481952 
-0.1902161781461924 
0.2364884379028059 
0.1355132851266486 
0.2585452041691868 
0.03122819823074293 
0.03122819823074293 
0.2888962857943358 
0.07862738681625275 
0.03122819823074293 
0.1143814316216548 
0.1371521727899758 
-0.1754494790411804 
-0.01102607139503515 
0 
0.01329326495486473 
0.01329326495486473 
0.004612221629763992 
-0.2195399257482952 
0.3580990418465205 
0.2590608039886091 
-0.04976621198527107 
-0.3722259360584050 
-0.03126676996350099 
0.04463712702089201 
0.07862009755796438 
0.07862009755796438 
0 
0.1187452685643484 
0.07923013701676203 
0.05571075107293327 
-0.1183206336636945 
0.3139781834745956 
0.1464384104638563 
-0.1113809868064678 
-0.2670535614794254 
0.1771460780137227 
-0.3235438098627521 
0.02620628472918581 
-0.06716108806921373 
-0.07078480602260889 
-0.06299621370302327 
-0.02136913499110367 
-0.05405001073154778 
-0.08693310124212028 
0.1185087931450697 
0.04731340124591264 
-0.1915130893362119 
0.06858454420123847 
0.02082841286291472 
0.4587307644957496 
0.02179207567855946 
0.05370477312968632 
0.006631710007349162 
-0.1011194923515354 
0.2878941774055883 
-0.04418455622680800 
-0.06678071936678995 
0.02348275880382442 
-0.1018952371700382 
0.1203240251674577 
0.07917185478036498 
-0.06562757108741346 
0.09677835130673064 
0.09677835130673064 
0.09865618644033798 
0.005540232547980029 
0.1776421417384137 
0.1776421417384137 
-0.2180343981351031 
-0.3966908340307719 
0.2884914200956138 
-0.2314797887608946 
0.08809854934131180 
0.2379076184290687 
0.2379076184290687 
0.007996277372825586 
0.1462716796615358 
-0.04179181577679372 
-0.2071582438620155 
0.05465467714322965 
0 
0.3109222626561208 
0.2413942380946081 
0.2413942380946081 
0.1696557248372659 
0.1676309551758541 
0.1105443416219312 
0.05617542014756946 
0 
0.1151250895642282 
0.1490646501455694 
0.1229707767918832 
-0.1061448333682575 
0.06957541730971237 
0.04422483780382572 
0.04674612752326104 
-0.1170487754735946 
-0.01295528957552924 
-0.01295528957552924 
0.1178225910828959 
0.05271657942641138 
0.06553457983797539 
0.2055801040603777 
-0.06467541421938437 
0.2947337925871519 
0.07368054340969407 
0.01860089836131606 
0.01860089836131606 
0.1342759571844300 
-0.07960606812518795 
0.1410646215159613 
-0.1425747842654010 
-0.1432111438930040 
0.03928256876007709 
0.07395612523881234 
0.1603031275141181 
0.1009360259426652 
0.08294866472624297 
0.1009360259426652 
0.03513336993024271 
-0.3720886326350907 
0.1963985439217759 
0.1103658181984900 
0.2147006807741655 
0.09381024485669891 
-0.07209670702914768 
0.007603698978444545 
-0.03296116747401710 
-0.06338798332447017 
-0.2049513298802121 
-0.3517584274294827 
-0.1397827049365054 
-0.2223873045842366 
-0.2068372099477646 
0.02858828177964484 
0.2913269888765724 
-0.2784682683145627 
0.2265327471604413 
0.03906239003243178 
-0.3491537964381622 
0.2364536053096149 
0.2050513450049008 
0.1242878859349565 
0.1681168599969305 
0.2887417369511086 
0 
0.06430190035193517 
0 
-0.1403957487207881 
0.07664939896505343 
0.1794473623794786 
-0.2191152592930802 
0.1112534317236141 
-0.06340256475217332 
0.03532161392837643 
0.1507594357673382 
0.09383399324496519 
0.03251276196005642 
0.2210724569688282 
0.08252618997650128 
-0.06541433709406567 
-0.1393106049146504 
0 
-0.1583547113060283 
0.01551209834753094 
-0.04340305791904813 
-0.001713004388928846 
-0.08625112418583969 
-0.2253392495127002 
-0.1046747654309281 
-0.2668289240580257 
0.1376977130790253 
0.2686848858162452 
-0.1090953450175197 
0.1386281613323216 
-0.05300038486281165 
0.07720157587872822 
0.05347784421077206 
-0.2615081288918280 
-0.02163351894074990 
-0.3900853054316581 
0.1148088945988600 
-0.1921133228461078 
-0.1284694178671739 
0.4582784434511815 
0.05784837953004302 
0.04270083124176268 
-0.04789978263799762 
-0.006607642899855215 
-0.006607642899855215 
0.03070830652987322 
0.04886698756948745 
-0.06132420388670596 
-0.1659549094540006 
0 
0.04753767245593495 
-0.03400303871108763 
0.02717669810504713 
0.3492319166628317 
0.1140179289876437 
0.2268027183323292 
0.2422372130724666 
0.1964707689365330 
0.1964707689365330 
0.1345034083113176 
0.1345034083113176 
0.1192005824606340 
0.08768426994884643 
0.05978042904701787 
0.03585516852308412 
0.03585516852308412 
0.1546440845891880 
0.1546440845891880 
0.2394897336407497 
0.2394897336407497 
0.2287718620417022 
0.2808845392808147 
-0.1434147565751675 
-0.07465852912760547 
-0.4210970464608682 
-0.05736547154917494 
0.0003234720767956244 
-0.3665135355177908 
-0.07174797248933536 
0.1269197916212690 
0.09575765946485942 
0.1792839766955693 
-0.1149732097737163 
-0.1283532439014664 
0.04292926921057501 
0.04292926921057501 
0.04292926921057501 
0.05761713104974304 
0.05761713104974304 
0 
-0.1629816019257751 
0.2119925727177720 
0.2119925727177720 
0.2119925727177720 
0.1881206140273103 
-0.09155438239361045 
-0.05287109823761207 
0.01104646516850101 
0.009962394245168520 
0.06090424865738311 
0.2861854960542631 
0.2861854960542631 
0.2546281395467566 
0.1164714477285959 
-0.02958319446489629 
-0.2945733240835883 
0.04136490195471344 
-0.002085699273868001 
-0.1744628520317378 
0.1990017631543177 
-0.06205202277373456 
-0.2334486959096343 
0.08070359475932950 
-0.2312150594731824 
-0.07115225197207381 
-0.3394828317003021 
0.2523020603555816 
0.09785088498942554 
0.09785088498942554 
0.1210215580946725 
0.09785088498942554 
0.1656135093993569 
0.04038566072419383 
0.1734977741589823 
0.3837016362947915 
0.3837016362947915 
0.2114147352546734 
0.2114147352546734 
0.02770252645597386 
0.06017624681079069 
0.2518121447278262 
0.08362343091917555 
0.1551680312563441 
0.01079171903411211 
-0.09213007162821170 
0.09406562404034428 
0.1785518681592481 
-0.1338129112363125 
-0.02222942694601641 
0.06869972243644776 
0.1439478036167596 
0.08288486960328552 
0.08288486960328552 
0.08288486960328552 
-0.07757939354793926 
0.2754699415948793 
0.08039088357416732 
0.07556154682270827 
-0.06333107796361263 
-0.2608491528624670 
0.1067372273049907 
0.1067372273049907 
0.3265120575604432 
-0.1710241284372060 
-0.06917376203148422 
-0.06917376203148422 
-0.2656150735923975 
-0.01232982096341828 
-0.2743484104183097 
0.1662249996595355 
-0.1176945809748885 
-0.02267002590396613 
0.08268661671059260 
0.03258087972846845 
0.0005036891706348273 
0.03861469563240876 
0.05717697585935166 
0 
-0.2420604034918772 
-0.05577908557085252 
0.1059392653190161 
0.1059392653190161 
-0.008312371954813385 
0.01257870691400892 
0.2686108010860145 
0.1296595570908752 
-0.2886459977621372 
0.07816317161482633 
-0.2621809733266199 
0.01135091071849180 
0.08641466390633730 
0.04690097501084614 
0.05039253977403103 
-0.1667048707343584 
-0.04280708400425669 
0.05706984741235078 
-0.2187762142427697 
-0.08645529092074160 
-0.1356458111145609 
-0.08645529092074160 
0.1780064277730984 
-0.1004188301625416 
0 
0.02728349943058346 
-0.1520095418332434 
0.04120728697754347 
0.02618861984734022 
0.01974165383367847 
0.006253019238617348 
-0.01847706403088629 
0.1204496793179303 
0.03763794149266247 
-0.02389734965978389 
0.04840309214080278 
-0.03162895027587145 
-0.4077120336488058 
0.01849709698502705 
0.1755728639106917 
-0.1279114768928916 
0.4728950968787377 
0.1144395832793441 
0.02261509753242653 
0.4196956218010254 
0.06159686421414826 
-0.6501794442263353 
0.3420780717605625 
0.1302048280927415 
0.09349515943029081 
0.09349515943029081 
0.1324605237990417 
-0.2938734618584953 
-0.02961404809672497 
-0.02961404809672497 
0.03220248361720949 
0.03220248361720949 
-0.1655628376893469 
-0.04992310267902672 
0.02502975567260721 
0.06838227480952506 
-0.06790348582429995 
-0.1087294842086395 
0.2478338574346565 
0.2020842665124497 
0.1359731163353883 
0.01282572626631925 
0.1606913443385895 
0.02268263558154622 
-0.3701697087722611 
0.06075643822177754 
0.02781663678397823 
0.01666117343768506 
-0.01151971301474094 
7.372554567754596e-05 
0.08636339586883700 
-0.5872142209074462 
-0.3677485556241459 
0.5534088291180844 
-0.08754829691079105 
-0.1562514167261591 
0.04364121043149857 
0.003137554212121132 
0.09620938573861142 
-0.1276787645846227 
-0.2744921643383632 
0.1413684728598142 
-0.01963697478872024 
0.01355636275025312 
-0.1237275361153064 
0.1152764923940933 
-0.2214894603221440 
-0.08404165656652529 
0.0001198798008705260 
0.07432516687808771 
0.05975049871271694 
0.07060279609936757 
-0.07724161785422873 
0.01548196820867722 
-0.2331319347153136 
-0.03156384360917817 
0.08373727824061190 
0.01780961842355950 
-0.03206434419981552 
0.07119707748917123 
0.04627362609279801 
-0.1003581593785398 
-0.2609357678630130 
-0.1591289111792167 
-0.1261279024361713 
0.2726060246733284 
-0.05521531236064485 
0.3135838593965412 
-0.04740413804771275 
-0.07935749046568200 
-0.3185743254263929 
0.01308114123843538 
0.1105106897465907 
-0.01074324588321068 
0.01982986253320838 
0.02937554230578127 
-0.2567304253569991 
0.02937554230578127 
0.02992921878659715 
0.01749446312735913 
0.02629878009345420 
0.1190065277055756 
0.1190065277055756 
0.1190065277055756 
0.1190065277055756 
-0.09992444227208278 
0.01797315038296782 
-0.02268593680261657 
-0.02268593680261657 
0.01247699314771251 
0 
0.003789581495058300 
0.09581862566794337 
-0.3154376219710512 
0.09581862566794337 
0.09581862566794337 
0.2731045564027088 
0.1149796431998486 
0.08427535049810830 
0.1303932253080005 
0.1303932253080005 
0.1303932253080005 
0.1303932253080005 
-0.2629582740944486 
0.2732325014331333 
-0.2291565096203880 
-0.1047286113504156 
0 
0.08729424502379528 
-0.05011690693056101 
0.1246640061192070 
0.3482383618914595 
0.06832150901238039 
-0.02402402166401526 
-0.07398315496958105 
0.1881420250415305 
0.03751475620357597 
0.05581426824076236 
-0.1116893736447190 
0.005164615269019291 
0.005164615269019291 
0.2041538130949391 
0.1328793536383540 
0.1892682774665603 
0.3379532682198416 
0.1916895319352347 
0.07843821147762688 
0.1097715404085689 
0.08454079710061324 
0.02925904544960306 
-0.2889898428714385 
0.1520908753752731 
0.06027729232475836 
0.06027729232475836 
0.07629178164434512 
0.1171049697381971 
0.04971880137868998 
-0.04579010650562619 
0.2063428524016899 
0.02516557449653906 
-0.1662756441748756 
0.001532051908106797 
0.001532051908106797 
0.001532051908106797 
-0.1929520115249644 
0.06431064306962360 
0.1992010111129598 
0.01750668453724781 
0.04896766559945208 
-0.03234392185969752 
0.1124014841269588 
0.1124014841269588 
0 
-0.07943497210415756 
-0.05182290819064737 
-0.1311979573433163 
-0.04218311746503054 
0.01818837962329752 
0.01095271771551166 
-0.3105696904995657 
-0.07918399725796435 
-0.2676031915492345 
0.1223611853781268 
0.007432907171621630 
0.1565722832328511 
0.007432907171621630 
0.007432907171621630 
0.1720931005800885 
-0.1948293296601484 
0.1569768593153599 
0 
0.3119678381190406 
0.03468305405857663 
0.2175792832038695 
0.004806431015961295 
-0.4331040940900943 
0.2086503800054017 
0 
-0.1987373140886021 
0.007157485962018013 
0.02457464655408731 
0.02767683563369972 
-0.2847927013040244 
0.05978247780798444 
0.1027306681176441 
-0.4495840058915209 
-0.09178394226744285 
-0.09802925792759071 
0.01491984677853246 
0.01491984677853246 
0.01491984677853246 
0.01491984677853246 
0.01491984677853246 
0.2164104457444961 
0.03064692389474210 
0.1688200324911394 
0.01321979857222860 
0.06061898715773839 
0.03829856053852095 
0.09412066268485692 
-0.02181374237871927 
0.02507876196629236 
0.02957285391556449 
0.03060699805400009 
0.1752969155213479 
-0.1002129040463517 
-0.1060848529076902 
-0.1722661295897588 
0 
-0.07492967954142446 
0.03751139898871046 
0.1351228154984813 
0.03896963363042028 
0.02318372206224664 
0.02286071617636474 
0.09861475463412908 
-0.001598149412222645 
0.04081629469715998 
0.09075213523241084 
0.07854280136133855 
0 
0.08846536667994237 
0.1412149965838981 
0.1795830961608570 
0.2160159948749527 
0.3670035620512954 
0.2803933353577012 
0.3488004972221238 
0.3939874689472240 
0.004597651744690297 
0.004597651744690297 
0.09940166394247403 
0.07007911644387825 
0.07007911644387825 
0.07007911644387825 
0.06911513916213509 
0.06911513916213509 
0.06911513916213509 
0.02680761602209270 
0.02982602278412999 
0.1263357148795956 
0.07208483237894242 
0.2010380562977166 
0.1786669614336633 
-0.3319422139429238 
-0.09587117534851952 
0.05976739120783813 
0.07797176582160209 
0.07797176582160209 
-0.01227468949581454 
-0.1414896533751447 
0.07797176582160209 
0.07797176582160209 
0.02553790381329409 
-0.03689215775632443 
0.07797176582160209 
0.07797176582160209 
0.07797176582160209 
0.05204368076194772 
0.06625891071343740 
0.06649154578204580 
0.1011883786340025 
0.09075768983273795 
-0.2077337568095907 
-0.2520423410158029 
0.06766727259030156 
0.06275028427616774 
0.2942685656822199 
0.08516637653409827 
-0.03503362097980574 
0.09250510677725024 
-0.1159626673274519 
0.01715381727116723 
0.1570757669256647 
0.1570757669256647 
-0.1351111482659649 
0.1119063833290025 
0.01885753182414105 
-0.1027979634144253 
-0.1027979634144253 
0.06384985729897308 
0.1390153092985526 
0.1585052534357553 
0.09396899444592624 
0.001269818594382522 
-0.1842685484685062 
0.2237850839856875 
0.2237850839856875 
0.2978781073420658 
0.06879338553047320 
-0.0002252758857287460 
0.5621619922128734 
0.02880790361147365 
-0.07257372459916040 
-0.07257372459916040 
0.1963812255525791 
0.08711534552028725 
-0.4840222514686686 
-0.03673999184406303 
-0.08638638555852478 
0.2001918705705950 
0.002899841725611073 
0 
0.05861347853454508 
-0.03213501435366186 
-0.03673999184406303 
-0.03673999184406303 
-0.2292401430025409 
-0.4069393296887682 
-0.1617001744614738 
0.2388401746766891 
-0.06255022492157304 
0.03726241464747177 
-0.2176775110629140 
-0.5914162578981564 
0.04057087365688052 
0.05071810668734324 
-0.1160897401067611 
0 
-0.2056477874807681 
0.1238029247902156 
0.1297098075391207 
0.1554317714860821 
-0.02326669517836221 
-0.4965299805991996 
0.03780784943701365 
-0.04038290967403767 
0.01502023381784155 
-0.05094344112063057 
0.2716852870626495 
-0.01122340127753406 
0.009090014948320600 
0 
-0.03447923190172227 
0.1168509647386888 
0.1891240790004251 
0.03236706250540977 
0.1814037590759411 
-0.01415956440491720 
0.04430858420621208 
0.04430858420621208 
0.08316132877948030 
0.1621356554488657 
-0.2838031373784933 
0.04529854297142157 
0.04529854297142157 
-0.09624543247227592 
-0.01879808329546745 
-0.01879808329546745 
-0.09360542347803062 
-0.07758991742031189 
-0.1229964985241581 
-0.2926096519081701 
0.006110340974317475 
-0.09730472762904180 
0.006110340974317475 
0.2644725257526788 
0.2644725257526788 
-0.2128096752306297 
0.1254052872406162 
0.03441335563503616 
-0.06699690440845497 
0.06977500927479648 
0.1296945757595618 
-0.03485711285921463 
0.03165121176866772 
0.06462114646615452 
0.04042525383179488 
-0.1149187872341007 
-0.3367912955104004 
-0.1173395342507386 
0.1742345892415346 
0.1834069090874315 
0.02733220194629051 
0.01714049197749466 
0.2494626607943908 
0.1641633234773251 
0.1641633234773251 
0.1291394769765805 
0.01297342122312026 
0.03729054218942780 
0.07338066930598015 
-0.1298474355360161 
0.07338066930598015 
0.07338066930598015 
0.07338066930598015 
-0.01156064910286922 
0 
-0.001435515036268542 
-0.001435515036268542 
0.1508622524924975 
-0.1427721720889474 
-0.5250080118586392 
0.05802262941537157 
0.08402989980226058 
-0.2699401278421029 
0.06135373795594381 
0.02648026747814951 
0.2339622146233774 
0.2170146728493899 
-0.1990282115251882 
0.006903644424182454 
-0.02606608899648738 
-0.1514504555753863 
0.006903644424182454 
0.1941575289174529 
0.03285638024695819 
-0.02918574885702008 
0.04243992410759355 
0.1562680310122793 
0.1462365187843781 
-0.02053336676134765 
-0.4013402035175581 
0.2155211470994881 
0.1636948397008721 
-0.2679919346199846 
0.1710545338353003 
-0.1251498288596089 
0 
-0.1570396063630762 
-0.1643701591378260 
-0.2947773504129334 
-0.07497356282724925 
0 
0.08175208079843675 
0.1367601081086589 
0.1367601081086589 
0.05838300505403600 
0.1141208004255447 
0.09702341961445062 
0.05678520649260443 
-0.1031273824732871 
-0.07837710305462281 
-0.1352979439697301 
-0.1227933097811364 
-0.02611664252021298 
-0.04751830842548475 
-0.01007641088921290 
0.01753835909117543 
0.09772480978925739 
0.01382624473587814 
0.03840158855369445 
0.008521675735648004 
0.008521675735648004 
-0.04457191912562145 
0.1675313431227701 
0.02918658414947936 
-0.05809045212379357 
0.04894041826716530 
0.04876546556711643 
0.02239815103753899 
0.04414860442592754 
-0.1967119932930673 
0.1053866647111016 
0.08997950943216336 
0.1616168075503257 
0.1089179358321514 
-0.08005552337406148 
0.02166542314541951 
0.02166542314541951 
-0.01519907528100783 
0.02854984493557512 
0.1104576400455942 
0.1104576400455942 
0.2271673495000018 
0 
0.2066065505676603 
0.2066065505676603 
-0.02093197787200775 
-0.2261318564798290 
0.05890207376459387 
0.1477011804329625 
0.07453623509763371 
0.05145355352365483 
-0.03099168154463189 
0.02384196361592861 
-0.1299560002547965 
-0.01780736820687251 
-0.04329029381954752 
-0.02302910447068849 
0.03699795317853710 
-0.1452061044753358 
0.01003331395902787 
-0.1369508290085982 
-0.003621380143092568 
0.01003331395902787 
-0.05274888384716150 
-0.06265849242638502 
-0.2745079563979863 
-0.04873093825300630 
0.1635103672966181 
-0.2184383127846599 
-0.08739271660795542 
0.02252853109427440 
0.08171041121393871 
-0.04252090553547790 
0.2126473827052817 
0.08726368624371696 
0.1021918693800346 
0.4344330802875550 
0.4747359434304098 
0.3477921278384620 
0.2915759377123117 
0.3131231909375813 
0.3247544165959909 
-0.3101078449540198 
0.01699155167399623 
-0.02091144516849615 
-0.1069066063509583 
0 
-0.008670517084906392 
0.002328529179590082 
0.1917939076693206 
0 
0.04952757346857425 
-0.004546190503286169 
0.08393418279869092 
0.03839452331712223 
-0.06259296786934007 
0.006505438724051347 
0.05361097620123081 
-0.03293103735965416 
-0.1617930845355704 
-0.2031571767906587 
0.01028817242381861 
-0.4567936723298394 
0.004665220566638937 
-0.1502384747057623 
-0.1502384747057623 
0.06005541722578672 
0.1856916913976680 
0.1856916913976680 
0.03129796815908546 
0.06917859148860536 
0.1189775996193970 
0.04895593112706246 
0.01292999216659990 
0.01292999216659990 
0.01247105744560502 
0.01292999216659990 
-0.05953981984499993 
-0.3454037080177435 
0.05355927026196753 
-0.06710491166263464 
-0.3440245326110842 
0.02012439955808145 
-0.06207128247303449 
0.08989249215063308 
-0.09900421118318872 
0.06657517152219625 
0.07956989152310102 
0.03141046727759881 
0.1102536396723265 
0.08989249215063308 
0.1136953431827069 
0.1847294415209761 
0.1717661539493493 
-0.2143038929878553 
0.01909808376348567 
0.02313063053585161 
0.009240373208920183 
-0.05492507893142677 
0.009240373208920183 
0.009240373208920183 
0.1522947276807471 
-0.4780516745088415 
0.1302561458188536 
0.08550591659966560 
-0.1743060044445008 
0.07178373975574476 
0.05927512380451591 
-0.2108395127801044 
0.08964818039285900 
0.08964818039285900 
0.1165701028712370 
-0.02001161973982094 
0 
0.3361682315689244 
-0.07129029652808201 
0 
0.02886905023695385 
-0.3106135582508144 
-0.1257171687351201 
-0.08728326335757493 
0 
-0.1182098459503139 
0.04345304382433207 
-0.1215481450027482 
-0.01174985718761464 
-0.1256367739326825 
-0.4183521610371369 
-0.05033146258773481 
0.006591643507474191 
-0.1040800021120667 
-0.2659158582981796 
-0.06010909366266899 
0.1148603378197437 
-0.3395773148791515 
0.09692193598898535 
-0.01179710076652668 
0.04566060082649140 
-0.08561369497888352 
-0.02187074332234104 
0.04566060082649140 
0.04566060082649140 
-0.08269342356704973 
-0.1031495408392977 
0.2599202281366206 
-0.02547911139265685 
-0.05745770159301806 
-0.2259143552462454 
-0.02243350667384032 
-0.9247051007856194 
0.05856546297499549 
0.05856546297499549 
-0.3434660319331063 
-0.03078952176092667 
-0.03078952176092667 
0.2249270497604563 
0.2096171068493956 
-0.03385301680858895 
0.1265312719851296 
-0.2289150983743785 
-0.1790454425869744 
-0.2273571798125892 
-0.1264774909617392 
-0.1935674999260891 
-0.2866116685854993 
-0.2939853907169572 
-0.2165101174962076 
-0.2046219825193446 
0.1295165652478127 
0.2025081664938939 
0.05301736265838147 
-0.1998475975993462 
0.2437922701751029 
0.06880807838134500 
0.1424404075204013 
0.1393154466395338 
-0.2122771168441475 
0.02953755554247492 
-0.04324751046864380 
0.04823858765617512 
0.03924925751957848 
0.03924925751957848 
0.01370414137398909 
0.01370414137398909 
-0.1412416634733387 
-0.1353202990728169 
-0.1353202990728169 
0 
0.09061783360211850 
-0.07067509488861090 
-0.08655771496367703 
0.03854589294464422 
0.03367603775499790 
0.09697511565454055 
-0.06434234091988847 
0.01624804630108313 
0.06969576956793706 
0.1044719387243435 
0.02696050287056857 
0.03477616915640643 
0.07504225068198500 
0.06749763061811641 
0.02460137083474938 
-0.1099410074173894 
-0.1943199733529265 
-0.1036655001363952 
0.01363051031074456 
-0.01161427896497361 
0.1392788934969263 
-0.3589037315607888 
-0.05286875154881018 
0.1467439550013104 
0.4363483885217697 
-0.1142786292936961 
-0.02637915079560987 
0 
0 
0.01533145344439545 
-0.1604864061630885 
-0.1814693594193108 
-0.006035230796932661 
-0.1604864061630885 
-0.3260131232030301 
-0.2135152327638475 
-0.09948687399070894 
-0.07218691599285175 
0.06649095012560921 
-0.07892487912806040 
-0.08640301424738542 
-0.1543421313951782 
0.06753217274444870 
0.1845823173916543 
0.06753217274444870 
0.04247346915909019 
0.01382944567180351 
0.04698962880902084 
0.06569100483582353 
-0.2198578838555411 
0.1089574352132745 
0.05470828579478908 
0.05470828579478908 
0 
0.05703974850365964 
-0.02863698182052558 
-0.2577412239579723 
0.07892400454883340 
0.1548338374456037 
0.09578446162216955 
-0.2090962583917934 
0.09578446162216955 
0.05712924687885346 
-0.1997414911438352 
-0.2568707380226885 
0.07579416899694294 
-0.2034898124721800 
0.05723699998828190 
-0.1180919276699951 
-0.003632779339423665 
0.2460983561738764 
-0.08398089867450194 
-0.05208117656428785 
-0.003397675219013463 
0.2581597374160680 
0.01248497326910328 
0.01248497326910328 
-0.07313747851669088 
0.05540806081610245 
-0.1643391388286074 
-0.1643391388286074 
0.03085904877280381 
0.04476530477816228 
-0.01917454168424216 
0.04371513153188580 
-0.3044733666803360 
0 
0 
0.08907032894146533 
0.009270342320379724 
0.08907032894146533 
0.06743044551642100 
0.09280870591350368 
-0.01937971903315270 
0.03505392101746307 
0.05993106053667144 
0.05993106053667144 
-0.1756809117375139 
0.03347880009902200 
-0.09066384935812069 
0.01112127398730518 
0.02114055176641404 
0.04304498982999203 
-0.1527595246832101 
-0.1924853303148719 
0.2407763060734279 
0.2682453984244051 
0.2276038649241204 
0.07210911284019976 
0.07210911284019976 
-0.06331888533119287 
-0.1486131947196397 
0.06837593628464092 
0.1095387703909821 
0.04207458846106019 
-0.04867128851807123 
0.07919250759007970 
0.07919250759007970 
0.07919250759007970 
0.07919250759007970 
0.03914789776113303 
0.03914789776113303 
-0.01535705776797409 
0.02149279832904313 
-0.1899987313371560 
0.1304891960959715 
-0.1217665901367358 
-0.03221147242070555 
0.1079683961136064 
0.07222777588754979 
0.02696300103640206 
0.09568952808296226 
-0.1493986927124222 
0.05394429525589912 
-0.006344770187438412 
-0.006344770187438412 
0.2957465450661145 
0.01604307919041433 
-0.05459739727048222 
0.2557992550538144 
0.2134569910394149 
0.07323650686633665 
0.04919085300748152 
0.3329055871904968 
-0.002944290156703782 
0.03530079172281286 
0.1331297256280119 
0.1331297256280119 
0.1331297256280119 
0.007807936908562688 
0.08710553218437792 
0.007807936908562688 
-0.08839328308347255 
0.007807936908562688 
-0.07797564776521691 
-0.07797564776521691 
0.1624469714040757 
0.1381847903579099 
0.1381847903579099 
-0.5366349747172116 
0.09125932616535169 
0.1172336331017233 
0.1172336331017233 
0.02933163500540884 
0.1221867056793259 
-0.07935057563751435 
0.1986987638523143 
-0.07103857975654623 
0.01066990141068176 
0.02860389444023233 
0.02860389444023233 
0.04739918858550977 
0.04739918858550977 
0.2359580535759672 
-0.1529957285744785 
0.01689530861414172 
0.03092033871978292 
0.0005454071484495282 
0.0005454071484495282 
0.007460607531621727 
-0.1701897439430582 
0.006741127943451484 
0.2093527435051107 
0.1179447353460396 
0.01744983680535494 
-0.04647538115042612 
0.1137696218653354 
0.002261282615310971 
0 
0.1966791839483519 
-0.1445009066587241 
-0.06364850798531976 
-0.1110700333433698 
-0.06417519851622729 
-0.6123412753969288 
0.06988396886556056 
-0.08184496686140566 
0.003183694482191291 
0.02549285397070720 
0.01074534629287849 
0.03754907167410761 
0.03754907167410761 
0.06708105767812580 
0.07017145370157869 
0.02711622220138021 
0.02711622220138021 
-0.01490875198803989 
0 
0.02544585946080798 
0.01940656978256501 
0.09234971047924216 
0.02338457452925079 
0.1276441468582800 
0.1703454526090055 
-0.1185888114105944 
-0.07673112291399026 
-0.1726467748070013 
-0.04442652877331076 
-0.3155981105940781 
-0.008996432959451638 
0.2214792976112410 
0.07781588946312028 
0.07781588946312028 
0.01267055543110556 
0.01267055543110556 
0.1028069846656155 
0.1028069846656155 
0.1582125842094196 
0.05439244428867369 
0.05439244428867369 
0.01911121402231083 
0.02684693823810919 
-0.1563169401413646 
0.01573133268061189 
-0.04488685347017705 
0.1437361925981484 
0.03193876966233375 
-0.4163015026867432 
0.04994586373002514 
-0.1273440495473791 
0.1084959843773053 
-0.06079249490601545 
0.1436634081481209 
-0.1634723432758361 
-0.2351528327262443 
0.2036367750394318 
0.03935854201336549 
-0.1677996184736463 
-0.2033429879683213 
0.1193670061863865 
-0.01195750475345885 
0.2683276285271077 
0.1731296126245213 
0.07215076721709693 
0.07215076721709693 
0.1303405461858005 
0.1303405461858005 
-0.05749327357174671 
0.1085967128306069 
-0.4931902893288745 
0.003433405730510181 
0.1047179510585476 
-0.01684544320371362 
-0.3023598076818893 
-0.2013084666715934 
0.03375739691818403 
0.03375739691818403 
0.2325856165799949 
0.09736665112255380 
0.1129742545179316 
-0.1818332097532396 
0.04163478811265167 
0.1482619103187930 
0.06395208207345981 
-0.04068551000310995 
0.02435563713840210 
0.02435563713840210 
0.02435563713840210 
0.02435563713840210 
0.1102776178866989 
0.2860266651419081 
0.1061798495049614 
-0.1618168176823197 
-0.08789850809550365 
0.04136409225508837 
-0.03864347602740857 
0.03602318248750620 
-0.2276648232268254 
0.0005705087034323237 
0.07563516512648730 
0.07563516512648730 
-0.1157566931427467 
-0.04018452627387188 
-0.01543147100880960 
-0.04059517157632158 
-0.03801307265647092 
-0.3677025090868863 
0.01964788716724634 
-0.04570807680870342 
-0.1025278183066683 
-0.1129984334112411 
0.06746418192992194 
0.05182379772306302 
-0.2833379386364620 
-0.2833379386364620 
-0.1081633964322635 
-0.1081633964322635 
0.02594164688902632 
0.02594164688902632 
-0.04402782161369115 
-0.4158019507935371 
0.01399175238624814 
-0.3541473393467562 
-0.1603769802439473 
-0.2025380212445775 
-0.1258668445473124 
-0.2437242088673599 
-0.4498312749732678 
-0.1927796202857710 
0.3285577403302636 
0.3030178780926769 
-0.1976605925734961 
-0.1408706600833774 
-0.2255095090399482 
-0.2763583596849576 
-0.1504915151376450 
-0.06401825075844973 
0.03454814619083951 
-0.005115636929069471 
0.07212648247402642 
0.07212648247402642 
0.07212648247402642 
0.03114708777605342 
-0.06444518197610302 
0.09907250338303637 
0.09907250338303637 
-0.008359500441615878 
-0.006133033078207575 
-0.09275939847432559 
-0.02558225212122670 
0.002226467363408306 
0.002226467363408306 
0.002226467363408306 
0.002884490969994329 
-0.06220030296387307 
-0.01157188533023836 
0.03817498907999910 
0.03817498907999910 
-0.02163988342504436 
0.1320354121685647 
-0.1015264966312848 
0.1033787163428371 
0.1033787163428371 
0.1033787163428371 
0.1033787163428371 
0.1323127244209702 
0.06064863991794885 
0.06064863991794885 
0.06064863991794885 
0.09238731165449290 
0.06334367554024220 
-0.3793872287400072 
0.08849368960808106 
0.1170501446472057 
0.01564718886164554 
0.01447953245350158 
0.04509685465441184 
0.07690484243761571 
0.03517157804757276 
0.02766368959320215 
0.08249133058130077 
-0.2549306950415961 
0.003633396520781513 
0.1705750713347868 
-0.1687526652299798 
-0.04246791919948468 
-0.009778150232224506 
-0.04821870777614710 
-0.04821870777614710 
0.02417769373609870 
0.07854586219855215 
0.06580201565578088 
0.06580201565578088 
0.06580201565578088 
0.06580201565578088 
0.02214416802862491 
0 
0.1615536283692255 
0.01279604821669129 
0.01279604821669129 
-0.5265314346215294 
-0.09170418609195059 
0.07022051082263800 
-0.001008267679155218 
-0.04505835065833517 
-0.05192560259155320 
-0.001713004388928846 
-0.01681640251656526 
-0.03975970945344291 
-0.1058800676906250 
0.1953028779354058 
0.01504882201629004 
0.2480667740351572 
-0.1441495439864620 
-0.2110946859256270 
-0.04559669795718140 
0.1544407184394754 
-0.003168855274855546 
-0.2070756554758480 
-0.04701284797473925 
0.03302998217406222 
-0.2614330180659368 
0.05753704555303132 
0.04996358425170328 
0.02801423914871523 
-0.1002559179345976 
-0.1175512128865149 
-0.1508048832473273 
-0.1457233142552694 
0.1965274369658700 
0.09153545809798633 
-0.2660600409486606 
-0.3015290976054768 
-0.3082337009130265 
-0.01270175848704514 
-0.005717656305779226 
-0.09075366668148847 
-0.1553245434193299 
0.1241229495482440 
-0.6738346138132490 
0.07485039648869478 
0.1312235273973262 
-0.4571951435449839 
0 
0.01397902479375931 
0.04747435435366171 
-0.2313255474861436 
0.02839596315992096 
0.04554754203515229 
0.01561390309956301 
-0.06329247901084945 
0.02161573179672230 
0.02161573179672230 
-0.03997623840197716 
0.3531452415768956 
-0.1790114868382624 
-0.1790114868382624 
0.08875198276327922 
-0.02166812950696142 
-0.1276862496706920 
0.1102078703091926 
0.05569857650460915 
0.01390480204824745 
-0.06894915341684657 
-0.09054372477665817 
-0.05701189174333640 
-0.1197038777752793 
0.1075513787057034 
0.1075513787057034 
-0.01431443696986500 
0.04579113855696045 
-0.03651216983332051 
-0.1852328169448347 
-0.3351787606382261 
0.1497458642496478 
0.2673087706105684 
-0.1118525510576637 
0.1642780213289632 
0.05776257858799511 
0.2890286157053782 
0.1642780213289632 
-0.2146557844163395 
0.1316119590315942 
-0.08110364601163580 
-0.03700028387369368 
0.04402806770253209 
0.04402806770253209 
0.04402806770253209 
-0.04516051957952199 
0.02183945073436453 
0.04167525918147595 
-0.1192628771294198 
0.08723370163672269 
0 
-0.03223606237220546 
0 
0.04385153893620662 
0.1163099148703223 
-0.06300314329123790 
0.07409530724177099 
-0.2443020988362409 
-0.2443020988362409 
-0.2290712869259727 
-0.09924086624202326 
-0.009438575204783417 
-0.009438575204783417 
-0.1192632495170138 
-0.3102588497263492 
-0.2162545177497069 
0.02037936223025853 
-0.06063331642872721 
0.07607408027956486 
-0.1359998971173639 
-0.1509769587956934 
-0.1127814063907651 
-0.1127814063907651 
-0.01266268349672779 
0.1908923182170597 
-0.6972600383721281 
0.1371153232245322 
0.08453033454934203 
-0.1220860294701140 
-0.07927826093618467 
-0.02984540356587334 
0.004612839826935552 
-0.3449998462946279 
-0.1016666223607015 
-0.1016666223607015 
-0.1646792466230643 
0.3060324019325442 
0.1085486756833870 
0.2274754161104859 
0.2274754161104859 
0.2274754161104859 
-0.001712564406869820 
0.1594198132263974 
0.1537069160657702 
0.08134293819167342 
0.03048191108343163 
0.001792544006578883 
0.1498575405144424 
0.1498575405144424 
0.007555036566200024 
0.1036191324019118 
0.06986331031925860 
0 
0.001235609988931739 
0.001235609988931739 
-0.08020709421103574 
-0.1423025039482424 
-0.1423025039482424 
-0.2122039869185673 
0.05985530024353851 
-0.1322009153860194 
-0.1367132002342406 
-0.04471648077017179 
-0.02623259667180818 
0.05985530024353851 
0.05985530024353851 
-0.3927968462867655 
0 
0.05355566133911986 
0.05355566133911986 
-0.02592193989289660 
0 
0.1042342956476047 
-0.2597215106460646 
-0.08908376757590619 
-0.01562759429474509 
0.1809421039887947 
0.001150897594730714 
0.04932670494378413 
0.01013879437152100 
0.09824546501375292 
0.09824546501375292 
0.09824546501375292 
0.01668235714949115 
0.01668235714949115 
-0.4499809512234061 
-0.03893119538395355 
0.01841139144729352 
0.01841139144729352 
0.01841139144729352 
-0.2971841815549864 
0.04192173504032778 
-0.2091059516041218 
-0.1551242020319704 
-0.2006307151412394 
-0.06687441212609105 
-0.1728738196319592 
-0.3346349169932662 
-0.1700606740612006 
-0.1951981876014112 
0.06694651525642009 
-0.1989326749810509 
-0.005961445706456649 
-0.001637690660400468 
-0.01851093907114351 
-0.07970196567211196 
-0.08903592980170313 
-0.02097455718527692 
-0.06568557189821705 
0.1549504276359906 
-0.2215685998604137 
-0.2215685998604137 
0.07338286397132711 
0.2314343300435713 
-0.04486715559088645 
-0.1032584170931896 
-0.2415263873983541 
0.02788585226032204 
0.02788585226032204 
0.02788585226032204 
0.02788585226032204 
-0.02219642453286767 
-0.02531778231533586 
-0.02219642453286767 
-0.3643398190842339 
-0.3648059091176690 
-0.1062647199186891 
0.009309779658468733 
-0.07846126054895669 
-0.03080309281752819 
-0.02755982667785092 
-0.1233297407766128 
0.01271843332418590 
0.01271843332418590 
0.03301286244748269 
0.06282167353918378 
0.06282167353918378 
-0.06662908709068704 
-0.06662908709068704 
-0.07809820302416687 
-0.1812139576261500 
-0.09421760224365641 
-0.1238190473381226 
-0.05049327849709174 
-0.1057987982042233 
-0.01714465192125889 
-0.07504177806856094 
0.05158051117550140 
-0.4112562476389944 
-0.08424801233149320 
0.03600433518655981 
0.04492290129971816 
0.04492290129971816 
0.04492290129971816 
0.1468070840331830 
0.1468070840331830 
0.1468070840331830 
0.09985939212974810 
0.07883231019772902 
0.01570155686837630 
0.01570155686837630 
0.1372964926252598 
0.02091928967385820 
0.03573640250482409 
-0.3081096164785091 
-0.1088381049676928 
0.1010068779396472 
0.1010068779396472 
-0.004094662588423344 
-0.3307496210525358 
0.05350031151262150 
0.05378154974376276 
0.1273680861221377 
0.07015750519371076 
-0.06132754683753108 
-0.3206435065673491 
-0.1505017115062073 
-0.02075722404984259 
0.1037081181297657 
0.03467355647873527 
0.03467355647873527 
0.03467355647873527 
0.03467355647873527 
0.07011198051963381 
-0.004086101315375502 
0.05667984414903163 
-0.1828229520043775 
-0.1056766733091402 
0.1168165818423213 
0.1049291745697827 
0.02697464848936542 
0.06195655540088548 
0.1662337146148993 
0.1239162881935564 
0.2340213128419375 
0.02911352510387398 
-0.07466810221293436 
-0.2016128822165092 
-0.1957144947757059 
0.02645120559333753 
0.09889200433618281 
0.1776698470270155 
-0.009810338694891485 
0.05611570893478463 
0.04857711996763769 
-0.1100335611871594 
-0.1100335611871594 
0.2711367839942006 
-0.2434781188388042 
0.03283776643083373 
0.06689760026574211 
0.06689760026574211 
-0.4862803661483963 
-0.1957026455268603 
-0.1957026455268603 
-0.2177473858434062 
0.06249536128333801 
0.06249536128333801 
0.06249536128333801 
0.1466150586824764 
-0.1157735568581938 
-0.1820091072313635 
0.2863873209323416 
0.2863873209323416 
0.1323164181720845 
-0.1387222207316657 
0.04008987405587140 
0.04024137437862482 
-0.01957525487598869 
-0.1821955434752754 
-0.06114053893848528 
0.03067807554263759 
0.1043921836689999 
0.04068853854331541 
-0.08883514386238925 
0.09246316759997857 
0.1916497283542504 
-0.01033703898542871 
-0.06129246037385747 
0.01982019863462409 
0 
-0.1820915589224524 
-0.07897432666938535 
-0.07897432666938535 
0.06928750434375802 
0.01509079902430273 
-0.2921653956146290 
-0.07056594769712798 
-0.05268169043886600 
0.4194132174922671 
0.3858273062728708 
0.1544511753661560 
0.1544511753661560 
0.01900404381272451 
0.1351540813564163 
-0.05013577015736211 
0.05458361865672858 
0.06959608220051797 
0.003126897470019319 
0.003126897470019319 
0.003126897470019319 
-0.2202010029030995 
-0.02664684842223326 
-0.3483184850127625 
-0.2914687833579920 
0.07829810535911301 
0.005128562495756565 
0.006268080390383648 
0.08692637527889568 
0.01423542016606611 
0.09305103365867308 
0.08836791732334145 
0.08836791732334145 
-0.07102486824522393 
-0.04447529435054574 
-0.05387785115198372 
0.04944121125581300 
-0.01405577158327738 
-0.6788632606506136 
0.05629670406215123 
-0.03829341779014857 
0.07627458891481058 
-0.1391404055307416 
-0.09570417139885175 
0.1264635474427251 
0.01849900290299277 
0.01849900290299277 
0.01849900290299277 
0.02484464189620424 
-0.2627691734917871 
-0.08304665759817727 
-0.03619465886623456 
-0.2306411816708054 
0.04427446752501732 
0.04427446752501732 
-0.1722790814631110 
-0.02786209041975447 
0.1553485781726237 
-0.05778137652690085 
-0.2580042807568418 
0.01664602409105135 
-0.1808786114048861 
-0.1479147086367760 
0 
-0.4313253556958031 
-0.1405979113642455 
-0.1265111456591085 
-0.1265111456591085 
0.06811626889867886 
-0.07712349415615759 
-0.09153138670722744 
-0.2460764667967719 
0.02201091332519147 
-0.06092638071924758 
0.03898337029220149 
-0.05229400673035252 
0.1459757091198871 
0.04084137324013550 
0.04458053581460938 
0.004341842019768234 
0.004341842019768234 
0.06822714360791984 
0.1312958963760156 
0.02745373834645328 
0.008467651228484828 
0.03330246850277762 
0.002884637404654397 
-0.3552006288747060 
0.1004029631611683 
0.07633239941268222 
-0.1077963265717321 
-0.008784805112985846 
-0.1023445879888812 
-0.05097414970322459 
0.1204733439544054 
-0.03384325966158907 
-0.05865976542154400 
0 
0.007114346019764495 
0.06677074160435957 
-0.1827500831652027 
-0.09313537997048806 
0.1489030935178274 
0.009618850288764583 
-0.05967963730963646 
-0.08550234209321966 
-0.1245407997404386 
-0.06876769139976265 
-0.06876769139976265 
-0.06876769139976265 
0.1140667466770431 
-0.08553722552574540 
-0.06187713590221956 
0 
0.02026017945975568 
0.03854879024964609 
0.01751223931805548 
0.01751223931805548 
-0.07904331679459654 
0.09112978116117548 
0.01455892117303831 
-0.1002246286227018 
-0.1002246286227018 
0.1281450394138988 
0.1415240771444375 
-0.1131782768774256 
-0.1131782768774256 
0.02516557449653906 
-0.09609063166355437 
-0.1372056919289990 
-0.1372056919289990 
-0.09779456809646025 
-0.07671915043711469 
-0.2250007126631496 
0.06666483035972322 
0.03568572778591425 
-0.1399750365777973 
0.1079458988357535 
-0.05479654993135379 
-0.1570162454983453 
-0.05479654993135379 
-0.05498364907747615 
-0.2602608266349800 
-0.1551292545564024 
-0.2968106839245933 
0.08879564071559051 
0.01509221094389492 
0.06825724056595872 
0.05240072537707734 
0.02858741396408448 
0.04111506026544460 
-0.2115161609385166 
-0.04814127564536477 
-0.04814127564536477 
-0.2196925833081405 
0.07638719113313014 
-0.0009745495155737138 
0.3047514313842881 
0.3330706572689783 
0.3234461768355320 
0.2544131324522728 
-0.04995782178848199 
0.06286795975076334 
0.04663864954753720 
0.06286795975076334 
0.06286795975076334 
-0.001288840702305050 
-0.01959207728711790 
-0.05137728447184766 
0.2436341846255575 
0.3195825969134027 
0.3148966432510851 
0.02704840545808860 
-0.08696218743888058 
0.01535767444727751 
-0.03807870423290144 
0.04253709307686690 
0.03429870442430668 
-0.002475241217856118 
-0.2735394040956093 
-0.1729353539271234 
-0.1029529583709060 
-0.2756305279934822 
-0.08058975650882802 
-0.03358591121939625 
-0.2787054860300484 
-0.2110230284625447 
-0.03070949072935013 
-0.01250463418859367 
-0.2266283693275269 
-0.4279777232053758 
-0.1696192473895019 
-0.1885268369033728 
-0.1096369663121291 
-0.2558632907181976 
-0.06166438524587961 
-0.09639546212142325 
-0.06925387243495407 
-0.2554373015804142 
-0.08966604046571391 
-0.08966604046571391 
-0.1966656964912727 
-0.4735646861248578 
-0.03227162404421945 
-0.03227162404421945 
-0.1803418367869427 
-0.1803418367869427 
-0.1803418367869427 
-0.04206586972234865 
-0.1093338546944380 
-0.2889044159070173 
-0.08557390556434877 
-0.08557390556434877 
-0.09857992342764954 
-0.06838806762028188 
-0.2355706991670799 
-0.1675707550774379 
-0.3830328761778117 
-0.1740848232253660 
-0.1740848232253660 
-0.1740848232253660 
-0.1740848232253660 
-0.05815029017270536 
-0.1413366570526789 
-0.1476854311964536 
-0.1413366570526789 
-0.1344441049282769 
-0.1344441049282769 
-0.03509857586332736 
-0.1305097478711489 
-0.09467883900631771 
-0.1216299451223846 
-0.1029519238162341 
-0.08045817795752933 
-0.04474528545864389 
-0.04474528545864389 
-0.04474528545864389 
-0.04474528545864389 
-0.05692310609520901 
-0.03200185659611535 
-0.003931786715366422 
-0.003931786715366422 
-0.3592119655540927 
-0.02821554272707272 
-0.03046166210730286 
-0.1321495752069380 
-0.1118379124062729 
-0.3374944962987345 
-0.09879342344392132 
-0.2598644976927167 
-0.02400682185143898 
-0.1941957731425896 
-0.1941957731425896 
-0.1898362661797661 
-0.08294621287281023 
-0.08712177988605138 
-0.06356550507992217 
-0.06356550507992217 
-0.06191149139028325 
-0.06751486517294564 
-0.2452240385036958 
-0.1038096975445715 
-0.07112277259960868 
-0.3286918399115354 
-0.08277949731554674 
-0.07532249190287332 
-0.05489837590374769 
-0.07000326105627665 
-0.7322497222146375 
0 
-0.2343299247354327 
-0.2243748021242135 
-0.2243748021242135 
-0.006478304635202241 
-0.2791216273791233 
-0.08694306430141760 
-0.02219303042286346 
-0.4486772110182390 
-0.05692652210520760 
-0.05692652210520760 
-0.1360055879086644 
-0.08666701342741440 
-0.2796673479356584 
-0.07056656051962927 
-0.003536730000122260 
-0.06622509155293880 
-0.07899433857048335 
-0.07181910979628765 
-0.007033565229809368 
-0.03933714408898743 
-0.4996196625428522 
-0.1243885072555043 
-0.3364636001623910 
-0.08200210794324786 
-0.08200210794324786 
-0.04872042449491418 
-0.03682517754832437 
-0.01595552465382220 
-0.2337058073819608 
-0.4140057758542132 
-0.1742937318804674 
-0.1417214947929321 
-0.2341120124995245 
-0.1848771102637288 
-0.1848771102637288 
-0.1391080223680437 
-0.1391080223680437 
-0.02548292561267499 
-0.02548292561267499 
-0.02830803380085786 
-0.05161413597437093 
-0.03339664677550841 
-0.03780299586306367 
0 
-0.2190004146504139 
-0.05463728950176568 
-0.08285732801199105 
-0.02349464456612639 
-0.06522110279512007 
-0.07912886591244676 
-0.1086584250596515 
-0.3770725209382350 
-0.2971492650570792 
-0.1293682673442467 
-0.1293682673442467 
-0.1293682673442467 
-0.1699103648135799 
-0.1134839348389748 
-0.02669552629352971 
-0.3548407444225671 
-0.1571542147579532 
-0.1571542147579532 
-0.02993363893558930 
-0.08516123035407017 
-0.2979009233085734 
0 
-0.06321949531627964 
-0.2196354384856999 
-0.1126708905080179 
-0.1813756370859671 
-0.1532466340154186 
-0.01462712477326945 
-0.01462712477326945 
-0.06811926615258950 
-0.07535346670743001 
-0.01901685733811647 
-0.5054302562726345 
-0.2363483948035017 
-0.2088203939601904 
-0.1639948288906850 
-0.2266884922961496 
0 
-0.2218457124927956 
-0.2218457124927956 
-0.06481582519670825 
-0.1520587378295434 
-0.1388891580398868 
0 
-0.3335563006919712 
-0.1766655220247353 
-0.1872388853123697 
-0.4722973728893530 
-0.1858849570483379 
-0.2849566990186174 
-0.2973951614917200 
-0.3978079722212540 
-0.5914905858873290 
-0.3453178924296172 
-0.1711882059577071 
-0.1116166782390058 
-0.2296939209770050 
-0.02471732952719418 
-0.07751143585377490 
0 
-0.09658884864234546 
0 
-0.08094310720086559 
-0.2102742114531233 
-0.1049801772858547 
-0.007785078236944081 
-0.007785078236944081 
-0.05588518460970389 
-0.1152528450998356 
-0.01264043246131918 
-0.1327420518049664 
-0.1004344071466182 
-0.09684312572407047 
-0.05215507878473967 
-0.05215507878473967 
-0.2199862694359261 
-0.02245115837779210 
-0.02245115837779210 
-0.1587756070349042 
-0.02245115837779210 
-0.02245115837779210 
-0.009343843751074700 
-0.009343843751074700 
-0.01565735971289882 
0 
-0.06000135360711709 
-0.1242495815787973 
-0.1798262573967265 
-0.1798262573967265 
-0.02637085046234044 
-0.1173058388239174 
-0.1978737050216780 
0 
-0.1025707766645786 
0 
0 
-0.09262436923076010 
-0.1126377563766169 
-0.1126377563766169 
-0.02971504612797882 
-0.1069578327573586 
-0.2708687902439582 
-0.09045105682419466 
-0.04388501652546699 
-0.02370154039684580 
-0.04162256172906839 
-0.04162256172906839 
-0.03113513730061412 
-0.008927253017787715 
-0.01948994413720269 
-0.01948994413720269 
-0.1063332966964644 
-0.02784816762613251 
-0.02501798183837393 
-0.06278938491570850 
-0.03113513730061412 
-0.07990953932356390 
-0.1778452169904754 
-0.03495455878604925 
-0.02379974476430051 
-0.07309822129226570 
-0.05069966521355467 
-0.1511195757521688 
-0.03449295615835972 
-0.06233334339505781 
-0.04065419957597970 
-0.02496339168857356 
-0.01521649152756044 
-0.01198116570398278 
-0.004353878511360279 
-0.03259325645303762 
-0.005266342187841123 
-0.0005541600141227830 
-0.09266259505692524 
-0.1461806948491938 
-0.1461806948491938 
-0.1068229137311625 
-0.09556084831199982 
-0.09556084831199982 
-0.1659694102570587 
-0.2115758193800842 
-0.03731679765603633 
-0.01817324237984766 
-0.04640184045148302 
-0.2857586770456698 
-0.2173418757910672 
-0.09612692772215421 
-0.09612692772215421 
-0.004835723016754956 
-0.1011057686939968 
0 
-0.1753163113003163 
-0.05390403788496082 
-0.1293982227014490 
0 
-0.1349836480063545 
-0.1997379487720846 
0 
-0.02354047980174359 
-0.02354047980174359 
-0.02354047980174359 
-0.1915450777457876 
-0.07560886836923443 
-0.04876360483733376 
-0.04641819184485720 
-0.06306875276809577 
-0.02364153223360722 
-0.02364153223360722 
-0.02795882694424681 
-0.02795882694424681 
-0.04471101471293978 
-0.04471101471293978 
-0.04471101471293978 
-0.04471101471293978 
-0.01444625700819091 
-0.03016579842857294 
-0.003659816545466261 
-0.04922278877654919 
-0.003659816545466261 
-0.003659816545466261 
-0.04049708802149921 
-0.2723156667548213 
-0.1227759706664394 
-0.07557686794713116 
-0.03847448691348278 
-0.03145096079933598 
-0.04919052019381925 
0 
-0.05862678962621997 
-0.05764057250899900 
-0.1657805017006931 
-0.01969769320217027 
-0.1170487754735946 
-0.1826694717798897 
-0.1826694717798897 
-0.03980474522674237 
-0.08591780887030111 
-0.08591780887030111 
-0.2441819366944938 
-0.2788628146083986 
-0.2657101658146623 
-0.2281360131403514 
-0.02111872510144413 
-0.02111872510144413 
-0.1058995644360006 
-0.1723771527578697 
-0.09907261736689646 
-0.1668243421686802 
-0.09804800971844349 
-0.1020676931506538 
-0.01412651110074974 
-0.06933306139490608 
-0.07616182183364562 
-0.08961470319471479 
-0.03837822826976280 
-0.03837822826976280 
-0.03837822826976280 
-0.01596017185176584 
-0.02949054363451270 
-0.2782622777918994 
-0.1599858718508904 
-0.06669724994967931 
-0.2379193502881597 
-0.1614349012451572 
-0.1057652290668430 
-0.1057652290668430 
-0.02322443718425584 
-0.04017793062603670 
-0.04017793062603670 
-0.2909390781417592 
-0.09119729304492359 
-0.1124103297696998 
-0.1124103297696998 
-0.1124103297696998 
-0.01362317189268206 
-0.2550665595230958 
-0.1154597496216563 
-0.1596276472927189 
-0.1596276472927189 
-0.1596276472927189 
-0.3911683902218700 
-0.3911683902218700 
-0.01438326744286622 
-0.03471523373313509 
-0.3158887829070601 
-0.4293908361615939 
-0.1977653213065564 
-0.1070137598346787 
-0.1070137598346787 
-0.1070137598346787 
-0.07077370232399594 
-0.2458973468698744 
-0.1772734825671036 
-0.1772734825671036 
-0.1772734825671036 
-0.07495223681671110 
-0.07687283157967037 
-0.1824352149256710 
-0.1350732100169219 
-0.07313117259376210 
-0.2686170864366690 
-0.2686170864366690 
-0.05613029279778170 
-0.04943720725124598 
-0.01196114130248722 
-0.2152133261903493 
-0.06109721390455403 
0 
-0.04749578041496866 
-0.04749578041496866 
-0.01196114130248722 
0 
-0.1550207859128906 
-0.1267176870263967 
-0.06887704911588400 
-0.06887704911588400 
-0.09167436088648982 
-0.2273935796020397 
-0.06353305652884149 
-0.06329503544366656 
-0.07007324896916904 
-0.07007324896916904 
-0.01385446890151624 
-0.01385446890151624 
-0.3345808988869233 
-0.2123442154732921 
-0.3560935024098512 
-0.02098295325622221 
-0.1224088747769768 
-0.2138038244575672 
-0.1881588629230401 
-0.2015451826360912 
-0.05258498867519017 
-0.05258498867519017 
-0.05258498867519017 
-0.2166833734770270 
-0.2166833734770270 
-0.08751092876864786 
-0.08751092876864786 
-0.05330734970724225 
-0.06935625605719609 
-0.06935625605719609 
-0.02389596885468880 
-0.2015463203293686 
-0.02389596885468880 
-0.06658947995770144 
-0.1727953711086387 
-0.3214824964080030 
-0.03727197578452037 
-0.1437492869365592 
-0.1002129040463517 
-0.005779636834000580 
-0.005779636834000580 
-0.07923646320141570 
-0.07923646320141570 
-0.01727467177930536 
-0.05512082789069035 
-0.05428316934122460 
-0.01102667097216965 
-0.09857191707553942 
-0.1824937126530811 
-0.07978440359379674 
-0.1027093090592843 
-0.04544684570430810 
-0.1828150262951008 
-0.08483465973679774 
-0.1776503514746798 
-0.02434540457893397 
-0.09104567896230319 
-0.02434540457893397 
-0.08076026346516142 
-0.08076026346516142 
-0.04593511198363295 
-0.08443429561530602 
-0.02469981446149100 
-0.1454127252277958 
0 
-0.1363244486571121 
-0.02993830135888857 
-0.1391828532021227 
-0.1148357852281515 
-0.04163479320538629 
-0.02993830135888857 
0 
-0.1252797275392041 
0 
-0.1435831069162060 
-0.2070282311165279 
-0.09767623705297679 
-0.2829200977467944 
-0.3794178551598932 
-0.01075840137570287 
-0.02719747446206355 
-0.05012595735454695 
-0.02937542063895911 
-0.2400973188905892 
-0.1235452235055432 
-0.05147000429463738 
-0.1222008500077104 
-0.2195115367214169 
-0.2195115367214169 
-0.2195115367214169 
-0.03256798885741689 
-0.06944542070431216 
-0.01577482017803546 
0 
-0.02054234922499679 
-0.02054234922499679 
-0.03293358712685303 
0 
0 
-0.03468332464213603 
-0.03468332464213603 
-0.03755424694581173 
-0.3711722082163367 
-0.1097951480097536 
-0.2364555679964168 
-0.2364555679964168 
-0.2364555679964168 
-0.2364555679964168 
-0.2364555679964168 
-0.1008709323776818 
-0.01470759377678929 
-0.03906747225767240 
-0.1302929193843738 
-0.04376917649618478 
-0.04376917649618478 
-0.02810595039861760 
-0.1036683191236335 
-0.1036683191236335 
-0.1036683191236335 
-0.1036683191236335 
-0.05876416099589190 
-0.08843582719777104 
-0.03078249142119767 
0 
-0.1354279981713927 
-0.1991554003154683 
-0.1510596837970704 
-0.2510665241595797 
-0.3061813934988868 
-0.2360547531247360 
-0.04183698675180851 
-0.04553965948156864 
-0.2055327628080170 
-0.001273590306831129 
-0.001273590306831129 
-0.3009155720057710 
-0.1769496044106669 
-0.1769496044106669 
-0.01331979735288402 
-0.1502384747057623 
-0.06161524461809194 
-0.1254182636183763 
-0.06233775509981592 
-0.06699827228305598 
-0.05869471659929492 
-0.001714350612894189 
-0.01061336278418484 
0 
-0.003837966975042506 
-0.002839272356531050 
-0.01080280569350185 
-0.05206171113927202 
-0.01518718349731218 
-0.01289369678203682 
-0.1600628075011086 
-0.2474013990677289 
-0.1361992742618819 
-0.08085905462066260 
-0.02468427504797383 
-0.0001712406408868557 
-0.1776691670679952 
-0.08235610019018005 
-0.05805201306076471 
-0.05805201306076471 
0 
-0.1790454425869744 
0 
-0.007685363563115995 
-0.02559158603171423 
-0.02559158603171423 
-0.02559158603171423 
-0.02559158603171423 
-0.02559158603171423 
-0.02559158603171423 
-0.05627044546358091 
-0.05627044546358091 
-0.1693175246227505 
-0.1148639235779266 
-0.1148639235779266 
-0.3761815752676184 
-0.1515658001732954 
-0.1421587180199128 
-0.1281323528509062 
-0.1281323528509062 
-0.009747612967485662 
-0.0001494782913599364 
-0.1181866619230366 
-0.2569477705001642 
-0.04830737052109455 
-0.2774405690085586 
-0.07345617328116108 
-0.07345617328116108 
-0.01313418421190516 
-0.01313418421190516 
0 
-0.06723997260217156 
-0.04808935900781735 
-0.01932648672452425 
-0.09556544183395771 
-0.2161948031735059 
-0.1295513415437824 
0 
-0.07580513017775838 
-0.07580513017775838 
-0.07580513017775838 
-0.07580513017775838 
-0.07580513017775838 
-0.1719787603136623 
-0.04080394442799307 
-0.1335605570465179 
-0.1141627660414805 
-0.06234953018325835 
-0.04107504594611831 
-0.1169378742976858 
-0.09674204681939688 
-0.09770070448247403 
-0.05644249691648983 
-0.05644249691648983 
-0.1843353301450137 
-0.2173228984616972 
-0.2613770602065831 
-0.04512857528225463 
-0.01352848653786130 
-0.1606336338585745 
-0.3826670611865820 
-0.08306483171049014 
-0.08306483171049014 
-0.08306483171049014 
-0.06182406932578771 
-0.1438215221578156 
-0.1033210321625764 
-0.1033210321625764 
-0.001170958699856993 
-0.06136175838052495 
-0.04680485954211061 
-0.08852310495900184 
-0.08852310495900184 
-0.02336310411033872 
-0.02336310411033872 
-0.009868773046145874 
-0.2639009349702469 
-0.1501099148876751 
-0.1878272177999128 
-0.03178520718472971 
-0.1003757614451517 
-0.1003757614451517 
-0.1003757614451517 
-0.1003757614451517 
-0.1003757614451517 
-0.1003757614451517 
-0.03565691598682937 
-0.009478350639496307 
-0.1402252593587426 
-0.0007649274097503772 
0 
-0.1414634305775969 
-0.02745824478129764 
-0.03583090886483119 
-0.03583090886483119 
-0.03583090886483119 
-0.1414428518938396 
-0.05101856703328829 
-0.02471487921459696 
-0.05228395234286054 
-0.1179287623022939 
-0.1179287623022939 
-0.1179287623022939 
-0.1179287623022939 
-0.1349742013594242 
-0.2214684932194500 
-0.1604686757228138 
-0.3936306596887396 
-0.1108123716033768 
-0.1050209484524113 
-0.06558659934618667 
-0.05609325177902629 
-0.05609325177902629 
-0.2210928098436321 
-0.1730106029336531 
-0.3074501574181871 
-0.1949219272794534 
-0.2264360718948940 
-0.01024188079137301 
-0.01579288262374178 
-0.3024869328531646 
-0.08151449783468209 
-0.03304262463823682 
-0.03304262463823682 
-0.001960386636916224 
-0.05405596175645270 
-0.002520543247090203 
-0.003121357782468195 
-0.003582660554004502 
-0.008912346386003312 
-0.008912346386003312 
-0.01145131754243586 
-0.03171694723736771 
-0.06670027438336920 
-0.0009188430990765852 
-0.04143656513246406 
-0.09624139573991122 
-0.1149813622051569 
-0.1580706703014481 
-0.2713299659039054 
-0.1531672664423007 
-0.1065047092161102 
-0.02436850894453921 
-0.1751084979416581 
-0.02452402374220737 
-0.02452402374220737 
0 
-0.03122035502781725 
-5.245451757477001e-05 
-0.06306875276809577 
-0.06306875276809577 
-0.1005151710946155 
-0.1005151710946155 
0 
-0.09881020370968771 
-0.1202337527186750 
-0.03298756831668341 
-0.06998960988110396 
0 
-0.02211616962438901 
-0.2428393775378162 
-0.1326806569570683 
-0.1326806569570683 
-0.05197144977570092 
-0.1887015524006591 
-0.06624002963317945 
-0.1089423906593842 
-0.3604927208182429 
-0.008307229438449807 
-0.3025201256279042 
-0.02631916881534404 
-0.01846434885411977 
-0.01125321810503798 
-0.1639624843535625 
-0.1679889579174800 
-0.2889342640195999 
-0.1092808051151440 
-0.07819397791832175 
-0.07819397791832175 
-0.2360778657752633 
-0.07819397791832175 
-0.007487131923013528 
-0.1564628206656818 
-0.1342762120422203 
-0.1342762120422203 
-0.1342762120422203 
-0.2408829692394109 
-0.1912832853378943 
-0.09901152145874620 
-0.09901152145874620 
-0.01534320040800620 
-0.01674734346707633 
-0.001498884566068682 
-0.03712368192309611 
-0.002499055068330627 
-0.1438796820393132 
-0.2356943913979333 
-0.2070633864092686 
-0.2070633864092686 
-0.05233762372459115 
-0.05233762372459115 
-0.07871677452020104 
0 
-0.08881344448983965 
-0.1281353725436243 
-0.1360012854371815 
-0.2276648232268254 
-0.01356125163784508 
-0.02913912321465046 
-0.2167613793731335 
-0.03829570962260810 
-0.04544180967153683 
-0.05758003089243828 
-0.05462789376081381 
-0.1055171322118046 
-0.1055171322118046 
-0.02782445462494812 
-0.02782445462494812 
-0.1959977944220910 
-0.1589123242183749 
-0.002857860796256139 
-0.09434528449674312 
-0.09554591824159142 
-0.01115575382986190 
-0.2622175455903981 
-0.07482669361990324 
-0.02346289372753723 
-0.04075340373772200 
-0.1252387995914724 
-0.1252387995914724 
0 
-0.05281040581964497 
-0.004845417959050791 
-0.1633560744276549 
-0.01474421327524487 
0 
-0.05716715692763882 
-0.009509697027750228 
0 
-0.07235160437039119 
-0.2929148851880653 
-0.1735737500533031 
-0.1735737500533031 
-0.02803385404261779 
-0.03515287786103326 
0 
-0.1709166690386313 
-0.2003149899446357 
-0.3037177304186902 
-0.05225174714799433 
-0.04371963894409944 
-0.06782685870942391 
-0.1880958146709353 
-0.1893547684423234 
-0.09383082949382737 
-0.09245191723032296 
-0.2903873723537762 
-0.05635906140921990 
-0.05635906140921990 
-0.06987929140194203 
-0.2660392338034471 
-0.07454092912875133 
-0.03164466934538432 
-0.03164466934538432 
-0.1665054480976363 
-0.07488314810873528 
-0.08795787748341444 
-0.06343261436292752 
-0.07646309432987729 
-0.04483970273499632 
-0.04483970273499632 
-0.02775319075500031 
-0.02775319075500031 
-0.02775319075500031 
-0.03267211592929732 
-0.03267211592929732 
-0.05615624502466741 
-0.2081100093778512 
-0.2398814221368049 
-0.2763643706957825 
-0.1763976818553118 
-0.1587904280781340 
-0.06365566333755875 
-0.3167737989011922 
-0.1932464487282811 
-0.1932464487282811 
-0.05250091072069590 
-0.1300347881762515 
-0.01666953634313518 
-0.04829999330741224 
-0.07617742331154488 
-0.1351925597556763 
-0.2241317373058648 
-0.2312888122458213 
-0.02835219878806121 
-0.02835219878806121 
-0.2433332239339267 
-0.2433332239339267 
-0.2433332239339267 
-0.001685999482555395 
-0.003804817311966162 
-0.01432178537145879 
-0.01432178537145879 
-0.04505856038767248 
-0.04505856038767248 
-0.1655033285511200 
-0.1245300239430949 
-0.1245300239430949 
-0.2290712869259727 
-0.003031424207042227 
-0.09909350860453034 
-0.09620121999203526 
-0.2462125586896910 
-0.0002098160404415489 
-7.700557812107742e-05 
-0.0001131403548639943 
-0.07680537798469322 
-0.07680537798469322 
-0.04170220763979045 
-0.2058393033473368 
-0.2935933345979773 
-0.2935933345979773 
-0.08076854123774832 
-0.2526903507046260 
-0.2179776674274176 
0 
-0.07524151668015470 
-0.3464284343239847 
