solver_type L2R_LR_DUAL
nr_class 8
label 6 4 2 3 8 1 7 5
nr_feature 45383
bias 0.000000000000000
w
-0.04777898456971205 0.1844964391354558 -0.08699351419647557 -0.05804299641751302 -0.02945713695542982 -0.02751958938868975 0.07022840163222509 -0.01745323262597339 
0.4583834860008521 0.1575581275967465 -0.2382975881405610 -0.08106778409029318 -0.09008053476454432 0.1134301470724556 -0.4702325549254252 -0.08270822187571486 
0.004290357467028621 -0.0003018630460443036 -0.002661744574083849 -0.0003266342363452085 -0.001184790566298983 -0.001367423873115513 -0.003398414026399594 -0.0005471963988704990 
0.004290357467028621 -0.0003018630460443036 -0.002661744574083849 -0.0003266342363452085 -0.001184790566298983 -0.001367423873115513 -0.003398414026399594 -0.0005471963988704990 
0.01907417512496293 -0.02150076981808964 0.01369945834683051 -0.01349693314423772 -0.008469235530829011 -0.01053464906641264 -0.01675451376792333 -0.009262770266431929 
0.8178217554570968 -0.2986412533015273 -0.1074036075893893 -0.2759114228372697 -0.2716900648188014 -0.2709303572915653 -0.8491666584316405 -0.1981827183004754 
0.1336528035824621 0.04556162269102461 0.07440444283519240 -0.04492341529085898 -0.01566722529122045 -0.07192976090261757 -0.1648375027196354 -0.04791761650573607 
0.004290357467028621 -0.0003018630460443036 -0.002661744574083849 -0.0003266342363452085 -0.001184790566298983 -0.001367423873115513 -0.003398414026399594 -0.0005471963988704990 
0.003078906906025960 -0.2235821003594758 0.3223204056253110 -0.06318600373841539 -0.004239676356095928 -0.07548625007925573 0.01231490970144178 -0.05392754697679122 
0.1774606636100695 -0.3987678984122421 0.002791111745110638 -0.7804413340432289 -0.1047183276939239 0.4139213514225822 -0.3567256750585336 -0.01679399892748835 
-0.04710078599880031 -0.1044952231765313 0.03380243455427542 -0.02959622272138674 -0.03308521908188895 0.07433017940009917 0.08824553499401268 -0.05160262225651694 
0.1165957981205399 -0.07451624563971626 0.2200959110302319 -0.04938109123464013 -0.03170314277016882 -0.07520296768113756 -0.1451156701763756 -0.06367089277743437 
-0.2779880510372081 0.3142818021205671 -0.1726570953694371 -0.01926821665191788 -0.002767727545348180 -0.03763848223088047 0.2734334203325446 -0.04177917357911426 
0.03976216358682581 0.1324155956343388 -0.1392958985906686 -0.01573873811892797 0.002248309543183088 -0.01983859992455719 0.01085167615704668 -0.01205071838337380 
-0.1796324753910215 -0.02945916570350874 -0.02885413239934239 -0.006210945145678186 0.01656700733843989 -0.03979025521569497 0.1753328971190488 -0.01269397684046138 
0.02641748938782998 0.06868050078080463 -0.01848094836503087 -0.02463795052370064 -0.005648043273543082 -0.01584714002005021 -0.02326670984624836 -0.005158366207303971 
-0.1615461482565602 -0.04229850690571754 0.04913253106271148 -0.4363016472486613 -0.2285019792083894 -0.3771113602206382 0.005687869183967340 -0.3344378643790581 
0.009687914359668153 -0.0007859812540901368 -0.0007853930083861965 -0.0001710656154348773 -0.001066324392429271 -0.0007720192927490644 -0.006976819089516235 -0.0006581732145273741 
-0.02903155139344092 -0.02407856545471883 -0.04558891656994595 -0.02350712260422298 -0.03113554490285115 -0.01599158377520707 0.09488520035955833 -0.01343748652017902 
-0.09022216265436249 -0.01260083225886360 -0.01491109347704916 -0.02134925566847110 -0.02715563550958285 -0.01757198122541383 0.1162528140273813 -0.01535456799653662 
0.01517930901445293 -0.002806649564403482 -0.001497613499243828 -0.003238596374115773 -0.003850106355334127 -0.001896764317689369 -0.01315801473877679 -0.001645442914811772 
0.07881919189407188 -0.002279447998102725 -0.008886313581174702 -0.0008947763299266441 -0.004904072357209379 -0.006109670453374548 -0.05712132746472693 -0.002856095426556290 
0.1113535477770636 0.07439412626500162 -0.09072543240878705 -0.02168449255900926 -0.006545634222987000 -0.02905114425146227 -0.1295818253769242 -0.02734127601287521 
-0.2953572199436227 0.4096618706080277 -0.4586417269413373 0.04069986191248818 -0.03115492220416840 0.2030532759837809 0.2151896055686053 -0.03227230282253599 
0.005416160280453962 -0.001797796903990729 -0.006186343643206520 -0.001010825967063317 0.006088917366109768 -0.002489348773417618 -0.006051402228322247 -0.001077953216007111 
0.07017960708608312 -0.2309973188160993 0.08183553308384024 -0.02736229627049578 0.0006023476957503122 0.06450872266709039 -0.1719985530307447 -0.2430220656405366 
0.4062760436554054 0.3807529007688030 -0.6412936772386807 -0.04808463355850597 -0.03120802147694206 0.2400282018319555 -0.4575200590544782 -0.01514069229505916 
0.07091132104040863 -0.2570026296415306 -0.9022562787680284 0.08273943725755159 -0.2000450790550797 -0.2050567082207864 -0.4266528483608107 0.08488429346094661 
-0.1278958792552465 0.1878770490889162 -0.1307939804110422 -0.07801917072113006 -0.008519173693657369 -0.09307393347742722 0.09381597569694021 -0.05218656330154332 
-0.02740930893189362 0.3532382397511537 -0.3484532879382343 -0.1162316477342906 -0.01816649580415371 -0.1151744358924356 -0.009411049161400092 -0.08163595458249213 
-0.6322191824637834 0.05219174535239970 -0.3520569440392345 0.1987284451589244 -0.1466425614184339 -0.1762841636450281 0.4236191607503100 -0.2588493627341224 
-0.01977055326814528 0.3838985496315913 -0.3173387964777215 -0.1200114461495374 -0.02119026677474340 -0.09977353514917958 -0.01659550393617918 -0.06763004699811491 
0 0 0 0 0 0 0 0 
0.3204786616830644 -0.2565195263825292 0.1002208863342808 -0.04537661119701693 0.02243206527973069 -0.1135459102148031 -0.4050115725820434 -0.1587146806323764 
-0.08297174530929913 -0.1064900809890077 0.1408853694814003 -0.03157115958444427 -0.01588844103221656 -0.01387206280359013 0.07092885603505311 -0.01227738993109661 
-0.002943392238013955 -0.09559551073425450 0.1312236806851306 -0.008586803685518295 -0.005613369554944273 -0.002184049387143587 -0.0006748853513652510 -0.005397004702713806 
-0.002943392238013955 -0.09559551073425450 0.1312236806851306 -0.008586803685518295 -0.005613369554944273 -0.002184049387143587 -0.0006748853513652510 -0.005397004702713806 
-0.008169456575915487 -0.1245543698517687 0.2137676494765884 -0.03550779208910884 -0.01048026406546593 -0.008537527449436368 -0.002244473588814345 -0.009852158725889253 
-0.3036995778460113 0.5723614236326546 -0.2901060157456126 -0.05172934884588844 0.07546493265818369 -0.1465612950706006 0.2239623204835207 -0.1424523194647198 
-0.002943392238013955 -0.09559551073425450 0.1312236806851306 -0.008586803685518295 -0.005613369554944273 -0.002184049387143587 -0.0006748853513652510 -0.005397004702713806 
0.06342440704986578 -0.1539286822488004 0.2331688547665052 -0.01579130108666765 -0.004534092744931821 -0.03009660373754742 -0.05183109879990482 -0.01451326696479675 
-0.01041259826554544 -0.02305797552311423 0.04953883646810516 -0.005697921218234853 -0.005098263336806763 -0.01585503191685692 -0.001431367894056243 -0.003714592775776301 
0 0 0 0 0 0 0 0 
-1.343410474351017 -1.142019797339390 1.329607653972036 -0.2830724387601049 -0.3784550117842181 -0.8202635755167855 1.021819904129115 -0.7403093258277265 
0.009803715440412366 -0.4759228701762492 0.1853801995005866 0.05435677811919866 -0.08837621539230814 -0.2031880022689296 -0.03718091522406679 -0.1391719902217903 
-0.01379972919438698 -0.07079627084173282 0.07231734204408917 0.01704865387085943 0.02100487953467069 -0.03072970048468935 -0.01837956570717075 -0.01841245321703377 
-0.009472109261564166 -0.1202884263591217 -0.2853237246507412 0.3862029405335810 -0.03373269775346233 -0.02999397836335953 -0.02028552106780340 -0.02338725810256163 
-0.007718394809783512 -0.1323121088357628 -0.4140595178229021 0.5249712235028031 -0.03761901289561167 -0.03371351622051039 -0.02427563155219371 -0.02566511658538786 
-0.4953017160897248 -0.3279681368813299 -0.2830541414235734 0.2496434619421116 -0.05029612768721708 -0.07514828843012418 0.2879504717543085 -0.2316981052626272 
-0.01112002446167367 -0.2139233414084744 -0.2545820714845209 0.4850487535712951 -0.04131120999256771 -0.04527551603426704 -0.02935428378383399 -0.03171973604549853 
0.2657338360913868 -0.2030625668374987 -0.005883177584937485 0.03183560633387958 -0.02328615193119419 -0.006768455537824123 -0.3871361993434881 -0.07768413487536192 
-0.03324660324219962 -0.1588128389737480 -0.3448448075856960 0.6360499425631169 -0.04149475366915550 -0.1279483198359234 -0.03521158226051729 -0.06793321480139920 
-0.001454094536056942 0.1188613223698559 -0.2101188930499252 0.1537753256496809 -0.003208462102144888 -0.008418090004123852 -0.02339832402356885 -0.008084905586134217 
0.03318386210714505 -0.007316167289590009 -0.003576700369747107 -0.01349965187871710 -0.004562261592834084 -0.01105901659213400 -0.03387838011863461 -0.008817118576563218 
0.05340194531231716 -0.01982171992177505 -0.01523975728141005 -0.01162841493806725 -0.009714201204512489 -0.01658143200655366 -0.05431260382887615 -0.01357393307231412 
0.07434646092018395 -0.02667021700189714 -0.03337758785095697 -0.02605710127750170 0.04392937025194420 -0.02156170270016031 -0.1065529095588426 -0.02363191098112617 
0.04210407467525749 -0.01015778033131206 -0.01614969526198958 -0.01809088280018716 0.01963865307127294 -0.01093366626781611 -0.05106637158223494 -0.01108507933997271 
0.02473137485970454 0.1255408524479035 -0.1273712520745931 -0.05007362676799385 0.02673725830771169 -0.04478205794714381 -0.06818521978605815 -0.02848415723362059 
-0.3465353644178220 -0.05959429283068779 -0.09928382734243386 0.02350294284072664 0.01407018673180768 -0.1009288533596538 0.3072020776262832 -0.1022248982936784 
0.1659957966120410 0.3399934241191195 -0.3158044738570795 -0.1100253838298825 0.008962517297184149 0.02059990764995155 -0.1687797069821238 -0.08535778552547699 
0.07207013645626847 -0.01732886733305504 -0.02362486641152111 0.04054412991283086 0.01514458883209089 -0.01523405423700489 -0.08400992508332882 -0.01942462335846616 
0.01184553313822810 -0.007429927858440434 -0.02622337779117328 -0.009844202640923973 0.009634718692537944 -0.01210655527015055 -0.02644966035742709 -0.01137428018575478 
0.04738787672150631 -0.01535373278393912 -0.08633140618102292 0.1543939303524915 -0.01511067109887179 -0.005993772650821334 -0.04647966065473593 -0.008134934173763366 
0.1602203198773105 -0.1788640157889501 0.1377474444952777 -0.1106209145843432 -0.04255908910627208 -0.2579334623992268 -0.1880396884072352 -0.2256403036477308 
0.1245311271386520 -0.04844242843479103 -0.07624822919817090 0.05988835541101503 -0.02971142931277820 -0.05025841666849892 -0.1561766235182774 -0.04334401047159644 
0.2727274779119145 0.1443168906195979 -0.1394671488888934 -0.03800414128341612 -0.05556538950277116 -0.02953562806572114 -0.2549905427072889 -0.02835519858527073 
0.1571763395525852 -0.1013384828980653 -0.02092785216750280 0.1183960397158780 -0.05099590627759116 0.07482170754437330 -0.1879347972398592 -0.04745716360759697 
-0.2475333208769611 0.1627603557224188 -0.2188600200762591 0.1707067228337177 -0.2047251952793720 -0.4481637473241907 0.07614573348901430 -0.1225644682165115 
0.1895646915781059 -0.05492579634741111 -0.02651207980489370 -0.05565329779771553 -0.03598983200711154 0.09340488519060779 -0.1877442290315919 -0.03849689307585384 
0.03859623334794829 0.07327559088718447 -0.01422773969164645 -0.03761854428235055 -0.01795026581006420 -0.02088536498943311 -0.06093725494537289 -0.01974402221955760 
0.1411104565137573 -0.03820477210930445 -0.01408273041792575 -0.04755071741379906 -0.02363544710670578 -0.05233920560100142 -0.1817643165271209 -0.03968316395188679 
0.04522909481299453 -0.005359288806910245 -0.01430434119303221 -0.008447286262371336 0.01005663939603245 -0.01097066465337781 -0.05910966846670458 -0.01124593323672522 
-0.03932630811952274 0.03111749394240573 0.02632529404993411 -0.08557465030609898 -0.01758744207631533 -0.05430611982413955 0.1166879575898233 -0.04020438841337753 
0.4030500990219660 -0.2277369883849472 0.2958083029369134 -0.09331774747391769 0.007060266405086186 -0.1929492944884148 -0.5404000051222017 0.05163725291128510 
0.05253448356830050 -0.003803119867909464 -0.001446557750990465 -0.006730628140430690 -0.006861042995519171 -0.009590743746443989 -0.05503788945163333 -0.008671325121780508 
0.05253448356830050 -0.003803119867909464 -0.001446557750990465 -0.006730628140430690 -0.006861042995519171 -0.009590743746443989 -0.05503788945163333 -0.008671325121780508 
0.08752350693984780 -0.005536517443975406 -0.009580882339922636 -0.01003588197968435 -0.01663508604573161 -0.01119291948841101 -0.07769884296554812 -0.01208071037180942 
-0.001548615625437076 -0.2698955898485265 0.3091398836916088 -0.07810316272873918 -0.03698746947230387 -0.1163474313116213 -0.07773385885041890 -0.08892040544792482 
-0.0001687527039610678 -0.0003107339865399047 0.0006269591665817107 -0.0007112841785469319 -0.0007312015812306038 -0.002776554842375178 -0.002065460176989065 -0.0005952832531072966 
-0.0009132964590466278 -0.001813357884827411 0.005359419982560238 -0.005355113112711456 -0.004128939849294282 -0.01532553878099460 -0.01550118586879907 -0.003451450189484230 
-0.1160199142618706 -0.3419539337726712 0.1471161138921916 -0.2685991625590871 -0.1227453006308158 0.05531758266070561 -0.1802766723263451 -0.008275605602499247 
-0.003526167928219482 -0.004725062900896518 0.01348796282596001 -0.01852415287440545 -0.01089641923611887 -0.03309612714399439 -0.03585995026109911 -0.007201322165508581 
-0.009132066468578488 -0.009109541174349428 0.02616854646772835 -0.03488335481929888 -0.01792537429021411 -0.04716021967680424 -0.05010741399344457 -0.01010395456487872 
0.004214711293101879 -0.05367640155815456 0.05642000620159027 -0.04464820579056517 -0.02807265328932891 -0.07272641508756485 -0.04449105571276558 -0.03421319508930475 
-0.005909999109957594 -0.02482903145646840 0.02703936698698851 -0.01919697806535865 -0.01405586020148024 -0.04127536310799231 -0.03273336869864613 -0.01304599684948202 
-0.1479051382046537 -0.3294632946783051 0.3031742672707298 -0.2517864905241652 -0.1073608531877250 -0.005471175307630420 -0.03797505457109669 -0.1759546005443383 
-0.01342944936543732 -0.06639866928938526 0.05999801398416589 -0.04122204028534236 -0.01326623689276031 -0.05598304763959529 -0.06957528076670040 -0.02243410707377273 
-0.0009771889727992330 -0.005171858368322122 0.006257450013975520 -0.004282808350162020 -0.004019914685737737 -0.01546155599552290 -0.01190482520723941 -0.004505838972771029 
-0.02344865854365472 -0.09598573147026686 0.1440011920611871 -0.07016704782275823 -0.03590604995849261 -0.08877698914666954 -0.08182454845665593 -0.03296178854772410 
-0.01690933035645054 -0.07483608571010660 0.1332572493863080 -0.08805892550901441 -0.03605056756951337 -0.09647230919190047 -0.08214525236276062 -0.03458034659445067 
-0.4832050661697098 -0.2859689708285143 0.002966187337744211 -0.3194070687558548 0.0005611064664170669 0.2289282661742837 0.2989372104822740 0.1271008076476413 
0 0 0 0 0 0 0 0 
-0.01365802525029134 -0.07478230800169370 0.08915130831230651 -0.006905495411497349 6.082307616288481e-05 -0.02376992160088397 -0.003084585079790526 -0.02503115185414970 
0.07545210958760983 -0.0006666110181015347 -0.004312242080399458 -0.0006517465283775567 -0.002523336009893166 -0.0006670694340869082 -0.05912038259971153 -0.0009100427076632494 
-0.1092346575747569 -0.08945839630574254 0.1106722078507564 -0.01231870592788509 -0.005525041761837310 -0.04550503643647624 0.1082446518552406 -0.02165524652987601 
-0.1191961881113040 0.06503552238314346 -0.1559874008339766 -0.03825774059369442 -0.05700085398434914 -0.04160642073799090 0.1190340641504974 -0.03984214738485730 
0.2307648720902540 0.1790744530560293 -0.09162025508360207 -0.1077277146553860 -0.01088511418859409 -0.05977528054124585 -0.1438285446095490 -0.04927554396912327 
0.09383727285707744 -0.001435328979115963 -0.005081212670161922 -0.0008395993514506019 -0.003748850908510736 -0.01100842493986848 -0.07102527503002051 -0.001377869211740483 
-0.05247970835813546 -0.6063478834471803 0.4396023575000963 -0.1764395755058768 -0.1382946112517627 -0.1939699810498715 -0.02041258407859491 -0.1459408142271690 
0.07545210958760983 -0.0006666110181015347 -0.004312242080399458 -0.0006517465283775567 -0.002523336009893166 -0.0006670694340869082 -0.05912038259971153 -0.0009100427076632494 
-0.2943451601853163 -0.002141155948366136 -0.01548906704361518 -0.004638106899912574 -0.009889328527535254 -0.002315072571797936 0.3202489519797297 -0.003403114698919462 
0.07545210958760983 -0.0006666110181015347 -0.004312242080399458 -0.0006517465283775567 -0.002523336009893166 -0.0006670694340869082 -0.05912038259971153 -0.0009100427076632494 
0.07545210958760983 -0.0006666110181015347 -0.004312242080399458 -0.0006517465283775567 -0.002523336009893166 -0.0006670694340869082 -0.05912038259971153 -0.0009100427076632494 
-0.02243103241235715 -0.2010793088515760 0.3437559608818992 -0.1206754829538690 -0.03726748177208545 -0.04555976568125712 -0.02280258000238907 -0.03594120700297479 
0.05238643136722629 -0.003652197673807556 -0.004643597609142671 -0.009776749358243532 -0.009545248362662974 -0.009620147295414157 -0.05166455857409170 -0.005083077390316776 
0.2749497353519171 0.1692951398990800 -0.08186954959701684 -0.03382065112600449 -0.004648155208466732 -0.04916172282994757 -0.2378816181182041 -0.03561512781975557 
-0.07188457073949064 -0.002606995887205501 -0.03024024359646215 -0.008036009116797471 -0.01010986015438127 -0.01302009048061060 0.1178554878442523 -0.004599303246463673 
0.1314755754391853 -0.01663938737478532 -0.02201265900411989 -0.01746661699613376 -0.02107352653248559 -0.01618426424597179 -0.1330875874478363 -0.01181677236684209 
0.03473266942598709 -0.002321177274064617 -0.002437017459723379 -0.007491311766608313 -0.006351438660932133 -0.005583163889501253 -0.03335058966734809 -0.002997181282272532 
0.02944588109065012 -0.06168015643435758 0.1664664767267376 -0.04351835348562958 -0.009033225485571623 -0.02601252774637444 -0.03832378137680317 -0.01511618346059964 
0.01259791206671489 -0.0009495680075045089 -0.001358167891051078 -0.003463662607580533 -0.003005639222152188 -0.001635067257066066 -0.009918704292354134 -0.001301600333340170 
0.01259791206671489 -0.0009495680075045089 -0.001358167891051078 -0.003463662607580533 -0.003005639222152188 -0.001635067257066066 -0.009918704292354134 -0.001301600333340170 
0.1462510595046930 -0.1779760509418810 0.2396709026357482 -0.07342922567573709 -0.02091283008994285 -0.03649283368451587 -0.1591786927096045 -0.03439758043213447 
0.1826590188050674 0.04252261226215877 0.06611217036982926 0.05055267551129139 -0.03867165376008272 -0.1097441411923319 -0.2125760649360011 -0.1037543874597478 
0.2123022752852418 0.04105483763239436 -0.1123954906483565 -0.05043614747352111 -0.1500042109066526 -0.6143682537036473 -0.2323360425872247 -0.1953920889268649 
0.1185439661470319 -0.01806186118689623 -0.006514629532606292 -0.01564245566404497 -0.01554174778601070 -0.01241171389999854 -0.1246485177318194 -0.008994244350270967 
0.004944579351916347 -0.0003534054298805779 -0.001412836694854814 -0.0008506151633630438 -0.001077971959745971 -0.001057379989267223 -0.004381108117103191 -0.0002142931473654828 
0.06104013753275068 -0.01462035343601506 0.01718355583426619 -0.007938879241418971 0.01451608425814781 -0.02106101226564987 -0.06067498286362576 -0.004953434261183066 
0.1581568883140695 0.09948235750671004 -0.1387689704741797 -0.09201736941785679 0.0008488126201488515 0.1412560929514904 -0.1502225146955437 -0.05708551133318442 
0.004944579351916347 -0.0003534054298805779 -0.001412836694854814 -0.0008506151633630438 -0.001077971959745971 -0.001057379989267223 -0.004381108117103191 -0.0002142931473654828 
-0.4172002434186070 0.01905837789817234 -0.3320532868907175 -0.1260234065685167 -0.03277033895414175 0.5197891160475453 0.4649602803339417 -0.1646647938747354 
0.004944579351916347 -0.0003534054298805779 -0.001412836694854814 -0.0008506151633630438 -0.001077971959745971 -0.001057379989267223 -0.004381108117103191 -0.0002142931473654828 
0.1740288782365242 -0.05687377074697231 0.009800175188820948 -0.03054149113213454 0.002419384681232700 -0.02753435929052622 -0.1636892843406918 -0.02052226005370285 
-0.1267590875820489 -0.05956141005540182 0.01597140794723892 -0.01966375166739809 -0.02852346757052487 -0.02144153392663650 0.1142697385488808 -0.01918333404900488 
0.05067977405522370 -0.02246840063981856 0.05515304537504209 -0.03635988620354047 -0.01623745779884211 -0.06020797367351782 -0.05607497557354561 -0.01973807632725043 
0.1734796974766002 -0.2185415065311024 0.2275114918982370 -0.02525501275065068 -0.1005846282912036 -0.1284605669163061 -0.2312724255118774 -0.4968255236424500 
0.02846242387615865 -0.001630304038143170 -0.005400453026722799 -0.001435911603074288 -0.004365912635295986 -0.002626126128524488 -0.02281058241952599 -0.001757684741822036 
0 0 0 0 0 0 0 0 
0.005766162230711481 -0.04874056602921623 -0.02480831491287480 -0.01465091850395199 -0.01419049026760369 -0.05541531178035098 -0.01777706249591012 0.1488365723755661 
0.09282483019149604 -0.02321645085206855 -0.01658721682811804 -0.01019996207053258 0.01520800814292092 -0.004692149822242311 -0.07983100357885240 -0.006967651030284880 
0.01763161703570582 -0.001097458234419713 -0.0009170591281305443 -0.0004057874816361906 -0.002361862583505704 -0.0008987302801236592 -0.01453156456805605 -0.001263360483313965 
0.1600781232586125 -0.04653280829038516 -0.05717615891463031 0.1470219743478606 -0.02640286500566023 -0.01645954492427080 -0.1739460681968477 -0.01346086276850075 
0.02564428769081536 0.3352044563546498 -0.1897888523087601 -0.01986158425715642 0.03131094515559708 0.1463439884630367 -0.009731141901590730 -0.1231083391252480 
-0.1556455924133649 -0.07862264565539759 -0.4189340245491754 0.1130005149106384 -0.02793734848280779 0.6570664322688640 0.009284285003375421 -0.02196484101735647 
0.01778992805921702 -0.002397230683645149 -0.006049943267615560 -0.001773231854955928 -0.004245922967555996 -0.002479690903701602 -0.01571312455400163 -0.001674100197916152 
0.1241944622519368 -0.06436881322502519 -0.1448211582353790 -0.1856925525677674 -0.08412290936595444 0.005170962434025202 -0.08482091008377295 -0.1671118052400844 
-0.03099488492167995 -0.2575920000982477 0.01215972856110925 -0.08754434058059231 -0.02433285334242243 0.5262217367626940 -0.03878293672664267 -0.1093250254514773 
-0.01204302105289397 0.1787571534509807 -0.3020503669267418 -0.06407647156891330 -0.02568977672480143 0.2185140202510304 -0.03059490755914927 -0.06036137501645967 
0.01964425512916136 -0.07342213350593421 -0.1974754864621753 -0.04483489928014495 -0.01100250800805023 0.2107398196962505 -0.04526460579032002 0.1562777201590017 
-0.001365645131522632 -0.04894089070585761 -0.1255807337858320 0.2545002895726309 -0.008901731968855875 -0.01144515109685419 -0.01979149198449865 -0.007647137032871114 
-0.0006624491959637922 -0.03000571551609682 0.09972857285817316 -0.03391189173572250 -0.004606768588111878 -0.008211694785815750 -0.008917142793243557 -0.006393234051280615 
-0.01319631350354818 -0.1532535767367868 0.08486651002606707 -0.06231219295874525 -0.01044782813444943 0.1657062038959940 -0.01451776738943226 -0.03010936793247580 
-0.0006624491959637922 -0.03000571551609682 0.09972857285817316 -0.03391189173572250 -0.004606768588111878 -0.008211694785815750 -0.008917142793243557 -0.006393234051280615 
-0.1717448688780250 -0.07009439016895676 -0.08333280761566620 0.3014586472450543 -0.01317952307455564 -0.06274060107043249 0.1175027808172824 -0.03750520857731967 
-0.002275303891105157 -0.03098661034332263 0.07031071605897278 -0.01438030346808386 -0.005668184138297796 -0.009847713111342641 -0.009036265386297985 -0.01104770031646042 
-0.003235219581839845 -0.0006885996969026363 -0.004646827615276024 -0.001492102387881582 0.005575427213336702 -0.001253319318859743 -0.0009559735534827913 -0.002040276503726899 
-0.001767061484915465 -0.0003555672067718720 -0.004047024209130184 -0.001288318224484843 0.001548472386305070 -0.001036282919879175 -0.0007434047924549525 -0.001534352391166931 
-0.001767061484915465 -0.0003555672067718720 -0.004047024209130184 -0.001288318224484843 0.001548472386305070 -0.001036282919879175 -0.0007434047924549525 -0.001534352391166931 
-0.001767061484915465 -0.0003555672067718720 -0.004047024209130184 -0.001288318224484843 0.001548472386305070 -0.001036282919879175 -0.0007434047924549525 -0.001534352391166931 
-0.005936957463632560 -0.0005471715824890557 -0.001031667029380760 -0.002254732337004671 0.001908899765962169 -0.001071121150580468 -0.0001694034297795772 -0.001234286022393863 
-0.005936957463632560 -0.0005471715824890557 -0.001031667029380760 -0.002254732337004671 0.001908899765962169 -0.001071121150580468 -0.0001694034297795772 -0.001234286022393863 
0.1575316233573150 0.2955475890242739 -0.01022603457750940 -0.09660997883677946 0.02843193419972250 -0.2057851461834212 -0.2074225562425490 -0.08937081783508510 
0.2304566872139620 -0.1113458257008539 -0.07243565876348562 0.1484279055838930 0.003586531230601286 -0.07571392527907658 -0.2599771653073474 -0.09783766692985257 
0.01956793488109458 -0.002554352560731822 -0.004518149079444603 -0.01331887510130280 0.01776047624456871 -0.006088385970790540 -0.04740815358376024 -0.009229125101426264 
-0.05202856477634714 0.1609851607068890 -0.1418050417069376 -0.08694729847152999 -0.03343924635498806 -0.05656826425885533 0.02055739785952707 -0.04640066423888763 
-0.4767605748708197 -0.07556576495186906 -0.1643122568732463 0.3743922476640680 -0.01015988762597507 -0.05692828657296100 0.2958447479222187 0.03471772973563823 
-0.03663650727981155 -0.2217844919131300 0.2543569570726572 -0.1230330616938689 -0.04383634785739281 -0.09084328321073520 -0.06448366552021036 -0.05794077412411974 
-0.03183927364496454 -0.2880842047979821 0.1923471325941559 0.03113698543674136 -0.04837338900587747 -0.1477182604602928 -0.06612814580770618 0.3355549204405880 
-0.009177146678112030 -0.03378168119457025 0.1031879529044383 -0.05242855359911514 0.002085702349527319 -0.01359260810589624 -0.01857031898118100 -0.01113709524004248 
-0.006795010889399191 0.08139196819939057 -0.02216282981299746 -0.05396545040637320 -0.006257043974315335 -0.01358572601477199 -0.01699308576572156 -0.01595247366800535 
-0.03517275980597232 -0.05666669439828305 0.1150877486050453 -0.09232030081451452 0.04006302479723067 -0.04217224445347328 -0.04617452801724714 -0.03316253203598926 
-0.02240513392286110 -0.04211121239303688 0.02929023472736245 -0.06664833615447843 0.02616112878156589 -0.03799078156269999 0.002058043330389262 -0.02987887135121961 
-0.2260480110710658 -0.1031587972082009 0.04915572665746393 -0.02540697627861735 -0.01596305962180697 -0.03061521841171128 0.1863750751912063 -0.03453059462722823 
0.01392985409594693 -0.0008711185704478324 -0.004370987747323754 -0.001026420920883737 -0.003351666379853083 -0.002136098452415457 -0.01384017978058682 -0.001475088740607449 
0.08049596545423582 -0.03419110761553984 0.02926121554998777 -0.01470576986710302 -0.01334614219058442 -0.02796137423011320 -0.08131238857745622 -0.02460613153205505 
-0.03158880576093803 -0.06409937612808213 0.1438264182421392 -0.2293285632830636 -0.07018078754065879 -0.07346574122378849 -0.1154370493501877 -0.1634209058035765 
-0.003617755724783520 -0.002003381344782764 0.008006215808908194 -0.007218086101973380 -0.002604742467590329 -0.006783925565761698 -0.003618937810381131 -0.001187431430080011 
0.07309788659245994 -0.2324096005071295 -0.02954477227682821 0.2474088532689730 -0.03511646154856148 0.09999479596582024 -0.09273711418780294 -0.06306132567078030 
0.02597056462275939 -0.08322375598751723 0.1027565728877850 -0.05181721440257857 -0.02447224708394448 -0.04236902295984243 -0.05357393242587740 -0.02825688100845216 
-0.003617755724783520 -0.002003381344782764 0.008006215808908194 -0.007218086101973380 -0.002604742467590329 -0.006783925565761698 -0.003618937810381131 -0.001187431430080011 
0.02276541976851150 0.08811784884373809 0.007512596493572070 0.02633789812766854 -0.003792061567141160 -0.1065304334736095 -0.1305883949482140 -0.04962546753835186 
-0.02383847507072574 -0.1322062892573042 0.1677551817333534 -0.1727413548888911 -0.08308889808027325 -0.3063132457692182 -0.1243988292228451 -0.2226962324967893 
-0.04231756085455016 -0.3831842075015327 0.2381753865002340 0.08982158112561604 -0.06464472302561151 -0.2224447226165941 -0.07246358180218400 -0.1500133776304120 
-0.02421716256014701 -0.05542858517677042 0.08323803962096628 -0.04415902342604753 -0.02210185945984077 -0.07296451251723070 -0.01318158023284083 -0.03265493324311278 
-0.1094951383951044 0.01779529202350257 -0.3078012309363015 0.02166454915694343 -0.03732518236282841 0.4588569776214591 0.09674072346760777 -0.06722922139220334 
0.05165939672618133 -0.07056319300027974 0.3086346076881100 -0.1727411888634658 -0.02584066880495854 0.01721195717900847 -0.1225068785940718 -0.1047116464655527 
-0.04631293644329242 0.002187389068280515 -0.02345546807105322 -0.1177059689393365 -0.04081797628341646 -0.09669726087267463 -0.03302852393131912 -0.06028400623138848 
0.05570016830046363 0.2601585561123544 -0.1316215632430212 -0.02799455885384808 0.02739752310849400 -0.03246730775765545 -0.08934277895593982 -0.04147457537102928 
0.1709324324374553 -0.05118829451780128 -0.02658171808019981 -0.01722408927753959 0.01417573812089687 -0.02224868970346164 -0.1995128922456253 -0.01702873922698926 
0.1752473253851543 -0.05027430793014474 0.02589553016311845 -0.02252450612654474 -0.01112516733722599 -0.04715558784581608 -0.2025901188350497 -0.03530289741696283 
-0.1097752600079156 -0.1234874386181821 -0.01725665491723515 -0.1681732941591143 0.04471717944276245 -0.08747611665023147 -0.0008237687009475460 -0.08877245934703877 
0.1141591198880328 0.03348942541651101 -0.1607663249437589 -0.001823181404942850 -0.03078120927548977 0.1925157216788830 -0.1244168318257374 -0.07560920892204866 
-0.09122274576585869 0.2689635321754951 -0.1661965191540805 -0.1202000928781911 0.007511653902665655 -0.009307330091070841 0.01067342425233188 -0.1066604100703022 
0.1115728614683700 0.3527750288077085 -0.3118246367392762 -0.1728421119768835 0.1342616130026289 -0.09990617980593626 -0.1867176728288023 -0.09986542301810705 
0.1523848692590277 -0.1474611108624657 -0.1251594337261149 0.09661631136226978 -0.01596620198986847 -0.06404339851739733 -0.1910344219559766 0.2250030832592547 
0.2454048841271246 0.07632019449266109 -0.1182240675896973 -0.03259751258396865 -0.006779409461907253 -0.02993986321305180 -0.2711992746369284 -0.02256073689931884 
0.2074109677408330 -0.1438706282341641 0.1356264571511035 -0.07430807514176607 -0.01592035769104887 -0.09194145190262616 -0.1495036037866075 -0.06358837461154031 
0.09854897490770609 -0.007037138461793520 -0.007497981408634991 -0.007779463291426460 -0.01356520221131071 -0.01107646629801735 -0.09432726526534634 -0.008429229076136363 
0.002582476944548927 -0.001977124358741600 -0.005216253345306201 -0.002265444691033200 0.0006307414352387591 -0.005560282878254269 -0.006293955695445395 -0.001228394150290646 
-0.003728726452425050 -0.002302514352104886 -0.0009102983212630278 -0.0001153879834652239 0.005176167478977854 -0.0006778554641815849 -0.0003337830518284029 -0.0003055945738082734 
0.01048753976720774 -0.008340186836717180 -0.002116514166338501 -0.01004536190471607 0.001382865731111929 -0.005572758179001677 -0.03300556444407044 -0.006373385222271980 
-0.02315935323248011 -0.06364294140370624 0.1105638983657509 -0.02138167408737873 -0.01897458830871052 -0.04356104126841377 0.03572196026161680 -0.02112802321291793 
0.0006828426661255667 0.2093997167542384 -0.1594546292687418 -0.01054110477371107 0.009485773919333949 -0.006364215289637707 -0.01117127166406837 -0.003411621805798909 
0.1861123385052403 -0.1083372055784228 0.04973286469719616 -0.04581790353943226 -0.05934373707009546 -0.05669079617692017 -0.1922141446400526 -0.03899705871229900 
0.1325448376169210 -0.1384242320666856 0.04773035691708314 0.2031275960913518 -0.005187290383461005 -0.04041779424486153 -0.1784156035983637 -0.03406583751416220 
0.04845773901764475 -0.01259555625893545 0.05771763994872122 -0.01020477124125539 -0.004001838233002612 -0.004476509991935437 -0.03064934202436592 -0.003556242016850727 
-0.2748870392421385 -0.05793773845016909 0.1208905923624803 -0.05552228481042443 -0.01841120611906439 -0.04722024598342205 0.2935694970013376 -0.03765658549563502 
0.2519193792648866 -0.06335857724517627 -0.05747339470448880 -0.05392424311305031 -0.07124160606608220 -0.05922590177267797 -0.2158362038847424 -0.06199612368623936 
0.2840121993908994 0.1943868452821075 -0.1852554168345117 -0.03294022364913730 -0.02868568333989970 -0.02807944887648602 -0.1901768978382820 -0.02439238361321668 
0.02543231016758668 -0.0008291760765117916 -0.001374329641040392 -0.0006589963653343854 -0.001414608192152769 -0.001234136252732690 -0.02060715388395049 -0.001197334266327358 
0.1168679164118689 -0.01941497988825829 -0.009969283304115053 -0.01215922903017671 -0.01256827241572576 -0.008326874886723706 -0.1055232083695824 -0.01195643884858498 
0.1186716172670644 -0.006477006779369622 -0.04122662984862623 -0.006415727600080058 -0.009227594128523660 -0.009283157400567050 -0.1152766948590532 -0.01005320868536019 
0.05696363561295509 -0.006770643693608711 -0.002361718859870802 -0.004360599359192730 -0.005036685579341681 -0.002702045414899259 -0.04947167781427381 -0.004700152503784404 
-0.06313265976505840 -0.08088654938447734 -0.01202436381497193 -0.06894177423204045 -0.05416203549350090 -0.05776688532295331 0.03731218006853530 -0.03805697798835232 
-0.06968724133329192 -0.1297837158156830 -0.1034397300222346 0.2118122944332551 -0.04760409220975555 -0.01085006443604606 0.07323838228068062 0.2281921740701017 
0.1120962505123166 -0.01458213805648358 -0.01393480752075411 -0.008338119210214090 -0.005480845326986590 -0.008198846170898328 -0.1250174768265293 -0.009922457765393222 
0.05143325531521021 -0.02000792297370028 -0.01615862354754091 -0.007625268513019546 -0.01348609906138296 -0.008845458977965796 -0.07392383800468788 -0.01145485848607177 
-0.1847665798824034 -0.01031075302429048 0.05841833545336068 -0.01054336994774677 -0.004020802695270738 -0.004745061685636297 0.2142858103655657 -0.003323028213598695 
-0.09379964905820790 -0.1777944539749479 -0.05748426449471003 0.1174195449488049 0.009652509574682770 0.2228934400122341 0.08535567943833602 -0.06572941900935125 
-0.1140956665826246 -0.1512828826561635 0.6452209036469972 -0.1048193709825194 -0.05924924859793840 -0.3179459182599962 -0.07165175381783669 -0.1289991261793747 
0.5988245217370215 -0.7746903598030358 0.7194378340187961 -0.5930079140225539 -0.3696697237917063 0.1781011817455022 -0.6833119001756073 -0.4135259282639656 
-0.01517565803936685 0.2099709488549956 -0.1315463989962485 0.1195219539743298 -0.003227044172435681 -0.06839339569923425 -0.02249721767403421 -0.01398300222173115 
0.5147934877967016 0.3513703917145447 -0.7255600439719984 0.3711882972518345 -0.04633899365695533 0.03499793543566594 -0.5941443600526909 0.3179950770885730 
-0.2036735769412857 0.2392370540388448 -0.5503974405766144 0.2094492603380826 -0.02099991971979563 0.2881280159106096 0.1233387522986946 0.1003240642965171 
-0.003717485530926571 -0.2030892198567329 -0.2725821910327539 0.3375722390841959 -0.01752506099345130 0.1896061407167357 -0.03637994018470386 -0.02400959420536315 
0.04798113232324563 -0.05852971224167314 -0.08312333975980360 0.1630360758436016 -0.01258266715214894 -0.04683430800444551 -0.07027574791562120 -0.01438422267686733 
0.1104746675822051 -0.01160394097122332 -0.01387548252099865 -0.02048460824883039 -0.01401668731705158 -0.009067689998811959 -0.08323255865626389 -0.007576790497621458 
-0.01584087058287925 0.01117977462476754 -0.05432714893368362 0.1609204278881113 -0.02268226503087094 -0.05284743675189766 -0.02782878271130910 -0.02858341071987366 
-0.2527293147886716 -0.03968047423989016 0.02856857437700726 -0.03571920253199929 -0.01671294877160733 -0.02269781238957459 0.2637745941913794 -0.01139418949657014 
-0.01070477876027634 -0.07788310156106423 0.08317144556544914 -0.03152296270245111 -0.01888643061716569 -0.05821755326409455 -0.02257440066425658 -0.03983299855214146 
-0.008509571918958934 -0.008863814834651316 0.005299611270930506 -0.006975533780716179 -0.004264392704342151 -0.004792196560783718 -0.002228743544808244 -0.004779652141984028 
-0.001154406238138261 -0.001237019822823738 0.001965926798801048 -0.003855902896717046 -0.001518264573664456 -0.003393760856314388 -0.002588277296685488 -0.0006988406531567987 
-0.001154406238138261 -0.001237019822823738 0.001965926798801048 -0.003855902896717046 -0.001518264573664456 -0.003393760856314388 -0.002588277296685488 -0.0006988406531567987 
-0.01665426211819358 -0.009610440338576933 0.03921309097964582 -0.01344463387006276 -0.006065518731232135 -0.01909253426875423 -0.01665329434309120 -0.004520119605711715 
-0.001691797522658905 -0.001817302051595082 0.003082399004504226 -0.005906237569742270 -0.002810815353644378 -0.006015170641817225 -0.005359935074844298 -0.001305260501862587 
0.02212609192019413 -0.1191571074485799 0.2785376841718992 -0.02368710209545924 -0.003481899945888875 -0.01956633970656397 -0.01937473290162967 -0.008242812053342400 
0.05906961475094486 -0.2763751535299363 0.1762160052303647 -0.08538934520875077 -0.04987604297786948 0.009591366341536390 -0.1155536121265214 -0.09871577587830768 
-0.001497876593152343 -0.07540428503141132 0.1229904851711079 -0.01568826182636906 -0.008373949302788833 -0.01923360072902074 -0.02320286065012277 -0.01532758110397760 
-0.009097654553123054 -0.009671896087128217 0.006719920093258641 -0.008825886834138208 -0.004960614769628734 -0.006500456645739270 -0.003545768103212227 -0.005087636831206195 
-0.1281772369112645 -0.1660754395292486 0.1202328717787024 0.1085124466252905 0.02942721814686760 -0.07376088152405576 0.05100496742363779 -0.06366754375428722 
0.1347676779012267 0.1161421795622904 -0.2988586176406078 -0.1008549415519241 0.07908200147762132 -0.1310844402310486 -0.2055320613117914 0.1326011055762279 
0.01514931915199872 -0.008169021094550918 -0.005604363682450527 -0.008320020385683169 0.02228965684119832 -0.005067089704730915 -0.03579957277529740 -0.004407542529135502 
-0.1406730063176682 0.1044459793634611 -0.1998395120695227 0.1205938533953868 0.01711433030005960 -0.04168864817479071 0.1136948779122600 -0.03718668089004727 
0.1613137385987458 0.4680278321974195 -0.6361744838630731 -0.08093180303175015 -0.08228302527468152 -0.05788084610694325 -0.2429702516097396 -0.2312714015102082 
-0.1938807049998645 -0.03450810979780247 0.05926156601988606 -0.01719948487609089 0.03094696871516189 -0.02181297006472424 0.1942211894226259 -0.01347622615584810 
-0.2556402203076665 -0.2141483154086646 -0.07214631659555656 -0.1086379492336315 -0.03218601450816250 0.08345329875619513 0.1150628720505929 0.07516053518932506 
-0.007776884867276865 -0.1503059723095556 0.05201887806017701 -0.05037507979035115 0.009947252967927860 0.1943030886051543 -0.02199372880207992 -0.02468851392200902 
-0.04368209679163485 -0.1788327780835231 0.2017564931458425 -0.05415767588000551 0.004053947769278947 -0.07047423058843645 -0.01795637029955381 -0.04891198596711432 
-0.005375768793702484 -0.02593787406747922 0.07060240586706197 -0.02305365061899676 0.001026937244202736 -0.02165639183404867 -0.008817883585450634 -0.009758172655277546 
-0.02376836265377740 -0.2095092399638774 0.01147843124890651 -0.05723765988509798 -0.02450831537678506 0.07763832417735185 0.02147880172403587 -0.07424241172227135 
-0.03990832603260187 -0.2650761736272380 -0.07134505053938736 -0.07786229480581255 -0.01200640162794985 0.03883430683610222 -0.0001911084493710195 0.1451631444766774 
0.05085791475368744 -0.2188309044133398 0.1816079504899992 -0.05201623250586902 -0.009202970304543158 -0.04479469996755482 -0.07340934471950511 -0.1047805886145127 
-0.0006994903967601461 -0.1104527108651774 0.1094548602585937 -0.04486604714559911 -0.009637316045463135 0.06636296393446658 -0.01734759624295953 -0.04063272040306594 
0.01240786173385749 -0.05528045651166109 0.04791394064063431 0.02774750528086023 -0.04579464542968802 -0.02874892702080671 -0.08410234879983472 0.1639228203976299 
0 0 0 0 0 0 0 0 
0.02106633445920370 -0.2047811248951930 0.2734884199053840 -0.06867315572561057 -0.01925550340277683 0.03657770978753890 -0.06728797968075241 -0.04450735608144373 
-0.1674342149403861 -0.2816991681922659 -0.03919514943777289 0.3819162293618315 -0.004263017390218319 -0.05019321363582468 0.1171772860171457 -0.04342470098157938 
-0.004595702070231932 -0.09721907621109371 0.1222451460295763 -0.08533758077143433 -0.01158556683846061 -0.01569455973253296 -0.02267375557304452 -0.01322739398107131 
-0.01085878481369944 -0.1363331599602011 0.1765281817182234 -0.1246795541505188 -0.02095524864312080 -0.02846325997942269 -0.03207766676754951 -0.02423035482520316 
0.08528777370504835 -0.09936948993869676 0.1143582433383995 -0.08735129472057314 -0.01463856664281006 -0.01739429869955457 -0.1226968281143039 -0.01472743728745877 
-0.001869904521875036 -0.08649640320450523 0.1002200344877670 -0.07085062130506675 -0.007348275697569488 -0.01001611592579141 -0.01634323629645314 -0.008003152960062404 
-0.004740646968563270 -0.01517030883226119 0.03646230517073953 -0.01526956317629073 -0.007326937910250565 -0.009450650651038079 -0.006197341857824546 -0.004089451440361066 
-0.3721660422649152 0.05094086308595349 -0.2623374313033879 -0.006169461421016842 -0.1383266993220340 0.4630355798841930 0.1927279456330283 -0.2237328618398453 
0.3334860106896244 0.1112415552829910 -0.1736496316279997 0.1061969542348717 0.01991043654402922 0.1313425466430527 -0.2612726023502224 -0.07708363121782750 
-0.0002872930223241553 -0.03036241374448552 0.06756453383088640 -0.007513493088006870 -0.0004555235714841312 -0.001921711824332792 -0.001376472505391059 -0.0006577622017764397 
-0.0002872930223241553 -0.03036241374448552 0.06756453383088640 -0.007513493088006870 -0.0004555235714841312 -0.001921711824332792 -0.001376472505391059 -0.0006577622017764397 
-0.03137662242509596 0.8504239474427219 -0.6917238699965984 -0.1255373362396745 -0.04182853337221683 -0.07738898431061231 -0.02558094964547721 -0.07021895965648645 
-0.003308366661806045 -0.07610401950651281 0.2010486823958981 -0.03563479905852875 -0.005358749243951071 -0.01185008509352896 -0.004318381687278276 -0.005707671938013849 
-0.01686306703874665 -0.07505002123638282 -0.04036120776345500 -0.03552243300259521 -0.007548645179582418 0.2500843119901777 -0.0009565794949908182 -0.01328861200831090 
-0.01971694591390946 -0.08125232182520586 -0.009637339577214599 -0.04306624415282970 -0.007955798875527071 0.2368592854809107 -0.002636010084304520 -0.01141348568583060 
-0.02453257808994087 -0.3121467936509905 0.3330593776333636 -0.08975788302875905 -0.03590631577821535 0.1715920971545297 -0.07708429304410797 -0.06866382984361355 
-0.09276572575260571 -0.1619170592031831 -0.2168794432900171 0.2591798097605620 0.002705703491781998 0.2058834183804723 0.1145755781923816 -0.03178862973913103 
-0.01590404464094733 -0.07985792685164822 -0.01931692272150949 -0.03828954543924271 -0.006936227423249953 0.2430654566689856 -0.001415246127584209 -0.01086948154651365 
0.02363464506108759 -0.03434246036789492 -0.05986246156692663 -0.05636432768997231 0.002352114998338091 0.1935096635195966 -0.04389100921857150 -0.01921730444469955 
-0.0004860771089844411 -0.001256513209783957 0.004827328503140077 -0.001512458104281464 -0.001677517974751648 -0.001416380114110518 -0.001612521029669065 -0.0003670807429656275 
-0.0009159542852406075 -0.002543217066941848 0.006367023040920841 -0.002521265345025079 -0.002978429747038686 -0.003235261471079494 -0.003819428905803080 -0.0008240155148506020 
-0.02454935171144782 -0.006659010368714301 -0.0007097285637740859 -0.003804494316029206 0.02335292291403320 -0.007970609072172438 -0.005865233147973797 -0.002151699521056015 
-0.002710848731993303 -0.003906743698286075 0.01037272757673758 -0.004602504280415167 -0.004525465960488709 -0.004183078959146917 -0.004584195300218661 -0.001440450859982091 
0.08347137671811865 -0.1404458600178032 0.2368845992436740 -0.1126791456167552 0.01580269385742133 -0.1382299456532907 -0.08170360273850734 -0.07894705213153314 
0.05133517337094062 -0.08660193671427478 0.04588696481337909 -0.04625016179380476 -0.02217457846901440 -0.04765629517969100 -0.09706519013696610 -0.04025549216993235 
-0.2282745226850449 -0.3512592837494881 0.4274439131316851 -0.2620620139758770 -0.03915617407635654 -0.2065790658581170 0.1639278317526886 -0.1858930859527370 
-0.007136374534016878 0.1348256191819677 -0.05183183661907510 -0.02235126153195911 -0.005048745664510908 -0.01064064752154135 -0.004429347851516837 -0.003752763533373918 
0.07508451358833268 0.4487527826847894 -0.3615653894058269 -0.1377460569078421 0.01362397771732584 -0.1850206891867143 -0.1187265887154719 0.2118092434470485 
-0.07670305288216317 -0.01633164953054063 0.05735638810541616 -0.01324568098034956 -0.007918236380133434 -0.01763808844113149 0.08505793727075600 -0.009129523586109137 
-0.4004545864539563 -0.1745042360823708 0.04783881736274647 0.1585754222021508 -0.02207953511591876 -0.03673938504750290 0.3903581046128772 -0.02821804047543421 
0.02596294180707164 -0.002603895482372011 -0.001077215648485596 -0.0005581392066818320 -0.005526282661919722 -0.006064631527416135 -0.02448980024387950 -0.002388824508947676 
-0.001888988809832209 -0.01504899828375632 0.02082903769671065 -0.007360349892789575 -0.004682059931124350 -0.01364725270134439 -0.004371412698855931 -0.01185418598808757 
0.1158173099201897 -0.002332781825150575 -0.03715398027527498 -0.003657659143509052 -0.003916076913460384 -0.004536737872582968 -0.1044343875834891 -0.002575284353278985 
-0.0004342665184247875 -0.0003925079919229326 0.001451382957523670 -0.0002496408901351322 -0.0002638599847608079 -0.003391919548330325 -0.0007625200385616858 -0.0008123721295647560 
-0.0004342665184247875 -0.0003925079919229326 0.001451382957523670 -0.0002496408901351322 -0.0002638599847608079 -0.003391919548330325 -0.0007625200385616858 -0.0008123721295647560 
-0.0004342665184247875 -0.0003925079919229326 0.001451382957523670 -0.0002496408901351322 -0.0002638599847608079 -0.003391919548330325 -0.0007625200385616858 -0.0008123721295647560 
-0.0004342665184247875 -0.0003925079919229326 0.001451382957523670 -0.0002496408901351322 -0.0002638599847608079 -0.003391919548330325 -0.0007625200385616858 -0.0008123721295647560 
-0.1510207494967439 -0.2352809550187500 0.3324918585353486 -0.1308806704254388 -0.04759156722453498 -0.2171225629673162 0.05577061321682428 0.3954129819586645 
0.003150219297530245 -0.0005046158542852131 -0.005821199946418002 -0.001606247235419991 -0.002899722749287377 -0.003647375640859058 -0.005030558862527921 -0.001559110225095978 
-0.001888988809832209 -0.01504899828375632 0.02082903769671065 -0.007360349892789575 -0.004682059931124350 -0.01364725270134439 -0.004371412698855931 -0.01185418598808757 
0.1374867167772717 -0.0006891672924205863 -0.1037017153503434 0.1520650309180807 0.02750207289772421 -0.1764356906825363 -0.1563972974807516 0.1414151933883605 
0.06482397056672072 -0.07456180675710881 0.1066339753904922 -0.03592390507095267 -0.01449032210770449 -0.04117655169251523 -0.07554808989449749 -0.03811339787517236 
0.1873366455287064 -0.01441368591516016 -0.03510603129239563 -0.1233253853402607 -0.08674990363953815 0.02191183289984668 -0.1189515128376315 -0.07629337515521369 
0.06885769191597875 -0.08215069739104171 -0.08787154320110821 0.2284909951924769 -0.01733905328274838 -0.06226001756761579 -0.05262289958087121 -0.05496636669479861 
0.03461257868478646 -0.08665711725052279 -0.06125543018075998 0.1865602382003407 -0.03082654068877623 -0.06564982447526797 -0.04041538096295964 -0.06630912009407813 
0.01517029226757091 -0.0001728876180021018 -0.001083490049176935 -0.0006339400405644604 -0.0002806655385721965 -0.0001118089316455809 -0.009009686761846462 -0.0001267373156667743 
0.01185580117906141 -0.04443496445642110 0.1183249848776552 -0.03563314708914959 -0.007639344374051053 -0.01589612215788279 -0.02080368094979588 -0.006075326784565478 
0.04912909235139608 -0.003225872793090565 -0.001991774598924571 -0.002760064057228311 -0.001979834515705863 -0.0006608357838901439 -0.04247272488629444 -0.001486142006692319 
0.01517029226757091 -0.0001728876180021018 -0.001083490049176935 -0.0006339400405644604 -0.0002806655385721965 -0.0001118089316455809 -0.009009686761846462 -0.0001267373156667743 
0.001378420482161769 -0.002312488462517842 -0.0001738688199444255 -0.0007731525320148926 -0.001043874160097489 -0.0007566045243695714 -0.001822849049366274 -0.0008425050453426743 
0.5504580926346414 -0.1549769182723909 -0.09638438287051583 -0.08981396763590996 -0.1355104063296616 -0.1095981059741832 -0.4636681501381328 -0.09727009846875018 
0.6190377216426309 -0.2236446634853706 0.04628260903919571 -0.2835854305196563 -0.2299919483127401 -0.2163643203245951 -0.5942607067459356 -0.1809250561385031 
0.05188012925865791 -0.01158134925519961 -0.004338036790490783 -0.006860819282403356 -0.003898928411563566 -0.003680613719141744 -0.06376086103958650 -0.006026833653834518 
0.05762029764103124 -0.01154664996365742 -0.005244754678524083 -0.007113017256508068 -0.005259805403571102 -0.004864859731409989 -0.06429046025695417 -0.006749739237923738 
0.08168320121422747 -0.05434205240745618 0.03956268039338801 -0.01530812350987497 -0.02099481614534949 -0.01380398672128754 -0.08140237644150815 -0.01465436408425985 
0.08577590757179558 -0.007464365763289859 -0.007445087134250480 -0.005673208799288076 -0.003355726222779197 -0.003934907981219941 -0.08495053901448911 -0.005124689078024334 
0.04212797041395706 -0.02415730198432781 -0.0008029945973212494 -0.003062893332495961 0.01103251037658235 -0.008607972929243170 -0.04411096279337120 -0.006141576586560099 
-0.09286958839575321 -0.02404181362568918 0.02863716861153027 -0.01895020705622353 -0.01821357832234971 -0.01821150786476710 0.1131939274462523 -0.008551294833467851 
-0.004308606260145602 -0.01739892182825985 -0.09049335523654159 -0.01838168007465401 -0.004851638570237673 0.1417956743491059 -0.003443109957361621 -0.004382306015398247 
-0.002703410775569824 -0.01143106610511475 0.01935368544678062 -0.01179869954977723 -0.003639908743693050 -0.004826151901402008 -0.0009640170134513182 -0.003066039062307500 
-0.01210789575598763 -0.1118106213426800 0.1894384911493186 -0.03462733573967017 -0.01467738139748882 -0.05259505592010467 -0.006031022304363803 -0.02752398730655352 
0.07668767979141772 -0.1144404210519481 0.1859213401209308 -0.03661466002406536 -0.01989558144692816 -0.05857306154285333 -0.09237030674770381 -0.02971486818350879 
-0.006004861415933085 -0.02431396699337782 0.05830713745748473 -0.01419849821366370 -0.001322451624789930 -0.007507356319835650 -0.001527629293476951 -0.004307259146720498 
-0.002703410775569824 -0.01143106610511475 0.01935368544678062 -0.01179869954977723 -0.003639908743693050 -0.004826151901402008 -0.0009640170134513182 -0.003066039062307500 
-0.03283086839165944 -0.1248421736645746 -0.04611248514037059 -0.06262399794601149 -0.03394551055322671 0.3103220982933189 -0.04445102247300353 0.1075382678125465 
-0.003290758635924338 -0.007088643722290873 0.01691978351819948 -0.008469302125369840 -0.004539079576086282 -0.003053693459066412 -0.002191673384943019 -0.002131076161480631 
0.05221873129263860 -0.05602172393873649 0.08812632132248720 -0.01166550976997893 -0.001764423080193147 -0.01128065242075848 -0.06072028579752716 -0.003646575495957914 
-0.1775242652612634 0.06275558270189512 -0.2360992043692057 0.2768245555207635 0.03484316342122584 -0.1506316790977832 0.1875488109030827 -0.09549033170853885 
-0.001514136399861063 -0.02818982035825505 0.01904948560435756 -0.005343763522907888 -0.002657684989904477 -0.002687994861414169 -0.0006958398033231415 -0.001312399975786658 
-0.2026470987557290 -0.1404028276494939 -0.1066271649135880 0.1385210374516945 -0.1271250506192413 -0.1174988320580668 0.1034921235693362 -0.1261004310270769 
-0.1870853920659631 -0.1688746977717539 0.4953926367063256 -0.2947271685350391 -0.1346780070009033 -0.3068280704001640 0.1145908718729308 -0.3106931492518556 
0.1305847630687842 0.1369854638844341 0.1066195238213107 -0.1073883637315608 -0.04115828028193724 -0.1125224256660995 -0.2032144734093450 -0.05636129554507199 
-0.006858973425203673 -0.1064348351996855 0.1582080929631406 -0.02762638160270647 -0.01060433988844041 -0.02198242638925642 -0.005876991978505065 -0.01198256016198226 
-0.03350914941517068 0.1242428961506939 0.05429647276293190 -0.09906942997712496 -0.04019788684330181 -0.09767494130957877 -0.06483277633036297 -0.05707318598534193 
0.1001864245534436 -0.02906829956181043 0.04747926649579570 0.09614805574264218 -0.0004760911211407155 -0.05088107499541966 -0.1194891276988453 -0.02649284078613736 
0.04178117668944008 0.4597274094117619 -0.1895441127403666 -0.1308064112510300 -0.03642168235875736 -0.1039274099792735 -0.09059155871193192 -0.03670771924667442 
-0.1249419718492820 -0.02907250952397856 0.01072934865513665 -0.009372565023243790 -0.01390222422397651 -0.006266750823037992 0.1359253513509889 -0.004159443039514377 
-0.002463900611793234 -0.01431881462530269 0.02836510157278093 -0.01314484940998776 -0.006007707834574532 -0.005154179117737412 -0.002755422434147872 -0.002260275826885748 
-0.08785881468860987 -0.1155502230724537 -0.08425549834834689 -0.1088696458940297 -0.03229001278636234 -0.1039224069140501 0.05558763090814525 0.1975108302196056 
-0.1329340998209585 -0.1598981865909512 0.1527662529218905 -0.04544745309026851 -0.03981869078867738 -0.1307453608245156 0.06692727836345960 -0.1472147244673374 
0.05788636420180401 -0.03188897726905188 -0.02695213963899065 -0.01678781895415408 0.0004919943109986768 -0.03747806243184737 -0.02062256626244455 -0.02617365865974347 
-0.3413942621688417 -0.1160555266344105 -0.05734492256614802 -0.07634314648458336 -0.07600606130764630 0.1649557262705185 0.4019752356630145 -0.04698509829827444 
-0.09107373671863436 -0.01482138344153252 0.01317297130966249 -0.002939583263728506 -0.006581004323883734 -0.006065349623563389 0.1128686780874849 -0.004642784132335161 
-0.01853886976205753 -0.03605865556735896 -0.02024932101265158 0.08995870939223348 -0.01542700213233877 -0.01889918942127326 0.04592578048952082 -0.01207637023393828 
-0.004711263290406930 -0.09875630088995788 0.1584502670046189 -0.04338126945926848 -0.009474826803169377 -0.04113931219042703 -0.01994846951729380 -0.01586599434460750 
0.01756188382343282 -0.1516318095456335 0.1856604461519521 -0.1172310496517612 -0.02678229147719397 -0.07221837765122142 -0.08254055919544012 -0.04299164688225665 
0.2532931591797209 -0.04669083529157557 -0.1105749363938986 -0.08120144959483268 -0.04023340202517011 0.4102624555483013 -0.2062982481378698 -0.1365114525390568 
-0.001355901368570967 -0.005148115737720535 0.01572932381078882 -0.003775501669659983 -0.001836502874524117 -0.0009461426231100442 -0.0009780632744088830 -0.0007048115885145646 
-0.1233450098844223 -0.07248278068041997 -0.08024363110052696 0.1127199701086324 0.05239319285462372 -0.03436105688203247 0.06311977781282155 -0.01826330194376032 
-0.003211871563576265 -0.01084446661163810 0.03619662520755794 -0.01857407138287987 -0.005270976174899466 -0.009126490561903969 -0.006162124444628518 -0.003965807909588184 
-0.06235219434219809 -0.03149821647313795 0.03926540363139547 -0.03496078071841164 0.02086250853371440 -0.01568758533192654 0.02825002706974272 -0.02023546368259286 
-0.004928095020369286 -0.01342873876036351 0.05111624366493305 -0.02503167696760797 -0.006854642523982485 -0.01088996008146499 -0.006844411108220516 -0.005405074707541360 
-0.01802120206501962 -0.06597326133948597 0.002038105627825775 -0.04178216798107938 -0.01377117217067662 0.1792274379764909 -0.005092009179231982 -0.02522656976094950 
-0.009658973638031736 -0.09877344644764241 -0.004236703432074261 -0.03734767577301276 -0.009517338576696751 0.1627969046360543 -0.005135895343359039 -0.02311694765156367 
-0.01682951122559913 -0.03759806410584035 0.08450578480225718 -0.03736767584791356 -0.01339684125595752 -0.01763479766738066 -0.006728028951237143 -0.01677345448579563 
-0.007555464139987232 -0.02305753887745151 0.06597834173223723 -0.03165492483252007 -0.008637046718123754 -0.01084343162187503 -0.004370318884118769 -0.01022359224225591 
-0.01734310142932456 -0.09713826208116301 0.1542469580523031 -0.1692041583225295 0.0002876409163857739 -0.1125337110083268 -0.1174395315949090 -0.07273075560290015 
-0.01111378097980564 -0.03783731539041220 0.04514805425888681 -0.04053095582648558 0.009535305409627584 -0.01750220775684300 -0.01677762377411198 -0.01690291929206489 
-0.1333344711523768 -0.01847263930246485 0.06359814976146747 -0.08410328644049914 -0.06799467491067065 -0.1569340143380027 0.06657318040882670 -0.08938767241302363 
-0.001979831131260258 -0.005918819592853395 0.004317426905232057 -0.004052336493430318 -0.003724474261046212 -0.01213442284936949 -0.003410407920985465 -0.005201191987523866 
-0.002900526870342940 -0.006708638562736083 0.008590120759399906 -0.01015288065567297 -0.002807766157517367 -0.008165149746964428 -0.003007367593975087 -0.003137858371406274 
-0.003261961649604960 -0.01340474418030944 0.03426811495612792 -0.04350332985557246 -0.002720928256290943 -0.006442753444221337 -0.002800044012105159 -0.004093381361219342 
-0.007432430129315555 -0.01661547627705434 0.02048788698117823 -0.01140550541927907 -0.003742785306958654 -0.009926825166679762 -0.004230742299312327 -0.002739579876967248 
-0.0001930412261131372 -0.0003534757575824836 0.0007861472604530789 -0.0006328426376866970 -0.0005871731583608935 -0.002442940742437234 -0.001952621255409039 -0.0003275414511168641 
-0.1928848738822538 -0.001801810886306284 -0.002383293979617917 -0.001506667285643207 -0.007579289723718828 -0.002457410318574679 0.2026050902739546 -0.002117054670317313 
-0.1944498047224366 0.06267098576928660 -0.03932919563106601 -0.02643421043060599 -0.01328848780526785 -0.004309378700132598 0.2018104995411607 -0.008535614855941740 
-0.1938241136807948 -0.01254100151977828 0.007923040089673343 -0.004033038007540750 -0.008764188519911526 -0.004979497534398495 0.2015710692895170 -0.003125710636559305 
-0.1713226630601345 -0.03218432600370018 0.04475489115978526 -0.03139203484908031 -0.01801223698841632 -0.02655521888707742 0.1753133732667225 -0.008940341224531995 
0.1122965712120562 0.2008798812530165 -0.1411052340800414 -0.07136684745403821 0.0006793965989610239 -0.1010335667369098 -0.09956146413647128 -0.03064143259596041 
-0.007500527912702011 -0.07674020635277323 0.1417638928576557 -0.009407399613037711 -0.007016787269855399 -0.03323679161258024 -0.001866539233460101 -0.01856835726163977 
-0.007500527912702011 -0.07674020635277323 0.1417638928576557 -0.009407399613037711 -0.007016787269855399 -0.03323679161258024 -0.001866539233460101 -0.01856835726163977 
-0.03967202941790333 -0.4694932040352187 0.4954726950781456 -0.2482067727947122 -0.1418016179893515 -0.3067442346267586 -0.1129720404811481 0.01377998528462648 
-0.06913830461387256 0.03768107851893381 0.2587614346843166 -0.08086881888412566 -0.03770832625191637 -0.06636483295843547 0.02955299067381784 -0.1357303059285703 
-0.0003157845170639272 -0.004288394069181482 0.007817362238192387 -0.002713310228588921 -0.002385270828750824 -0.002001773985845101 -0.002259673363021848 -0.002989584941429495 
0.01345006598887679 -0.004438475812921381 0.006648613433812562 -0.002794131791727423 -0.002865377698385471 -0.002967780848049949 -0.01084004875389508 -0.003113798454312029 
-0.0005880826341641228 -0.0008080812524768985 0.001420308822328134 -0.001850353053422030 -0.0006962220652865824 -0.001708260084955552 -0.001317024558403987 -0.0003079846892221655 
-0.001125473918684767 -0.001388363481248242 0.002536781028031312 -0.003900687726447253 -0.001988772845266504 -0.004329669870458389 -0.004088682336562797 -0.0009144045379279530 
-0.0005880826341641228 -0.0008080812524768985 0.001420308822328134 -0.001850353053422030 -0.0006962220652865824 -0.001708260084955552 -0.001317024558403987 -0.0003079846892221655 
0.01484821763528336 -0.02700967700712265 0.1189499428397159 -0.008170612089561602 -0.003359619636677655 -0.05293270215585014 -0.01261763109191925 -0.01346602037305809 
0.05644994866384415 -0.06478347744541285 0.08727010515285266 -0.02103648734450729 -0.01610824518887039 -0.02297050380384489 -0.05605280106189081 -0.02511803645398820 
-0.001295086379025011 -0.0003333397449667176 -0.0004964957510748927 -0.0003210278706403232 0.002847130755893178 -0.0009439122772270514 -0.0003797169646722571 -0.0008458963889504320 
-0.001295086379025011 -0.0003333397449667176 -0.0004964957510748927 -0.0003210278706403232 0.002847130755893178 -0.0009439122772270514 -0.0003797169646722571 -0.0008458963889504320 
-0.002530426710948214 0.1079627187841017 -0.1956529548644538 -0.01985438072712782 -0.008493580394346459 -0.01082269819146400 -0.004354359887608718 -0.01182739056274756 
-0.1518974538461441 0.8895135223571740 -0.8005617663108648 -0.1709704878073026 0.01757520888320607 -0.1372866970863289 0.08302571485575125 -0.08199443711191770 
-0.02681290913461379 0.1166367915255413 -0.07230116111141290 -0.02969541784917664 -0.002666958961206617 -0.009715637925433230 -0.0007272506049874337 -0.005079460874802504 
-0.01017762563639596 -0.002970365232953597 -0.006190293814666707 -0.004266525448632246 0.006233629198095360 -0.003912232975989482 -0.001229030291300293 -0.005976176639390104 
-0.08176814717962129 -0.2504013271812888 0.3888664691114748 -0.08549517771754572 0.05276349413646927 -0.06856978341414548 0.01164042856489498 -0.06727875544685599 
0.1140600798700051 0.4777260926902338 -0.7518385669860477 0.1161699961829170 -0.04857089265520521 0.3790429538022453 -0.1641518189836247 0.08096626408223813 
0.03850136131337831 -0.05327090981637658 0.06685979164005386 -0.02100809991296156 -0.01405951098978621 -0.02078478405963685 -0.05670751569979739 -0.02010197064002811 
-0.01017762563639596 -0.002970365232953597 -0.006190293814666707 -0.004266525448632246 0.006233629198095360 -0.003912232975989482 -0.001229030291300293 -0.005976176639390104 
-0.004119401570398779 -0.002190238413292163 -0.004222571484916472 -0.003878335208301055 0.004011591377260413 -0.003270493747185673 -0.002529028235665021 -0.004750962647251107 
-0.004034976573562526 -0.001119072463588836 -0.002539161088944428 -0.002892436960219032 0.002954166061239607 -0.001698791255469846 -0.0006489670819854860 -0.002971534512974115 
-0.001827238875056202 -0.0008197512560400522 -0.005136768712732486 -0.002299805294191856 0.005833892639386897 -0.001053721909287568 -0.005714949038102875 -0.002088730447734542 
0.1463605985339195 -0.07485588423183336 0.05605610137071371 -0.02908695795744849 -0.01431051956827644 -0.03919972327969946 -0.1388390111917663 -0.01290582447771455 
0.07388427094935326 -0.1021992309036981 0.1484100796670702 -0.05618569212380550 -0.02370472529940514 -0.04332576712453422 -0.08609252549889515 -0.01722986608753805 
-0.3879184518161439 0.2573927843267111 -0.2025012699516657 -0.06580922034724854 0.08253395480695203 -0.07465973586388286 0.2165795244449318 -0.05753049564848261 
0.2264521692189538 -0.2890049958466009 -0.002843802209876729 0.2618269905000941 -0.04909505252729099 -0.1325489936455694 -0.2684395232406645 0.1201653971034099 
-0.001322337605435697 -0.004231871934512783 -0.003234450123495909 -0.009387328366282765 0.01580292707558322 -0.002623153819970168 -0.01052884922100385 -0.004867466508797196 
-0.07196375049442483 0.1935741663099486 -0.1217948884226922 -0.04982001950959625 0.01829918894586970 -0.02234292446655806 0.05459967554626261 -0.01403501067300517 
-0.2718019702326149 -0.2133280661643166 0.1037626403344102 -0.1231692328299030 -0.01458805799315823 0.2121580638474047 0.2481233513770501 0.1292627038479470 
-0.1184093972379027 0.1260796058133245 -0.1956518228896562 -0.08024585324016664 0.04227140423012502 -0.1215673875608787 0.07618774000789680 0.2122800443706643 
-0.004188109989781689 0.1242318919357066 -0.1291481513420409 -0.01881056340030447 0.01909984410595595 -0.03972453302454167 -0.02441502976038495 -0.03996131577316980 
0.04434923686391775 -0.1688743929356102 -0.1035625573950150 -0.07465062294008510 0.03804697628329594 0.2302457632301173 -0.08939501765196553 0.2179004630192244 
0.08026627326802498 0.2931299877475285 -0.2168975265109133 -0.04795133414435653 -0.01752041779057336 -0.05256351931563970 -0.1280931904374730 -0.03200503529526760 
0.03417523918796045 -0.09475499653449031 0.1283562132946186 -0.02385289668552617 -0.001732565173873137 -0.03176629951875491 -0.04838512858548139 -0.03104158001034269 
-0.003338469606945630 -0.006417222264864101 -0.01631133210748068 -0.02349785052482207 0.02555692268938698 -0.009201183718570960 -0.01863235772813357 -0.01088664093974318 
-0.002645669507637836 -0.004280314479571000 -0.001300839318804629 -0.001879580071347740 0.01110783648578545 -0.005200813389361181 -0.003300662463727269 -0.002225852116229593 
-0.005076486576190522 -0.004917354999219392 -0.005784150044147623 -0.003534044483802977 0.01742005235938614 -0.006503167918584665 -0.004923533588695250 -0.004347173680917575 
0.004206253743267850 0.09343933282148532 -0.1129306315703427 -0.01098403920905392 0.01134080488502436 -0.01559247828689720 -0.01756655549036909 -0.009986153100998874 
-0.003936664511138549 -0.004018441262548693 -6.469710468382581e-05 -0.001237422876462462 0.007094974258448961 -0.003435845732877218 -0.0004004621939845217 -0.001875764222963219 
-0.003996906476890152 -0.05291499217269705 0.05395984997947649 0.03016783923225526 -0.008446048326670251 -0.01241247903697116 -0.002830347260361802 -0.006140995895483649 
-0.01101779089300980 0.5883258553283499 -0.5119977706573848 -0.2226842022246270 -0.03824355985384196 0.3590462414353593 -0.05131086395704256 0.1247533094645656 
-0.003139620507382777 -0.03648280797232927 0.07672317801424350 -0.01258079161388916 -0.004128128106701215 -0.009302118610960142 -0.0006560063318652774 -0.003686515979987383 
-0.02539559372038355 -0.06851752335364582 0.1855604817147958 -0.02407957824319418 -0.01064937804727220 -0.06460722834028801 -0.001679653169126336 -0.02141458918608058 
0.09370168708341065 0.3258663679569918 -0.2818843678066640 -0.2271231626089978 -0.01783213986270850 -0.1470305772109267 -0.1273846450475668 -0.1709622592244826 
0.05949626311110348 -0.1456400068250527 0.05961004422250738 -0.04260459516238557 -0.02625842356724186 -0.04624012869219286 -0.009514745711041644 -0.03559478999072725 
-0.004054169137812837 -0.3519900494715254 0.4781850870391953 0.03768934057848226 -0.04007051992586430 -0.1192355430404369 -0.1034089319312836 -0.08043923823082734 
-0.01225892416477037 -0.1267841574619930 0.1210222064353031 -0.01441822390114069 -0.003946041373647161 -0.03032140337606267 -0.01182868758607189 -0.01631253468345258 
-0.06550303190987819 0.08139056142907786 0.1785433540078779 -0.03779005297411562 0.004680242120627693 -0.09627946309914016 -0.006347698334174155 -0.04525304702625536 
-0.01289776182077579 -0.02834039645905798 0.1828131306226997 -0.04148174909723227 -0.02304518181278674 -0.06316462060009304 -0.01608203857065892 -0.04091253297319783 
-0.002765140601186984 -0.05209869122209440 0.02301438600480883 -0.001921692885622543 -0.002889801778665681 -0.007260725326425511 -0.002182273759818401 -0.004525273816308345 
-0.0004018197590683624 -0.009290406220081846 0.04053673088002940 -0.01264569179956739 -0.002827938969127982 -0.004368175564677746 -0.01176990746535322 -0.0009563529855424495 
0.02534832988688928 -0.04937742999169140 0.09644158061620232 -0.01043924674453405 0.001713046962239718 -0.01221797305257808 -0.03084582084301931 -0.02792567494544851 
-0.03070687616426303 0.01949064391912147 0.01389709846175863 -0.03617226361351440 -0.005259310813220931 -0.03659044254773132 -0.009285798309058620 -0.01429699843823626 
-0.2004509321710871 -0.1654763825812595 0.2443790216217903 -0.07833287614137335 -0.01460732162184639 -0.03987423918504433 0.2023312246344257 -0.03143159359817811 
0.08879557554740539 -0.002629799709268123 -0.003517151028387699 -0.001987324284395184 -0.005218200049439342 -0.005978005622748661 -0.08633928444334005 -0.002190880876955286 
-0.4117255623055348 -0.06002268244616185 0.04456719267779753 -0.06157476794233671 -0.02996797698830650 -0.03114992634688932 0.5060936768560121 -0.02350270613086505 
-0.3620407033599580 -0.03204782371467910 0.04267713942190021 -0.04223402820238659 -0.02787214964370898 -0.01851764947925184 0.4026765849707874 -0.02122551108496243 
0.03797392568334528 -0.02362328082170800 0.01937336896116834 -0.01136452026273109 -0.008834299886406041 -0.01119631989321992 -0.04026441802095967 -0.009100290533774771 
0.08736775102057430 -0.04983096444518356 0.1160380595273137 -0.02695132368440981 -0.007010156598813195 -0.01289940396259148 -0.07841403802115626 -0.006178831648794601 
0.1458227150863325 0.1289216191806276 -0.06211840466497168 -0.09103158864729001 -0.03500720775864044 -0.07572239639001520 -0.1711909347806433 -0.06395165955783395 
0.05504479247941885 0.1864960072638115 -0.1755302617727894 -0.02928463127676686 -0.007257103105609313 -0.03574863070790538 -0.08065653677759647 -0.02716553214720342 
-0.003507828221961534 0.08654280794394462 -0.03351061993415871 -0.02468987109190293 -0.001007167049681864 -0.005900029912704645 -0.0006102431800935186 -0.001950661884493662 
-0.02759257567667540 -0.1017918430300414 0.2398770361046075 -0.05834290230745843 -0.01852439555743085 -0.06965772580098781 -0.005940260871932532 -0.04348724468463951 
-0.003507828221961534 0.08654280794394462 -0.03351061993415871 -0.02468987109190293 -0.001007167049681864 -0.005900029912704645 -0.0006102431800935186 -0.001950661884493662 
-0.03432776248587389 0.09786938468964015 0.2925425183162392 -0.1616631234633982 -0.03505695192391166 -0.08437065889070519 -0.02650656207321868 -0.1310008255894702 
-0.07285357773623721 0.1936748782190627 -0.01338855504585911 -0.1196068543716767 -0.02136631325887727 -0.1859211746556967 0.03832882054081859 0.09366807850643874 
0.4081963732710811 0.3536179713158006 -0.4825243268483022 -0.05824321781100263 -0.06013608802768497 0.1051700034538387 -0.5819346261158109 -0.1096527679677392 
-0.1719338285395095 0.4785866702613369 -0.2365174977414951 -0.1843583080220115 0.002231062778297109 -0.1378895924442326 0.1073640574694543 -0.06782971643222946 
0 0 0 0 0 0 0 0 
-0.01915735246582225 0.2062967224521382 -0.3134330497424900 -0.02733937101316035 -0.01694680292589707 0.1453659313060668 -0.02363839445659053 -0.03531036722640069 
-0.002462557407464024 0.1037343838767626 -0.08120927374568683 -0.005723123068066185 -0.005080342353052300 -0.02645984298610537 -0.01321390296298436 -0.01344764537669323 
-0.01781048801124806 -0.04748280715694427 0.1215818727000178 -0.03815683937495605 -0.01554420880110201 -0.06744865879743547 -0.01244969822142781 -0.02538368852669218 
-0.0002864221638799369 -0.0003486239075055389 0.001738174535238237 -0.004133198987652067 -0.0005655490616265073 -0.003171743754193574 -0.002149248494860177 -0.0004432438340053036 
0.005874338737439193 0.01588964447639611 0.01887123120415472 -0.02038139942482126 -0.01075884648036062 -0.04799803628975749 -0.01266415497730128 -0.02949706089781826 
-0.03469131657366809 -0.1121620149161061 0.1926427706505959 -0.06189793381997521 -0.02398256606641785 -0.08418202284312667 0.002256819299500855 -0.02991209539942944 
-0.002411677247151732 0.1690237120250115 -0.1017470481147164 -0.001150094853721834 -0.001222410768227996 -0.008338257576479916 -0.003032029484325777 -0.0004657970849088785 
-0.01016940370872001 0.09153799252260940 -0.01354684469844425 -0.02520934228323872 -0.007017942768258314 -0.01289991779635475 -0.004006035732400534 -0.004057012748063298 
0.01785875457523270 0.2032952816209921 -0.2855630763499976 0.1805948563204281 -0.01166227114573180 -0.09194341062204558 -0.03260560940165969 0.2197792383654988 
-0.01709574761275887 0.1873519783527889 0.006359200624513653 -0.04217548934441442 0.001814844282398430 -0.007135660456226526 -0.009759644104413826 -0.02646509586561021 
-0.008182645057659015 0.1695522711082082 -0.1009653097847354 -0.001056097660401420 -0.0004167552299796011 -0.008138727910639455 -8.406105852079413e-05 -0.0003715307332203595 
0.02710255582232327 0.2431849194498465 -0.1476561427434122 -0.03009934281547193 0.003900584888507283 -0.02720348662287898 -0.05736525585437828 -0.008628135394557950 
-0.04771821188649222 0.5180463588961323 -0.2410415201114527 -0.1133901879788004 -0.02023185489954444 -0.07628213925162240 -0.005702946432766706 -0.03019145164679431 
0.1105655972576173 0.2688998367406841 -0.3684118254079498 0.07499040771627294 0.04112169227540440 0.1251136789434142 -0.1416028101537684 -0.1217879086161361 
0.0003391870334816371 0.1640568814455798 -0.1142014391942791 -0.008990920570300733 0.003317761093336170 -0.01253139617626926 -0.01859573858382663 -0.005981503275964888 
-0.01879493030012367 0.05909705906003548 0.03573256618139013 -0.06730228588215044 -0.01214718293471817 0.1335011808094743 -0.01605037938045143 -0.01566281445020103 
-0.008182645057659015 0.1695522711082082 -0.1009653097847354 -0.001056097660401420 -0.0004167552299796011 -0.008138727910639455 -8.406105852079413e-05 -0.0003715307332203595 
0.006810305251735904 -0.03194318795462148 0.07340360504106666 -0.04237636525725232 -0.008257062220435858 -0.01439882730184896 -0.01884555594649025 -0.01532226717650639 
0.008985072353558577 -0.0006517421608903245 -0.0005820964100716956 -0.001984001869680460 -0.001420972613196460 -0.0007159639774009993 -0.007289929009083027 -0.0008614509481807124 
-0.03685253485806719 -0.004234400133864169 -0.01291720600834086 -0.01468706374063011 -0.01273271587310445 -0.004875564291707402 0.03800272333284384 -0.006738767077423919 
0.008985072353558577 -0.0006517421608903245 -0.0005820964100716956 -0.001984001869680460 -0.001420972613196460 -0.0007159639774009993 -0.007289929009083027 -0.0008614509481807124 
-0.003511674102723553 -0.07341401334362804 0.1219841615344292 -0.05242302547402872 -0.02205372298573811 -0.04687022455281738 -0.02887451509720895 -0.02239224716725349 
0.008985072353558577 -0.0006517421608903245 -0.0005820964100716956 -0.001984001869680460 -0.001420972613196460 -0.0007159639774009993 -0.007289929009083027 -0.0008614509481807124 
-0.1029754969166613 0.1065354273296911 0.04457554636850531 -0.02079428406806890 -0.01092793878621598 -0.01635601255473035 0.1093734992935108 -0.01176990501168488 
-0.2294800127148127 0.09589915611072788 0.02451366076174436 -0.03971900195860106 -0.02040956612554811 -0.01936271215761516 0.2702939036764429 -0.01772838188421734 
-0.2006334198940501 0.2354921744741659 -0.01544500545160268 -0.09200868924543648 -0.02916950888855928 -0.06419029781829225 0.2328658742972982 -0.03324997485388373 
0.5490072398330539 -0.1165341157802814 -0.2612930393399379 0.2289550241334929 0.02703455388173746 -0.08579201518708493 -0.5503338463833356 0.09498466024671542 
0.008985072353558577 -0.0006517421608903245 -0.0005820964100716956 -0.001984001869680460 -0.001420972613196460 -0.0007159639774009993 -0.007289929009083027 -0.0008614509481807124 
0.06690269885867776 -0.008302705742399096 -0.004455452046245245 -0.008940615636867813 0.006670843803349882 -0.003590791726585316 -0.06242172771199511 -0.002467607893715239 
0.1463046656444321 -0.01568358136468248 -0.01764396915647019 -0.008459146809235681 -0.01971635656853015 -0.01208065075659502 -0.1099349770144439 -0.01069235995391046 
-0.001105568566248073 -0.0002882771657932185 -0.001426295832600567 -0.0001918228494305312 0.004311708547362000 -0.0003416950682006919 -0.0003873854808729066 -0.0003257697472234129 
-0.001932178870874581 -0.03022998297611751 0.02199128608569462 -0.005727495779025236 0.002042221160201227 -0.008350250609512706 -0.005182099859686231 -0.006207935846143795 
0.02461776803626145 -0.001622553867354255 -0.006740611189235321 -0.001199200732488402 0.01403639793841094 -0.001974099376606294 -0.01920294823306418 -0.001888211561890619 
-0.001105568566248073 -0.0002882771657932185 -0.001426295832600567 -0.0001918228494305312 0.004311708547362000 -0.0003416950682006919 -0.0003873854808729066 -0.0003257697472234129 
-0.3168292657718069 -0.01543468079594442 -0.009410230954867526 -0.01520615513161431 0.0001843745915104091 -0.007760918372003053 0.3180155187160112 -0.009857261022213336 
0.4037362818032624 -0.1357798380644152 0.02798479544267393 -0.09757631688869340 -0.001285780268563931 -0.1164269800134949 -0.4855268949107776 -0.09212723928360861 
-0.06467837808523119 -0.005015273728428979 -0.01502970671676752 -0.003159265749968854 0.01588032611781188 -0.001962189893753388 0.06180403855040819 -0.0008395067277564114 
0.04484477621914728 0.1317275095621750 -0.1246331058499223 0.05072129016156025 0.08970536028701966 -0.04966449354224082 -0.1103331292004688 -0.03048868012199739 
-0.2478394554241973 0.1159332506840948 -0.2159661786487034 0.4733738645435436 0.03119373563714385 -0.09757863725851468 0.1538805467414901 -0.1842653517323534 
-0.005035492516297549 0.1153898740466893 -0.07544695458843666 -0.007570532717137820 0.03707147392844548 -0.03057898678770728 -0.01173071859225702 -0.004908451476138468 
-0.004421737686336259 -0.005412629923134677 -0.001504214146894504 -0.004713572772727353 0.01837348965748949 -0.0009556993623830194 -0.004564916126200119 -0.001089266586327863 
-0.002208130769954763 -0.002715930958144921 -0.0006587116025573571 -0.003269165419272238 0.008220434675438693 -0.0003830404736447674 -0.002841695183833112 -0.0007686520908252038 
0.07814430048962524 -0.01016121268386509 -0.01616772285013066 -0.007547483142057086 0.01033024288888330 -0.005602487415561446 -0.06422147281364242 -0.006124433896073708 
0.02169405691160891 -0.009867797995962777 0.02874068481475040 -0.01207868666191429 0.007627305142500060 -0.007727241561335954 -0.01911295296479968 -0.003440497971310108 
-0.0005270414543653180 -0.007932340529196430 0.03313954321827335 -0.006974378301801699 -0.0007979305087706363 -0.004246563388285588 -0.001046420607611505 -0.001438745566663887 
-0.0005270414543653180 -0.007932340529196430 0.03313954321827335 -0.006974378301801699 -0.0007979305087706363 -0.004246563388285588 -0.001046420607611505 -0.001438745566663887 
-0.1991805122030688 -0.01926658994868927 0.02663052180428692 -0.01113939229561042 -0.004573970603295964 -0.01119111231582555 0.2176937239843831 -0.008541166467841288 
0.006236972271736935 -0.09888944987796422 0.1590526905315415 -0.01385236572865515 0.004616555786479452 -0.008779831561088629 -0.01302283439715215 -0.006572383657381123 
0.007884031599443614 -0.008265798703738413 0.03100958754720314 -0.007818469689134300 -0.002109816782290933 -0.004433110280053606 -0.01138545856546466 -0.001613934787789403 
-0.0005270414543653180 -0.007932340529196430 0.03313954321827335 -0.006974378301801699 -0.0007979305087706363 -0.004246563388285588 -0.001046420607611505 -0.001438745566663887 
-0.0005270414543653180 -0.007932340529196430 0.03313954321827335 -0.006974378301801699 -0.0007979305087706363 -0.004246563388285588 -0.001046420607611505 -0.001438745566663887 
-0.0005270414543653180 -0.007932340529196430 0.03313954321827335 -0.006974378301801699 -0.0007979305087706363 -0.004246563388285588 -0.001046420607611505 -0.001438745566663887 
0.1351882098651111 0.5601994743205410 -0.4232554634192813 0.04339219387819326 0.001820582308612625 -0.08431028832533066 -0.1826516927252816 -0.04428392395144905 
0.3783534007308824 -0.1834939350742708 -0.3480780364230551 -0.05861866525979909 -0.03066323280070744 0.7031046840632847 -0.3607439508463794 -0.04947006495714973 
0.1004858361364897 -0.009542149029242794 -0.003915743869223156 -0.004846917976748586 0.01084814735406737 -0.009137076121742478 -0.07919167877095445 -0.006025081892344214 
-0.004516610220147240 -0.0003391300111602605 -0.001780906186245371 -0.001264565951181764 0.005793446772419153 -0.004192515693271945 -0.0007376040208928894 -0.0009756286952960483 
-0.003906746534119268 -0.0001797522858602944 -0.0009806094378690953 -0.001142282171474261 0.002540824322287163 -0.0001799652804873143 -0.0001027203516306468 -0.0002387427816918638 
-0.003906746534119268 -0.0001797522858602944 -0.0009806094378690953 -0.001142282171474261 0.002540824322287163 -0.0001799652804873143 -0.0001027203516306468 -0.0002387427816918638 
-0.003493645350816122 -0.0005530491142504741 -0.0001731829160415102 -0.0008075135879172794 0.003419173200494931 -0.002260224429954342 -6.061144631491744e-05 -0.0002674446325438820 
0.07847503635027970 0.1083581382921484 -0.08546654812392454 0.1656114613557179 0.02044332870591410 -0.1442386623187492 -0.1271917840373589 -0.08828134263520153 
0.03680391132002923 -0.1353342499408947 -0.2209167245733998 -0.02857094436300057 0.04206263085055323 0.3328318027135144 -0.07669289778788513 0.09962890750091660 
0.01996606124213310 -0.009702698028035882 -0.003921838029544046 -0.006163050405518532 0.01865358104773685 -0.004712899409590710 -0.03559725602409928 -0.003147645851392626 
-0.01494593240354541 -0.04557854650997921 -0.06821196723998119 -0.007991616433804591 0.01137694872473226 0.1402535025570873 -0.001059162140274362 -0.008275592398973278 
0.01621649130635777 -0.004370339957065884 -0.02610613815107836 -0.005500885280059403 0.01630582728938002 -0.007645076980546417 -0.02893437795818861 -0.005250496900418157 
-0.006190835873918497 -0.004238870233456497 -0.006356603021133601 -0.006817194789998700 0.01573492824040752 -0.004363267792289146 -0.01108631328410997 -0.003164379714594631 
0.09207994253348775 -0.1037304926959858 0.1788964068095420 -0.01930213816283739 0.01359405459856703 -0.07741051480460932 -0.1039479714558862 -0.02343334942456473 
-0.001410835173784863 -0.0003520063283749460 -0.008376682903625145 -0.0009643759733296024 0.003847432281683608 -0.0003966996372525923 -0.002603467171091921 -0.0005598701843135363 
-0.002497590990869012 -0.001225050426123181 -0.009088618601553551 -0.002691407622967905 0.005769245166062365 -0.0008142480609262422 -0.003492868552823113 -0.001408591311817248 
-0.001410835173784863 -0.0003520063283749460 -0.008376682903625145 -0.0009643759733296024 0.003847432281683608 -0.0003966996372525923 -0.002603467171091921 -0.0005598701843135363 
-0.005282244947753317 -0.002682383924280186 -0.01005979098561525 -0.004930901603123226 0.01497581170079181 -0.001941076977350601 -0.004546430323862909 -0.002197607231199905 
-0.003204714322170925 -0.002224381566267244 -0.008811893652458797 -0.003885044783117410 0.01096032839989299 -0.001303335859588996 -0.004130207274789683 -0.001481055138829576 
-0.1168850338800430 0.05687602011334199 -0.09444169532338260 -0.03304882391571462 0.007893339883150531 -0.02932511011178138 0.09684547622789916 -0.02922877087667978 
-0.001552342243535742 -0.01628618280322550 -0.02514893346429891 0.03500990121050671 -0.003329410823904268 -0.008291998552988466 -0.003771586381358666 -0.003493043369886021 
-0.008522893880910410 -0.05855906798843206 0.1471390080149224 -0.03815158950487715 -0.01202974115486107 -0.03317999798532548 -0.009940639987552149 -0.01426270488213437 
-0.0008389301344727413 -0.001945902672715581 0.005248221565668391 -0.002882380752060273 -0.001656669593196061 -0.002450548624932776 -0.001788600508776169 -0.0009128286530546924 
0.04074613799772903 -0.005419974586329463 -0.002821415428768351 -0.003203093182450535 -0.006098406384541407 -0.002235763762490843 -0.03097175421331899 -0.003046093384748749 
0.08573672853886888 -0.03613189201985038 0.05402655742738326 -0.04524988910272163 1.859459972264349e-05 -0.03756323839265466 -0.09536656343580355 -0.01809037265720660 
0.1152105676661647 -0.01460276121676481 -0.02549446752419416 -0.01522370325062778 -0.02184423705342709 -0.01258896108449197 -0.1009682314048044 -0.01367690160742051 
0.04312468986766506 -0.007657102054172650 -0.001896342956065189 -0.004349214399737979 -0.006867864203661206 -0.003145059331228046 -0.03336840974910547 -0.004053374695099209 
0.02812141375735561 -0.004354336519679408 -0.001603274056589588 -0.003166348075529703 -0.004816139092000495 -0.002285220741071485 -0.02184033086287596 -0.002753639273532937 
0.1253718742696843 -0.1191695977542073 0.1992227028374114 -0.03079304031219039 -0.02833477382341531 -0.08822903835992271 -0.1274905391074917 -0.03257203271651334 
-0.1845010153924829 -0.1321008985430845 -0.1140425949106007 0.1485776430839083 -0.05160410151659393 -0.1671519649619039 0.1206954568516210 0.4134088817297134 
0.03229019131385760 -0.001247237874924000 -0.01634927891025096 -0.001196485893715248 0.0003740514014569953 -0.009331987805436410 -0.02667817728631331 -0.003489123652121979 
0.07718091777328809 -0.005326344431428444 -0.02509218059897597 -0.006707851320325902 -0.01276016189091177 -0.01202652764840723 -0.05729184417828959 -0.006551399590475318 
-0.06184949228310376 -0.05965781555964767 -0.4403293588998833 -0.01826510979915073 -0.01366561356920171 0.6563564787186777 0.08510589687710098 -0.01539248135009731 
0.005475268959839522 -0.001292187371992556 -0.001368075981366331 -0.002150120507550056 0.007040508595448216 -0.007113832738858940 -0.006711868598486406 -0.001535718371131001 
0.007812409668449630 -0.003184964088121190 -0.001303402463250343 -0.003421311879335714 -0.0002830832067157819 -0.008115536675280350 -0.007983271486948544 -0.001787640267709213 
0.01271125363670328 0.04955948831531560 0.05559538715904155 -0.09100466689434226 0.004398576072177246 -0.05626897510442541 -0.03169824242855397 -0.02968074011594371 
-0.002433608222632150 -0.003023015016832669 -0.0002693991208533503 -0.001974748278128192 0.004098853004320147 -0.001127455336793441 -0.0009711597553770792 -0.002482866629538462 
-0.002433608222632150 -0.003023015016832669 -0.0002693991208533503 -0.001974748278128192 0.004098853004320147 -0.001127455336793441 -0.0009711597553770792 -0.002482866629538462 
-0.09918316984703303 -0.02684961053730436 -0.05364925853092863 -0.02050329270551176 -0.01739760932197288 -0.01646540545686207 0.1067720483704737 -0.02016116824987147 
-0.01838773973240192 -0.07032289786075795 -0.008435904434001351 -0.02972484849573427 0.008664181227345661 -0.04096419628537609 0.07336198771011680 -0.03320962635197115 
-0.2367353945867121 -0.009241641149455103 -0.009717324171582511 -0.01019870916638327 0.01210694378515300 -0.008378568406924903 0.2671939157496678 -0.004691398930680243 
0.001905509861876538 -0.006812558161744765 -0.01951931291594624 -0.003262142604963547 0.006606754578400914 -0.003544399816896090 -0.006963551848707875 -0.002161993401029017 
-0.0006761386094531638 -0.006658651369282320 -0.0002885245410590370 -0.002834822230077278 0.003063638075232054 -0.001623985346530411 -0.002980795909562822 -0.001687177500826539 
0.07703395899865045 -0.06886494696112024 0.1127893787877737 -0.007193696053605484 -0.01261293458045299 -0.05958801968779910 -0.05961136752570830 -0.01647124575374762 
-0.0006761386094531638 -0.006658651369282320 -0.0002885245410590370 -0.002834822230077278 0.003063638075232054 -0.001623985346530411 -0.002980795909562822 -0.001687177500826539 
-0.1608367243493463 0.1190444091960050 -0.09468696628046920 -0.03676503235087581 -0.01453140382056735 -0.08197653174495131 0.1290481306599067 0.1461580339995381 
0.003596690561051630 -0.002432470699571108 -0.004877048013778950 -0.004313168556073015 0.006362746713641457 -0.001919588995943713 -0.01383568335170012 -0.003254530224233384 
-0.001086755817084148 -0.0008730440977482352 -0.0007119356979284076 -0.001727031649638302 0.001921812884378759 -0.0004175484236736498 -0.0008894013817311924 -0.0008487211275037103 
0.09585248725081094 -0.1176131439554982 0.09970146053707765 -0.02244489456966700 -0.007839136999064729 -0.03915078863679631 -0.1000955971501768 -0.02525561666566057 
0.1256467404377693 0.1536679982309674 -0.4218321299685998 0.1632084890664153 -0.02340309157731227 0.1590714868819638 -0.1732024634861635 0.1211514443083256 
0.004713069923683188 -0.001447581297805742 -0.002484975486485081 -0.002704935281005779 0.0003536347174607680 -0.0008655803773347883 -0.01198438413990339 -0.001168634372538179 
-0.01595988173203911 0.08965437744975137 -0.07974010996642747 -0.02101077873021635 0.03182795927244637 -0.008754628206442272 -0.006009969394679108 -0.004005849724357488 
-0.001086755817084148 -0.0008730440977482352 -0.0007119356979284076 -0.001727031649638302 0.001921812884378759 -0.0004175484236736498 -0.0008894013817311924 -0.0008487211275037103 
-0.003741136353678102 -0.003365619930939703 -0.002353541889162225 -0.001874743536855234 0.01067027673099840 -0.002814499881757220 -0.005905559172634991 -0.001466979002389950 
-0.0003391953988330159 -0.0007381550079818147 -0.0001811998238858568 -0.0008215742946129853 0.002089761665960830 -0.0005203362058587567 -0.0008680977549969574 -0.0004427017202227751 
0.02879342370230958 -0.004910822316102058 -0.007552747187281983 -0.004937169356452169 0.001314099119872398 -0.003153653233577779 -0.02109955032536243 -0.003763337032538309 
-0.0003391953988330159 -0.0007381550079818147 -0.0001811998238858568 -0.0008215742946129853 0.002089761665960830 -0.0005203362058587567 -0.0008680977549969574 -0.0004427017202227751 
-0.2577401444479620 -0.02640430123041502 -0.004779107435098694 -0.004460476217020568 -0.01326827635593422 -0.004373900835223858 0.3130635838116932 -0.002741822131897151 
0.1605932606312120 0.1376818945466646 -0.08132292886730697 -0.06872800600604398 -0.01343922125858616 0.08076504319698385 -0.1268271542828355 -0.03776528638540903 
0.01931712787244765 -0.01762216054054798 -0.1514395517254568 -0.007435764739571342 0.01731220767329391 0.1656391688820202 -0.03127465772835248 -0.01271009867945113 
0.03405709761036455 -0.03346590615138216 0.08703653848060604 -0.02497215919552205 -0.01011686361196071 -0.02822679049285390 -0.03143109556445430 -0.009862390238660802 
0.05647104407569969 -0.02040724975847962 0.008155527498649280 -0.005907966608883628 -0.0005003026223412806 -0.01188155937948502 -0.04678651884279523 -0.006835906165184854 
0.07456324314156464 0.06789032147145518 -0.01981352470331392 -0.04352147660975749 -0.002989280738421062 -0.05784981750226792 -0.08390197841706142 -0.02326775569507975 
0.02222338024235893 -0.002088531349346143 -0.01016846775046004 -0.003760756882751603 0.006311464948041135 -0.001459161363961007 -0.02034112207837653 -0.001253604193435254 
0.05438458888219261 -0.02382246284354951 -0.004361026435957248 -0.003946279560589139 -0.005525745676417511 -0.009741252168652730 -0.05356052273969667 -0.004657668731224562 
0.02273726344791683 -0.001075186223774078 -0.001407479499760172 -0.0006419945968164322 -0.001876209335770158 -0.001117390303770946 -0.01212913176519810 -0.0005146779846776198 
0.1010907933218881 -0.08249848741727536 0.1418618073042964 -0.01965408053698736 0.01475212764212805 -0.01565296581610435 -0.09929108462861502 -0.02000639234503469 
0.06914080018331250 -0.01953089536329166 -0.04238013003311594 -0.06555621948342988 -0.04238742326223765 -0.04274127260627326 -0.01275848938347835 -0.03725349950420587 
0.07222353875092136 -0.08685305196320780 -0.1494435575761134 -0.1347689277744975 -0.1774073881708299 -0.1215757595879718 -0.008575562250349797 -0.1153568963812884 
0.001815526803707402 -0.02055987952833080 0.009900279878827280 -0.03367886079517170 -0.001233206083377658 0.09377233109070840 -0.02071796259881406 -0.006868123475312202 
0.07329106437386346 -0.003229384862331254 -0.01044943892490615 -0.003052016248575596 0.0004308594202670860 -0.005130171100100616 -0.05107684156876868 -0.003472390797334648 
0.005799825740767336 -0.0005745372000575072 -0.001773039788556673 -0.0009779036313674761 -0.001568178166917991 -0.0004480319536611387 -0.01109498275817219 -0.0003199132450344685 
0.01824638634184527 -0.001321545141083509 -0.004646562024808812 -0.001272808313695971 -0.004048999440112378 -0.0008068067400053599 -0.01932836844131180 -0.0008723300561671475 
-0.2650175245462510 -0.09699329531524362 0.006631125310505434 -0.06968844838580034 -0.02298848966185128 -0.03884423478001149 0.2375924519184814 -0.04484357207873672 
-0.08419748554774888 -0.03834520429761155 0.07493096681385354 -0.03170222943958585 -0.002702265505790877 -0.03966460180254947 0.09719231327663101 -0.01462033034554707 
0 0 0 0 0 0 0 0 
-0.001769715721620355 -0.0005110797122310441 -0.002684931821355358 -0.003921911862558453 0.01029478657391205 -0.002416014303052134 -0.002238716604608068 -0.0009793273947009100 
-0.003631922653009084 0.02260337184292200 -0.06187384654727744 -0.01471597606847964 0.003330601601732568 -0.06837194416247404 -0.008349757692194850 -0.01820777805227034 
-0.0007833506231771404 -0.0002743832112947550 -0.001377687082403450 -0.001635866215597473 0.001766033112408170 -0.0005731456578460386 -0.0008311053444622061 -0.0006164361939382988 
0.02036953173671200 -0.0003425413924684988 -0.002971834080266785 -0.001886085134793883 0.0001899905982641953 -0.006175166747375227 -0.01137763693673704 -0.001232130973640146 
0.08249506345442345 -0.02488770133041069 -0.008300471593974837 -0.009878646244009730 0.01145765954562513 -0.01468186702534537 -0.1002299369246839 -0.009116842857256557 
-0.002200647911648650 -0.001251561479820328 -0.003646674974893290 -0.006461367484313753 0.01214421369831653 -0.003354566356029487 -0.003997622580098444 -0.002165137277052534 
0.1708983832364754 -0.3924752879334236 0.2706755887976187 -0.1301347308015301 0.06628670486808413 -0.1259063205666761 -0.2880106336386865 0.2608650210392270 
0.07824456832159701 0.09409887051468976 0.07304152639282073 -0.08155301267604416 -0.01679619472359617 -0.06784710825566277 -0.1098938383900603 -0.02598510453759202 
-0.003009543939912922 -0.0007197780443277758 -0.003398773717612371 -0.002642625794748506 0.01719290808476459 -0.008679394522756912 -0.003098929695342027 -0.003975733777847630 
-0.1200911110773648 -0.005991143230143468 -0.003563446086685186 -0.01555314740992753 -0.005915250440766591 -0.004319160127048520 0.1368517075914088 -0.007971946900516974 
0.01175309306267147 -0.002310486839529209 -0.01053998126629310 -0.006944321029753558 0.02897728418127817 -0.004736715579127125 -0.02072953641189183 -0.002762350043777697 
-0.001417297288471511 -0.0009771782685255735 -0.002268987892489842 -0.004825501268716280 0.01037818058590836 -0.002781420698183448 -0.003166517235636236 -0.001548701083114235 
-0.2796490948902523 -0.04460311100463585 -0.07991250497635358 -0.04123020240536215 -0.05051709424108206 -0.02650172338725522 0.3018009498102133 -0.02990364215965961 
-0.02555994227472354 -0.009256314218828596 -0.009967216164664524 -0.005577419384565896 -0.001921049768080164 -0.004988776017996648 0.01332421364439201 -0.004186441608145025 
-0.02229046632697999 -0.03471896505778123 0.03470193551223302 -0.04217688441482120 -0.008721610666293896 -0.04034742621802261 0.03374325533066187 -0.02715002744413991 
0.03535106456576116 -0.004167653438152497 -0.002004898229241691 -0.007051310994323136 -0.008269193886671139 -0.002251608083072355 -0.03563933101777939 -0.006416732721599341 
0.0003627863426714896 0.1262646941416949 -0.09904941453350329 -0.01290268415489617 -0.009400213928139247 -0.008642626639190378 -0.01247672825146342 -0.01001491605787502 
0.02816875992933577 -0.02183725577595513 -0.01356341451156852 -0.006626142576435241 0.02583424369956748 -0.005676125294383075 -0.05223015102803655 -0.006781145455830801 
0.08124517348481507 -0.1410974778198637 0.1412000129665295 -0.03185284433540797 -0.01427855606823587 -0.08825852641225405 -0.1024653936236031 -0.03421153745512902 
-0.4013064100131913 0.3052065295638285 -0.3825258839562138 0.2615828273126589 -0.03047144909727275 -0.1486023365034239 0.3567384485716718 -0.1006088558927906 
0.01972044938131280 -0.003505745324209328 -0.01191756212802562 -0.003721923291607122 0.01135217889263335 -0.002569790819040314 -0.01740260305276566 -0.002194954889064175 
0.002961034357056653 -0.0007397532656649782 -0.002864518206113410 -0.001367054507646277 0.001677584471070722 -0.0007581020649953831 -0.005675860596473023 -0.0006477151510825340 
0.007393312936658614 -0.0005325758459520894 -0.001627005846944472 -0.0002680820056737384 -0.001016816180013706 -0.0006034710673547682 -0.005577722706549062 -0.0003242654634602971 
0.03821708786077944 -0.1030737034378403 0.1647131144778214 -0.01542911946297349 -0.008749683533363500 -0.07875180973021473 -0.04229359474999717 -0.02638399994769859 
0.007393312936658614 -0.0005325758459520894 -0.001627005846944472 -0.0002680820056737384 -0.001016816180013706 -0.0006034710673547682 -0.005577722706549062 -0.0003242654634602971 
0.03812087331540009 -0.001110183422550704 -0.003826452511273400 -0.001149149358493943 -0.003087952650223231 -0.001036087838752623 -0.03272156501968945 -0.001615801488350365 
0.007393312936658614 -0.0005325758459520894 -0.001627005846944472 -0.0002680820056737384 -0.001016816180013706 -0.0006034710673547682 -0.005577722706549062 -0.0003242654634602971 
0.3702464002472797 -0.02951358922857663 -0.01086886199951856 -0.03012817574381340 -0.02082586474058234 -0.01357697817450442 -0.3624552474639464 -0.01556845421306504 
0.05583088343059887 0.1311901907407199 -0.06117363192322579 -0.01692678063342027 0.02234406103691567 -0.02288960976511476 -0.06448281280794545 -0.006545610410219397 
-0.006660060202575780 0.1211879596821734 -0.1127993729298656 -0.01394747284969755 0.01108984130036956 0.1371005391853967 -0.008003264082530399 -0.005008486752718727 
0.002230877708296651 0.1205301215922724 -0.04051838186365003 -0.006624598857147905 -0.002224022870976346 -0.006308914947073478 -0.003608899540184584 -0.002112159728291477 
-0.003524975996083412 0.1211424161097531 -0.04008751558476609 -0.006458402277810489 -0.001367513067470620 -0.005303021400852095 -0.0003398012014230093 -0.0009724412855601896 
0 0 0 0 0 0 0 0 
-0.2642922794331151 0.5717559397887387 -0.1612779123748929 -0.1430480687102649 -0.03538839471566616 -0.1733395836792389 0.2871249157809600 0.08346605084546210 
-0.07833844922723664 -0.03837326676241411 0.08877878752589442 -0.02635368018094169 -0.03800721455849071 -0.02922336127553107 0.1225551650433324 -0.01393967500620203 
-0.008522284668205253 -0.09437860489646448 0.1563571907657729 -0.04980168523270330 -0.01982887712148577 -0.02196994138238744 -0.01482684952363011 -0.02256689976611745 
0.05387289708354543 -0.01500374492821132 0.06339760235910025 -0.01865927487695627 -0.003940710665893615 -0.005888276508835073 -0.03835781462740308 -0.001617903474312318 
-0.2697145761421657 -0.3387703161900262 0.5009762832578650 -0.1232164563773349 -0.04238279077157036 -0.1130012163029965 0.2410130296136124 -0.06842450475770824 
0.1217492879540865 -0.04643872328003088 0.1350501667606961 -0.03007464968100515 0.01032519984787929 -0.01440417928018348 -0.09034177619639962 -0.01235470393329776 
0.08003284007195155 -0.02771810730311684 0.07850866515624669 -0.02178610628537742 0.0006494286922027387 -0.02026131651436536 -0.06274465898941727 -0.003790900544152196 
0.01496190444475208 -0.005960190992676132 0.04293037965235638 -0.01173368466981860 -0.001845667630177424 -0.002535200511005696 -0.006942032174448082 -0.0009298543531737056 
0.06940854554812312 -0.05850401356809649 0.06927972152939743 -0.05659891054120923 -0.01768729404364084 0.09604307790477495 -0.04102988458119748 -0.02545153416591935 
0.01252140710879056 -0.01141566114083754 0.06883405695133256 -0.01496516079517490 -0.0007405810657340758 -0.006320281547895284 -0.008508598480639111 -0.002161005419425871 
-0.1410263445024119 -0.009732316674706592 0.04482849445513546 -0.01749559636822311 0.002477684416843627 -0.009069225426813425 0.1756873272948730 -0.004617582859993021 
0.007330425931786934 -0.001134121451339628 -0.002465610643261077 -0.001829684877183412 -0.002813242528654503 -0.002881726547654291 -0.008876791316818115 -0.001468516374855166 
