solver_type L2R_LR_DUAL
nr_class 2
label 1 0
nr_feature 21668
bias 0.000000000000000
w
0.1636956591572956 
-0.3802875641236342 
0.05203059802773305 
0.05203059802773305 
0.6226415038315910 
0.2273358800475731 
-0.06162405383347637 
0.05203059802773305 
0.05648114301326417 
-0.01542481992079252 
-0.3141199123889725 
-0.1754284180377758 
0.06888043804859079 
-0.08956644357816894 
0.3598419506472919 
-0.5606741446462514 
-0.1105674569269288 
-0.2590651512919955 
-0.3234042185851463 
-0.5379490336393135 
-0.2376510755697347 
-0.3246493511881936 
-0.06223719833075396 
-0.003956057637742334 
-0.1078934418030914 
0.2934459985849020 
-0.1732145801349840 
-0.6178583144719336 
0.1843181140679285 
-0.04768505820006878 
-0.1773376528276010 
0.4870508569537564 
-0.3677341547966886 
-0.1571559956662450 
0.04282011274884900 
-0.2302196263012599 
-0.1613055587778962 
-0.4061872495838103 
-0.1294226904384466 
-0.3854569542777276 
-0.3023658731186952 
-0.4078159110621047 
0 
0.04585551466469532 
0.1162859508013567 
0.3116961161303968 
0.07947608587605726 
0.6006194957319139 
-0.4373836034524267 
0.4130508580483164 
-0.2799637326162482 
0.6506595212907201 
-0.2717513040032246 
0.2735204648559740 
0.3934141504833521 
0.4451284655704272 
0.2843652777494898 
0.1421592923687816 
0.1035346162756054 
0.1781373465684952 
-0.1338236556473036 
0.07128609635495100 
0.05824061658429687 
0.09346194963377341 
-0.04910737754547425 
-0.3418115403158511 
-0.01105680724278843 
0.1386290239118800 
-0.04135049002784722 
0.2683985629824722 
-0.1694896607941498 
0.1435832374093187 
-0.2929993756971981 
0.07421293199123076 
0.2152769790188961 
0.02064691749816251 
0.1525411456425444 
0.2587270502804370 
0.008372956534992194 
0.03810938496309531 
0.09857564181394540 
0.2006713498901699 
0.3749265319753218 
0.2424510454086515 
0.1434419329616471 
0.1184939336701381 
0.5301693737974590 
0.1314504898467364 
0.1106582096489062 
-1.017621211417085 
-0.6803192325293586 
0 
0.1648692536612648 
-0.1293099501992649 
0.1144770370957656 
0.1184186150004993 
0.4563241477594310 
0.06934137982772016 
-0.1155360853883426 
-0.1293099501992649 
-0.1386776933461256 
-0.4150600572563211 
-0.5674430688955099 
-0.4098071281083878 
0.1361502323638776 
-1.068927938192111 
-0.1468615730723652 
-0.7016354210630571 
-0.4736413609426414 
0.03288691416498264 
-0.4373446043726095 
-0.1156465760353451 
0.2360195884877036 
0.2532573805587100 
0.08843082966054142 
0.03914957308526892 
0.05998403748927872 
0.1981924669814139 
-0.2795843561043580 
-0.03738959322374281 
-0.1596957105912030 
0.07973809646720742 
0.06555359022075002 
-0.1375492526221213 
-0.5645201959051090 
-0.08127876680566137 
-0.007291764290907850 
-0.1692173003175087 
0.3438897469634049 
-0.1739948628525293 
0.02913186140506810 
-0.1342001516705394 
-0.1204869535750652 
0.09090943851977522 
0.2498537040949695 
0.2302102018686486 
0.1868488829231019 
-0.05657862483845951 
-0.1983551189383278 
0.2415448142399903 
-0.1005178832339977 
0.4049878434852285 
0.1625582011708162 
0.04938535500563530 
-0.2805471077975705 
0.05992141002891912 
0.2879934838199953 
0.2879934838199953 
0.2879934838199953 
0.2576155413173470 
0.2576155413173470 
0.3642780088713780 
0.2097125639305239 
0.1201250374551968 
0.2272574522428319 
0.2209452853250395 
-0.1393984019899995 
0.1083689561776432 
-0.3124676260358663 
0.2729497009478876 
-0.1086901114665041 
-0.3310775469310691 
0.2369349989305924 
0.004048694095890447 
-0.001586284941305650 
0.04241210005226374 
0.08687519310179227 
0.1571532111936792 
-0.7551329683198780 
0.08687519310179227 
0.2639755477243367 
0.3247104356387920 
-0.1489321067196276 
-0.1843046965999388 
-0.1782600539473460 
-0.09910305052262881 
-0.02141442002709521 
-0.05975987654597117 
0.1207981094090052 
0.2010567965393874 
0.4858575017514676 
-0.1419397400607688 
-0.1056765553276812 
0.9248792297043398 
0.02823565407509423 
-0.7035911371518920 
-0.1684823360829804 
-0.4825722559820822 
0.1634479947421311 
-0.05135293319684629 
0.002498883979624261 
0.2374944186897486 
-0.6023139368362596 
0.1210918917799889 
0.6749603403437786 
-0.05847600507413157 
0.9145843954346005 
0.3669047617250333 
0.5151258065060603 
-0.01710361000788569 
-0.5808708509404540 
-0.5570786496492585 
0.1404603495954732 
-0.5263292852242786 
0.3842020535049784 
-0.1172085125836336 
-0.3560137244853395 
-0.003780233567044905 
-0.3800298115614624 
0.2186797740697420 
-0.2728655421878015 
0.1943216024653786 
0.0005044329843008285 
0.4626500565701917 
0.02783805701292149 
-1.098310342598788 
-0.3400519013334187 
-0.2080643830160395 
-0.1400434619656464 
-0.1241244135405471 
0.04070539808703177 
0.03862525677033144 
0.03862525677033144 
-0.1355573501199875 
0.03905881132082131 
0.4090110341545672 
0.1893588836549386 
-0.2209563773845966 
-0.4094332851053063 
0.06472398414545213 
0.4847674946963473 
0.2835525713377112 
0.3387245215039126 
0.4715016184093885 
0.2536602087144787 
0.6380879006884667 
0.006508662723753197 
0.2771216461393352 
0.1811728023653920 
0.1128300869342432 
0.1382223445716721 
-0.2165616758305113 
-0.1957923465622952 
0.4691830475578925 
0 
-0.1417398048270407 
0.3525987806551436 
-0.02653181711082654 
0.06392996903007590 
-0.02979546112285375 
0.08248699571228173 
-0.3207818407254822 
0.2052055980417809 
-0.4303251910292121 
0.1499477843781081 
0.1499477843781081 
-0.6836737679635543 
-0.1106434751943829 
0.3023708884711754 
0.4227654324305118 
-0.06759922650175923 
0.04097619947932470 
0.2765938213784682 
0.3355405168535590 
0.2187789876169956 
0.004012369570597862 
-0.8028273551701411 
-0.1708681310542882 
-0.01362248298019281 
-0.2061610069536078 
0.1852579467720833 
0.3271657446179014 
0.1423232889257678 
-0.2296827672626350 
0.6490499014579655 
-0.1112903669771567 
-0.1302657679735065 
-0.2879998485355466 
-0.1936357593802686 
-0.2808614048635610 
-0.1936357593802686 
0.06196304570919128 
0.3949017358906982 
0.09676983593026123 
0.1253330371159534 
0.2558599685223910 
0.07884425133029187 
-0.4313246900746490 
-0.1555393403545362 
-0.2775139919037870 
-0.03940261725179609 
-1.074402079425104 
-0.03169759369658654 
-0.1206417696199727 
0.05181050560951905 
0.5508302656070114 
0.5879513658498646 
0.2146513607035137 
0.02656421161238974 
0.07032112171293363 
-0.002726546520881891 
-0.9817493877924397 
0.4120574086421369 
-0.02871910710339447 
0.05422673815986520 
0.3963411898024107 
0.02037989512482332 
-0.03969835631771342 
0.05422673815986520 
0.03214950608282878 
-0.07993849566142039 
-0.3647815597028745 
-0.05825289687079691 
0.07941301701500617 
-0.07200219763096316 
-0.2719464784033988 
0.1265943802217019 
0.4041699983848794 
0.2839720485456508 
-0.02072717740953711 
-0.2095864329980702 
0.1865069252946144 
0.01169912300987969 
0.1698121435117205 
-0.002309214036111594 
-0.2493796567349461 
-0.09392216973285007 
-0.09478222720385230 
-0.7782379199014768 
0.1765399045566325 
-0.02013572083601537 
-0.1523715524109332 
0.03490549588187292 
0.1968896726711343 
0.2597278673550142 
0.5604012927120765 
-0.3857996378097287 
-0.03903625018166890 
0.3634159137651469 
0.2221988027471541 
0.06662461603947571 
0.3405202439715983 
-0.08263244555555617 
-0.2073080364036067 
0.1234034194640951 
0.1153753243989403 
0.1259253393018140 
-0.09807471268979936 
0.02585686366879196 
0.04480475409148082 
-0.05593989274176932 
-0.01264533504600624 
0.3819936895035194 
-0.2000086146699359 
-0.005044661706165826 
-0.005044661706165826 
0.5227469635510855 
0.04502544036928240 
0.1214339181536231 
-0.1051680742824543 
0.02600905138857617 
0.06432062427563758 
0.02600905138857617 
-0.4677647132716432 
-0.9173103710360253 
0.1958864854850422 
0.1958864854850422 
0.1180751325318230 
-0.2550827152405052 
-0.1387228398750935 
0.5783311165160804 
0.3873901680078803 
-0.2681891428888308 
-0.2856177247940960 
-0.2300768848082271 
-0.4985562093188813 
0.04472591540513755 
-0.02248465894999495 
0.003054858777658021 
-0.06158934990132681 
0.3831389760132671 
-0.5043710783024800 
0.5519668553646517 
0.4906970795632124 
-0.1757336200023427 
-0.2990193363189415 
-1.284513106109649 
-0.9902512427709297 
0.3836258907206404 
-0.2795224041134428 
-0.7055608975109388 
0.2871678543016238 
-0.3123942121607093 
-0.1855933170374655 
-0.1407334107712755 
0.1066183746716863 
-0.2716612206251825 
0.05014648291490739 
-0.3756040098696197 
-0.1438503503917233 
0.7794487724755905 
-0.3811893799872031 
0.1965482909648310 
0.09752283772039974 
-0.4055647097189309 
-0.07275348497828280 
-0.9749934435490514 
0.3929770685040286 
-0.3787793089538186 
0.3111636117233302 
0.3740516969049640 
-0.2417519847787408 
-0.1381027150065624 
0.1750348701820315 
0.05874514517222429 
0.06657607025810619 
0.3559241374117969 
-0.1028488387490833 
-0.2650615856016358 
-0.1028488387490833 
-0.2566336825156622 
-0.09051545000874055 
-0.9576228505268716 
0.5572482760997085 
0 
0.08501214783808701 
-0.1217816848797429 
0.4014325127420466 
0.02304957507501459 
-0.02691853667998462 
-0.1566923159186304 
-0.4916165117295594 
-0.1236275097743534 
-0.01643350072336564 
-0.2509791700892972 
0.07129002874624965 
0.4637567833202270 
-0.3607573121603131 
0.07484513711380186 
0.1830039923715428 
0.4370097236728687 
0.07129002874624965 
0.03377321931637538 
0.02493637995390953 
0.08785189730252585 
0.02493637995390953 
0.2640432140513633 
0.02493637995390953 
0.01362995303725118 
0.2871698209629741 
0.2762260399131900 
-0.2195277119158897 
0.02493637995390953 
0.2715137855286399 
0.4176874241382395 
0.1123545344267775 
0.4094298850159038 
-0.07413074224902257 
0.1123545344267775 
-0.2312606491044389 
0.4547490376862874 
0.1662789756241182 
0.4524509368982830 
0.04042102511684362 
0.1666726509993239 
0.3561146874700080 
0.3970685497722775 
0.003456356723284534 
0.07853804030719337 
0.08448762704342061 
-0.04004703732518933 
-0.3565242376924518 
-0.2471036629714959 
-0.1769671899268865 
0.08448762704342061 
-0.09401934113769936 
0.08448762704342061 
0.3600707754188668 
-0.1833531029532974 
0.4266382531710768 
0.3619511006645870 
0.2604858877094889 
0.2604858877094889 
-0.1493599757365064 
-0.2168262945236153 
0.5244289301081974 
0.4283198134883688 
-0.2612753663255452 
0.2235587071789289 
0.1706101675715010 
-0.1265616504295113 
0.1562584039209657 
0.3012026335882551 
0.1562584039209657 
0.4366386507203273 
0.2896531100336554 
0.4445390408416660 
0.1412888801744997 
-0.2501931437379527 
-0.1888345109101012 
0.1497841379679654 
-0.2938989927819825 
0.07961498218046435 
-0.2390443494564896 
-0.4435747346126839 
0.6036724559257964 
-0.1378830377973899 
-0.002712027035207064 
0.04811128958538910 
0.2211665307848136 
0.05926731312573118 
-0.3341711035769793 
-0.1261840949063786 
0.1908699183468705 
0.1908699183468705 
0.9608185512432460 
-0.2433075545899959 
-0.1158653123818605 
-0.2497947108366605 
0.2206569217832272 
0.3762269609045448 
0.08681296443540995 
-0.1592150438972782 
0.3219463063347240 
0.1449442296672894 
-0.7171561542485440 
0.2821323460073149 
-0.05912949607966550 
0.6711545367102552 
0.1449442296672894 
0.1928270630008211 
0.01691167928480758 
0.2821071161867942 
0.01691167928480758 
-0.4303362428648333 
0.2852507976763468 
0.9193608247781432 
0.04115720969407991 
0.04254344202184347 
0.3602410727406783 
0.05898506465267238 
-0.2443689457630099 
0.08735775285871897 
0.3308742684474352 
-0.2181435095945717 
0.1087968705969269 
0.2334880941428191 
-0.2544047258370515 
0.02139364086143789 
0.06691444371046684 
-0.02680435703535660 
0.6743695944160891 
0 
0.2850852544657574 
0.3599995205068984 
0.0009755229756194250 
0.05246711175955053 
0.07181063838124654 
0.4391118025451872 
0.1481387237025862 
-0.6466054183506795 
-0.1587396489426183 
-0.5642855320348762 
0.01507538205218277 
0.1639264644389896 
0.3338733499677938 
0.2980911111416100 
-0.8283611646448304 
-0.01463068216694633 
0.1599424339068983 
0.2507224765217307 
-0.01783018708516470 
-0.1193779781806104 
-0.1914872178453698 
0.2033490313961260 
0.09285185997045910 
0.2383990950620080 
0.01910341486769322 
-0.4000901232142477 
-0.06814669741711825 
-0.1110997444238591 
0.2019292586963578 
-0.07288727831028341 
-0.3176851174252994 
-0.09789958391630472 
0 
-0.09162130372358515 
0.2212946892507001 
0.3974658430549701 
0.07016219695226439 
-0.006699252103543854 
0.02018775125170813 
-0.1392821473629499 
0.03679020199327636 
-0.07911502900923151 
-0.3026133928525864 
-0.4909983884091925 
0.1893072440038472 
-0.1698745120500930 
0.06283858361079118 
-0.2337145992832135 
-0.4215894968429930 
-0.04635963912347042 
0 
0.1909448926919724 
0.05856381183219107 
0.08945174296503906 
-0.7470116988534768 
0.3349320817188849 
-0.4278411731949605 
-0.4528783641850639 
-0.1435904042518292 
-0.3986822934008761 
-0.2489021663667255 
-0.1291750406790515 
0.05390876834108883 
-0.1129218210762334 
-0.06793250125339724 
0.1529675441572958 
-0.2645940130136648 
0 
-0.5250600230930775 
0.5821252648733792 
-0.06905039996080284 
0.2265674966908761 
0.08093702455618795 
-0.03502861026970763 
0.07335781579832563 
0.08810349169673020 
-0.7698083044454926 
0.09043427622664046 
0.2542748796767506 
-0.1174366509232734 
0.1555926645682389 
0.2815001891386469 
0.2815001891386469 
0.2559750182841432 
0.4898604570307351 
0.04385887138595170 
-0.05646518709061097 
0.004706473775534662 
0.3053287651906183 
0.02798369737793483 
-0.1062672241613826 
-0.2181360496472641 
0.02005463873440844 
0.1225742767378918 
0.4609114774253869 
0.2736589875192523 
-0.1335493376369846 
-0.1548518107122491 
-0.4770144442989032 
0.2037250356345342 
0.06947130891716269 
-0.06140689892305916 
-0.4329999187447174 
0.2618593457755581 
0.02489259378153187 
-0.2700426604682120 
-0.1232763462034657 
-0.2350707784651042 
0.03461294712609556 
0.03461294712609556 
0.3346174453562012 
0.3073983259019521 
0.1861418271253814 
-0.1266173299840444 
0.1070066241043887 
0.08592924517158220 
-0.1071344396677632 
0.06439813032533169 
0.1094538768076989 
-0.1444155740354701 
0.1341985273137644 
0.2820845902159636 
-0.1839585090449395 
-0.1867830892579217 
0.7615560762990694 
0.4337043265074246 
0.1827368294132965 
0.2296995303197226 
0.1914644126997475 
-0.4096713926470463 
0.3036760988451370 
-0.3842519227939175 
0.2378804708634320 
0.4914822366369950 
-0.2455857814831453 
0.2528110077919451 
-0.4579784423690843 
-0.5793399890348777 
-0.5101271285308009 
-0.4936549037228683 
0.08691141693939596 
0.02777196953825427 
-0.6112534760241373 
-0.2670547115660548 
0.03256349709862914 
-0.6377942839773871 
0.03471034844273900 
0.7602957728808681 
-0.005823892478063447 
0.08587036474430820 
0.1011252578358023 
0.1770549226504763 
0.1770549226504763 
-0.7739134338353033 
0.2306117046309395 
0.004570527320362702 
0.4207438800084238 
-0.3495603275823473 
-0.2649831022253365 
0.3974870630869098 
0.04794847004654498 
0.03911383218252899 
0.4064734665809817 
0.1289308349007960 
0.4505269639476766 
0.5054661839177230 
0.05414419652348187 
-0.5281338027854413 
-0.1688674866068072 
-0.1411337946180139 
0.2310845762788832 
-0.1594277904647629 
-0.3933414329639481 
-0.07172364968175086 
0.1360313403454546 
-0.3353417576682399 
0.3337270963223625 
0.1641952920943021 
-0.005721400328229598 
-0.5028867177884412 
-0.4301238437262377 
-0.3812534666684322 
-0.6635069664101069 
0 
-0.4974348380898838 
-0.1227906809287247 
-0.3753327543903427 
-0.1227906809287247 
-0.1331104149005198 
0.3128211752823142 
0.4537280136139246 
-0.04800959714601945 
0.2385140125378994 
-0.1005648889423794 
-0.4462442294353627 
-0.1005648889423794 
0.5683943167329053 
-0.6619525289319844 
-0.1005648889423794 
-0.1488522425824143 
0.3698851948869517 
-0.3114671150563110 
0.05986268077972524 
0.1191051649220072 
0.06446608505620245 
0.01767871987929946 
0.3248448545039967 
0.2847009298207818 
-0.1950457934018200 
-0.3423380727659001 
0.1328750294622823 
0.02497014771519307 
0.1973604852222607 
-0.4367579648472669 
0.004266939927749534 
0.2340088084305001 
0.2046956130679369 
0.1920164972353547 
-0.9498951453745310 
-0.1106353535495758 
-0.2974589067604083 
0.3177036664661457 
0.2617370380144638 
0.2136753756389335 
-0.08625061745076612 
0.01579811388879864 
-0.7258037518343787 
0.01579811388879864 
-0.1489759568099875 
0.01579811388879864 
-0.3008643250998631 
-0.2394705025613814 
-0.05296558296993799 
0.1374758481010872 
0.2471578161420719 
0.2367788848946750 
0.005810273296808711 
-0.03208616132843149 
0.05829721280634059 
0.02313516390564456 
0.09442765117981744 
-0.03496766004449606 
0.1769709354516638 
-0.2063819433013132 
-0.04080189201465905 
-0.08299522160741712 
0.4252971586506118 
0 
-0.02186551593092714 
0.2924248663475386 
0.4615577660278006 
0.6018254330216379 
-0.1206661902685744 
-0.04648411847746105 
0.3620340687286655 
0.05535674592585984 
-0.07661768029017434 
0.1975519301701042 
0.06375801829599481 
-0.5553831092910851 
0.1693943653053074 
0.1050085106309276 
0.05461180761250983 
0.4558991425149034 
-0.5624428373676029 
-0.06179762671338199 
0.05007543779552988 
0.1245712251836256 
0.2611342362388302 
0.05204985766751965 
-0.3007375276207773 
0.06241949514638481 
-0.06705089641148305 
0.02766764973905020 
0.1065726217674768 
-0.06181842758954992 
0.3430243010581174 
0.3443061542984011 
-0.005978997669470478 
-0.4335584601309204 
0.3366316210587173 
0.5560140990890989 
-0.3406338264759591 
-0.3290503985563324 
0.03882454855678966 
0.1116836531686132 
0.04769736793983598 
0.7628947249164096 
0.4604377014587772 
-0.007241157131194573 
0.1499727379881989 
-0.5884833640198565 
0.1521214648730363 
-0.09485470615060271 
0.1234696071379680 
-0.06449673204145305 
0.2311668966561100 
-0.3067191479226801 
0.008387010269780306 
0.2035991011267443 
-0.2928950448340240 
0.07615195429142901 
0.2444850106592815 
-0.1155169251690685 
0.2763612615786411 
-0.4266615485358736 
0.02219541255909348 
0.0009316992211147700 
0.01759868443978088 
-0.1581024241210173 
0.3036129425256672 
0.02525153608152545 
-0.2112377368527978 
-0.08820712823849351 
0.1051036989098313 
0.03836855133253218 
0.2965327409285539 
0.2538223783423111 
0.2205093513033749 
0.6753204848298050 
-0.08217640825739106 
0.7268582031958379 
-0.2408037130695961 
0.1161507652773622 
0.05177574456479274 
-0.1560953916996693 
-0.07030856737218061 
-0.2487373978232344 
0.1312687201568409 
0.3337869992278945 
0.1312687201568409 
-1.349334072872272 
-0.3677416364664945 
0.4479375620709816 
-0.08035274155702474 
0.3052119519270474 
0.1178527410989147 
0.2025182790710534 
0.1427699135161458 
0.2571516845211623 
0.2193027641508403 
-0.4835146875074887 
0.1194150581396975 
-0.2796698349061959 
0.3748582970070823 
0.02682753843659116 
0.1251846392603690 
0.1059307598027420 
-0.4399038665021709 
-0.2887151982517888 
0.02285894501194406 
-0.02664616929555324 
0.3226663197487702 
0.02185330609187987 
-0.1304025787126156 
0.3049681823004077 
0.09639093833066323 
0.1566057417434035 
0.02230626588159448 
0.5035266100569975 
0.5020235701975585 
0.05327811941553714 
-0.1022785722085386 
0.2540559811957258 
0.1641615260461780 
-0.4374154759284422 
-0.04053875880945737 
0.3277288137199286 
-0.1604526578501303 
0.2638609584719366 
-0.3288930347087422 
-0.06582441324526621 
-0.1587264905013285 
0.03294643814882232 
-0.1057055247042039 
0.1202100354614605 
0.1982265087772465 
0.04121361015226991 
-0.1248642332125459 
-0.2168285937004937 
-0.03339103212750502 
-0.2349473122667246 
0.2720619734558593 
0.04418953461234462 
0.07434728674549812 
0.6058742903558604 
-0.2192917204897124 
0.3755638876693562 
-0.8228540912872588 
-0.8412472250246559 
-0.6975541053873687 
0.2963596820333785 
-0.1877523213428742 
0.1127760010885877 
-0.2762139285998499 
-0.3840665210701547 
0.1977201967368396 
0.07343401115655555 
-0.2876573085019427 
-0.1497658024370918 
0.3520917731857784 
-0.08981901626917511 
-0.1873719867768555 
-0.2672039087387629 
0.1928602824346920 
-0.5273074918734634 
0.1928602824346920 
-0.4703331044166482 
0.08873983044772947 
-0.06494918569420807 
0.2600299577062404 
0.2493325156075680 
0.1773662277085905 
-0.5127936558883718 
-0.1713418495994455 
0.1638398497973775 
-0.1340642091632500 
-0.1825779340129320 
-0.4456217925317110 
-0.1374893635827836 
0.09504365183003590 
-0.004981105382128153 
-0.3405923605120971 
0.02585982605658829 
-0.06185082841896635 
0.3260491302460549 
-0.3571630310171665 
-0.2309351463075486 
0.004293834417574534 
-0.1349724822442593 
0.3286048492200231 
0.05241932779257593 
0.1639079337906038 
0.4362136713781420 
-0.2868439442328941 
0.1344279704315402 
0.2123436225986303 
-0.8587873443290386 
0.1099781669304669 
-0.3462350903433802 
-0.2796071127907828 
0.2683034725946566 
-0.2068638216833218 
0.4460527230549471 
0.2114836057332201 
-0.5066738669609181 
0.1070705166841251 
-0.1928636622902309 
0.1247789646059316 
0.1455977047265683 
0.09697156464778642 
-0.01426848996361835 
-0.3335610947661734 
0.2924070048106566 
0.4865284581679424 
0.03404127880720745 
0.1309883611024705 
0.06526236682193700 
0.001666531152320253 
0.5593807273945908 
0.4118958510986835 
0.1297763484402360 
0.1516824040947294 
0.1427122041804686 
-0.9371639188778345 
0.4337988127132768 
0.2219522771207440 
-0.05724692577643215 
-0.2108202367976803 
0.09881336217270380 
-0.2804531031693552 
-0.006501307478264672 
0.04706065339622054 
0.04706065339622054 
0.04300869454060433 
0.04300869454060433 
0.04300869454060433 
0.04300869454060433 
0.04300869454060433 
0.09780253063102398 
-0.2948370319272257 
0.3820550648805563 
0.05037211079412671 
0.1501376166084925 
-0.1870697285576314 
-0.1251395968327270 
0.4075675345954299 
0.1372770919562581 
0.2338024406521905 
0.05428529085391942 
0.1257759133750170 
0.09768794331809395 
-0.7150398904487779 
0.2865692742185608 
-0.3272483830079554 
0.2254309888392433 
-0.2213052183750046 
0.05921408152654446 
-0.06783881285669520 
0.1682690359838681 
0.06146230506405937 
-0.5832374806412919 
0.07778887041942004 
0.09125892434796035 
0.09125892434796035 
-0.7196024252797694 
0.09125892434796035 
0.2524087464829600 
-0.08724148239508296 
0.1332706740022009 
-0.1845848152202207 
-0.9888905200193097 
-0.5026137513349821 
-0.6091239330662191 
-0.08819471413713200 
-0.02569152198712653 
0.2029389452719186 
0.06600734105067173 
0.06600734105067173 
-0.3677806789059110 
-0.2904929480768829 
0.04340666288817226 
-0.1261146226434197 
0.2870939283016646 
-0.3509751411283119 
0.06840587518678279 
0 
-0.2163966210325534 
-0.09106349657175646 
-0.4449922696693645 
0.1252020263224765 
0.01425948785803306 
-0.08042392120326482 
0.02391120051371038 
0.3126750163655424 
-0.6221868083753854 
0.2158806396330629 
0.09925593309810862 
-0.04754650820445028 
0.2689584415782366 
0.2689584415782366 
-0.4057020846854085 
-0.1310544329359420 
-0.4849033076885356 
-0.2635512645345421 
-0.06635656531752045 
-0.7734029773249191 
0.2319629591595792 
-0.03752319514831469 
-0.008053012750568200 
-0.4313082873122542 
-0.2261608965177032 
0.3481311794435742 
0.01571125702990217 
0.1473851017592122 
0.8334054703768117 
-0.08005949458140840 
0.07639618232572053 
0.3929469589760938 
0.3660662018603646 
0.2951210360697322 
0.09533112219389084 
-0.2819801028177316 
0.09533112219389084 
0.04345982629827457 
0.09533112219389084 
0.1776956006159080 
-0.08813597129606895 
0.2682382871256778 
-0.4289961732754214 
-0.4769654170610737 
-0.5510015219947514 
-0.1246052997571280 
-0.3374898719490665 
0.09415266517790688 
0.1542834849499745 
0.09945262862118137 
-0.09205037480572412 
-0.6238818261916609 
-0.1092477343966211 
-0.1092477343966211 
0.04681596748058161 
0.04681596748058161 
0.1237382511238485 
0.6126493171980137 
0.08946953884733520 
0.4169632267117576 
0.1302160717246287 
0.004913921903852658 
0.09894333962463217 
-0.5357254432131469 
-0.3129955151513450 
-0.05446842056499974 
-0.6641867106208482 
-0.1949175385206030 
-0.9358457057094459 
0.1883570421537629 
0.1883570421537629 
0.1580026666462579 
-0.1160310053575394 
0.2317428226417037 
0.2782522930649823 
0.2653115625637382 
-0.1063763720005860 
0.1780466274958734 
0.05463688050386481 
0.05463688050386481 
-0.3044454904000914 
-0.3044454904000914 
-0.1046694507166738 
0.02433540716903381 
0.04415312662109198 
0.04415312662109198 
-0.2275371832150207 
-0.1826867519612831 
0.2803241274762099 
0.1384864853485678 
0.04415312662109198 
0.1291919431770278 
-0.1896624135348634 
-0.4906688141032048 
-0.03237998048331454 
-0.04540305256411555 
0.04931832795433842 
0.04931832795433842 
0.03409506398041141 
0.02129691602910981 
0.1389822886800890 
-0.7114133149513340 
0.03409506398041141 
-0.2933045328598855 
-0.1012059307896265 
-0.2055486252543227 
-0.08849456478202178 
-0.02854386637662200 
0.1320281482091106 
-0.3150887798569816 
-0.1209157697718444 
-0.5736531121581043 
0.4146617266136658 
0.5309475357557334 
0.4919762768649462 
-0.04095386230226966 
0.01428334975877258 
0.01472431800368777 
0.003315089050360515 
0.2375722109338160 
0.1089026904501166 
-0.1900778096612424 
-0.2188872896356595 
0.05082991894237827 
0.0004562316774846253 
-0.02516187089706647 
-0.07362294429848340 
-0.2800104182153330 
-0.06702438090106211 
0.1236059843422883 
0.1102720707588421 
0.2682142382154039 
0.2447096821164475 
0.1493784656050025 
-0.05026834979671121 
0.2330102792279497 
0.2498314214837190 
0.03621275883492908 
0.05274507485023298 
0.05274507485023298 
0.04870114285914276 
0 
0.03322977164617055 
0.03322977164617055 
-0.01500193558556055 
0.05983010735242039 
0.09147740744352398 
0.09147740744352398 
0.09147740744352398 
0.09147740744352398 
0.09147740744352398 
0.09147740744352398 
0.2644402874698006 
0.08248709044039607 
0.1099354330891342 
0.07490526612242510 
-0.2422930519015994 
-0.1962045878818522 
0.03570135080844684 
-0.05542179204748828 
-0.4873070294089189 
-0.1133803722111963 
-0.3347707197347101 
-0.7161613042629527 
-0.1218678003669684 
-0.1607656259347384 
-0.07049876345667098 
-0.07049876345667098 
-0.07049876345667098 
0.03134971061618081 
-0.1171287610003294 
-0.3785615255068237 
-0.2570698415263139 
-0.009131477170959065 
0.001504582890194506 
0.2241622595755607 
0.04278024578394384 
0.06340705055151057 
-0.6189146484665894 
-0.1930494730317728 
0.5350164024220982 
0.06980887174067495 
0.02972753464251038 
0.01520015839915742 
-0.3488102366405476 
-0.1829742950388641 
0.03938893647793192 
-0.1904767357768274 
-0.9183207200452501 
-0.4074113210626137 
-0.3154400163847699 
0.07756302485710098 
-0.2541827403514394 
-0.07385879299832733 
0.03089374884873478 
0.2423785623728336 
-0.01067082514489087 
0.1089107341601051 
0.07274974535329260 
0.1996549601209212 
0.1095866346944801 
-0.09355248641270436 
-0.6781387053323090 
-0.6614779247726825 
0.02772297488189710 
0.5792491461935771 
-0.1398515204566408 
-0.01653231601530390 
-0.3818390253829457 
-0.04385121688540125 
0.1146633006623730 
-0.3848115545858259 
-0.6900859200157997 
-0.9146589028421964 
-0.5706481433173037 
0.1756970530905945 
-0.07119710689714376 
-0.3658641962075854 
-0.09259128513197228 
-0.2045804538861273 
0.1582406694697750 
-0.2259164901828730 
0.2193840716209284 
0.06600653716493153 
0.08405516864015220 
0.2297348846328048 
-0.03699815545485525 
0.2123600277151634 
0.4210226820961751 
0.2452683313755998 
0.1015509672792960 
0.08846516662567591 
-0.5245319197846760 
-0.1622285705616151 
-0.7445893219804546 
-0.04147042320497747 
0.4748001332199740 
-0.1973520109286931 
-0.07442919346557770 
0 
-0.1204808255992896 
-0.1204808255992896 
0.2041876786020895 
-0.5063923938884609 
-0.2517318074513683 
-0.1997999571245501 
0.2522306853329672 
0.09033996939520081 
-0.007092422334507922 
-0.04793689652204414 
-0.04793689652204414 
-0.1478878140089643 
0.1299074355800362 
-0.01235971419928872 
0.1627222559580523 
0.8512884559759918 
0.09185750580185947 
0.1246717127939305 
0.1356399411106031 
0.4843588056003259 
-0.04980165559608119 
0.05635779303167755 
-0.07053504752217870 
0.006031360671641950 
-0.3079052344200225 
-0.1443341444013740 
-0.1443341444013740 
0.1907210577170861 
0.1153021854052458 
-0.4039188250883130 
0.02650945678387395 
0.04362765676998640 
-0.1190361523571460 
0.01353014110283627 
0.2522543196293055 
0.3856499326518622 
-0.3864715022586946 
-0.3642981155094020 
0.1563635108228186 
-0.1443584642977775 
0.1360668144730034 
0.5388084927618146 
0.5388084927618146 
-0.007913725279432647 
-0.3586726241196260 
0.1740524494234750 
0.02749081886375054 
0.1082237356143521 
-0.3060304903392516 
0.03865274484040899 
0.2388649901735197 
-0.2861248303487618 
0.1243743379048870 
0.09956305061689058 
-0.3416682694023346 
0.2973362292151578 
0.7631241870610540 
0.2908379011056297 
-0.07005242808435652 
0.01118893087196731 
0.3427177508716399 
0.2768777329538497 
0.7719608251293450 
0.1207982779872001 
-0.4829978928837760 
0.02660981493832750 
0.03562803754779825 
0.5106511512780952 
0.03733184764678608 
0.6120957459234244 
-0.2114645022710617 
-0.2387207774862386 
-0.2840440579234034 
0.1466106513344779 
0.1466106513344779 
-0.3778813959826685 
0.08152979434660892 
-0.1446386153967075 
-0.5167830411088692 
-0.2438096866177775 
0.4864629726583362 
0.04350716506484566 
-0.3810370925748572 
0.02710669583590755 
-0.3137314427053375 
0.1508720800026813 
0.1508720800026813 
0.1508720800026813 
-0.07235045757843010 
0.02684025137710416 
0.1377594039201673 
-0.2831498756411288 
0.1270387880457096 
0.1270387880457096 
0.1033031161368958 
-0.4476294335090891 
-0.1437905018645136 
-0.1189589052573199 
0.1260616678144796 
0.08844440875614870 
0.3062319752808422 
0.1150920678831851 
0.4858212706066555 
0.2089924201756128 
-0.05479391406780844 
-0.2719705346420482 
-0.09873891316240968 
-0.5867164365523453 
0.09310707936025159 
-0.1313473840844523 
0.2479151413651961 
-0.04671328139709461 
-0.1587661941558446 
-0.1418949737937425 
0.07478765696489004 
-0.001614877313680277 
-0.04887638412704101 
0.09357122569969449 
0.08796778473510522 
0.02039569417946738 
-0.2004080381269453 
-0.1167947107892230 
0.3445570966235166 
0.4459660650733892 
-0.6118474410390790 
0.08289380347864521 
0.008797024746396757 
-0.2592701420729270 
0.2122327539503733 
-0.2896815078461810 
0.1831472905902315 
-0.03061549434154563 
0.03799867192444054 
0.3639803177941324 
0.2978692426921547 
0.1253216423257973 
0.02107737893280647 
0.05121255959324689 
0.05121255959324689 
0.3395722882014862 
-0.8864135401853186 
-0.2017744319249254 
-0.05466939318084970 
0.05086076867388010 
0.2176892995367238 
0.2332299706968697 
-0.1566383878416895 
-0.1413267262998184 
0.1901160204199128 
-0.07130944919479262 
0.1046101491061117 
0.1046101491061117 
0.1046101491061117 
0.1046101491061117 
-0.3100288199610962 
-0.09961850991808462 
-0.4387159453052236 
-0.1073668158511353 
-0.09961850991808462 
0.2935903532808018 
0.4590971575040587 
-0.4000631763090873 
0.03234314906244833 
-0.01259616801677325 
-0.2832653462086521 
0.1153309818290155 
0.09306898155236260 
0.1429631135476649 
0.4490780518749469 
-0.2903317932725835 
0.1926519330718005 
-0.1345888287216248 
0.2371113217659135 
-0.2723642022614755 
0.3016892797593666 
-0.02951173331224312 
0.06506649760121522 
0.5118363716689879 
0 
0.5299531074977584 
0.2379226492259894 
-0.5344825192352173 
0.2819518382807554 
-0.1679160978648773 
-0.3329946944178564 
-0.4147374029947945 
0.02006356352284520 
0.02299700028808455 
0.1620349725837833 
0.3426729463567682 
0.1343187361136095 
0.1494589531271998 
-0.1846891678860758 
0.3241167214887076 
-0.1368560515829977 
-0.2058236993541786 
0.2315200424277718 
-0.2763805814117685 
0.2377245505321610 
0.3422570479483947 
0.2629009320423881 
0.05471028962968683 
0.04393857862850680 
0.3637766213965812 
-0.2360201865648138 
-0.2001636528519288 
-0.6775477058300386 
0.2376164291063616 
0.4274067903720851 
0.05017554218770139 
-0.1273127178526811 
0.1501119054368552 
0.1591812041312441 
-0.05520492678303181 
-0.5343155673801345 
0.4156908482829858 
0.1523961627927730 
-0.4185877293263230 
0.5572940186895187 
0.1908960929445225 
0.3538364456867375 
-0.2937245532179757 
-0.2034416153880136 
-0.04517921466510937 
-0.02167034723826161 
0.07715617937360872 
0.07715617937360872 
0.1983938647537061 
0.07715617937360872 
-0.1078709487454357 
0.07715617937360872 
0.07715617937360872 
-0.1113062858317244 
0.1518836865985047 
0.1258989300962757 
0.1258989300962757 
0.1897577092070568 
0.03162516538812832 
0.1897577092070568 
0.04756875645355264 
-0.002785835590204282 
0.4126783327663524 
0.1986060754294202 
0.2033164873035633 
-0.2871801822717324 
0.1060642884378286 
0.3774130971193075 
-0.1238598523729628 
0 
-0.1784044560650924 
0.08943680236390866 
0.3909981928325795 
0.1629216748550666 
0.01995492676291547 
0.7301703616277014 
0.6770304140584633 
0.02199900199182548 
0.01939463356462792 
0.02592652396413435 
-0.1920419231025732 
0.07505634259936603 
0.05371812192365998 
0.003571216080759392 
0.07477967010069399 
0.01407048251950157 
0.7249065715284883 
0.1379722671511258 
-0.3990599345952344 
-0.3731759988293651 
-0.4013790997249467 
0.2383869484830770 
0.07321115179248680 
-0.2096442229297803 
-0.5034363789871067 
0.02063450137411751 
0.03729332043780670 
-0.1889831433192552 
-0.7828991628759446 
0.2883558255526019 
0.5833799013602110 
0.06216785073394613 
0.2767707092854781 
-0.1004012319154739 
-0.08242327672602882 
-0.6839721076836474 
-0.2228498554993297 
-0.1004331985155620 
0.4852662224863591 
-0.02579937193154502 
0.06701510295552918 
0.06843537667285884 
0.03230168041462272 
-0.1831922284757276 
0.05333510681446649 
0.02109888567512112 
0.08179908088989896 
0.08179908088989896 
0.2000693496943048 
0.3041003099062131 
0.04377563618386720 
-0.3626002951810569 
-0.2276932816336567 
0.04634538984992584 
-0.2446007463498116 
0.1296267466012990 
0.3475769846566434 
-0.006887024883159391 
0.2317802620713880 
0.2890594418581477 
-0.05804333652975929 
-0.05804333652975929 
-0.2071189514489182 
-0.2516925503534020 
0.4826436592430279 
0.2855533178185691 
0.1583889391913618 
0.2068580894463826 
0.2068580894463826 
-0.5631838745749341 
0.1328700195372294 
0.1261689722425996 
0.1261689722425996 
0.1261689722425996 
0.1261689722425996 
0.01456000660018857 
0.1261689722425996 
-0.1354982996883792 
-0.04085695167068984 
0.07062232151217217 
0.1169969702836005 
-0.1330217040656445 
0.05047363193045370 
-0.05243157822992101 
0.04655582023894652 
0.2752973851826241 
0.3287469981039037 
-0.01478295864583529 
-0.07239388623773249 
-0.09149472984783990 
0.2207139404474144 
-0.2533265721366700 
0.09589933388108252 
0 
0.2813601322569270 
0.04823631747768468 
0.08117384701745979 
-0.2005356655258931 
0.1934054923282914 
0.05126577023906584 
0.2295115618461160 
0.2295115618461160 
0.2295115618461160 
0.1439505505952277 
0.02578738820225891 
0.02740423926789310 
0.04736628990706888 
0.1852447579803938 
0.2514549510865867 
0 
0.08152048718477750 
0.08637847736655475 
-0.004270415481064008 
-0.1342085420896701 
0.01065699631518405 
0.04677642335155249 
0 
0.02924126554270973 
0.02924126554270973 
-0.3669483890706224 
-0.02680561616347212 
-0.07302290870969924 
0.1579039218221043 
-0.07860802818576137 
0.2273787981398497 
-0.2143582235366421 
-0.1258342105728619 
-0.2757569160702347 
-0.06233528141353041 
0.1374676879406944 
0.4293129680459633 
0.01065699631518405 
0.4121412720771869 
0.3190429400735214 
0.006713518282750245 
0.4048521867318974 
0.5077466276923762 
0.2341742900370270 
0.1613842499148057 
0.1613842499148057 
0.1613842499148057 
0.1469992292226254 
-0.2589573488546040 
-0.1706210869508705 
-0.6471244600942466 
-0.07364787178600485 
-0.1093697882655797 
-0.2273516022071816 
-0.007638960320942864 
0.02981205087652114 
0.08596096218106347 
0.06936133544447440 
0.1110442405135622 
-0.02046578825187296 
-0.1283258817520566 
-0.09763331763755717 
-0.1758809139425647 
0.1990509783230214 
0.01368610702808920 
-0.1141288988114877 
-0.01455293199487975 
0.7247181626534259 
-0.05080333511767451 
0.06033754201745542 
-0.04909934649213241 
-0.05500794223710111 
-0.4130486696965303 
-0.3169358184730798 
-0.3066324516737798 
-0.1663504051586467 
-0.1384410275690388 
0.6797427166013708 
-0.2118085219598054 
0.6209354237092106 
-0.5599320275880290 
0.09275883401687321 
0.06317885966519236 
-0.1070931657498669 
0.04911619782676277 
-0.1421536943678156 
-0.3657023830308230 
0.05864033527133297 
-0.3084770204905288 
0.4521468517052468 
-0.3854001824642138 
0.07760503569920081 
-0.1573041135453943 
0.4395611155075526 
-0.007202060300136943 
0.2266585207801217 
0.3114401312703279 
0.03105922186215467 
-0.1729321134982806 
0.006994411637853350 
-0.3574278824152246 
0.4345315707089262 
0.1229194594876202 
0.05686712357320372 
0.1219646940658241 
0.01651427425518830 
0.1042948681663153 
0.1325591038306211 
0.09043465752815016 
-0.007523878872980092 
0.1935413414123356 
-0.3798461235954641 
-0.2629084525626231 
0.1207291742276686 
0.1153242400868593 
0.006232331990556310 
-0.1723793402913885 
0.6166100991719867 
0.02094130047092210 
0.09422482234673821 
0.009049841550909581 
0.09422482234673821 
-0.1827186259116122 
0.06530569296394789 
0.06530569296394789 
0.1200548213378934 
0.2490354665763596 
0.5236467467796850 
0.2780193797957078 
0.2325812664849720 
0.2325812664849720 
-0.04391617464020681 
0.1454578046587242 
0.1640901342104967 
-0.02771415339424052 
-0.2693137420879545 
0.5913068422134442 
0.2023928584329111 
-0.008016788601335006 
0.02104896253193321 
0.02104896253193321 
0.02422443174511858 
-0.4420589662386908 
-0.2276647321098578 
0.001285601041187384 
-0.2523423769602368 
-0.04994448635695353 
0.02374936658065874 
0.05507865097764066 
0.6186162474053649 
0.07834313015099252 
-0.2105392861725336 
0.1389718559092066 
0.1389718559092066 
0.1389718559092066 
-0.02273495021808784 
0.4358136704730645 
0.2023978906032834 
0.2023978906032834 
0.08503543894917298 
-0.01763850929957136 
-0.5860697813830744 
-0.002069433744158546 
-0.08503890872807765 
0.07066473419083551 
0.1086204964870840 
0.01706081358014233 
0.1644023998934752 
-0.07418940792031735 
0.01115530142573590 
-0.2064316899072329 
-0.3341731719424166 
0.1020584716177668 
-0.08191915781793033 
-0.1550001524243368 
0.1221573546246854 
0.1221573546246854 
-0.03383719330997986 
0.07975838152185356 
0.06547671405160017 
0.05238945544260190 
-0.2493695195867602 
-0.06051443158372857 
-0.5849948644054961 
-0.3498337714354411 
-0.3186100349150451 
0.1241807936963133 
0.1241807936963133 
-0.004617122860362879 
0.05468780438586825 
-0.4917034137517163 
-0.4156848133787524 
-0.4909047719284658 
-0.1268988501504291 
0.4597438469879173 
-0.1845488449598600 
-0.2161955166301790 
0.06985152988402020 
0.4208173210692910 
-0.01957531375425824 
-0.6528338715061645 
0.2746138828601578 
0.3026180414564088 
0.2344208551646005 
-0.01594307548572967 
0.5325998386789970 
0.1675504584452159 
0 
-0.09190020156763800 
0.07359479919288667 
0.07359479919288667 
-0.2070184667351883 
0.4488262644962971 
-0.1759309952920848 
-0.07546489324060420 
0.05786439195485760 
0.3565671021876639 
-0.4385773077126423 
0.07039305615054343 
-0.01467335626005796 
-0.4917282829954483 
-0.4702087056900439 
-0.3246975572489386 
0.03109255651488281 
0.03109255651488281 
-0.2858012278700979 
0.2269469701813709 
0.2194443954069511 
-0.3128310001170609 
-0.5271749208075974 
0.1235326309195831 
-0.2322061602078571 
-0.2232226607164462 
0.04093863347128578 
-0.05819920101438676 
0.3289503039778146 
0.02451597740611069 
0.1184618616061754 
-0.5638346110444832 
0.3566289579862799 
-0.3468299689504500 
-0.1461050978798372 
-0.009082579031472310 
0.06101228996621567 
0.1245014508537758 
-0.5761566565847843 
-0.09337676163688147 
-0.05012131501554448 
-0.3078903706312950 
-0.09490174606800182 
0.1013887134330614 
-0.1867101591298514 
-0.3395462900118598 
-0.07864959286099178 
0.09362298104141832 
-0.3708016970315620 
-0.03653322180004770 
-0.1856580644439718 
0.1288277946353431 
0.3092390073259126 
0.2595141066418839 
0.1754916113532544 
0.3632889827594685 
-0.02046361363799230 
-0.02046361363799230 
-0.1206615715353340 
-0.1790035477069439 
0.3251724607553703 
-0.2348452755065160 
0.2909020906840600 
0.1603444676631704 
0.4574243986120435 
-0.7872760033625760 
-0.3166413136771348 
0.1533309636089856 
-0.01061333967389017 
-0.09738480993578120 
0.1471231642812662 
0.1471231642812662 
0.2980188719624259 
0.3637127364953188 
0.01831776430732035 
-0.5726457755957922 
0.2098368272165297 
-0.2139114261477277 
0.2438923149441567 
-0.6206618688662414 
-0.1923955936874396 
0.6310972947443020 
0.1353022335868390 
-0.1715023412759412 
0 
0.1008398001837660 
0.1836372389818368 
0.02767927687501938 
0.01680112198202035 
0.04333939810113222 
-0.03433643330277484 
-0.2360398301114304 
-0.3197862442532953 
-0.06782612637617035 
-0.06782612637617035 
0.1090549128271494 
0.06065666433153377 
-0.6470999868349243 
0.1805265012567824 
0.06988950980662186 
0.02487687188117311 
-0.05318804621679158 
-0.5885428343610859 
0.09706907150001677 
0.9629389372892527 
0.2118662192543719 
0.2118662192543719 
-0.3551348299130039 
-0.4287855582254429 
-0.9778983555442133 
-0.1353806915097228 
0.1074260361159012 
0.1074260361159012 
0.3281196550575274 
-0.2100057653926154 
-0.2100057653926154 
-0.1029118571130071 
-0.4075741052348590 
0.6362334466947231 
-0.07517354911760062 
-0.07517354911760062 
-0.06945847459156860 
-0.2125462584346654 
0.03838895289296098 
-0.2309425348690415 
0.2046469950186785 
0.3254382975193835 
-0.03824295704493735 
0.2092580186234050 
-0.2308533266735493 
-0.5595004392680029 
-0.08081408456099108 
0.2574699360789723 
-0.1194473179230577 
0.4496947995054483 
-0.04002738786846803 
-0.2867115457545199 
-0.1928535222164130 
-0.1073798457652178 
-0.02116237431736338 
0 
-0.09498235208955788 
0.1313972587340101 
0.05081772593994289 
-0.07051046534131095 
-0.2498733369532586 
0.03407551556377588 
0.2801760522198634 
0.1606256387332033 
-0.3456056060953378 
0.2488699403402558 
0.2067706121253087 
0.2773863112622866 
0.04004931727036716 
0.04004931727036716 
0.1500570443523251 
0.1553754795097652 
0.04004931727036716 
0.1282352769436209 
0.2193244978155778 
-0.2620758296908695 
-0.02947736091610726 
0 
0.03733053739944087 
0.03733053739944087 
0.04793296305139709 
-0.3030189508618852 
0.3763476276716586 
0.2587023656523761 
0.01081684463048679 
-0.4625885461990086 
0.02262062254619265 
0.1983050379404249 
0.1759247463948427 
0.1759247463948427 
0 
0.1096132896351901 
0.02729091137771884 
-0.003256716237292059 
0.002084899759219799 
0.4861177511738986 
0.2655004919248602 
-0.02831712186200137 
-0.2529380280636258 
0.2713265920869252 
-0.3522273665821848 
0.08866851955482394 
-0.08882022253436378 
-0.09394032867296322 
-0.08508576390643265 
-0.02673751256033562 
-0.06374505404435685 
-0.1091067431916363 
0.2022453966034229 
0.1142634608222457 
-0.2393871822880458 
0.1611496350534196 
0.1467908401491037 
0.6305380680510363 
0.03393286463374859 
0.1212205274411594 
-0.08396126212745762 
-0.2775939141132534 
0.4470471324050472 
-0.04400480977696768 
-0.01904140102911397 
0.07004259013403395 
0.01666604430400723 
0.1215460257937654 
0.03433527139256697 
-0.03801264702858581 
0.09600745011144973 
0.09600745011144973 
0.1652155385860602 
0.05193716863744324 
0.2404709708351210 
0.2404709708351210 
-0.2432011212123966 
-0.4720416289904444 
0.3185972861026725 
-0.2900119038522566 
0.1623805221546770 
0.3671910755777809 
0.3671910755777809 
0.04211575447397948 
0.2091886607914970 
-0.01911389333198261 
-0.04963626380160936 
0.09928364522335961 
0 
0.5723291603726428 
0.3662786224228020 
0.3662786224228020 
0.1755625752403483 
0.1713686822154278 
-0.003965126955042198 
0.09660001249324003 
0 
0.1239518966794268 
0.05339404781383214 
0.1473787129048866 
-0.2362778859914556 
0.1111607070590168 
0.008612478743626390 
-0.01372831532930805 
-0.1563652533672740 
0.05821449460088296 
0.05821449460088296 
0.2072230692141636 
0.1864827289738986 
0.03917841294044126 
0.5538451956709627 
-0.2224158830018810 
0.4587078214768555 
0.1334994073069905 
-0.01232748237091191 
-0.01232748237091191 
0.2395236553448026 
0.04025345804278908 
0.2519812067479384 
0.05997613490886801 
-0.1044454009927366 
0.1583993860141230 
0.1783747585616766 
0.3083594891965320 
0.04772430145502674 
-0.01803001222462426 
0.04772430145502674 
0.1859291612386497 
-0.3941725488885908 
0.2466531980748464 
0.2182174153182172 
0.2082837100512584 
0.1087673046191015 
-0.08881991298608234 
0.01437476974005892 
-0.06205750678190065 
-0.09472138051845400 
-0.1524404073076374 
-0.2924066736055143 
-0.1367480479720615 
-0.2788866293217315 
-0.2897891449238671 
0.07750872956389554 
0.3767931514592967 
-0.4186645626909523 
0.3090763167761546 
0.4423714402539969 
-0.4166336081212750 
0.3746130420769023 
0.1341933748517547 
0.04402664196065072 
0.04546264311884181 
0.1958852351089951 
0 
0.03920040781522031 
0 
-0.1375571363242665 
0.02339784685254623 
0.2547468359583602 
0.04209652086573600 
0.1612100521598573 
-0.2804265353315820 
-0.07248745755122374 
0.1245244784140247 
0.1587311754766496 
0.04501625192124391 
0.3006417961798492 
0.1785274232044207 
-0.07179199864293576 
-0.1699566754103780 
0 
0.009746748179365643 
0.2804952373428516 
0.02058049564369487 
-0.007175252966707256 
-0.08761828544792250 
-0.3362753031863739 
-0.1711207054470867 
-0.3170876009550050 
0.1938749225695206 
0.3793693045058508 
-0.3352640460551958 
0.2390324948111059 
-0.009595658442809850 
0.1685639901717932 
0.1257121310297558 
-0.3152952170763664 
0.03322194966844639 
-0.4252705703899012 
-0.1459755660976755 
-0.3220827077661290 
-0.2119949606790196 
0.4631592692578588 
0.01273243131569377 
0.03749089025468294 
-0.04286680863610787 
-0.02808359163047770 
-0.02808359163047770 
0.08436746527342254 
0.1299245853016687 
0.01133289145897105 
-0.2681464541294433 
0 
-0.04288129834851640 
-0.1398394325876601 
0.008816271106784653 
0.3153437409911629 
0.2828933895088047 
0.3042191632186873 
0.3459870695846586 
0.2596449014765323 
0.2596449014765323 
0.1441679609496835 
0.1441679609496835 
0.08942874408535006 
0.1510689780254789 
0.1113165693396340 
0.08560309981891873 
0.08560309981891873 
0.1200311069817087 
0.1200311069817087 
0.1821836581334506 
0.1821836581334506 
0.1300051373719518 
0.2153870825362612 
-0.1039032653267392 
-0.08803043782048237 
-0.5268416140041524 
-0.09288720318371396 
0.0007258348443335832 
-0.5253429415347796 
-0.09139552552046033 
-0.01062359512557497 
0.08750811090908647 
0.1818513694382833 
-0.01913833524057258 
-0.2335221393312619 
0.1438723145956704 
0.1438723145956704 
0.1438723145956704 
0.1465222207203071 
0.1465222207203071 
0 
-0.2973060849992618 
0.2689793201982637 
0.2689793201982637 
0.2689793201982637 
0.2034015938313413 
-0.06420480438592716 
0.06535608065598950 
0.04746697021553327 
-0.2134627828197925 
0.2982545849689725 
0.3681576267641770 
0.3681576267641770 
0.2971181723790413 
0.1134118090471270 
0.06256884853344795 
-0.2670866212650623 
0.02207441835385068 
0.006403650642063517 
-0.1754057347199990 
0.2548112480859349 
-0.1533442207218220 
-0.1967266524510218 
0.1562516043620564 
-0.2103807977438822 
-0.01891820662770023 
-0.4071043308285380 
0.3260530245169365 
0.1285586722172908 
0.1285586722172908 
0.1700957650016653 
0.1285586722172908 
0.2656887745432124 
0.09941022570816567 
0.2521280061573599 
0.4016374737351991 
0.4016374737351991 
0.2664195447756562 
0.2664195447756562 
0.06315781490787653 
0.08174456288474855 
0.3529143969743673 
0.1273343803988855 
0.1581732677864607 
-0.03158244285624373 
-0.3167242928124481 
0.09752475401360844 
0.3036661297028175 
-0.1601203391877463 
0.01225057552083506 
0.07572100608539613 
0.1586574731732987 
0.1048345840305299 
0.1048345840305299 
0.1048345840305299 
-0.2342980599995870 
0.2379047109708640 
-0.03835866556032570 
0.1278094151312940 
0.07686563049320450 
-0.2135069896235281 
0.09791448432821788 
0.09791448432821788 
0.3874002797962480 
-0.1645428785822703 
-0.09506980708852086 
-0.09506980708852086 
-0.2090945373005008 
-0.04241623486863973 
-0.4330722100780895 
0.2468638039202849 
-0.1005396664214868 
-0.1344332099512319 
0.1193484731664690 
0.03012341798590127 
-0.06080313550946316 
-0.02171088134505411 
0.1022609326244326 
0 
-0.4113787379472564 
-0.1579847713042236 
0.009938865179090664 
0.009938865179090664 
0.002967000546484071 
0.04986994122766222 
0.3897872701544524 
0.09441565184475224 
-0.4148017591114523 
0.2534080313471071 
-0.1539702362955288 
-0.06189422087689753 
0.1393275918415088 
-0.04477791283075248 
-0.02456831746948265 
-0.1441054628642749 
-0.08125116065385314 
0.1042679152724462 
-0.2907846931136679 
-0.1771849708352732 
-0.2216111773375609 
-0.1771849708352732 
0.1056402109353359 
-0.003897199115184484 
0 
0.009920860726383398 
-0.2369428467310444 
0.09832408620465546 
0.09111642401719469 
0.05157709479920851 
0.01275113235916838 
-0.04325901340839059 
0.1347261026052465 
0.03198571616258333 
-0.1977959155472142 
0.02464620886309058 
0.03790206606564137 
-0.4868153748716382 
0.02018834382332066 
0.2273238056670909 
-0.003233331304014177 
0.5838833610575843 
0.1381095555017579 
0.01776012093493867 
0.8657231741640219 
0.1305983789133451 
-0.8802890781336011 
0.4899391366739275 
0.09532030690086662 
0.08783324615118289 
0.08783324615118289 
0.1070326282081189 
-0.7346867136150304 
-0.1200526071873364 
-0.1200526071873364 
0.03932702222267967 
0.03932702222267967 
-0.2229482905297930 
-0.1418634931248006 
0.03761410241830495 
0.1540004420642667 
0.04545524019475945 
-0.09650241115461249 
0.3815150769058146 
0.3264061918161192 
0.1634395311480881 
-0.1893101992106936 
0.02384091751432613 
0.09581371366397606 
-0.3952135136619902 
0.04035447151225630 
0.07392953233639726 
0.01386653527425561 
0.03268293603404592 
-0.1226535916880640 
0.1160879767775495 
-0.8095298422664524 
-0.3945440497806339 
0.6053155775484796 
-0.03214572076486523 
-0.2164763265924385 
-0.1246791713531516 
-0.2830972257950180 
0.1921085605645322 
-0.4500685246005941 
-0.4527712924238472 
0.2717176945792931 
-0.004436010659025005 
0.01995767193643574 
-0.06340157592731396 
0.1723723675507554 
-0.2627473723540211 
-0.1126095535858767 
-0.0003843946022348138 
0.09529427952563688 
-0.02033613698321824 
0.08447554262591231 
-0.06624932545428319 
0.02699164573349302 
-0.2457643371828326 
-0.03324470176331339 
-0.2642479882595366 
0.1160856036451282 
-0.006904490220340947 
0.1787982832393845 
-0.02804056877418730 
-0.09021133934981714 
-0.3412982321075140 
-0.1834088273687214 
-0.1401058393927327 
0.3573235969503819 
-0.08603806688159722 
0.2187326575903495 
-0.1199335342295292 
-0.08963093335393035 
-0.3960808164134477 
0.06063900768434952 
0.1630305983717242 
-0.03100972512897217 
0.01599150350212593 
0.07581451220869240 
-0.1889262310236987 
0.07581451220869240 
-0.08461931339886672 
-0.1341454718782833 
0.06240383038631606 
0.2086182827823356 
0.2086182827823356 
0.2086182827823356 
0.2086182827823356 
-0.05904084165257015 
0.08559462522500554 
-0.03861281080152088 
-0.03861281080152088 
0.1206175601611928 
0 
0.01430841770043190 
0.1360043708333378 
-0.3912035039503449 
0.1360043708333378 
0.1360043708333378 
0.2633255431422670 
0.01364449460160294 
-0.05708089708376905 
0.1351124046627775 
0.1351124046627775 
0.1351124046627775 
0.1351124046627775 
-0.3104883431231389 
0.3835565401438645 
-0.06085192889786274 
-0.07741995970903160 
0 
0.3449684166350318 
0.05567155312123855 
0.3174815401360437 
0.5747621436554886 
0.1246354973855975 
-0.02745948374458733 
-0.1407502373339949 
0.09978415401935070 
0.1023609520154591 
0.05336174126999276 
-0.2269085339799995 
0.005185568919096963 
0.005185568919096963 
0.2091819651441565 
0.2797918565525222 
0.2478122742217991 
0.4674841758829199 
0.1820796217919777 
0.1131047845406045 
0.09625894568754519 
-0.06686263791573448 
0.03385376266543374 
-0.3926915609210865 
0.3233878107801529 
0.04759890883572957 
0.04759890883572957 
-0.05296535280370102 
0.09201043330511452 
0.001840535011100137 
0.06651840100846201 
0.2266469123142050 
0.04693076390998334 
-0.2947142872997796 
0.008795072901376612 
0.008795072901376612 
0.008795072901376612 
-0.1613784444104031 
0.1276515046405984 
0.2198672133658010 
0.07405549881859269 
0.1047197031883034 
0.009607345696206887 
0.1637963325976422 
0.1637963325976422 
0 
-0.07709283857973973 
-0.04797589704041757 
-0.2047009831145110 
-0.2520435108230315 
0.03831157288706141 
0.01351738270591010 
-0.3990099582602040 
-0.1007446468332501 
-0.4294761384458163 
0.1582442891889633 
0.02957997435168082 
0.2394916481152014 
0.02957997435168082 
0.02957997435168082 
0.3403326113114443 
-0.1116423717964471 
0.2743324584384075 
0 
0.3954346144866016 
0.03010904854539157 
0.3920893982077320 
0.06917429859955306 
-0.5650307091157570 
0.2734999048776875 
0 
-0.2200976959432567 
0.06683011673784393 
0.07921197367225631 
0.08829733826242746 
-0.3624549095180966 
0.2055385319658613 
0.2723990566895460 
-0.6650885215930885 
-0.07610857587120581 
-0.1388000543762704 
0.03580751286655155 
0.03580751286655155 
0.03580751286655155 
0.03580751286655155 
0.03580751286655155 
0.1993954738633611 
0.03405235826454238 
0.3651441579732846 
0.03818497308302111 
0.1535111353224191 
0.03942198459711548 
0.07898431796892205 
-0.02161905469876086 
0.001237011514094367 
0.08785383170572615 
0.1040600426280998 
0.3194835216880100 
-0.1545310297884602 
-0.1162960176231533 
-0.2717141747647536 
0 
0.1341878354028354 
0.09672029991604399 
0.1332958498429290 
0.05046491616782715 
-0.04769686937727857 
0.08224790344338650 
0.1656011381605537 
0.01107010837209364 
0.06815704387929780 
0.1904815690412337 
0.1244434708204151 
0 
0.1452328181623192 
0.2100990479741344 
0.3733690619347724 
0.2838090334026756 
0.4864388820688281 
0.4430541088294330 
0.4665281943344433 
0.4814882353979452 
0.01242782740103707 
0.01242782740103707 
0.1694948219323511 
0.1734394469032136 
0.1734394469032136 
0.1734394469032136 
0.05256601225179046 
0.05256601225179046 
0.05256601225179046 
0.02904010766002820 
0.03239040902166673 
0.1835217773106561 
0.1438769860624551 
0.2725895923449064 
0.2685787431239566 
-0.3637188009468561 
-0.05305973204394331 
-0.01600898126390866 
0.08394479864887460 
0.08394479864887460 
-0.02907942579151810 
-0.03995823879720081 
0.08394479864887460 
0.08394479864887460 
0.02351751306413275 
-0.06429544153695844 
0.08394479864887460 
0.08394479864887460 
0.08394479864887460 
-0.04714429334606302 
-0.02454785988200779 
-0.01130680499824069 
0.1734240625705668 
-0.02017267187013242 
-0.2742250095595512 
-0.3251241161871321 
0.1648549302903072 
0.1311570020360007 
0.4160811104281810 
0.09499935760052669 
-0.08615700701432684 
0.1245439306091798 
-0.09303268699397556 
0.01977220540464649 
0.2071354618437703 
0.2071354618437703 
-0.09903566222129956 
0.2653960520143355 
-0.08195244402695726 
-0.2313489891058140 
-0.2313489891058140 
0.09070197282669390 
0.1955149608563208 
0.2190238282831685 
0.1307675960579057 
-0.2081167127882616 
-0.1444446835049349 
0.2848032008008697 
0.2848032008008697 
0.4108143008534747 
0.07246408338288449 
0.02480542476176824 
0.6209928868014655 
-0.1755871996190664 
-0.1194503627658195 
-0.1194503627658195 
0.3096989228156837 
0.08291154750933048 
-0.5505903810149507 
-0.1223163265720670 
-0.2227182263466468 
0.2693784511468463 
0.05280821528314640 
0 
0.1343569246771967 
-0.01663236750104646 
-0.1223163265720670 
-0.1223163265720670 
-0.2178368208918841 
-0.7240435330777770 
-0.1775884433931910 
0.1756520009762561 
-0.1338784710958861 
0.1509414008902157 
-0.4616888072506951 
-0.7075487504426099 
0.08626430785642558 
0.06254588967910742 
-0.1729630923028244 
0 
-0.2229693891206175 
0.07340099533208783 
0.1032091791985250 
0.08493862337571001 
-0.02986327175305133 
-0.7898491571896863 
-0.001504108027205506 
-0.1081342758915800 
-0.02931834072743382 
-0.06971562374882118 
0.3519915450604194 
0.02693920427501007 
0.01368109242896901 
0 
-0.09622425112797717 
0.2024766464685543 
0.1245067408895911 
0.1016379169484668 
0.2456863619802254 
0.01603368851834445 
0.05089910662758115 
0.05089910662758115 
0.1952793253325336 
0.3503530927488890 
-0.3901521114048572 
0.2220333513588123 
0.2220333513588123 
-0.05758633329978573 
0.03426766631863194 
0.03426766631863194 
-0.1287192990377775 
-0.06188140120029088 
-0.1692401037253090 
-0.3649723645190692 
0.01794867826765593 
-0.1442737978739298 
0.01794867826765593 
0.3330397135330310 
0.3330397135330310 
-0.2412702179897433 
0.2910704707795426 
0.07431140849400616 
-0.07803098970641048 
0.04333869526929429 
0.1860304495757993 
-0.07093069814404002 
-0.07992216726504556 
0.04686110634970395 
0.2354516124290739 
-0.1830033355241521 
-0.5095992154226180 
-0.1217192694182408 
0.2480090109715063 
-0.1212424564132572 
0.08735248522598266 
-0.09322927505215578 
0.2373172506661749 
0.1230487765649518 
0.1230487765649518 
0.007477808072752896 
0.03134132255894183 
0.06336999140676208 
0.1035507360947481 
-0.09833772249397424 
0.1035507360947481 
0.1035507360947481 
0.1035507360947481 
-0.01376819200005431 
0 
0.01224865482540308 
0.01224865482540308 
0.2284347656601665 
-0.1401343568137856 
-0.5730238336578600 
0.05811665578684516 
0.1002106283093731 
-0.3783962814671554 
0.08908616495286481 
0.04780950086687345 
0.2597766583222948 
0.3609487754413379 
-0.1210643200584494 
-0.02037089755050850 
-0.07417294631816024 
-0.2536288029974982 
-0.02037089755050850 
0.1624657826551056 
0.05209572701110906 
0.04626877924765499 
0.06755786447376244 
0.1699356066018961 
0.1626348469905706 
-0.1050182786596345 
-0.5167055728814110 
0.3095034462969344 
0.2754208154206815 
-0.3721934509919429 
0.3187480225350292 
-0.2357064037518340 
0 
-0.1997320753893518 
-0.1836935695806584 
-0.3076946226039770 
0.07109016913074793 
0 
-0.06094771267605451 
0.1822801998271025 
0.1822801998271025 
-0.03281164279412283 
0.1421938996170094 
0.1073335078175864 
0.06379994998958893 
0.08989998849854267 
-0.2150918426212254 
-0.3185886455347444 
-0.2916603665888366 
0.02435745903751205 
-0.007598426162619822 
-0.1833939772767886 
0.06184469707277006 
0.1133437376009623 
0.06448079344971483 
0.1005862024563354 
0.03270953404702454 
0.03270953404702454 
-0.1022215896727304 
0.2326881608059532 
0.09842392667144580 
-0.07962508411474711 
0.06529550306139416 
0.08653075925594521 
0.05804811328079647 
0.1310070629617871 
-0.1926934835898522 
0.1348786785426587 
0.2245224522078613 
0.3141169726573456 
0.1728769687806765 
-0.08196682107902907 
0.05802187087271258 
0.05802187087271258 
-0.02812522294380277 
-0.005840264606526240 
0.2072872040852068 
0.2072872040852068 
0.3959253299831392 
0 
0.3368983600790974 
0.3368983600790974 
0.01836845255361813 
-0.2720288002030428 
0.05662148904918479 
0.1468463169654532 
-0.02369605557023627 
0.04915513323262603 
-0.06079490762744193 
0.03266428383981652 
-0.2268306287562642 
-0.1074288958794127 
-0.1533492230397833 
-0.08912977687443485 
0.01829658083968772 
-0.1612799573054023 
0.05660522582563591 
-0.2892024481509223 
-0.01605896535813602 
0.05660522582563591 
-0.07715946193167302 
-0.1137244596549253 
-0.3940333018310591 
-0.1106700093171641 
0.4045395058274323 
-0.1773081225067372 
-0.1525516622685622 
0.1985188573307684 
0.09994298431812722 
-0.1224528401848005 
0.2369516774344093 
0.1169169153153547 
-0.08048088123905522 
0.3223814664372751 
0.7268234747801916 
0.4355435324675052 
0.4037467684467017 
0.5619859356380420 
0.4223508720955708 
-0.4875740270394642 
0.02403281871339318 
-0.04840060429818113 
-0.2081216510850779 
0 
-0.01349169331001637 
-0.01158410118523946 
0.2392146000435932 
0 
0.05753567378089650 
-0.001591980096652941 
0.2277338849716369 
0.1813452557360348 
-0.08785700599181678 
-0.05751564716176708 
0.07414770993425483 
-0.04578973166502821 
-0.1931917608208295 
-0.2412468186218923 
0.05503199618113207 
-0.3783683861245127 
0.04241061153133582 
-0.1656024294695512 
-0.1656024294695512 
0.06121554366220570 
0.1882713566895282 
0.1882713566895282 
-0.07718990305277575 
0.1370554270721194 
0.2316155337105615 
0.09950588260924331 
0.01044315932596679 
0.01044315932596679 
0.08185971055049270 
0.01044315932596679 
0.01108355998822527 
-0.4438918484140590 
0.1045264055248332 
-0.1867647341201016 
-0.5141256481019788 
0.1100561359583538 
-0.02822269343004271 
0.1068971278080254 
-0.1809179249675357 
0.1372349638370864 
0.1359794904699062 
0.08971904964394578 
0.1064604039634372 
0.1068971278080254 
0.1661619692960273 
0.1136110080350071 
0.09213019461561947 
-0.3302757942331466 
0.01007330928911479 
0.04603643728086426 
-0.01173376557296904 
-0.08362734172387436 
-0.01173376557296904 
-0.01173376557296904 
0.1508135152232530 
-0.6213077987016107 
0.3166190010829090 
0.2042129797730099 
-0.2443464956145580 
0.04617257036105549 
0.1382721058864927 
-0.2198068028835513 
0.1386108295765831 
0.1386108295765831 
0.06082799283855002 
-0.05036498655758497 
0 
0.5599369979659623 
-0.04234379083076582 
0 
0.05505161064261095 
-0.3583057623670521 
-0.1234021975716110 
-0.02788415279086087 
0 
-0.1985770201481416 
0.1070771498872732 
-0.01824589123849357 
0.09219498317768175 
-0.2403428012719254 
-0.3524534343348338 
-0.02650661935131400 
0.01661996372573787 
0.1064284734377277 
-0.3244296108977079 
-0.05752061456050862 
0.1231694853493641 
-0.3528799245079481 
0.2586280069289053 
-0.1442319697037202 
0.1075270319134599 
-0.07245500627392544 
0.08755071179053960 
0.1075270319134599 
0.1075270319134599 
0.02146483476821181 
-0.2811139758916619 
-0.1014972333518800 
-0.1734239140172025 
-0.2517590016171801 
-0.2581367023933102 
0.1289043955429054 
-0.9753204534400630 
0.1703067571303714 
0.1703067571303714 
-0.3493230679593000 
-0.1683546130504608 
-0.1683546130504608 
0.2811867016202584 
0.2586270106286588 
0.05394038454111316 
0.1498590555408211 
-0.2718670070495812 
-0.2054676395677665 
-0.2981886096305908 
-0.2076411135617126 
-0.3365142796017355 
-0.4048226186801004 
-0.3713521192445600 
-0.3415787762789995 
-0.2279530105283560 
0.2270488963514120 
0.2666095051288445 
0.1082856878334423 
-0.5887941859826534 
0.3781969646505649 
0.01040906619943163 
0.1756374512778091 
0.2279575263488002 
-0.2578690072444401 
0.04892437310548797 
-0.1464449509269488 
0.03838721348488244 
0.04552080284902899 
0.04552080284902899 
-0.03080374135176178 
-0.03080374135176178 
-0.1915808626149492 
-0.1458611585818847 
-0.1458611585818847 
0 
0.1676353344649125 
-0.1872136858172762 
0.008810062304322797 
0.1211844359858308 
0.1537112203268396 
0.2464827675178191 
-0.02508401596329239 
0.04156330962314148 
0.07247231115220187 
0.1347098028498350 
0.07965352675953269 
0.06223749169763316 
0.1202602398710300 
0.1003248198483128 
0.03446120572830488 
-0.1812619310633421 
-0.3312672811639204 
-0.1868740181898161 
0.04084354695163117 
-0.05609917267418117 
0.2474730817628388 
-0.4764390032442689 
-0.01418452158850281 
0.2555151652942512 
0.6782293837056980 
-0.03840112996536160 
-0.01425905717697252 
0 
0 
0.03963534451152161 
-0.1966728867545618 
-0.2072902565919660 
0.0008214655450840894 
-0.1966728867545618 
-0.4615944884265487 
-0.3146268208724536 
-0.1147381988991159 
0.08232905104616904 
0.1554937438156509 
-0.04829020797236070 
-0.07748879949959898 
-0.1929314392708269 
0.1149003079107522 
0.2895634762242371 
0.1149003079107522 
-0.09234042295363276 
0.04114909962289774 
0.1630404456897943 
0.1070324166538263 
-0.3532930106668112 
0.008828756485899703 
0.07494678726360430 
0.07494678726360430 
0 
0.07663037940801815 
-0.08543074795513020 
-0.3269392473914972 
0.09187938881610688 
-0.01595349610855524 
0.1244812660979108 
-0.2418034356746461 
0.1244812660979108 
0.1270225069836558 
-0.1835269419753556 
-0.3105494489590113 
0.007566090280538923 
-0.2759857076428064 
0.04101908545226159 
-0.2444576545771244 
0.1014652129550980 
0.2494553834698876 
-0.01792476789919879 
-0.03623659056464965 
0.06820506793895857 
0.3477641298503163 
0.03838738957669258 
0.03838738957669258 
-0.2131776916192148 
0.1165053008026477 
-0.2419952254460702 
-0.2419952254460702 
0.09713727871766435 
0.03506501878383179 
-0.08889324241078671 
0.1137768994017398 
-0.4241039054200074 
0 
0 
0.08678680330630126 
0.01176822970861936 
0.08678680330630126 
0.04766939485013826 
0.2164235886123599 
0.1050372030956034 
0.009778603528505674 
0.08383237052542566 
0.08383237052542566 
-0.3131047693310651 
0.09558315168845140 
-0.1677253449634752 
0.02749919883086299 
0.04094117660536088 
0.05283319048401561 
-0.3449345136598862 
-0.2885148912333363 
0.3627421326248392 
0.2841672475312843 
0.2179563190382516 
0.1139838186312730 
0.1139838186312730 
-0.01461568985432693 
-0.2946710311147428 
0.07248530324993450 
0.001651746790715147 
-0.03335839032963801 
0.04068229535654562 
0.1668305894173222 
0.1668305894173222 
0.1668305894173222 
0.1668305894173222 
0.04781686663825145 
0.04781686663825145 
-0.001217186107603501 
0.06988647423459830 
-0.2180518596948702 
0.06707759560437644 
-0.04331753949949495 
0.005643583299904428 
0.003640318987231321 
0.002752833456736690 
-0.003136829611208383 
-0.03650578137470582 
-0.1263368208997607 
0.06945359036716682 
0.01994080483838098 
0.01994080483838098 
0.4031939428131161 
-0.1875730276206075 
-0.03219474935079369 
0.3199964223260471 
0.2876466031459719 
0.1264823631812662 
0.06809405607764886 
0.4291227498425424 
-0.09296984823935680 
-0.02176162264394954 
0.1522659873685442 
0.1522659873685442 
0.1522659873685442 
0.03152047412472599 
0.07094797475277374 
0.03152047412472599 
-0.09003283905669520 
0.03152047412472599 
-0.1497937595980336 
-0.1497937595980336 
0.1837948553107511 
0.08782409520020126 
0.08782409520020126 
-0.6307571949099222 
0.1442022164103545 
0.2654954432387434 
0.2654954432387434 
-0.1109022187735569 
0.1063730380418500 
-0.2715100573654788 
0.3044412698600286 
-0.1037250707100715 
-0.02595670435273096 
0.005669178092710839 
0.005669178092710839 
0.1153261622393981 
0.1153261622393981 
0.2628951953363528 
-0.2278783415767159 
0.03700437779543801 
0.04167309358513183 
0.02817125615826640 
0.02817125615826640 
0.06381320274928873 
-0.1860601342039699 
0.01283670154462077 
0.2977212166620633 
0.1342251935837928 
0.1376109948045589 
-0.1427086524890831 
0.1259283020513973 
-0.1948188620842417 
0 
0.1661867005940316 
-0.3553416424250703 
-0.08765477200802929 
-0.09111712237763224 
-0.05280881016831109 
-0.8050387161055483 
0.1082213841095347 
-0.08935391680525966 
0.01788985250385919 
0.1025878734188019 
0.06050573916138539 
0.06340567762330292 
0.06340567762330292 
0.1211348158055580 
0.1204100399408965 
0.05154481684046183 
0.05154481684046183 
-0.006405202520482838 
0 
0.04307352408887243 
0.03339194472396476 
0.05004848676488912 
0.05863132949219443 
0.1326650542445070 
0.09768848855921011 
-0.2965545932298430 
-0.3498395751242238 
-0.4268426020905435 
-0.1460873884918623 
-0.3962363048123146 
-0.01204081818314813 
0.2643695051430670 
0.06487946634385187 
0.06487946634385187 
0.03263398193367116 
0.03263398193367116 
0.1838525645565676 
0.1838525645565676 
0.1668791139537369 
0.08576716589893230 
0.08576716589893230 
0.1145553012671714 
0.06110256082414972 
-0.3861456787419645 
-0.1275028532119105 
-0.2111252108313184 
0.1290901210549614 
0.01825523092244532 
-0.5556597354468198 
0.07417416152269488 
-0.2145282378829304 
0.01432896632819955 
-0.2172465898564955 
0.1994900387992151 
-0.2485487683174636 
-0.2460969291878981 
0.2068087558436695 
-0.04360904979100093 
-0.3124186417018695 
-0.1957904112669276 
0.1058383187494167 
-0.01551721356634034 
0.2637112952834286 
0.2102604437408585 
0.07450857862600083 
0.07450857862600083 
0.1565819796050584 
0.1565819796050584 
-0.01359453221170918 
0.1559149370118596 
-0.6169792607713763 
-0.006855105564934631 
0.1452456275856452 
-0.01916878992063603 
-0.1218760225758689 
-0.08145129438562337 
0.05288481195799272 
0.05288481195799272 
0.2910178675081096 
0.1347451509659421 
0.04324422019315032 
-0.1927205510433788 
0.1353752477545838 
0.1992296265117656 
0.03606412669141947 
-0.09895486386219535 
0.04677029496600142 
0.04677029496600142 
0.04677029496600142 
0.04677029496600142 
0.2467933494511788 
0.4284539713947801 
0.1959598634492818 
-0.2930740554008893 
-0.1948631396968885 
0.04805505780106285 
-0.1107121056848355 
0.03118309602280074 
-0.2932192436985672 
0.01477433265518753 
0.1302398555125057 
0.1302398555125057 
-0.07093324311473170 
-0.1449814530588141 
-0.06620197023584513 
0.09261696862952898 
-0.1239219123133193 
-0.4315886282131191 
0.1051605418208306 
-0.1941149367206182 
0.02587012010270232 
-0.05319153658701748 
0.03501013712035317 
0.1318486526317812 
-0.4015799487090903 
-0.4015799487090903 
-0.2067839960326081 
-0.2067839960326081 
0.06707361686770578 
0.06707361686770578 
-0.004967434622008373 
-0.4945093823565581 
0.06636185479281256 
-0.4286893380943233 
-0.2436392005665625 
-0.3173227876391702 
-0.2418240372195949 
-0.2952086851208453 
-0.5999858751204621 
-0.2508989801711405 
0.4252444880090620 
0.4152480400827465 
-0.2345515357644756 
-0.1876317128906590 
-0.2882498660388927 
-0.4106078629393239 
-0.1687838257197291 
0.06635654278299036 
0.09537479717709735 
-0.1721336021984384 
0.1337898283647385 
0.1337898283647385 
0.1337898283647385 
0.03109832249862930 
-0.09329853008162484 
0.1290541892352621 
0.1290541892352621 
0.1772433213801543 
0.2550523123437485 
-0.03423737650336495 
-0.1574752915274801 
0.07780899096359442 
0.07780899096359442 
0.07780899096359442 
-0.06258687386675836 
-0.09400511609646257 
-0.02777184894242674 
0.05387267296144305 
0.05387267296144305 
-0.03911740845616301 
0.2104703872577287 
-0.2552900207921171 
0.1268662204116436 
0.1268662204116436 
0.1268662204116436 
0.1268662204116436 
0.2595547928904103 
0.07018721318005365 
0.07018721318005365 
0.07018721318005365 
0.1688326038920732 
0.1203928685352975 
-0.6857972734929819 
0.05357544259923369 
0.1746631683134849 
0.09267406968315620 
0.03281482037801609 
0.07668098137477178 
0.1687327386645551 
0.06689269731459127 
0.09539463446847449 
-0.1350123500483119 
-0.1413168056603398 
0.005118916595820346 
0.1370087405783437 
-0.2031279216601368 
-0.2120903785582491 
-0.02589523847823637 
-0.1538838764183939 
-0.1538838764183939 
0.04063849613246588 
0.1838808258174036 
0.08951846073014834 
0.08951846073014834 
0.08951846073014834 
0.08951846073014834 
0.07939964592902778 
0 
0.1117157334571083 
0.04504497425005146 
0.04504497425005146 
-0.5823499550613158 
-0.1240171406154976 
0.2056109841821151 
0.01072029443196878 
-0.04038361012536620 
-0.06633615466998274 
-0.007175252966707256 
-0.05313410483724811 
0.04659345743284680 
-0.1573698085209136 
0.2594107855625924 
0.02824594433342509 
0.2772863258645533 
-0.09629921092548692 
-0.2264111690219677 
-0.09929060716460750 
0.3103273920622925 
0.08625324423511757 
-0.1012407049918342 
0.09022188612434771 
0.1964595832360875 
-0.4452478921421024 
-0.1020706833050291 
-0.02423516187615751 
0.05298848955070923 
-0.1731005392111513 
-0.1852808487079278 
-0.1698146347574751 
-0.1330504418856366 
0.2093849666753926 
0.1685264703342532 
-0.3335575244591534 
-0.3910300687378348 
-0.1736025818456724 
-0.09205187984929147 
0.06274162641049030 
-0.06355458736093825 
-0.2289133073852258 
0.2075908745521086 
-0.6789142945157524 
0.1564205858491262 
0.1274859695848239 
-0.5721741700432027 
0 
0.01889406190727926 
0.07555760199860351 
-0.2939970194164740 
0.03531539014537166 
0.05616047848266241 
0.01940557488154966 
-0.07453622084497866 
0.02302171463636138 
0.02302171463636138 
-0.04415605496712972 
0.3319229561461711 
-0.2428820829155269 
-0.2428820829155269 
0.1807641315599735 
-0.007601768463247990 
-0.2093207942161593 
0.1566230907154311 
0.08365155269517150 
0.03893649899662822 
-0.2109241065542296 
-0.08530410783820257 
-0.01973694090054665 
-0.1699045383256650 
0.1191186750319073 
0.1191186750319073 
-0.1708457424028308 
-0.05537010105561233 
-0.04997037677537242 
-0.2404627792919949 
-0.3792533187138609 
0.1561068103378918 
0.3537310362130468 
-0.1328938601561878 
0.3196994328428410 
0.01918783395078220 
0.3911508074453530 
0.3196994328428410 
-0.1958330092761574 
0.1683245011254985 
-0.1380677658906850 
-0.1253633651644866 
0.06885688448979194 
0.06885688448979194 
0.06885688448979194 
-0.05967635056272810 
0.03097581134016675 
0.05534686236463532 
-0.2505043848007308 
0.1858634026196636 
0 
-0.04306177870009718 
0 
0.2069295239860000 
0.1854890525848617 
0.006982084403741699 
0.1118341001270242 
-0.3863376932724485 
-0.3863376932724485 
-0.4177909742377023 
-0.1808219586593965 
0.02478320005841064 
0.02478320005841064 
-0.1253917869528746 
-0.3317153598711266 
-0.4119989812227253 
0.03671755569548369 
-0.1507578140615850 
0.07828055780253904 
-0.1182689003391250 
-0.1713931324813591 
-0.2174030122972888 
-0.2174030122972888 
-0.09198180539332997 
0.05553901446892599 
-0.9826774537869954 
0.2163885663346220 
0.1252732919184727 
0.07495159520396119 
-0.06684725934354664 
-0.07270171754125060 
0.04501322170067917 
-0.4221592773712473 
-0.1585145175477741 
-0.1585145175477741 
-0.3146740017862532 
0.3965750339324330 
0.1049303105292739 
0.3179132684245742 
0.3179132684245742 
0.3179132684245742 
-0.08254973743180019 
0.08763640806264741 
0.1511352766160385 
0.09765498243287388 
-0.03044070055888718 
-0.09615926001564609 
0.2155736072273501 
0.2155736072273501 
0.04639973435185798 
0.1327747817862843 
0.1191204643582997 
0 
0.03557465726714809 
0.03557465726714809 
-0.05458153413228101 
-0.1691738728754920 
-0.1691738728754920 
-0.3665310207172369 
0.07575540403455637 
-0.1397949452504208 
-0.2440697992452898 
-0.06166851600933629 
-0.01232332777335428 
0.07575540403455637 
0.07575540403455637 
-0.2851114703763396 
0 
0.1200857585396158 
0.1200857585396158 
0.02837024491870067 
0 
0.1089359010583531 
-0.3293124095618455 
-0.1069921140272135 
-0.03007633212256214 
0.2330592778038305 
0.001488411042024952 
0.05652861001894941 
0.005726224003925589 
0.1946002500558776 
0.1946002500558776 
0.1946002500558776 
0.03608918398284669 
0.03608918398284669 
-0.6650068737561159 
-0.08927717762794773 
0.03505002180449669 
0.03505002180449669 
0.03505002180449669 
-0.4144830796545573 
0.06545783883441342 
-0.1743154476882621 
-0.1257251683391853 
-0.2353734865873243 
-0.03210603568412514 
-0.1765360645236455 
-0.3446503474644772 
-0.3130731007473560 
-0.3391325041637346 
0.1274831736205289 
-0.3695979198885890 
-0.01454147576899196 
0.05223615309286470 
0.01984783643770861 
-0.2645947493851515 
-0.2095300412302054 
0.02808919270527650 
-0.08255120350398260 
0.1952477525874059 
-0.2379567175699307 
-0.2379567175699307 
0.1074498003906599 
0.3451069361382299 
-0.03405809613492763 
-0.09533294599232722 
-0.2825859327165993 
0.07557507489791829 
0.07557507489791829 
0.07557507489791829 
0.07557507489791829 
-0.02145264805897763 
-0.02597788360852848 
-0.02145264805897763 
-0.3772105763831766 
-0.4693201812259026 
-0.1104287250625453 
0.03866414202640470 
-0.03969080470562327 
0.02710351931617980 
0.04493153681846698 
-0.2647368640956713 
0.007186320925738614 
0.007186320925738614 
0.07122665984706379 
0.1210978056260756 
0.1210978056260756 
-0.04717616658110479 
-0.04717616658110479 
-0.07154715716738479 
-0.1979705143676797 
-0.2646731733036843 
-0.1422419434743384 
-0.04617477075160251 
-0.09734974161831718 
0.05207875397180360 
-0.1250010319165720 
0.02673784829290653 
-0.5272078747836827 
-0.1739584596222057 
-0.01359946300433738 
0.05414535320462516 
0.05414535320462516 
0.05414535320462516 
0.1318853677422696 
0.1318853677422696 
0.1318853677422696 
0.07807682686273854 
0.07420630179367162 
0.03975838138293159 
0.03975838138293159 
0.2086021325145424 
0.01750677887120801 
0.06528671517536079 
-0.3969085068139422 
-0.1339238076780374 
0.1456489456653593 
0.1456489456653593 
0.06072238095255705 
-0.5380332134026002 
-0.03566570935819961 
0.1622069212321686 
0.2786626270902838 
0.1162853364865759 
-0.08232261433245211 
-0.3882469467926403 
-0.2060817878450884 
-0.06827418393379477 
0.1285720924396536 
0.01997537254755362 
0.01997537254755362 
0.01997537254755362 
0.01997537254755362 
0.07468286991631864 
-0.005355176207121821 
0.1221426491926633 
-0.1781246752789823 
-0.09213039493288398 
0.1056091907762324 
0.1824942094946548 
0.04763516456865068 
0.1256901532570972 
0.2054543220552927 
0.2218169443948933 
0.2643605901542716 
0.06793481110580574 
-0.09116140491633251 
-0.2571063188678079 
-0.2912915464488790 
-0.004264866743312425 
0.1806604993544722 
0.2344001480914264 
-0.1361737677043839 
0.07271658622485822 
0.05057911383242737 
-0.2238973333473479 
-0.2238973333473479 
0.3629287585529803 
-0.3019374339024233 
0.1346277830419176 
0.2069273995864983 
0.2069273995864983 
-0.5943273904238079 
-0.1358542365555532 
-0.1358542365555532 
-0.5554369367079314 
0.08318948610817219 
0.08318948610817219 
0.08318948610817219 
0.3675351280319942 
-0.1122168293640323 
-0.2890071549034710 
0.5926243568644154 
0.5926243568644154 
0.2074671517500528 
-0.09440984227324978 
0.05571382132172800 
0.09185283634045821 
-0.06276554776064451 
-0.2822923322364191 
-0.08828934050776727 
0.05793104451130402 
0.2046673741994684 
0.08296222018295240 
-0.3003847572472204 
0.1290666089741563 
0.3098547168297497 
-0.1683856053614781 
-0.2585525139068965 
-0.1456146378812249 
0 
-0.1786097651780221 
-0.1550737674163555 
-0.1550737674163555 
0.08788679871785032 
0.006981511534976444 
-0.3658606303434081 
-0.04099019481669655 
-0.1231131940799888 
0.5534240687477539 
0.4616753549363870 
0.1974943522996459 
0.1974943522996459 
0.04591611921594539 
0.2339380634421922 
-0.07128567159052131 
0.1188406395235949 
0.1021034570286170 
0.01801169072796198 
0.01801169072796198 
0.01801169072796198 
-0.2467494018297478 
-0.03490471666609665 
-0.3901500428043096 
-0.2610004535981786 
0.08970068373178232 
0.04363227284733943 
0.05991360199234316 
0.1219733683092320 
0.06336702216257663 
0.1759153837160135 
0.1557622249611804 
0.1557622249611804 
-0.02555455164256712 
-0.09446901086953496 
-0.2428996449104137 
0.07140783846413436 
-0.04540907059635046 
-0.8436754025616147 
0.08455636152392705 
-0.1061582089875604 
0.2591041024492662 
-0.03337102862251181 
-0.02260144267151176 
0.1870492871963732 
0.05264217121370262 
0.05264217121370262 
0.05264217121370262 
0.02767429230265319 
-0.3557864623095026 
-0.03931931142776141 
0.01043160629233723 
-0.4230244867419878 
0.1104936691596729 
0.1104936691596729 
-0.1328605922621752 
0.1034078562488179 
0.2080204484345620 
0.01150672459799402 
-0.2498249245299606 
0.04125815004925697 
-0.3015585833576635 
-0.07603361845283407 
0 
-0.2910018234401938 
-0.3014422758014752 
-0.1874857358372062 
-0.1874857358372062 
-0.1386552015743506 
-0.1852266202437765 
-0.3756925570995084 
-0.2489374834795716 
0.002056648884393060 
-0.1204766700041774 
0.04701863311316157 
-0.03516774343894943 
0.1489860417232510 
0.04366229084179217 
0.06854527315557843 
-0.04820516582266645 
-0.04820516582266645 
0.08256497988699256 
0.1386051484136787 
0.01527264957906309 
0.03501746899831267 
0.09623724757686314 
0.02228674497130930 
-0.4817350894363874 
0.1363881355678975 
-0.07355362178240715 
-0.1240591685479866 
-0.03711622142265036 
-0.1130159855752523 
-0.06518107995489772 
0.1676546468864254 
-0.01847252935163532 
-0.03702752167242630 
0 
0.02729007340232474 
-0.01929971395168349 
-0.1986994540407280 
-0.07883003428074159 
0.2513049591604004 
0.09093738248133010 
-0.08845276310814590 
-0.1224762176047860 
-0.1827766915010641 
-0.09346057525934562 
-0.09346057525934562 
-0.09346057525934562 
0.2235084529311303 
-0.2165154385146969 
-0.08408137578084440 
0 
0.03375906824180776 
0.08129788529924281 
0.04528009640035124 
0.04528009640035124 
-0.2018665130476900 
0.2962872793064277 
0.03181715060926790 
-0.05735120814582812 
-0.05735120814582812 
0.1938629237708936 
0.1914213545744518 
-0.1399981805755097 
-0.1399981805755097 
0.04693076390998334 
-0.2275223290728253 
-0.4057735951194494 
-0.4057735951194494 
-0.1145140298995659 
-0.03227441886300210 
-0.3668862033449735 
0.1269052147676286 
0.1438896047048232 
-0.1451636532700610 
0.1473126734801621 
-0.01601889493798015 
-0.1083663080998850 
-0.01601889493798015 
0.009474960682590905 
-0.3221017271803546 
-0.2783701115488714 
-0.5437377505551730 
0.1645598240515936 
-0.03093109887039446 
0.1231960258585170 
0.09120662922056919 
0.04867102583674923 
0.1782512660466241 
-0.1193678901700395 
-0.05940435484311261 
-0.05940435484311261 
-0.3534243047845330 
-0.02460017463019579 
-0.1630139135148293 
0.2950660275801408 
0.3250778974587502 
0.3267521613375958 
0.2569069935046723 
-0.1199806595278594 
0.04266296618106192 
0.01726202239089659 
0.04266296618106192 
0.04266296618106192 
0.04319011646056691 
-0.09628043484256227 
-0.1239945882368027 
0.2458258764974770 
0.3219072892763987 
0.3101284713525832 
0.09977446772105975 
-0.1272640413651802 
0.01433059257426043 
-0.01553344264165249 
0.04389003838983094 
0.08468797715773563 
0.07373274643957418 
-0.3677341547966886 
-0.1431048647419683 
-0.08059074831632503 
-0.4902809738959584 
-0.3034712505710551 
-0.09174871381136696 
-0.3492572263387778 
-0.2664500759672308 
-0.04923141989403598 
-0.02692827894590798 
-0.3478062805928405 
-0.7894584017777067 
-0.3213578221162656 
-0.3647425953894743 
-0.1870123704132751 
-0.3385068105581326 
-0.08255881095107420 
-0.1715992389848521 
-0.1073597594225040 
-0.3804217937495545 
-0.1666831806422548 
-0.1666831806422548 
-0.2326442837106878 
-0.5661825440880858 
-0.05169381336409881 
-0.05169381336409881 
-0.1933206407623106 
-0.1933206407623106 
-0.1933206407623106 
-0.01858878390533115 
-0.1318123114582730 
-0.4367061876838997 
-0.06229823007077129 
-0.06229823007077129 
-0.1781552460426574 
-0.06634914914125128 
-0.3636481315537317 
-0.1918515935323259 
-0.5090000112659188 
-0.1411747126474729 
-0.1411747126474729 
-0.1411747126474729 
-0.1411747126474729 
-0.04951699783783755 
-0.1523830116391888 
-0.1613476982762161 
-0.1523830116391888 
-0.1094152631789092 
-0.1094152631789092 
-0.1828696897608402 
-0.1657925327364148 
-0.1261941809117424 
-0.1203112984758344 
-0.08312065781331994 
-0.08576912990718387 
-0.04791753991967145 
-0.04791753991967145 
-0.04791753991967145 
-0.04791753991967145 
-0.04312658307705188 
-0.04798561685997480 
-0.01815426980171280 
-0.01815426980171280 
-0.4100204483497101 
-0.06680656008687906 
-0.07416710396542889 
-0.1538675483960940 
-0.1412374251783739 
-0.4171968679435342 
-0.2411072800209393 
-0.2899091367856673 
-0.05927140067139335 
-0.2056297651774841 
-0.2056297651774841 
-0.2605834571652546 
-0.09090042488970984 
-0.09711053411387797 
-0.07190752069824757 
-0.07190752069824757 
-0.2069820221171710 
-0.2260541605353047 
-0.2999341789743562 
-0.2070988624608862 
-0.07081507532406078 
-0.4463817126826256 
-0.1312995341417982 
-0.1115012179812630 
-0.04566715982987245 
-0.08609227675048320 
-0.7316511323001622 
0 
-0.3483751802839130 
-0.3322375454062171 
-0.3322375454062171 
-0.06111470099123025 
-0.4479043582996883 
-0.07759192034666718 
-0.09789737025625464 
-0.5820850066881237 
-0.02558944267258674 
-0.02558944267258674 
-0.2584404015318544 
-0.1245346643686100 
-0.3013592153895067 
-0.2191840579098727 
-0.02256179944914209 
-0.2680213890687312 
-0.08535126952932545 
-0.1077338203488906 
-0.02401659744736296 
-0.08741326180527398 
-0.5299540409704027 
-0.1879348550334591 
-0.4795439502203880 
-0.06672264368308341 
-0.06672264368308341 
-0.1395691462318208 
-0.04146989546748515 
-0.03202778088740010 
-0.2672039087387629 
-0.5172914718825385 
-0.1397173147714473 
-0.2386630245999561 
-0.3028058840362025 
-0.2463124439182407 
-0.2463124439182407 
-0.1596920979248062 
-0.1596920979248062 
-0.04592032716037053 
-0.04592032716037053 
-0.09628722710472555 
-0.09734501175044333 
-0.06027794746641468 
-0.1022932753308946 
0 
-0.2149871917250036 
-0.02340457695044527 
-0.1117203944905775 
-0.07499961201111724 
-0.3500204246096020 
-0.1680378765412984 
-0.07920350647342089 
-0.4599949058754077 
-0.4191519170266119 
-0.2413691016605004 
-0.2413691016605004 
-0.2413691016605004 
-0.2541688357930495 
-0.09114942046980701 
-0.06808068656830343 
-0.4714764719618658 
-0.1837360715896469 
-0.1837360715896469 
-0.03675490360111275 
-0.1050661039048936 
-0.3358595137642746 
0 
-0.1101211784545957 
-0.3798251032460821 
-0.08236309334800558 
-0.2959646181522936 
-0.1478878140089643 
-0.02677638651611782 
-0.02677638651611782 
-0.07199778955800915 
-0.1042351439208878 
-0.05742278457133385 
-0.6844234309395160 
-0.2520876404401529 
-0.3082009591713028 
-0.2260951997754715 
-0.2919343628158287 
0 
-0.2138439092056610 
-0.2138439092056610 
-0.1301265629738211 
-0.1651316753586396 
-0.2159828469924179 
0 
-0.4125835272854281 
-0.1328803178132399 
-0.1912263963369964 
-0.6268505682707918 
-0.2168558854271518 
-0.3121256722145778 
-0.5207180764079378 
-0.4531094282320725 
-0.6671119538111631 
-0.3498698222713932 
-0.1418615770525075 
-0.06389017558256252 
-0.3186101342771484 
-0.07003735077296708 
-0.05505627609030228 
0 
-0.1368460224769870 
0 
-0.05434253104272295 
-0.2984845822707652 
-0.1842406778176096 
-0.05613474080223392 
-0.05613474080223392 
-0.05396192289156522 
-0.09637126885526162 
-0.02734078327812003 
-0.09656361352935264 
-0.06482076014662057 
-0.1424549626646007 
-0.04859359277997204 
-0.04859359277997204 
-0.4017533561359939 
-0.01151523566528541 
-0.01151523566528541 
-0.1181739172376971 
-0.01151523566528541 
-0.01151523566528541 
-0.02590104004403650 
-0.02590104004403650 
-0.03014676158397156 
0 
-0.1089944625607653 
-0.2176907229599465 
-0.2304176947281503 
-0.2304176947281503 
-0.07034803873015186 
-0.2276203742207895 
-0.1589733603315714 
0 
-0.1196747269828270 
0 
0 
-0.04505574648236718 
-0.1051573996193368 
-0.1051573996193368 
-0.03807756492948720 
-0.1335546914062606 
-0.3520074174205342 
-0.1819640982592952 
-0.06978392811227653 
-0.09631932312376121 
-0.06341119251512926 
-0.06341119251512926 
-0.02566455704800355 
-0.02613912601210345 
-0.02350886742684778 
-0.02350886742684778 
-0.1532809881373251 
-0.06144489562187951 
-0.02475958282448146 
-0.03805645618151942 
-0.02566455704800355 
-0.09320464389714800 
-0.2173426286142410 
-0.03290587856611313 
-0.02006893937100967 
-0.06302481692652756 
-0.07302290870969924 
-0.1839337509564760 
-0.06742048784026822 
-0.1037472783522214 
-0.1245205468961124 
-0.08123915236817653 
-0.04668271466837225 
-0.03279120996351348 
-0.008291497218940529 
-0.04685836921633401 
-0.05597644008863698 
-0.001237583019407458 
-0.1485742659622415 
-0.2621963352741431 
-0.2621963352741431 
-0.2221236298698188 
-0.09013552278693063 
-0.09013552278693063 
-0.1436531272743392 
-0.2167386022513843 
-0.1496989405917713 
-0.05122310858843361 
-0.09454399570804708 
-0.4336341262335868 
-0.2775994102152298 
-0.1695309699212382 
-0.1695309699212382 
-0.008141041417719453 
-0.04918546078466902 
0 
-0.2081592166312683 
-0.08521642299764805 
-0.1989367029549284 
0 
-0.1470798832313842 
-0.2236713545885214 
0 
-0.03805062662700588 
-0.03805062662700588 
-0.03805062662700588 
-0.2207375462650479 
-0.09880419978943140 
-0.07641718083684355 
-0.06416449490091150 
-0.05604016852668604 
-0.009605532149258517 
-0.009605532149258517 
-0.03225441626855338 
-0.03225441626855338 
-0.1106403962092588 
-0.1106403962092588 
-0.1106403962092588 
-0.1106403962092588 
-0.008344422338310984 
-0.07743741719436575 
-0.01685519368413674 
-0.09416407505235892 
-0.01685519368413674 
-0.01685519368413674 
-0.1244848494387387 
-0.3383516533749603 
-0.1887042027983746 
-0.08348376316068164 
-0.03512832589100347 
-0.02669678734568938 
-0.04442620650228766 
0 
-0.08733678509682535 
-0.1044932505555793 
-0.1929879939220334 
-0.05554815095106195 
-0.1563652533672740 
-0.2520544155442226 
-0.2520544155442226 
-0.1223151446157766 
-0.1752956588734148 
-0.1752956588734148 
-0.3087999500727746 
-0.3639981177147614 
-0.3406943976390362 
-0.3013735965951566 
-0.02628262805032921 
-0.02628262805032921 
-0.1756169603480043 
-0.1818093853620625 
-0.1226814763645945 
-0.1831899289923296 
-0.1137312600099561 
-0.1888490176401240 
-0.008141571378191870 
-0.04890023898770875 
-0.1133368094125950 
-0.1198694197599864 
-0.07157973895496646 
-0.07157973895496646 
-0.07157973895496646 
-0.08027541737809223 
-0.01927142909805045 
-0.2479603147400341 
-0.2218322766810551 
-0.03804992977817671 
-0.3060312363443403 
-0.1994212472386949 
-0.08463126054148208 
-0.08463126054148208 
-0.09305356165671476 
-0.05319246221044183 
-0.05319246221044183 
-0.3214635190910772 
-0.05204716882096473 
-0.1739810640522838 
-0.1739810640522838 
-0.1739810640522838 
-0.02956992700095244 
-0.3919415824447420 
-0.1631751485433252 
-0.1674538997094980 
-0.1674538997094980 
-0.1674538997094980 
-0.4650236018179240 
-0.4650236018179240 
-0.03973421009687077 
-0.08808771686473663 
-0.3655701315216732 
-0.5379851456259929 
-0.2622753127524727 
-0.1151011504906402 
-0.1151011504906402 
-0.1151011504906402 
-0.09594445101417080 
-0.3445259173918392 
-0.2708811373664898 
-0.2708811373664898 
-0.2708811373664898 
-0.2173318048954845 
-0.2078043399329731 
-0.2492521509419315 
-0.1522479869414951 
-0.09395624510678319 
-0.2540076659400522 
-0.2540076659400522 
-0.3327961262014186 
-0.06302050022268746 
-0.02149117212107385 
-0.2202809012038430 
-0.06712909673046903 
0 
-0.04994731949640089 
-0.04994731949640089 
-0.02149117212107385 
0 
-0.3262101349794180 
-0.3002322136588831 
-0.1297019265235311 
-0.1297019265235311 
-0.09916216416917210 
-0.2813265481515469 
-0.07865190271929590 
-0.07841742137975351 
-0.08657002608366457 
-0.08657002608366457 
-0.03921962368610280 
-0.03921962368610280 
-0.3752616245508794 
-0.2848317338103418 
-0.4647582589464758 
-0.01061736983740415 
-0.1254229355652118 
-0.2759381367225035 
-0.2162993884069279 
-0.2589889360222135 
-0.09111527441614933 
-0.09111527441614933 
-0.09111527441614933 
-0.2526789803919256 
-0.2526789803919256 
-0.07758502523152945 
-0.07758502523152945 
-0.06895075818320386 
-0.05780591376543898 
-0.05780591376543898 
-0.04005105696255219 
-0.2899243939158107 
-0.04005105696255219 
-0.09639549049483358 
-0.2410542235482332 
-0.5722444621991393 
-0.07062359903019975 
-0.1799265251361341 
-0.1545310297884602 
-0.01010764588776816 
-0.01010764588776816 
-0.1442059839537457 
-0.1442059839537457 
-0.02133660934431288 
-0.05748389689241927 
-0.1031896495625515 
-0.01381571211092934 
-0.09303781639841292 
-0.2628447870068595 
-0.1879820483885013 
-0.07486273861835827 
-0.1935753450183629 
-0.2422257887645553 
-0.04736753023655360 
-0.2498733369532586 
-0.01909952117348208 
-0.1094310527791575 
-0.01909952117348208 
-0.04790876181664604 
-0.04790876181664604 
-0.01954084422084473 
-0.06607571595162497 
-0.01814181310077972 
-0.1331643896933609 
0 
-0.1066586815724117 
-0.01664392150537695 
-0.1598467091090486 
-0.2365258272936021 
-0.02654883735731798 
-0.01664392150537695 
0 
-0.1818411918488742 
0 
-0.2681300505277608 
-0.2713808561337843 
-0.07980199769305306 
-0.5416402631566460 
-0.6694242353556850 
-0.02138410679850681 
-0.1014841535312445 
-0.03426393815569183 
-0.01604035077467451 
-0.2582049561114334 
-0.1140545082852073 
-0.03775660779771127 
-0.09741426826531320 
-0.1675748817518748 
-0.1675748817518748 
-0.1675748817518748 
-0.03518664202309396 
-0.06982375031417562 
-0.08687966635720365 
0 
-0.01076319291719153 
-0.01076319291719153 
-0.009337464722127570 
0 
0 
-0.03900625041667509 
-0.03900625041667509 
-0.2489410469170961 
-0.4625290023798302 
-0.09194906403730899 
-0.2844394821100992 
-0.2844394821100992 
-0.2844394821100992 
-0.2844394821100992 
-0.2844394821100992 
-0.09896716076312563 
-0.01058663386371064 
-0.02994830532509900 
-0.2386931015275982 
-0.06882757562406795 
-0.06882757562406795 
-0.07925098797594038 
-0.2024206564671762 
-0.2024206564671762 
-0.2024206564671762 
-0.2024206564671762 
-0.2606642931135655 
-0.2109685559569663 
-0.1790693843442376 
0 
-0.1285995084856000 
-0.2014257626946368 
-0.1923556900766800 
-0.3070775581013325 
-0.4009850038826310 
-0.4649146313021694 
-0.04184335657749601 
-0.04638862923560202 
-0.4289435014632663 
-0.001263599790514489 
-0.001263599790514489 
-0.3191470671233034 
-0.2309733155740721 
-0.2309733155740721 
-0.01288094768703129 
-0.1656024294695512 
-0.03670273488484363 
-0.2053456088920507 
-0.1144959085546983 
-0.07344204985537332 
-0.04015074147955981 
-0.005194985948456048 
-0.01801907702858933 
0 
-0.008298231229084794 
-0.006115676301612310 
-0.01424217845694297 
-0.08230474797048677 
-0.03407161791001647 
-0.009006242650118684 
-0.1914625911161819 
-0.3944220059339680 
-0.1587875030030350 
-0.09464421163556988 
-0.07632675485263377 
-0.003406742711497632 
-0.2359891466933728 
-0.1406060250967196 
-0.06811316213530930 
-0.06811316213530930 
0 
-0.2054676395677665 
0 
-0.01083367061661794 
-0.03498126649688939 
-0.03498126649688939 
-0.03498126649688939 
-0.03498126649688939 
-0.03498126649688939 
-0.03498126649688939 
-0.07239755035396460 
-0.07239755035396460 
-0.3212988482402698 
-0.1482402401858330 
-0.1482402401858330 
-0.4095086357404109 
-0.2243105455206481 
-0.2144642511987287 
-0.2567948904319003 
-0.2567948904319003 
-0.1011298543462875 
-0.008115755145567960 
-0.1167095431226624 
-0.2764526262082681 
-0.04118226934316511 
-0.3783451124870661 
-0.07691578190465137 
-0.07691578190465137 
-0.02373570942224387 
-0.02373570942224387 
0 
-0.09952335395038528 
-0.04806420941091776 
-0.06239297359281432 
-0.1171276896909503 
-0.2024403348361403 
-0.1094743465833401 
0 
-0.03331694428163182 
-0.03331694428163182 
-0.03331694428163182 
-0.03331694428163182 
-0.03331694428163182 
-0.2817055451207779 
-0.05279188351380804 
-0.1965572469848945 
-0.06517912361593842 
-0.2101827126324334 
-0.1648005963307206 
-0.3857754876048385 
-0.07253665906586469 
-0.2020221390326007 
-0.1193155780221014 
-0.1193155780221014 
-0.1958393372636517 
-0.2414297679922727 
-0.3705799383425213 
-0.07460790410408012 
-0.02238023932957002 
-0.1762003599268782 
-0.4650967074492957 
-0.08213302826164444 
-0.08213302826164444 
-0.08213302826164444 
-0.06305646039015830 
-0.2269334719250553 
-0.1144853538021576 
-0.1144853538021576 
-0.01262020884240291 
-0.1279706349029199 
-0.1296116050649671 
-0.1275281574567804 
-0.1275281574567804 
-0.03392806006109107 
-0.03392806006109107 
-0.01617647503543667 
-0.3507385902900133 
-0.2236639091827745 
-0.2368663868656588 
-0.02771415339424052 
-0.1212138869825964 
-0.1212138869825964 
-0.1212138869825964 
-0.1212138869825964 
-0.1212138869825964 
-0.1212138869825964 
-0.02379533564894916 
-0.01673887921891755 
-0.1474721851728905 
-0.01389791202313121 
0 
-0.08054163405555133 
-0.05126465394299456 
-0.03959835182467238 
-0.03959835182467238 
-0.03959835182467238 
-0.1944193382568959 
-0.08533142652026318 
-0.04729208392803201 
-0.06678855169678377 
-0.1644632769651381 
-0.1644632769651381 
-0.1644632769651381 
-0.1644632769651381 
-0.1570662257129310 
-0.2560033381408559 
-0.1454672014976101 
-0.3843116337366535 
-0.1581691013008101 
-0.1356696440872245 
-0.08008402209003267 
-0.04832567184759561 
-0.04832567184759561 
-0.2015130365202730 
-0.1666376693090605 
-0.3570215968947117 
-0.2113139396158601 
-0.2683353596804988 
-0.006567239497353399 
-0.01188879537152780 
-0.4004175541738965 
-0.1070536829542199 
-0.03288449979502686 
-0.03288449979502686 
-0.002676580707852656 
-0.1509944823577916 
-0.003739282180345875 
-0.004525235549550841 
-0.005193299110714821 
-0.01105663661011993 
-0.01105663661011993 
-0.01381871124100928 
-0.04367800255722687 
-0.09033153160567545 
-0.001115424905158529 
-0.02545419612580297 
-0.1039967592208854 
-0.2575311803113457 
-0.2002672302914908 
-0.4382622165860664 
-0.2912389093147085 
-0.1176391917408686 
-0.03567969257149715 
-0.2307381443206380 
-0.02725954163237546 
-0.02725954163237546 
0 
-0.03538090830585498 
-3.117598229433690e-05 
-0.05604016852668604 
-0.05604016852668604 
-0.08227397879348414 
-0.08227397879348414 
0 
-0.1156195813350774 
-0.1449011580225168 
-0.04559043072862093 
-0.08066579318510037 
0 
-0.02393721334427850 
-0.3262463838800125 
-0.1821931746610986 
-0.1821931746610986 
-0.09939610340781357 
-0.2148854373229938 
-0.1073072033128925 
-0.1332898748935924 
-0.4504850722185190 
-0.006338147927264730 
-0.5225757853006578 
-0.09326861982039891 
-0.1207669373939238 
-0.09887840470372249 
-0.1121740169136913 
-0.2409077286036206 
-0.3942430817890530 
-0.1448763248800138 
-0.1554244097057662 
-0.1554244097057662 
-0.4049743800485623 
-0.1554244097057662 
-0.01812628694473193 
-0.1840989185793592 
-0.2030640913146178 
-0.2030640913146178 
-0.2030640913146178 
-0.3277743183431586 
-0.2679924062880826 
-0.08694294712533629 
-0.08694294712533629 
-0.008038285891919558 
-0.04570484265719163 
-0.01233216419738937 
-0.06865009987698716 
-0.001422521838141979 
-0.1449440947291257 
-0.3096829834847257 
-0.3203504672538474 
-0.3203504672538474 
-0.05732118690522119 
-0.05732118690522119 
-0.07158024408219371 
0 
-0.06883258005779079 
-0.1739222912616520 
-0.1365462340438157 
-0.2932192436985672 
-0.004874792204206730 
-0.04388465154727298 
-0.2926346015408156 
-0.02456042540026173 
-0.03780970186834428 
-0.05471601412960530 
-0.06165627299189878 
-0.1062636405486349 
-0.1062636405486349 
-0.02067979995374230 
-0.02067979995374230 
-0.3470471852789361 
-0.2860691368590669 
-0.004617512697310580 
-0.1557203669361046 
-0.1983666072181003 
-0.02005279583901867 
-0.3022983639219384 
-0.1117090943017215 
-0.06411292968714659 
-0.1027633322480229 
-0.1677163428232393 
-0.1677163428232393 
0 
-0.08641569822039538 
-0.01778252306948566 
-0.2067356195362172 
-0.09880764519687368 
0 
-0.1181503701473454 
-0.02207656418575245 
0 
-0.05358983685447078 
-0.4907500661700459 
-0.2449464360682271 
-0.2449464360682271 
-0.05644912314687826 
-0.07697906598387953 
0 
-0.1785539490358413 
-0.2499315325544870 
-0.3054766030651654 
-0.1030965345076500 
-0.07081214192181075 
-0.1022049036885877 
-0.2465535999195199 
-0.3043233456028631 
-0.1332374799760709 
-0.1891028751741023 
-0.2778012428221357 
-0.03159190193157965 
-0.03159190193157965 
-0.07552727377949728 
-0.2792963435620612 
-0.1216305066911848 
-0.05576689257117685 
-0.05576689257117685 
-0.2482683210001853 
-0.1170768134175431 
-0.1800371639872976 
-0.1145011415413748 
-0.1505364243292944 
-0.07500538580707908 
-0.07500538580707908 
-0.04247573015894764 
-0.04247573015894764 
-0.04247573015894764 
-0.03939520741143412 
-0.03939520741143412 
-0.04425558986436549 
-0.3322025839856840 
-0.3665020397155582 
-0.4165573037383427 
-0.2410079771969095 
-0.2137323426114092 
-0.08165161334590139 
-0.2208638737325697 
-0.2402693072413603 
-0.2402693072413603 
-0.1133872754967893 
-0.2289177283460844 
-0.2780450227872124 
-0.07209676629921757 
-0.08057330648350763 
-0.1575775868045913 
-0.3019354816143763 
-0.3118092192385397 
-0.01616103803904648 
-0.01616103803904648 
-0.2636447598234729 
-0.2636447598234729 
-0.2636447598234729 
-0.002388982001885330 
-0.005380206099525005 
-0.01783997827142469 
-0.01783997827142469 
-0.04731716502319784 
-0.04731716502319784 
-0.2690390335464212 
-0.2250683365454276 
-0.2250683365454276 
-0.4177909742377023 
-0.01313558605396873 
-0.1234617068051825 
-0.1215533131814212 
-0.2316608040329510 
-0.0001526514747313397 
-3.018262492114986e-05 
-5.835742916732774e-05 
-0.07863502407735806 
-0.07863502407735806 
-0.05219847907762419 
-0.1904488299319319 
-0.3070957444744948 
-0.3070957444744948 
-0.09398854838659795 
-0.3309816571533779 
-0.2950165249154788 
0 
-0.1823065203614908 
-0.6722445737429306 
-0.09487882288171591 
-0.1116932082270699 
-0.03804992977817671 
-0.2026294497460446 
-0.2026294497460446 
-0.2026294497460446 
-0.01844679203850012 
-0.03062469219685946 
-0.2677269829459991 
-0.4637567383035041 
-0.2574172936929777 
-0.2027270805646595 
-0.1911830071735987 
-0.3148871200745435 
-0.3148871200745435 
-0.1895877917963435 
-0.04773095438483369 
-0.04773095438483369 
-0.08726953896710660 
-0.05051874539808554 
0 
-0.2788088139962771 
-0.08634820779997728 
0 
-0.03739699778304829 
-0.06512180338490686 
-0.01149407658429016 
-0.02566515982959721 
-0.04323013152802593 
-0.04323013152802593 
-0.1198852978945759 
-0.2922936013013762 
-0.3535627574051448 
