solver_type L2R_LR_DUAL
nr_class 8
label 6 4 2 3 8 1 7 5
nr_feature 21668
bias 0.000000000000000
w
-0.04151634113002143 0.2941551568754258 -0.1944322963325203 -0.09944986840622105 -0.04580545888465457 -0.07388045968423829 0.006948312772388879 -0.05993080936064538 
0.3725789971581475 -0.003803208381017208 -0.2940877733173243 -0.1142136538081692 -0.1024242542178904 0.09903949500152805 -0.5142762872407444 -0.07786989082633468 
0.005410939112764969 -0.0008424323258187709 -0.003952944618056935 -0.0003646514887777993 -0.001562378859316512 -0.001872557971982218 -0.003390139258960214 -0.0006891606806055445 
0.005410939112764969 -0.0008424323258187709 -0.003952944618056935 -0.0003646514887777993 -0.001562378859316512 -0.001872557971982218 -0.003390139258960214 -0.0006891606806055445 
0.03677093997501923 -0.03720280786775842 0.02907176267375465 -0.01498862451740642 -0.01544143848155997 -0.01883967943020566 -0.02346673472004741 -0.01219576780388214 
0.8195969951554736 -0.5634295749141651 -0.2699669918006728 -0.5323609838655920 -0.3813672353713789 -0.5702700872025611 -1.091961901635465 -0.4571366211006042 
0.1172970415026777 0.09191108506780243 0.05371137913985007 -0.07905059901714444 -0.01156838512193689 -0.1086820060467583 -0.2291327373326086 -0.06565784762863060 
0.005410939112764969 -0.0008424323258187709 -0.003952944618056935 -0.0003646514887777993 -0.001562378859316512 -0.001872557971982218 -0.003390139258960214 -0.0006891606806055445 
-0.01319234131676148 -0.2820516430688320 0.3626607956895600 -0.08286265841483842 -0.008019273912014617 -0.1227897892727093 0.05852370127658894 -0.08381220265808013 
-0.1839170554297855 -0.5573246341874315 -0.1856014371074707 -1.249915678597239 -0.01806857023522697 0.02598229221460591 -0.4927540653107493 -0.3669780943263150 
-0.006676210386242687 -0.1604710919048864 0.03167729290714381 -0.07494421688407646 -0.05100437608394073 0.1295929131446469 0.09087441361912876 -0.08854014134843964 
0.1130658276932373 -0.07243922200706279 0.2151679310977729 -0.1053156470353102 -0.05142114264323462 -0.1429288614783927 -0.2601845154495208 -0.1239601455309057 
-0.3451251523093354 0.4572377760035348 -0.2788215559177704 -0.03621448407011760 -0.003814821996405376 -0.05689158092012326 0.4059514889827084 -0.07722371238116509 
0.01608014839175951 0.1800120354740464 -0.1757653784567292 -0.03750709845117037 0.007784063674146472 -0.04681055113149397 0.03739789734085307 -0.02207063819687168 
-0.2830028243668763 -0.03345915057523258 -0.05288799318562857 -0.02104393313758559 0.03750900615030274 -0.07190370409463971 0.2090016433690165 -0.03688113787671401 
0.04814782532712491 0.06617695639603025 -0.02416667329227818 -0.03055674959088505 -0.01025403676721565 -0.02247023818686667 -0.06486369551808610 -0.01026015460268381 
-0.3265829114634829 -0.07108583833745935 -0.2150113696468863 -0.8040412818750389 -0.2421917784037555 -0.7026737920895348 -0.2082130329384027 -0.6081400551813471 
0.01393397140926309 -0.001203330059993830 -0.001683374067828321 -0.0002402927299847816 -0.001872408787547130 -0.001373967124291628 -0.01035699972306830 -0.0007681023049939901 
-0.06549068923789825 -0.04092155656212335 -0.08091571988641784 -0.03097480374852316 -0.05466603899682092 -0.02682487768243980 0.1932923543058202 -0.02696330796613163 
-0.1386722055702399 -0.03838857575388049 -0.03086319131867914 -0.03473834330669730 -0.02783665299217214 -0.03477251565542334 0.1318815060166543 -0.03177827184711479 
0.01882363230282850 -0.01102809094584655 -0.004098509366923254 -0.01355519999823369 -0.006675187085879924 -0.01033693745906452 -0.02615936145188673 -0.007835232072048356 
0.1740732783131387 -0.002746982752605233 -0.01279833864819118 -0.001456539390463544 -0.009928848373187592 -0.01243270576371556 -0.1198543454265520 -0.003075007650568461 
0.1841199329185165 0.07670937815076774 -0.1870903042848995 -0.04157343816713180 -0.005303004160976434 -0.04770101712830683 -0.2049439996391572 -0.05022456926341520 
-0.4647036012394998 0.3394209832834921 -0.4910600534417857 -0.08681466803233297 0.008826224976211140 0.2885041000483391 0.2659667725469044 0.04817544881612049 
0.02444900829186158 -0.002366998825800585 -0.01122685130237316 -0.001498372589359601 0.01314950160582420 -0.003340925439903475 -0.01540903445956769 -0.001439803076665234 
-0.02630191796465090 -0.2680329315617702 0.02593196369004355 -0.1163425316178431 0.006956805720171946 -0.1011759427441834 -0.2441572322647763 -0.4104755811370629 
0.3014660260620056 0.2689721637812009 -0.7006168500584289 -0.2045258132391856 0.02247411071039255 0.2051035373688571 -0.4098023143220854 -0.1073044454117552 
0.2592606015483324 -0.1033940156308129 -1.293248416283636 -0.1540985988279154 -0.2713271907049464 -0.2942303357509090 -0.7837884835448443 -0.1389308511658666 
-0.1801506982624323 0.3609626468353609 -0.1844035219536482 -0.1573233916961245 -0.01607239136641740 -0.1184437878253381 0.08050693798671088 -0.07631891895419231 
-0.05122151457134144 0.7725225631284514 -0.6027722211859392 -0.2339166969511874 -0.03976929449468920 -0.1456552334330160 -0.02540233700782882 -0.1078336292765104 
-0.7982422539618509 -0.2087396313957893 -0.5305119089749336 -0.04674174211140380 -0.1164766222208117 -0.4566604230611577 0.1356801712589006 -0.5597000641182274 
-0.03399744810499315 0.6805273610057833 -0.4185598213279269 -0.1935523615325485 -0.04009483880296992 -0.1142809845006874 -0.03279653142862087 -0.08140804092545700 
0 0 0 0 0 0 0 0 
0.3717449818072592 -0.5119567808058857 0.1054353068333979 -0.1899292168601527 0.04690552863597130 -0.3103056443087524 -0.6960833709118353 -0.3425522992416400 
-0.03988488842663802 -0.1293163569016476 0.1587869004731654 -0.02991769250206292 -0.03044147108092595 -0.02097333984608669 0.01773916580284632 -0.02122666452642901 
-0.004537001647452276 -0.1086740359136416 0.1376643580959386 -0.01221621221966628 -0.01100062451912181 -0.01009518456878138 -0.001595827091813650 -0.01038458753925318 
-0.004537001647452276 -0.1086740359136416 0.1376643580959386 -0.01221621221966628 -0.01100062451912181 -0.01009518456878138 -0.001595827091813650 -0.01038458753925318 
-0.01187333776027309 -0.1673431445686150 0.2684589322870897 -0.03907606287972917 -0.01825565589022201 -0.02221842407026455 -0.005584651487052264 -0.02618312282955341 
-0.3925484744145187 0.5902323252725045 -0.3659176508613753 -0.1351608286418040 0.1179110312387012 -0.2706755452263452 0.1259460711595756 -0.2593375256000364 
-0.004537001647452276 -0.1086740359136416 0.1376643580959386 -0.01221621221966628 -0.01100062451912181 -0.01009518456878138 -0.001595827091813650 -0.01038458753925318 
0.1036058585235400 -0.1817712966268723 0.2729432342738909 -0.02590752706082125 -0.01301583269427841 -0.05365453887896458 -0.08609260938693412 -0.02072842569969707 
-0.01621617363680336 -0.02604288889634149 0.08343560943084030 -0.01149800006898818 -0.008245796760678272 -0.01309409024023121 -0.003950730549619929 -0.004070864471298918 
0 0 0 0 0 0 0 0 
-1.373144493526346 -1.499719900181924 1.291242237035103 -0.3209917560397476 -0.4121413092193154 -1.202235590161550 0.6874724437637869 -1.105559528471922 
0.02918119889851377 -0.7125835219243695 0.1687375173289549 -0.05838042198573165 -0.08948781619197850 -0.3420467374513910 -0.1094007562680547 -0.2485948803267685 
-0.03828460156048935 -0.08281170690539227 0.09164799804154239 0.005002796572921189 0.02976603875543433 -0.04640438756948187 -0.05754438001432179 -0.04214894538723004 
-0.01617929651757645 -0.2752181718752438 -0.3614276377472753 0.5604140655717031 -0.04285699083494507 -0.07724311387981218 -0.04927203475786422 -0.05447692960868594 
-0.01287412062557842 -0.3244825981085747 -0.5262890062675525 0.7765636149548508 -0.04965067089166694 -0.09017644592743718 -0.06329383230029165 -0.06251777255683982 
-0.5312069777369305 -0.5090385703354180 -0.4865484250235419 0.2179402841825271 -0.06067720737027520 -0.2837379730131117 0.1735970957900012 -0.4234377603521248 
-0.01952764568928462 -0.4329658166222516 -0.3724408323384833 0.7379638273386581 -0.05735194579579925 -0.1182683057925970 -0.07758467308327291 -0.08233190893665057 
0.4207168414225366 -0.2635916063989189 -0.04039150622362863 0.03930675999648900 -0.04215983728166236 -0.01520636886666110 -0.5582259314423790 -0.1294116298483351 
-0.06423011389150587 -0.3702599399878920 -0.4736511454107956 0.9843623169391289 -0.05447596152407270 -0.2187430220827565 -0.1026568971576113 -0.1340409909924483 
-0.002625165395571689 0.2199811017519577 -0.3215843287205153 0.1800977947986276 -0.005249929354461528 -0.01709968835553910 -0.04048984444314351 -0.01293343790906765 
0.02095742029839019 -0.03144076560038382 -0.01569281811592549 -0.03791292494637459 0.003164078881735523 -0.03361213352150488 -0.04201162467943501 -0.03913764660129595 
0.02034667457968114 -0.07732160211994840 -0.03982851160576437 -0.05133742087974846 -0.005931654047767833 -0.04997783734289791 -0.07993196665765079 -0.06032508393620842 
0.007710085459446554 -0.1004382065607825 -0.09435828112644067 -0.1023715562544251 0.08323883097822697 -0.09519951035350062 -0.1567341148959096 -0.1005421061727563 
0.008923981742476291 -0.05102211497762252 -0.05383890908639125 -0.07431199660901582 0.04418980241682809 -0.05942336815646544 -0.07561438768541848 -0.06520160403812102 
-0.003442209834185085 0.06039842115723897 -0.1925103004793516 -0.1160539658192046 0.05557660207333545 -0.1030372596516790 -0.06497561839823207 -0.08839192029605143 
-0.5894713358322892 -0.1156374734520004 -0.2811602497320110 -0.1218182757716179 0.04202145887541624 -0.2328719276885966 0.3037384339774813 -0.2288995691387390 
0.08647777517222285 0.4740997143707291 -0.4418969740540627 -0.2813547098749261 0.03883442866174268 -0.04694888800284413 -0.2021506842309149 -0.1965984800726649 
0.1277082241155037 -0.05071463165174891 -0.01358449179699909 0.03401426215141277 0.02618683201308543 -0.04291198056635821 -0.1780788352638157 -0.05185381675268069 
-0.004295255136063632 -0.05138785026744838 -0.06474424756725179 -0.04854224458199423 0.02525472515303606 -0.06295933334726250 -0.06797426866433495 -0.06560509633059701 
0.05513433842592373 -0.03615700844407735 -0.08104651368914831 0.2034879014556241 -0.02541384564746237 -0.02091921425855043 -0.09126860236220372 -0.02838401369196594 
0.07744368868906741 -0.3460542516119002 0.1956009339985696 -0.3204096636306823 -0.03546853577688287 -0.4648015583828434 -0.2939852121766134 -0.4195498555827985 
0.1795353506441632 -0.1332908646095341 -0.1424480460055413 0.03055817915535429 -0.04565884187497360 -0.1411769003587233 -0.2848119525818206 -0.1327274069337573 
0.3172585112251653 0.1700496444969741 -0.2131635413748743 -0.08009135881998650 -0.07337150506958479 -0.07625850418709589 -0.3762758132390993 -0.08313993593094299 
0.1592057778989568 -0.1934079782599081 0.02995500754764104 0.1390005046712102 -0.07346777453924250 0.09952147132701633 -0.3167798234562823 -0.09983444557732782 
-0.3661647225573150 0.1042092166210899 -0.2460064692226758 -0.08248269522413905 -0.1486984294145015 -0.5632390822554141 -0.01461059086414069 -0.2927679151639205 
0.1856611705156066 -0.1096742798921463 0.0007447072714215021 -0.1064116246002479 -0.04231393835187598 0.07934190017201652 -0.2741628412957264 -0.09646526976581307 
0.04092266479207200 0.1177827161115797 -0.05543395601854301 -0.1312471388278850 -0.03047069584690279 -0.06027629461086860 -0.1318707458130420 -0.06086367173157044 
0.1024740280810566 -0.09936374092936835 -0.07217732961463166 -0.1294928167021404 -0.01966410678499657 -0.1395783143094722 -0.2741158137882183 -0.1227378733245474 
0.03651767966575335 -0.01412223515446120 -0.02552587630873708 -0.01324577936902250 0.02359986620613667 -0.01315272270604407 -0.04837374588483499 -0.01922113741671967 
-0.1172023156328344 -0.04972490880487872 0.06125531363889898 -0.1021236223104336 -0.006426142758219749 -0.09196737879031212 0.2446542012215762 -0.06898371694108753 
0.3377623862603834 -0.2753818592963350 0.1732913537647463 -0.1829905371099541 0.05323922641275965 -0.3550035450332770 -0.6674219589063959 0.03773945426473850 
0.06716425071656196 -0.003260222751272778 -0.001475577710159107 -0.005587112706637495 -0.008019697778362337 -0.004904676927823692 -0.03602545819320444 -0.006742067929568231 
0.06716425071656196 -0.003260222751272778 -0.001475577710159107 -0.005587112706637495 -0.008019697778362337 -0.004904676927823692 -0.03602545819320444 -0.006742067929568231 
0.1601573963472230 -0.01096576916162578 -0.01320734575084538 -0.01078735829510540 -0.02878535125380287 -0.008309222297169776 -0.07660248691730918 -0.01538235349083503 
-0.05823717001002144 -0.4094937260144155 0.3776311808252017 -0.1568578320689104 -0.04273921259243872 -0.1865645128192137 -0.09860805080129828 -0.1423342232055656 
-0.0003835849616195516 -0.0004762702360055346 0.0009003865272923380 -0.001147153392652131 -0.0008275135749947914 -0.003579523555861930 -0.002113172604727181 -0.0006980191704598539 
-0.001801420454842241 -0.002364267367007320 0.008738162603781683 -0.005967506563272913 -0.005255309532398935 -0.01624735006595806 -0.01399180367010745 -0.003259896771857177 
-0.2020912699744355 -0.4445271105281899 0.2156889410454130 -0.3144525498317191 -0.1639157679038910 0.001590812624054812 -0.2697266237216749 -0.07388179747498957 
-0.004823158517645828 -0.004475813311054473 0.02072791025036848 -0.01628879866111258 -0.01304967571368888 -0.03054613078894956 -0.02956635720692615 -0.005838032792467538 
-0.01097368324029333 -0.007275173393321651 0.03758662570709517 -0.02805016343332261 -0.02084648940609798 -0.04082773053448223 -0.04228331125298136 -0.007484729202916246 
0.001374183427574367 -0.1116961050155807 0.08305318443878273 -0.06275964230441873 -0.03847176841068504 -0.1398124247130610 -0.05626857114532471 -0.07112155086422381 
-0.01457895273481316 -0.05219483097550344 0.05921892571940315 -0.02804774744759126 -0.01745820283014056 -0.06695438499505861 -0.03282266276408864 -0.02248835725503887 
-0.2500992141688174 -0.4264871975342888 0.3867287799620185 -0.3389434038476469 -0.1385947354666994 0.03869902494798236 -0.04364989288740279 -0.2814628099165039 
-0.03421270185701324 -0.1273340580054360 0.1072761387420738 -0.05525806214937937 -0.01661387300470689 -0.08283173972168661 -0.08541954671853096 -0.04842817865977724 
-0.001861986119319858 -0.004583168664804412 0.009383576378780654 -0.005573365073959829 -0.004765264461882079 -0.01918484388431920 -0.01458586011134649 -0.005467036178258674 
-0.03985690550329835 -0.1012258344393860 0.1908141743332060 -0.06467276168579768 -0.04725993008216804 -0.1044076831697210 -0.08373365489167729 -0.03689113852020742 
-0.02392816281331623 -0.1020808980857386 0.2323713302350655 -0.1071301915724394 -0.04979651504822795 -0.1113409973091187 -0.09741546208061001 -0.03856582956008089 
-0.8822672594803080 -0.6466129950781662 0.1748018471855226 -0.5306590276357587 0.01872531171557756 0.2472524014819528 0.3653444215223899 0.1610177908794395 
0 0 0 0 0 0 0 0 
-0.03776938774847141 -0.1834566386624746 0.1239521347613974 -0.02704888091442310 0.004033924688341914 -0.05871837625775376 -0.01584625340168998 -0.06367974903946079 
0.07340781080257126 -0.0005086939171261196 -0.007295593395234493 -0.0009626746023353284 -0.002113162942489986 -0.0009408593694617213 -0.05557159417040802 -0.0003798839092448406 
-0.2520065062348163 -0.1451676996312927 0.1599884945198976 -0.03339413635162298 0.006736721674127236 -0.07504991366294336 0.2017523550769728 -0.04650622380093696 
-0.1835398045937317 0.05349607567647867 -0.2857393298942011 -0.09818248846939790 -0.09740010876083131 -0.1014481044577581 0.02504063578122434 -0.1032402643124522 
0.1737462149599329 0.2227174671114395 -0.1669825327173172 -0.1592483236325808 -0.001421401474100759 -0.1137972056935417 -0.1238288250563185 -0.07959170119780261 
0.1018115270036819 -0.002043234534267516 -0.009125693486138536 -0.001071728945866758 -0.004979359658357434 -0.006712650489447245 -0.06534257972375493 -0.0008607305618054537 
-0.2204132422473860 -0.8538083484313583 0.3498594723235041 -0.3751154627055063 -0.09299566608798297 -0.4103489169050756 -0.05764320010882442 -0.4168157399603912 
0.07340781080257126 -0.0005086939171261196 -0.007295593395234493 -0.0009626746023353284 -0.002113162942489986 -0.0009408593694617213 -0.05557159417040802 -0.0003798839092448406 
-0.4825064870577143 -0.007098843356785518 -0.03514397188651718 -0.01468337697250633 -0.01414985996187348 -0.006622869722231227 0.3710408819925211 -0.008706959408773002 
0.07340781080257126 -0.0005086939171261196 -0.007295593395234493 -0.0009626746023353284 -0.002113162942489986 -0.0009408593694617213 -0.05557159417040802 -0.0003798839092448406 
0.07340781080257126 -0.0005086939171261196 -0.007295593395234493 -0.0009626746023353284 -0.002113162942489986 -0.0009408593694617213 -0.05557159417040802 -0.0003798839092448406 
-0.03387775239880717 -0.4307036950198910 0.5073895702597770 -0.1861561397620612 -0.05721492640159483 -0.1295739268359385 -0.06052272993076542 -0.1104664303129791 
0.06239601425401255 -0.01339279584175458 -0.008863904061202335 -0.01685884989488797 -0.01493296117393116 -0.01697488164992093 -0.06964794410041823 -0.01014081659203303 
0.2721797117952114 0.2215423558671642 -0.1048317707821597 -0.04807727230511062 0.01090435049675548 -0.05643318349913123 -0.2434871594979785 -0.03181736868765129 
-0.1051514135112712 -0.01053044386043838 -0.04501477234068072 -0.01416441029144443 -0.01377656256099417 -0.01502398999634224 0.2116051530120923 -0.007385059467988876 
0.1452896560772466 -0.03063876129524191 -0.04464368662438561 -0.04753360412363360 -0.03151165392272758 -0.03936753704072494 -0.1752310671898094 -0.04176986858683122 
0.03841459834798498 -0.01020101828416135 -0.004980547473709344 -0.01380686459455778 -0.009648092700495119 -0.01039989460457591 -0.04571652259035983 -0.006849489901083819 
0.01376431924722994 -0.06293881901821999 0.2625417526064413 -0.04910332397902834 -0.007598188087725996 -0.03263273223419210 -0.04727564946265826 -0.02114559708880837 
0.01496047611456259 -0.003790453480394327 -0.002593796931750095 -0.006085260043958042 -0.004338224024707266 -0.003496908137527420 -0.01389358016395921 -0.002843248662678240 
0.01496047611456259 -0.003790453480394327 -0.002593796931750095 -0.006085260043958042 -0.004338224024707266 -0.003496908137527420 -0.01389358016395921 -0.002843248662678240 
0.1849700934753306 -0.1903682302234054 0.3271411176120522 -0.07037769488375513 -0.03486060877997636 -0.04420197924614353 -0.2195880017684352 -0.03438996604514224 
0.2569105043584357 0.01744405638453658 0.04177384856217357 0.08517170956428995 -0.06605655512970303 -0.07653485530731567 -0.2649737340937337 -0.1584667163694302 
-0.1050835954789521 -0.1578141290802370 -0.1015550201001039 -0.2630068724365030 -0.1325278741725889 -0.8660678320805380 -0.03996320898911613 -0.5201101443946623 
0.1476228406520729 -0.02361821596498014 -0.01601028291934444 -0.02552893953778293 -0.02028690703913259 -0.02340954094371963 -0.1755640009294920 -0.01542623551459140 
0.005908335309489852 -0.001363870674078429 -0.002857102109431934 -0.001306080405137553 -0.001766735446897282 -0.002953554400309173 -0.005686577029561363 -0.0003512837154799180 
0.1156165156863682 -0.02842103003343062 0.006048549471600590 -0.01179491777130522 0.01750473188390982 -0.03514792881526808 -0.1051865721470287 -0.01551260790429206 
0.1583315231112821 0.1891972469907526 -0.1930110259998175 -0.1390408643490688 0.005969175458423801 0.1997830756998125 -0.2333537956506500 -0.08371535357642305 
0.005908335309489852 -0.001363870674078429 -0.002857102109431934 -0.001306080405137553 -0.001766735446897282 -0.002953554400309173 -0.005686577029561363 -0.0003512837154799180 
-0.6309421016790256 -0.06816706130110427 -0.3373615265346521 -0.2409056209077729 0.0009131462672056590 0.5156776609958192 0.5675533485958211 -0.2481253295596178 
0.005908335309489852 -0.001363870674078429 -0.002857102109431934 -0.001306080405137553 -0.001766735446897282 -0.002953554400309173 -0.005686577029561363 -0.0003512837154799180 
0.2125251824321249 -0.07091782054246532 -0.03538283375881812 -0.06809687763959850 0.007778397171595800 -0.05403450054248437 -0.2351409599050052 -0.04130585796542844 
-0.1432829482878893 -0.08850464750694655 -0.003661626411535489 -0.05010144520627238 -0.04674154731821382 -0.05204633328680235 0.05431162122865731 -0.04635902703159762 
0.07656428892731690 -0.03384875503979013 0.06917859458301111 -0.07954887199793263 -0.02551500230554916 -0.07149727139423640 -0.1017370836238462 -0.03925703946909479 
0.01531322102579238 -0.3239537587450102 0.1327341038785444 -0.1114576713562016 -0.05173483939576328 -0.2903750573878208 -0.2629818687398033 -0.7178361963981156 
0.03765436879280681 -0.004533134120811759 -0.009524116239768926 -0.002234825202349152 -0.008343579679284700 -0.006004478286387608 -0.02662414196072546 -0.004096496662506850 
0 0 0 0 0 0 0 0 
-0.004956279916060635 -0.04257719492477401 -0.07285470382035567 -0.01323127215739819 -0.02398208061608606 -0.05775780139155397 -0.02285830137930816 0.2761845605860575 
0.1025282897321694 -0.05288531792701534 -0.02901554373929034 -0.03308196375402977 0.02031254136034733 -0.02109064995163541 -0.09342551788295432 -0.02708837255235367 
0.01985265855493668 -0.002678720791489509 -0.003373893448430650 -0.0007819872241064562 -0.005088588987739049 -0.002359137192877475 -0.01728291166837829 -0.003481633528027074 
0.1789575805249202 -0.06562552704848038 -0.06719783786227437 0.2317037642105287 -0.03880653323095121 -0.02002178782856637 -0.2073214096396041 -0.02190493534713146 
-0.1287122977983787 0.2560503156432861 -0.1311900692943213 -0.04192322157755016 0.06793920476928311 0.1066824368347338 0.04548081258806638 -0.1869143251715373 
-0.2040720028790857 -0.1263593365426318 -0.4821688418957873 -0.08277052787548636 -0.003297021697766296 0.5970334888580422 -0.2165934374417214 -0.2019653767109839 
0.03881721395375577 -0.002903321325161794 -0.01308125245476990 -0.001910572060176147 -0.007321731921892782 -0.003603750823174334 -0.03068155424372640 -0.002722522032173077 
0.1323524304654304 -0.1058206630806157 -0.3571049837671255 -0.3188368005462125 -0.1223253723453777 -0.04005047598807002 -0.09670550713876494 -0.2958380594303494 
-0.05495892747165795 -0.3826335498173937 0.1049022908319388 -0.1025432386451491 -0.03972521336206459 0.8166543763652283 -0.08174677754792126 -0.08159236936090561 
-0.01731693782680480 0.2768554346460710 -0.3591333619488105 -0.08974425002338442 -0.05076390089507918 0.2602822601095507 -0.05636355377055650 -0.06993708553726710 
0.04156645245148002 -0.07926945230637421 -0.1717113840584988 -0.05493245124677642 -0.01739384337761275 0.2976186117341466 -0.04722027212193177 0.2141516654498775 
-0.002125453519090062 -0.06403303379572300 -0.1434087410462540 0.3066160653224112 -0.01366566538738587 -0.03516399790888614 -0.03666097289555041 -0.01215673184799159 
-0.001477436642858149 -0.04357882211667175 0.1045900692566659 -0.04784220035540589 -0.007746932792498648 -0.03273061931676646 -0.02005819483404933 -0.01119901857063957 
-0.04909911466575682 -0.1778740495669095 0.05164626063884677 -0.1304070066339402 -0.01188187837974433 0.2373926029459113 -0.05220089551993258 -0.08340870592030235 
-0.001477436642858149 -0.04357882211667175 0.1045900692566659 -0.04784220035540589 -0.007746932792498648 -0.03273061931676646 -0.02005819483404933 -0.01119901857063957 
-0.2123708516384718 -0.1701159519088939 -0.1039596180297414 0.3669996734531046 -0.02227427607335263 -0.1014891276951628 0.1122738067193609 -0.07075512289283468 
-0.006011387038884851 -0.02674369671267000 0.06589629804576293 -0.02158144650819065 -0.009970310141693018 -0.01599921587481747 -0.01771301793306229 -0.009797356512012493 
-0.01633825691102632 -0.007291527942478308 -0.02833719963189377 -0.01434137209081841 0.01009051802268869 -0.02024831079046155 -0.01212474643075294 -0.02007367928232309 
-0.01219262344508051 -0.006339624321918779 -0.02407615313745869 -0.01310330557445997 0.005350087178356235 -0.01789302323909425 -0.01009869694609513 -0.01833367182909267 
-0.01219262344508051 -0.006339624321918779 -0.02407615313745869 -0.01310330557445997 0.005350087178356235 -0.01789302323909425 -0.01009869694609513 -0.01833367182909267 
-0.01219262344508051 -0.006339624321918779 -0.02407615313745869 -0.01310330557445997 0.005350087178356235 -0.01789302323909425 -0.01009869694609513 -0.01833367182909267 
-0.02893879778056647 -0.01010828821819148 -0.004202453893608632 -0.01300528723065135 0.005910470047558332 -0.01389638819365623 -0.001404099368409616 -0.01006829034098128 
-0.02893879778056647 -0.01010828821819148 -0.004202453893608632 -0.01300528723065135 0.005910470047558332 -0.01389638819365623 -0.001404099368409616 -0.01006829034098128 
0.07544880369985812 0.2687349399354417 -0.09578559514238569 -0.1798244210908123 0.06158514738441206 -0.2936130686809872 -0.2791627432288029 -0.1470048584872664 
0.2176056702980136 -0.2301467183610406 -0.1277404753527552 -0.02950680097763263 0.02116355381709364 -0.1820181108874258 -0.5352828109819379 -0.2635551956312048 
-0.007648594115445876 -0.02408103453166010 -0.01646065612702438 -0.05074953317900122 0.03380597384452150 -0.03797871455503239 -0.1434008440817505 -0.04946313031678452 
-0.08105261453906674 0.1744206513504122 -0.1593796792021424 -0.1226283594820262 -0.04191608189157885 -0.09126441822977195 0.03728977379467468 -0.08364174341357211 
-0.6587480440476511 -0.1423849736075812 -0.3244183493086859 0.4056999593264493 -0.001086089064871364 -0.1646581794665242 0.2866835301872689 -0.03450028292298282 
-0.07692220308221924 -0.2967887591721610 0.3561037697499441 -0.1646675265921313 -0.06072994492938969 -0.1893191341786404 -0.09156161457529051 -0.1171967436976911 
-0.04933499262972670 -0.4108504276270040 0.3014121704228013 0.07616501715843879 -0.07328368817021007 -0.1718246947785066 -0.1243848129126193 0.4371627772529064 
-0.02322746512470557 -0.05256261256408645 0.2016483608520386 -0.06328517738240211 0.007845955795020749 -0.02914270666886690 -0.03273420928087123 -0.02081297854821656 
-0.01318305424906482 0.1715100852713154 -0.01775887477168765 -0.06699254745526267 -0.01305822443616247 -0.02292839140715539 -0.03245068941341715 -0.02242675158544258 
-0.06022073697423166 -0.09411170415914259 0.1703366594845622 -0.1146168687654765 0.07503238877499359 -0.09893698253608080 -0.1120890615085211 -0.06441531997680762 
-0.1014286832790786 -0.08344376947940137 0.01821270061031544 -0.09033715843726683 0.06436863171252799 -0.09735871746249063 0.001416337750519536 -0.06652027106756960 
-0.2981685612605464 -0.2603369164204525 0.05969332188416764 -0.08818832598485973 -0.01828399862935030 -0.07841549995935017 0.1390205770326314 -0.08574925990364055 
0.01994434461030858 -0.003105101600075090 -0.006758081006372064 -0.002995958653315099 -0.005353476379188663 -0.007100055366857707 -0.02147847942029831 -0.006286493028158886 
0.09449193933808259 -0.06632511036342065 0.03275865943183356 -0.03589400134866733 -0.02089830437764706 -0.05278888333687722 -0.1094705412117399 -0.05446163357003641 
-0.1577677282766736 -0.2206802666330266 0.1436888543796232 -0.4336363502221916 -0.07392353198416095 -0.1843795142458768 -0.1829837315313126 -0.2976450318827570 
-0.003620210719914749 -0.001183170631784352 0.01045050524406541 -0.004109689673540297 -0.002892264908340343 -0.004339730623966437 -0.003245294850836356 -0.0005608604344021623 
0.09637301265393408 -0.4186092411539927 -0.07104724811023438 0.2581086004642969 -0.05038966173683927 0.09714270500201630 -0.1209252343638625 -0.1121839349120057 
0.03363357945838597 -0.1034407303218065 0.1148449178592148 -0.07793312497978991 -0.03416082834165118 -0.09735438686238677 -0.07973184460880228 -0.06251465685119450 
-0.003620210719914749 -0.001183170631784352 0.01045050524406541 -0.004109689673540297 -0.002892264908340343 -0.004339730623966437 -0.003245294850836356 -0.0005608604344021623 
0.005069923730416422 0.1407706651727035 0.02723934106064456 0.03531270811220842 0.007368220806961288 -0.1155100420700281 -0.1707154335858243 -0.05203173620472722 
-0.1646444303678624 -0.2893753207385526 0.01654017988900185 -0.3731725317508158 -0.07094793644285453 -0.4982459583225892 -0.3028808961236438 -0.4100761855734190 
-0.09315874600611415 -0.5394269272324697 0.1813352301707562 0.03754620223583327 -0.05659199512245666 -0.3287532661915538 -0.1592635563359351 -0.2357222845876889 
-0.04125926832218588 -0.1028357257499700 0.1021782304564874 -0.05751583459824235 -0.03129099615299146 -0.1447687926482692 -0.02915133579628677 -0.06611552134775849 
-0.1398741042390966 0.03751435821106587 -0.3429083912820888 0.09235599475291888 -0.04509691728237501 0.5420413951390879 0.05125797775361955 -0.08881589053946236 
0.05441437903220222 -0.1026869642083284 0.2836877411230263 -0.1692783015231005 -0.02241941292096935 0.002258082066240798 -0.1330266169718710 -0.1116673217616645 
-0.07650561916084829 -0.03484125073235433 -0.07823559676911190 -0.1441939168884815 -0.05247464559194184 -0.1988233935870889 -0.07249247407773950 -0.1225879982444010 
-0.005576442591580914 0.2636623639631709 -0.2262600838063314 -0.07029306486293983 0.05874318447584893 -0.08462371435626640 -0.1604412196123218 -0.09398683537339722 
0.1462433234403920 -0.09647561161729865 -0.07881532878035982 -0.05214024827971561 0.03477237136666350 -0.06491569102295323 -0.2734603035385963 -0.05783252722296623 
0.2251620353737718 -0.1038502238675498 0.002031091882485155 -0.05081415631195208 -0.01774411135960321 -0.06964706315657113 -0.3859230130845409 -0.07523166254770335 
-0.2393548226400647 -0.07614311385825136 -0.09568496958859964 -0.3501732393111084 0.05702973590646322 -0.1754140279257536 0.1260310050736913 -0.1546726058150981 
0.1169625338287409 0.08550155949849518 -0.2596381830003338 0.002970692489326640 -0.04084706339899942 0.1662586182373943 -0.1494561468491013 -0.1486226561608794 
-0.1187784739643866 0.2269653663102021 -0.2981248941669236 -0.2231538399120436 0.01001678103409858 -0.1427117011483274 -0.1441702747743491 -0.2244047512549457 
-0.06418700556232357 0.2410404603551798 -0.4086303916765007 -0.3940799558942246 0.2288829075687051 -0.2446634166005860 -0.2470275566426327 -0.2755875255350926 
0.1895782433687170 -0.2992557399362056 -0.1213714859057641 0.1042036642802180 -0.01937024419783280 -0.1063054196603354 -0.2999180720212789 0.3208426941078295 
0.2796397214422874 0.1788275470490486 -0.2118374032120525 -0.03611698622761343 -0.005555838837742730 -0.03962573049466372 -0.2705984793392124 -0.04237139837105300 
0.2254165151263100 -0.2371244993346269 0.1379859052555150 -0.1381693705804975 -0.02130095962331568 -0.1939758826399276 -0.1898949233934247 -0.1314663791705565 
0.09938753468217511 -0.01852713158350397 -0.01323917601869360 -0.01173114238751717 -0.01396359041758604 -0.02294576401689169 -0.09104544984964302 -0.01725981329628428 
0.009806839195358779 -0.007476568537968006 -0.01042562438310454 -0.004377352808891476 0.0004282969789695564 -0.01194581838675552 -0.02249303058311723 -0.004331201134327471 
-0.01354640843644921 -0.002575171988080440 -0.003574664868948908 -0.0001883756870767209 0.008607711595443778 -0.0009764484866423085 -0.0003381328914873931 -0.0003487918385621453 
0.01255157135841724 -0.01203652768680135 -0.01163999569019174 -0.03377266982074773 0.0005913102467629957 -0.01566859982628052 -0.1096038326917682 -0.02733601034876506 
-0.01576532929963223 -0.1053026959973416 0.1320397441820593 -0.05925189394338869 -0.02936023218481306 -0.07841871220244080 -0.07624224584007609 -0.05962032787535108 
-0.01969578652624376 0.3178855255707390 -0.2156377147973014 -0.01069162760159722 0.01683219461828318 -0.004384816004231014 -0.01336184624918367 -0.002575990063709194 
0.2348476870975145 -0.1493465870393242 0.05707406015553081 -0.08401674408277494 -0.1000648598346597 -0.1288208666501553 -0.3213776609360919 -0.08368071741959637 
0.1430178437222185 -0.1584351145174807 0.08542365120362166 0.3249952777916008 0.003729091415875304 -0.08454901597739989 -0.2763509783782577 -0.07963473848494570 
0.07097108739329674 -0.01343989895888390 0.08782843446278431 -0.009174929718328086 -0.006476180528899544 -0.003286114076518010 -0.03588113660526362 -0.002483020026055123 
-0.3837666963237781 -0.08309076360893470 0.1662067167886544 -0.08469246421656620 -0.01120722851821386 -0.06053104925745492 0.4196515484059710 -0.04519982685846517 
0.3497849837376269 -0.1187188006826189 -0.1162129134825094 -0.1008562740651869 -0.1120490239131754 -0.1282140412639901 -0.3254606842165466 -0.1255443939573903 
0.3597654685794228 0.2836866889738176 -0.2564136128139125 -0.05929397908154811 -0.04014169893096120 -0.04258921124790616 -0.2623909871040188 -0.04018989062195638 
0.01790495251213157 -0.001219376332288161 -0.002857858504128819 -0.0006984058598485535 -0.002793159265939189 -0.0007234141452474344 -0.01245054907597235 -0.001000709401261577 
0.1373300516965688 -0.02962726187174288 -0.02302116639718101 -0.01895986320275288 -0.02276168039903393 -0.008624084724405770 -0.1152051876199955 -0.01512480857342813 
0.1322914335326201 -0.02438594794255685 -0.09778267209811929 -0.01603228820947155 -0.008829780493635765 -0.02451277346674884 -0.1705142296866710 -0.03297390645147953 
0.05931590156508575 -0.01056268245910732 -0.006461607918914633 -0.005224313667816264 -0.009813427437378822 -0.003558088362681157 -0.04599226354065737 -0.008877374270087190 
0.1467227684811748 -0.09660003349912215 -0.07185879893487704 -0.1193163378268349 -0.08481250239977640 -0.06093804305249976 -0.08368607739733505 -0.05639230318546959 
-0.1479898547080818 -0.3428245987535756 0.01924982106728472 0.1656408514555393 -0.04372260854232123 -0.04057063257148249 -0.04255911911303906 0.3736539663091606 
0.1341356259736325 -0.04400139072422950 -0.02346604399974885 -0.03309366744897647 -0.007340905917692858 -0.02981289658916505 -0.2192425877538279 -0.04496721136251917 
0.07183587888921833 -0.02860549608995807 -0.02655041870820941 -0.02671101038535277 -0.02145296068113593 -0.02271281160689438 -0.1654036874604634 -0.04488695338834269 
-0.2991277669405952 -0.009538321961893540 0.09325419554141984 -0.009484435430131128 -0.003698999649616936 -0.003404885906784005 0.3598097051709925 -0.001869770064159093 
-0.07774852311257431 -0.2198673596115253 -0.04031477463658727 0.1321541479665848 0.02496202622612594 0.2715016528572309 0.05764122986512821 -0.06947590262682149 
-0.1750509449559359 -0.1429168045810025 0.7127748482546966 -0.07765315542004361 -0.07720406508526496 -0.3715414639764220 -0.1090814918570266 -0.1259057744091545 
0.3982658836563842 -0.8776311547488722 0.5754361107280689 -0.8206705117476996 -0.4198512253702227 0.1453053606741887 -0.6792816542702651 -0.5103401406208685 
-0.01083557359479144 0.3479635562127713 -0.2019106556076983 0.1608815790950543 -0.009474948763542669 -0.07071868768403593 -0.03996815625710029 -0.01202158980854955 
0.4074696688296703 0.2062864195130883 -0.7860714467293327 0.3005853557903705 -0.05109227143627580 -0.1262337839682502 -0.7275081317491618 0.2678135271404974 
-0.3846448886368666 0.1239039593409139 -0.6191609786745860 0.2715652938148030 0.001155799543115582 0.3208680395323099 0.1342927641346605 0.09736483010124633 
0.01203231148084826 -0.1793483716913604 -0.3791370313433354 0.4445054664593090 -0.02646440105086195 0.2548958694189668 -0.03413234829152501 -0.03064542312072395 
0.1029229124026929 -0.06052066041934455 -0.1669160814142325 0.2128025825953838 -0.02130354099369535 -0.07917398808253574 -0.1469502160274310 -0.03372436441782876 
0.1483619324329623 -0.03007362144294958 -0.01559584956677434 -0.02325069579385682 -0.01493070276644993 -0.01934283638101961 -0.09300711846157404 -0.01666331540341092 
-0.02187280080662453 -0.02696525412935009 -0.1032047703801036 0.1989889579738487 -0.03276498582897910 -0.1019776304279692 -0.04795087779832183 -0.05170105328688069 
-0.2302842944664647 -0.06137510327205357 0.03938956792403937 -0.04665786018970011 -0.03104515120159956 -0.02987935049860406 0.2640626986332189 -0.01570655756092715 
-0.02747802387852159 -0.1535615106538577 0.1239358651360024 -0.05664751857788342 -0.02381477038805522 -0.08193797179959576 -0.03563990086840883 -0.07401661687095593 
-0.01596310756644473 -0.009349038477653237 0.004893076273898869 -0.008849403290946820 -0.005853690111939438 -0.01005991932875386 -0.003590303778470506 -0.007075979480367937 
-0.001442937560252411 -0.0009244238784272169 0.002421531696270048 -0.002930584142823225 -0.001535935376762594 -0.003054223678757823 -0.002778631723559195 -0.0004486743312444222 
-0.001442937560252411 -0.0009244238784272169 0.002421531696270048 -0.002930584142823225 -0.001535935376762594 -0.003054223678757823 -0.002778631723559195 -0.0004486743312444222 
-0.01537432025779997 -0.007745864473703130 0.04342870359700120 -0.01084149108191185 -0.008542482409894836 -0.01804982929727945 -0.01879349411036976 -0.003424697777044542 
-0.002030525472657896 -0.001287182478404646 0.003778453681496298 -0.004295064966364734 -0.002802135195687919 -0.005033598653595757 -0.005385678638979178 -0.0007920950802693172 
0.03349147328622070 -0.1223076833884107 0.3717641043767381 -0.02592321927782937 -0.003895744835820427 -0.02082190358415371 -0.01556201011611071 -0.008161007695060906 
0.02222378761691444 -0.4087348776845569 0.1905572331823688 -0.1992373710558005 -0.06028719610286577 0.01184677284694055 -0.1708627816983961 -0.1626649426828050 
0.005414138234195589 -0.1025739038876138 0.1930544002138087 -0.01883816438539477 -0.01550888067383861 -0.02812587229021708 -0.03252946109990168 -0.02559113007577842 
-0.01658482245130991 -0.009929995632788954 0.006760758773984038 -0.01016807392302612 -0.006559076177580221 -0.01153767645897355 -0.005184170932811693 -0.007238331071742368 
-0.2272805047142808 -0.2484621390882754 0.2268164096510246 0.1339169480522470 0.03345302969451132 -0.1432428209170407 0.05696717402612211 -0.1319761520389916 
0.1161323760645887 0.09821572414154608 -0.2971499832062463 -0.1578948962882424 0.1261317210761133 -0.1686625180940323 -0.2256152603346290 0.1581635824705506 
0.01950838834715584 -0.04221214756062033 -0.02076555570786461 -0.04068974849906777 0.02883476134151621 -0.03673340015847285 -0.1402105432645350 -0.02720490380048560 
-0.2812618777902316 0.09276108695782210 -0.2262386161060195 0.1243262906527938 0.04029144106483732 -0.1109504119544065 0.1973613780225349 -0.09890764860660030 
-0.06080272306622264 0.3011732550754709 -0.6893844206329822 -0.2672237952718837 -0.03556697725693883 -0.4002330166829484 -0.2717547955801437 -0.4356837178783166 
-0.2601806900458797 -0.04419174431833554 0.06019510806866408 -0.04222716397918076 0.04472370647770936 -0.02184103905873001 0.2428548192026172 -0.02384567768161202 
-0.4145169196025654 -0.3420356662011443 -0.1760180703329069 -0.1755615321508323 -0.002142384344335831 0.04762765216145762 0.05105681296597167 0.09991662991870194 
-0.02025815501381245 -0.1844392117064481 0.01992174554412519 -0.07485303544531778 0.01834776989317669 0.1834974339075102 -0.05036549299147204 -0.05029566893961725 
-0.07253970473871293 -0.2645288872217450 0.1527592585935034 -0.09578754064367541 0.01789071689050813 -0.1368215541755461 -0.06903173845395695 -0.1138610044330896 
-0.009474244316257553 -0.03976500912105010 0.07503726445316347 -0.03165249941742000 0.007497735309260244 -0.02916692887714187 -0.03822569682128214 -0.02094775350643896 
0.02633372156756473 -0.2191260242077099 -0.01436907849185908 -0.09684633614914388 -0.02813953677047869 0.08997523066374362 0.07114076199083881 -0.1178590146201999 
0.02963677294992666 -0.2816937730058339 -0.1754977262979660 -0.1420982919593290 -0.008858584071631818 0.03502954295371780 -0.07107559025119262 0.1831679524260519 
0.04903322303055256 -0.2721068217944813 0.2800252637430646 -0.08192548305695072 -0.01455633968409931 -0.09147031744793235 -0.1180248176986021 -0.1341067458611162 
-0.009415316948637075 -0.1469131949437617 0.2098743785686004 -0.05797876492243301 -0.01566409023857952 0.04798274463228586 -0.02185007414396579 -0.05144478707546692 
-0.04688722226972431 -0.1001713561404410 0.1080036877684475 0.06262230077288505 -0.06738582172811126 -0.01658304317781299 -0.1309107788604940 0.2337759004711259 
0 0 0 0 0 0 0 0 
0.03564168002519202 -0.2248102653052763 0.3052019055535128 -0.06207195103474073 -0.03214898374103023 0.05367059911180278 -0.08629247311197750 -0.04313662339062457 
-0.2134052411068456 -0.3902782291566512 0.007116996872840749 0.5358566320047121 -0.003185074256036942 -0.07959179610695344 0.1142012186174572 -0.05431156500428753 
-0.002638994237340365 -0.1094364480917345 0.2519618967033929 -0.08928292467998024 -0.01734197061689875 -0.01186447390143426 -0.03315331586085536 -0.01267902186136912 
-0.01029270720513746 -0.2076829425455363 0.2894181847215749 -0.1398949729685263 -0.02886821785143850 -0.04934160671565382 -0.07597871072101016 -0.04549656930536861 
0.1547214598315549 -0.1134623876613646 0.2207795838489848 -0.09470332894944913 -0.02297978560153047 -0.01443030110527732 -0.2256719885722589 -0.01609346266209081 
-0.001361124742819210 -0.09388022046602451 0.1969146654776202 -0.07360075432633040 -0.009852109084355716 -0.008069154024049025 -0.02400340290190150 -0.008149866865529050 
-0.003985295643726063 -0.02379857707447820 0.06294581693019591 -0.01811633715483866 -0.01118324244897702 -0.01499971999583570 -0.009200467028949630 -0.01056167110574293 
-0.5628408723954185 -0.1213299803859175 -0.3114445252633312 -0.03281650967027942 -0.1236544380427917 0.3955387798367782 0.09616976810001990 -0.4142496595770144 
0.3321174580317680 0.07311709663636584 -0.1092133812692099 0.1210946911478329 0.04315335143364093 0.1560719525088704 -0.1923250421845972 -0.08882687963833034 
-0.0005807894833083762 -0.01948675362612488 0.09893741292633418 -0.01040808508875580 -0.0006597813292264811 -0.001088795107091009 -0.001763799822234027 -0.0002729291691548116 
-0.0005807894833083762 -0.01948675362612488 0.09893741292633418 -0.01040808508875580 -0.0006597813292264811 -0.001088795107091009 -0.001763799822234027 -0.0002729291691548116 
-0.04602695292950011 1.183161689051440 -0.9943653618163524 -0.1739307002026504 -0.06939499356312114 -0.1758856859488071 -0.05235604508082158 -0.1258764960138717 
-0.006508685128838229 -0.08930608925216825 0.2671069087173893 -0.06073545732766312 -0.009374240146500195 -0.02548616942900133 -0.009237856631113926 -0.01290258481358196 
-0.02415281911762968 -0.06324563466651520 -0.07281178750133979 -0.03539652289996352 -0.01054194629439720 0.3070126532073040 -0.002954185415263555 -0.01704153545732571 
-0.02108735019525992 -0.06588250970998435 -0.03162406341606155 -0.04357794196487827 -0.01139045392790178 0.2975050270898848 -0.006032291247461854 -0.01477737092497845 
-0.04042299019977735 -0.3541548473702882 0.4453458007173058 -0.1196363919112560 -0.05982468551736038 0.2291311185614977 -0.1348604160424086 -0.07248131584838616 
-0.1055591385934074 -0.2657388416717398 -0.3414286095187183 0.4189997111150498 0.01526963669347932 0.2059188864734817 0.08520784226677233 -0.08531908208120018 
-0.01746013689747566 -0.06406989144241734 -0.04563010590966700 -0.04066833181396761 -0.01033708930670815 0.3026021568518400 -0.004248790841217630 -0.01410889361747627 
0.05170888887431022 -0.09374446783310833 -0.07336195830864313 -0.06953163104744425 0.008558881825311192 0.1853003212161905 -0.07276247146678869 -0.04707717349226039 
-0.0003360399387982808 -0.001194454488816143 0.006648522885730303 -0.001050108092622887 -0.002787717446832714 -0.001118073847220357 -0.003207940414942244 -0.0003003744957498865 
-0.0006223499986781854 -0.002041173473143478 0.01112318630590075 -0.001678219291551636 -0.005245636449008971 -0.002050205620909959 -0.005694853055862459 -0.0005176485256596257 
-0.02632797655161967 -0.01666379874138986 -0.007460428081939982 -0.006835213041037304 0.03844287385474381 -0.01587597271664003 -0.01498245260732844 -0.005371139247032483 
-0.002461478197834232 -0.003540624941151096 0.01685084542056709 -0.002843014335299146 -0.007232576820241450 -0.003053978673757611 -0.007041931463439663 -0.001147913899958917 
0.02843221528748177 -0.3513482995096412 0.3460700886240955 -0.2520346422045425 0.04988165883964406 -0.2430191544804324 -0.1040623726955995 -0.1700332243664210 
0.03172029603040991 -0.1585870016139385 0.04825370634200868 -0.1143098403283310 -0.02997754281150975 -0.1064156375097697 -0.2091010926043946 -0.1099073453214965 
-0.4487631264629904 -0.5743845790881309 0.4629528668225235 -0.4204772240742338 -0.009673474109471817 -0.3767677835805441 0.09856658763673813 -0.3619150835615345 
-0.008324067119791067 0.1518055232574310 -0.04896868995362180 -0.01564417437328426 -0.007927926014338777 -0.01275544206841914 -0.006418970754856302 -0.004791582473057677 
0.01991325431599383 0.4526955410962877 -0.5142006011960610 -0.2115515558507009 0.03774148936296044 -0.3561175001714801 -0.1949508017657138 0.1779017586580519 
-0.1052575909802861 -0.01569621733322976 0.06707937963564145 -0.01581477457496244 -0.007663164386730308 -0.01652071699113640 0.09962085393901557 -0.007365129012229551 
-0.5741298688375234 -0.2432739476842838 0.05833085537486820 0.1979355332951356 -0.02921917798105433 -0.03939950223921127 0.5172414893626955 -0.03022093143297459 
0.02751990924967934 -0.004374290133700590 0.0009573287046556185 -0.0005234848925282119 -0.004767327484107389 -0.003854096285891763 -0.02241275971532265 -0.001608395293723337 
-0.002738105193242780 -0.02278753735932768 0.02432467587679927 -0.01029353658599873 -0.007258027904146949 -0.01279543987771687 -0.01236044308856980 -0.01714931177914160 
0.1432757704479687 -0.004148392181790445 -0.03819567214006576 -0.005881636639904179 -0.0002109966768208164 -0.002855099553721157 -0.1113035324431286 -0.003595342242574877 
-0.0008348280595515017 -0.0002817762396883399 0.003099891378962599 -0.0002034748059295444 -0.0003611539428733755 -0.001110200752395708 -0.0007960960894444510 -0.0002785138010046291 
-0.0008348280595515017 -0.0002817762396883399 0.003099891378962599 -0.0002034748059295444 -0.0003611539428733755 -0.001110200752395708 -0.0007960960894444510 -0.0002785138010046291 
-0.0008348280595515017 -0.0002817762396883399 0.003099891378962599 -0.0002034748059295444 -0.0003611539428733755 -0.001110200752395708 -0.0007960960894444510 -0.0002785138010046291 
-0.0008348280595515017 -0.0002817762396883399 0.003099891378962599 -0.0002034748059295444 -0.0003611539428733755 -0.001110200752395708 -0.0007960960894444510 -0.0002785138010046291 
-0.1843433328318624 -0.2283410037347121 0.3079027990145864 -0.1772471445128302 -0.07082624468610904 -0.2681696106015463 0.05571013144129361 0.4754120350379808 
0.005146747547983171 -0.0009851668525095662 -0.005481554705418705 -0.004817996137626984 -0.004837916491364174 -0.002147757676209837 -0.01120421554963683 -0.002371725984792328 
-0.002738105193242780 -0.02278753735932768 0.02432467587679927 -0.01029353658599873 -0.007258027904146949 -0.01279543987771687 -0.01236044308856980 -0.01714931177914160 
0.1402093728114737 0.001962362275506784 -0.1385930466809936 0.1478595383641543 0.04436843228229410 -0.2585287928410686 -0.1574481989439514 0.1967792423840884 
0.06747219555624231 -0.1299277885442000 0.1205307010997450 -0.05836503841981761 -0.02174783392529584 -0.05773338061636901 -0.1278115158011912 -0.06437665362086688 
0.1546949112614891 -0.1547967647514529 -0.03282187357869664 -0.2082154690031205 -0.1047738009137248 0.001456456674574454 -0.05091392053122102 -0.1411818932827175 
0.05399024481790672 -0.1366362734010911 -0.1088713569669088 0.2247259456202171 -0.01106037866244652 -0.09623050538862493 -0.007883439659179610 -0.1065551811152203 
-0.008790904050077217 -0.1842786594327917 -0.09572445532400778 0.1498358517145646 -0.03225183789847496 -0.1390632393300080 -0.09905621729034446 -0.1487293723252683 
0.02318745087812694 -6.196475237518664e-05 -0.003683663523966005 -0.0002243740752309314 -0.0005274085030245306 -3.189128324645310e-05 -0.006201930466072098 -2.841228550192451e-05 
0.01756834223249073 -0.07231540502294635 0.1275150219218691 -0.05249310427734034 -0.01208378883709020 -0.03110450203204673 -0.02618533787202164 -0.01567242419621332 
0.06225858980308315 -0.003274517721356826 -0.006659532565839023 -0.002995100813013514 -0.003612247611303958 -0.0005246619804648383 -0.04356710183969191 -0.001641049492933908 
0.02318745087812694 -6.196475237518664e-05 -0.003683663523966005 -0.0002243740752309314 -0.0005274085030245306 -3.189128324645310e-05 -0.006201930466072098 -2.841228550192451e-05 
0.001921511635231602 -0.003242238279691248 -0.0005962605439318343 -0.0008561697643724951 -0.001754816906936497 -0.0005635443630524471 -0.001954742652174254 -0.0009064154317273385 
0.7813033436303257 -0.2374060084517380 -0.1870330302971027 -0.1478909407356136 -0.2038226438835367 -0.1760025373768807 -0.6313365515229443 -0.1627474169241840 
0.6370042480260186 -0.4243597580088591 -0.03991631807357093 -0.5043460915881613 -0.3405222809192273 -0.4822941326880513 -0.9014436370191220 -0.4009858443350994 
0.06372232245873200 -0.02135663727944913 -0.009868417595501177 -0.01129612250164343 -0.006394760709016128 -0.004690430811833029 -0.07675338127316805 -0.009054689489967840 
0.07496917025874412 -0.02177983941061608 -0.01387063013444309 -0.01118747865199438 -0.007783001082990189 -0.01231385502304339 -0.08207546081958620 -0.01313291070776999 
0.1227551281717841 -0.06230891350176566 0.04075392791662608 -0.02237973302615182 -0.03898246913140103 -0.01556525262138317 -0.1234227873842835 -0.01877876312194304 
0.1076257611114060 -0.02204567418332867 -0.01433679881785379 -0.01283562706986330 -0.003155501324161682 -0.009358198626779280 -0.1541929246358121 -0.01166459265822556 
0.05666630358496656 -0.04205872774798217 -0.003210200822391529 -0.006650417886939743 0.01699797203819188 -0.01763173954218346 -0.08017116736813397 -0.01664303357565675 
-0.08868730314402457 -0.03679166780204834 0.03709865063109389 -0.01743627669471291 -0.03037228966381383 -0.02235822606750599 0.1329443874210124 -0.01453848394546054 
-0.004602913512472048 -0.02592251077980905 -0.1084011370423010 -0.02007066250701390 -0.006675084116406133 0.1969249601934586 -0.004783563587880727 -0.01065806521511824 
-0.003151883794200552 -0.02151055936960990 0.02795032389078644 -0.01634959590132137 -0.004105168549492013 -0.01273744712771298 -0.002661194247008104 -0.01002506311599879 
-0.03022107909379307 -0.1577381598760595 0.2327276988816289 -0.06380687862776911 -0.02040478872842886 -0.08638301448258894 -0.01673325652457530 -0.05051020619594847 
0.1103086905813974 -0.1653320437711990 0.2257600231551245 -0.06727417844006335 -0.02926825949564983 -0.09744425741373841 -0.1657063629819085 -0.05497971293857622 
-0.01459716218618000 -0.03576007149227324 0.08203240967490283 -0.02128856193125198 0.0008929634444562672 -0.02179689178244331 -0.005827859288282942 -0.01488379039113825 
-0.003151883794200552 -0.02151055936960990 0.02795032389078644 -0.01634959590132137 -0.004105168549492013 -0.01273744712771298 -0.002661194247008104 -0.01002506311599879 
-0.04785838938419308 -0.1206267244060751 -0.1415570257457234 -0.06026434308550954 -0.05149967849560594 0.4360860143224590 -0.05360933815125238 0.2309253948362085 
-0.003945513022523495 -0.01384762955745984 0.02144640736077740 -0.01424428728525324 -0.006087762474481720 -0.008259774293760767 -0.005810290287978220 -0.008586949951713302 
0.06202562627440023 -0.1096485225964401 0.1596477928569046 -0.02334000876151775 -0.002199240804712733 -0.01805328234402342 -0.1136394313054007 -0.007448557892578779 
-0.3170830486659260 0.1163288720101659 -0.3302758888178997 0.1843808284239801 0.08548737432612061 -0.2168004101621018 0.2638614268896413 -0.1435731173625812 
-0.002923758496640312 -0.05760481103768147 0.03430108466810387 -0.008158368455586786 -0.004108476198823138 -0.002689073582379204 -0.002355426991742810 -0.001871487400280087 
-0.4245166363502116 -0.3242842786155180 -0.1650538001767089 0.04680028442676749 -0.1540439837825667 -0.2562011363631827 0.1053390324490152 -0.1910476365629845 
-0.3655082839766580 -0.2979452044234553 0.5132339046759625 -0.5569946629939665 -0.1772505891823704 -0.4620823650220847 0.05168365899576374 -0.4321629165630810 
0.1177202133874127 0.08103090271035660 0.2086351057242848 -0.1215663729067997 -0.05558771973028192 -0.1557613516419280 -0.2638708165577350 -0.06901667089018320 
-0.01159596595512913 -0.1694020500595632 0.2366678946592354 -0.04364299364720531 -0.01533887378406464 -0.03041162025641062 -0.01709393498527868 -0.01357601519110058 
-0.05773130672971365 0.1408502845708861 0.07188274252799119 -0.1286934585981674 -0.06051672168736295 -0.1352356273345728 -0.1123965018169877 -0.07865153223260792 
0.1298229411110422 -0.03721655032371758 0.001544552706068456 0.1440945463354302 0.001845808068694580 -0.09467468430075966 -0.1458608961163209 -0.05422571255183530 
0.07693651159208076 0.4959773423045603 -0.1815788755132508 -0.1410327435221633 -0.06534501247431505 -0.1688179863491196 -0.1694937284478472 -0.06950863924863562 
-0.1695766130556856 -0.05873383655662141 0.02356225028447235 -0.01260057516843288 -0.01386538849951911 -0.007062994490876407 0.1939120049028303 -0.003682224452518160 
-0.003352478641535824 -0.01768882462402271 0.04226200485622961 -0.01510107621280177 -0.008953419647122190 -0.007740849682446241 -0.004700363491747206 -0.006065290532621517 
-0.2090668225820640 -0.2094314876200293 -0.1312541556832361 -0.2197472759050037 -0.03757117884741600 -0.1930109279409486 0.07104371918585377 0.2619300430012771 
-0.2893648212591002 -0.2556260868378562 0.1907499895130785 -0.09609804919840790 -0.03928027201763788 -0.2143724048586289 0.1659546455460870 -0.2123157195772946 
-0.02379125250168184 -0.06373652008180644 -0.05266299155750124 -0.05278529164877385 0.01497040139605147 -0.07239211855874575 0.05462491867167392 -0.07992895582827668 
-0.5093099699300091 -0.1520863819758614 -0.07112334835189835 -0.1097655180528784 -0.1078952782782309 0.1862171561712405 0.5269204441683384 -0.08172146735168603 
-0.1875087295708093 -0.02632277125265849 0.03231465226261475 -0.007950535823601303 -0.009476013467952226 -0.007800172039851685 0.2071624146492476 -0.006318258701305029 
-0.08191433715629858 -0.04069998553408652 -0.009222367477693453 0.1038822522004952 -0.02459527195591036 -0.03374967544183981 0.1108238766973605 -0.01885632580594556 
-0.008344442668586294 -0.1557709249693132 0.2106954915790095 -0.06772121814147285 -0.01145160640434884 -0.06316424625743117 -0.05008836270098568 -0.03200222511926254 
0.01763744254717381 -0.1399206429328471 0.1910101151220257 -0.1254281369652433 -0.03788573406000657 -0.1000751082172008 -0.1350707269962997 -0.06340510961530464 
0.2407700550962938 -0.1131211593752305 -0.1405283472772132 -0.1752291427868545 -0.05629039862076912 0.4990623750762865 -0.2330020400643416 -0.1555875620724374 
-0.001456481087491372 -0.003829200336050288 0.02935680908321098 -0.002727571944866312 -0.003079065374679074 -0.0009547197625256644 -0.001020171208283262 -0.0004727848160498260 
-0.1834535973896784 -0.1226649365853728 -0.1175563113802450 0.1014033996081084 0.08280257282175670 -0.07501628461132319 0.05434112905784613 -0.05093911223660762 
-0.003760307482499426 -0.01192667065934682 0.05487057759108581 -0.01520576148549923 -0.008934225737697810 -0.01002324865784512 -0.009433059641352094 -0.003588590569506358 
-0.06880490651496003 -0.05059464975915542 0.04356642750170157 -0.04148696469910441 0.02946493387824302 -0.02864123736045044 0.03444745265463451 -0.03412128402861406 
-0.006031062741346112 -0.01514366662076433 0.07702047767228595 -0.01891181843034404 -0.01228610149528189 -0.01142834244620650 -0.01042632483827481 -0.004838871740230915 
-0.03549680663526899 -0.08054146153953891 -0.01179588723246536 -0.04393477432191176 -0.02409211967463536 0.2618583276507080 -0.008832640392241653 -0.01891772760666991 
-0.01525769094333307 -0.1509024795962551 0.01790032691525766 -0.04288958665395108 -0.01553816168527901 0.1768477530115949 -0.01810901519542998 -0.03586775445311962 
-0.01818441932615195 -0.04555022490421608 0.1102231359912319 -0.03470729677686034 -0.02416444572834041 -0.03264657310492551 -0.01628266243606869 -0.02045252918913527 
-0.008324626418627265 -0.03573122268610300 0.09425180858364653 -0.02536069992862178 -0.01655212331100612 -0.01442552066651585 -0.009914985627703867 -0.01157027000581526 
-0.06601608400156395 -0.2426369003567970 0.2218420745137583 -0.2495711136539145 -0.003108630883562358 -0.2050244237413252 -0.2061122123676133 -0.1609480183334691 
-0.01649651034523871 -0.05310025249565861 0.06007651569923553 -0.05178572840199906 0.006686027156385313 -0.02319895692234019 -0.02518617898548342 -0.02876674401866443 
-0.2029168222682431 -0.2182954002624928 0.1659562869739957 -0.1852782518490519 -0.09057924197709133 -0.2487591542080202 0.09782407360766171 -0.1711665198492112 
-0.004430663919726083 -0.01177379081052869 0.007148963981637446 -0.007342199300197024 -0.004120349660476825 -0.02149635413096743 -0.004319549164219731 -0.01186339258724195 
-0.005157721396120947 -0.01616120087570986 0.009945469516172738 -0.008867358060790606 -0.003535374369047951 -0.01256413589605027 -0.004885268903143687 -0.005076339835952196 
-0.006721913131647344 -0.02705236483781333 0.02181381712097895 -0.03541610143183845 -0.004533925078921180 -0.01717166792917436 -0.005452698022270957 -0.007889531397531038 
-0.01557535176377045 -0.03166512106841712 0.02662626311980976 -0.008382501860037701 -0.004655746591595145 -0.01455916546528570 -0.004763840259175065 -0.003593680865138946 
-0.0002416348869873184 -0.0003119987252854767 0.001418526069973619 -0.0006219009489906375 -0.0006396551814640151 -0.001579767900396275 -0.001639003461540735 -0.0001905078550892141 
-0.2779940851040719 -0.002940335021655966 -0.002904227781502633 -0.001195177357101967 -0.006597576662898270 -0.002005353641625678 0.3049854838591937 -0.001226263186182944 
-0.2804337053150442 0.06557553929696139 -0.02434081620232756 -0.02869912698673428 -0.01801457070289520 -0.003488607667661695 0.3034829868953613 -0.004916108404844924 
-0.2797638417051614 -0.01389936576670296 0.003594915897070138 -0.004746640228928130 -0.008553411139229184 -0.006389417241026657 0.3027691262327937 -0.003307925691617280 
-0.2445137749401566 -0.05820050777024768 0.05039274103660884 -0.04719910631772298 -0.02167959714865694 -0.06051334702640453 0.2478399964368478 -0.02141667231521416 
0.09150872524696711 0.3176881411124088 -0.1696366914796075 -0.09482543779028996 0.002241167371276475 -0.1099838571289172 -0.1173020781724983 -0.03172956714448834 
-0.02079395619013191 -0.1022136137867936 0.2207442206888516 -0.01906333861980229 -0.01163928377302553 -0.03860988791712037 -0.004963765819726633 -0.01638546051159572 
-0.02079395619013191 -0.1022136137867936 0.2207442206888516 -0.01906333861980229 -0.01163928377302553 -0.03860988791712037 -0.004963765819726633 -0.01638546051159572 
-0.2524962069978755 -0.7466951976817384 0.3361254254338367 -0.6031770540878827 -0.1814862784687832 -0.5574831374000048 -0.2625814889292599 -0.2170783963326530 
-0.09948233507218882 0.01063174629178751 0.3747193222805888 -0.1260206139058379 -0.06302424230315037 -0.09175730711636103 -0.02466884854122273 -0.1394288625271531 
-0.001094037054103988 -0.006501522717073009 0.02357754350933226 -0.003641959693148971 -0.003160774400636081 -0.001290724166553898 -0.002541381100020364 -0.002209774667485610 
0.02110951649768860 -0.006666011510356488 0.02243361656294244 -0.003676773742434227 -0.004348896887157194 -0.001835858082229430 -0.007455898565446427 -0.002271337442220233 
-0.0006217148848651739 -0.0005809571551357173 0.001867682500085168 -0.001318670632079300 -0.0007053860656407896 -0.001477757130219686 -0.001593867154341188 -0.0001623515913744299 
-0.001209302797270659 -0.0009437157551131471 0.003224604485311419 -0.002683151455620810 -0.001971585884566115 -0.003457132105057618 -0.004200914069761172 -0.0005057723403993250 
-0.0006217148848651739 -0.0005809571551357173 0.001867682500085168 -0.001318670632079300 -0.0007053860656407896 -0.001477757130219686 -0.001593867154341188 -0.0001623515913744299 
0.01839420175747311 -0.03195498729759638 0.1294262156216041 -0.02486672248085981 -0.005480819958179465 -0.06057678770351384 -0.01246097260455457 -0.01234745935952164 
0.03791058724761813 -0.1013574407381297 0.1317892318038155 -0.03135389509880292 -0.01786650183650572 -0.03667560565007876 -0.06433383418743530 -0.04144803662119266 
-0.006814222674568495 -0.004481856183417949 -0.001707993266408338 -0.002756949053439501 0.006573591201713060 -0.009702653785599952 -0.003054953132993037 -0.008795345989444769 
-0.006814222674568495 -0.004481856183417949 -0.001707993266408338 -0.002756949053439501 0.006573591201713060 -0.009702653785599952 -0.003054953132993037 -0.008795345989444769 
-0.004579926696047060 0.1296630523080172 -0.2898801323648902 -0.02705111343081956 -0.009455099067866270 -0.02499617791829644 -0.01056617530438083 -0.03095672785452906 
-0.1967846529538444 1.022352813192222 -1.100795188264995 -0.2274714261198614 0.03422073295187334 -0.3017013360783755 0.03874974995206199 -0.2126247172238200 
-0.02131322626224170 0.2486995013395627 -0.1515571871655228 -0.02074593290858382 -0.004328405169108487 -0.01251269877152304 -0.001988140791454898 -0.006514502163171972 
-0.05321026174849434 -0.01922800068775780 -0.01565067870190292 -0.03189428758194668 0.01354286317183787 -0.03110944231179808 -0.005754851737405392 -0.03986705614407166 
-0.1489604408344489 -0.3679606906442351 0.4617796748439633 -0.1596326112206266 0.08243439094540540 -0.1312675249815697 -0.1684125434629878 -0.1326695242690311 
0.07372804897813022 0.3646333014252583 -0.7930545723230988 0.04700205213121797 -0.05879244303139384 0.4551300534966545 -0.2375273608389180 0.02324815556226343 
0.02138650213636180 -0.1168978824037843 0.09726003162567860 -0.05585279931956004 -0.01368772149805008 -0.06348647882707510 -0.1233953857191121 -0.06410079432929938 
-0.05321026174849434 -0.01922800068775780 -0.01565067870190292 -0.03189428758194668 0.01354286317183787 -0.03110944231179808 -0.005754851737405392 -0.03986705614407166 
-0.03599985417192857 -0.01209427982582121 -0.01011432775961907 -0.02351833296061447 0.008535704002501157 -0.01863291860192115 -0.004318697516101788 -0.02735287336127467 
-0.01863354591854545 -0.006148830492036254 -0.005316410722142931 -0.01701507126366702 0.006401028263472477 -0.01021862603806786 -0.002721248401091998 -0.01391348733995562 
-0.007086035057763209 -0.003343770365288384 -0.01214330979591481 -0.01092293866738828 0.01061771206100846 -0.004895136882667752 -0.01330608665613599 -0.006129915584030185 
0.1589910634452005 -0.06944225716628624 0.05609119584015808 -0.03025101596760441 -0.02057143261510246 -0.04012962350048493 -0.1305479021584620 -0.01242994565692419 
0.05289497078500679 -0.1486541939046049 0.1710703394537440 -0.09293802424669943 -0.03339323043838496 -0.07868606753590408 -0.1127583072076937 -0.04682569457855604 
-0.6739233438531537 0.1779822883559512 -0.2940913933737134 -0.1822798508518726 0.1530671589139019 -0.2486326365979414 0.2595382656330801 -0.1636425721718280 
0.2848002140706367 -0.3930007343208193 -0.04519424634750184 0.2107069980295306 -0.06756237795766538 -0.1497008712856367 -0.4564293183841500 0.1654894097210000 
-0.001333272592908322 -0.007370774996839036 -0.002727432642320644 -0.02184268522803906 0.02068201132467653 -0.003497632811264833 -0.01321113669167785 -0.01098282316107118 
-0.1162143542156142 0.1858557950711661 -0.1806887211151069 -0.08994933962779275 0.02926095777170462 -0.06540302949424706 0.02939537561167253 -0.04913204226427136 
-0.4497612598807884 -0.3322560048609065 0.1723906121105970 -0.1546776110389661 -0.01610959357787875 0.2406657880302650 0.3305309320836402 0.1567391242456965 
-0.1858894205176666 0.3375063893470962 -0.3048282843350627 -0.1247904483432721 0.06884876506590470 -0.1830012207381996 0.1036438074727845 0.2155575801636239 
-0.007802079743191429 0.3683541914413681 -0.2211554399421482 -0.03611901866070063 0.02337208059947746 -0.04037255408213625 -0.04263983095308152 -0.04072955922879405 
0.05918672950691950 -0.2495178424161773 -0.1335222204582562 -0.1837351588206657 0.04725718373271699 0.2538971235391498 -0.1595762948100339 0.3111152833517343 
0.03327750560441819 0.2986410526250659 -0.2914647032182800 -0.08145447434298071 -0.02005844644589785 -0.09724150061618744 -0.1851753593408837 -0.06836239425317768 
0.02245327871892693 -0.2075405532673816 0.1867725299735214 -0.05378908412547412 -0.002665077859387088 -0.05059414469255776 -0.07640427376465574 -0.06380447598210004 
-0.007859229226103577 -0.01419272230985866 -0.03175451388775497 -0.1012261095967983 0.03176755186682280 -0.05588805414690558 -0.04682317143045293 -0.02942088865108629 
-0.008364612102283465 -0.01757275399173951 -0.006034127193494057 -0.01289179125374488 0.02331755292173028 -0.03008713159959842 -0.02675091468769896 -0.01144331126445586 
-0.02086677861470386 -0.02739733604789473 -0.02609407251066986 -0.02405278552154361 0.03463470219292910 -0.04390899732052423 -0.04426236920654562 -0.03387292518563898 
-0.004366315466529358 0.1818028308882055 -0.1796485101271944 -0.03408198937296263 0.02207332510859093 -0.04160431228218992 -0.04272632932514374 -0.02039525724233217 
-0.01066629087934652 -0.01904692691271301 -0.0002392882611422180 -0.004459495304280518 0.01493314724483067 -0.01241448371734576 -0.002210776451424575 -0.008140984060244499 
-0.004584423600809026 -0.1149933593209301 0.08670348214090934 0.04164225717856104 -0.009793179660459008 -0.03061502732196844 -0.006392076406263507 -0.01459820954781337 
-0.01236095202085813 0.6856253901429452 -0.5799676504293476 -0.3469141868429210 -0.06553618155453997 0.3590516987172961 -0.1167974252405191 0.1244104921667762 
-0.003200416163721636 -0.08395379628696280 0.1129821588698357 -0.01019005212271933 -0.005168381149449267 -0.02198255950732826 -0.001442022447184575 -0.008955507678903584 
-0.04160437439703777 -0.1221716328530769 0.2631274324320631 -0.02129391009120286 -0.01497795247732859 -0.08228951744905567 -0.004620220282279085 -0.02550998817756381 
-0.06699063754832106 0.3801152416757830 -0.3718844552209908 -0.3979095044902408 0.01735177705452201 -0.2815016971090961 -0.1685781776940967 -0.3168128139055891 
0.1596855873428508 -0.1469334200667762 0.06042050671296485 -0.08045839104669997 -0.04712964399137357 -0.07211643933804399 -0.06975695227761576 -0.05274408670412784 
0.02155832833244973 -0.4556465677175513 0.6307288885959025 0.06639593183753438 -0.07881952679195314 -0.1690835501443926 -0.2000955728416407 -0.1292301216213820 
-0.02518546346804466 -0.1020301154000185 0.1656989544366684 -0.02983634289328367 -0.01246607129511201 -0.02969440357990737 -0.02067338069351879 -0.01965596575864910 
-0.09831134222230753 0.1117640245558214 0.2597589689567607 -0.03723345748702060 0.006235795072615653 -0.08584160151295712 -0.01034762679662772 -0.04205928999597020 
-0.02444776494015945 0.01911427985526203 0.2488972390469068 -0.06041018978404113 -0.04341069543910639 -0.08939607946553106 -0.03085519699939020 -0.04799686767746156 
-0.005166118863047138 -0.02989865556309796 0.02739361201987876 -0.004281001771566820 -0.007504866260327161 -0.004444921175542964 -0.001534255421872020 -0.004206803874040569 
-0.0003404605874631481 -0.006418283110636739 0.03607598855942207 -0.01006847919691714 -0.003745981392271517 -0.003999184384141589 -0.01765681081458269 -0.0009442410110819539 
0.04672368856599626 -0.06550385916984267 0.1317553352110627 -0.01395048761922793 0.006547915629966938 -0.01826098782047470 -0.04078504594348494 -0.01893891681538991 
-0.04341665937886455 0.01672103316786959 0.03266453752471724 -0.03661763902443391 -0.005798282025535746 -0.07419647395606292 -0.02549626401142982 -0.03183499026363157 
-0.2964599670529349 -0.2885690326475161 0.2951270678989315 -0.1175902208563368 -0.009832603069933790 -0.07849142356027583 0.2363458618378996 -0.06443367765005500 
0.1405297696751904 -0.007593883895139539 -0.006967675726504433 -0.003467299812294229 -0.008863470767220986 -0.01106124293114949 -0.1489731064573331 -0.004469506742627726 
-0.4353967848394712 -0.05442285100079162 0.01415456123918961 -0.1000057760482402 -0.05110411149003848 -0.04862658657791548 0.6210463326671440 -0.03784657503830658 
-0.4308410838911099 -0.06333315700242505 0.03430903273693053 -0.05971999219017729 -0.04434743977684851 -0.04238962577210230 0.4494298331154978 -0.04473523999199336 
0.06510999289346887 -0.03871056588672451 0.01187550891742785 -0.02609807144389688 -0.01137770394356182 -0.02093310129073927 -0.09524736699192307 -0.02015519831931308 
0.1191594121701081 -0.07242273751181338 0.1586232445804175 -0.03172242839430687 -0.01077383730669101 -0.02903398266625604 -0.1367069660874732 -0.01733730046506062 
0.1527196853807094 0.1622409659821482 -0.1210109306384604 -0.1851264863969150 -0.04486212184003602 -0.1520479408543941 -0.3489979924863037 -0.1197578497723865 
0.07795458211927542 0.2408830804543337 -0.2975549668660736 -0.06434697945910298 -0.004336625708845119 -0.05570699940690057 -0.1361969180627967 -0.04946380566056299 
-0.002720021458256820 0.1420485601544870 -0.07531733385119055 -0.01287358355634136 -0.001859041079652575 -0.005891305870017702 -0.001571165616613478 -0.002358212388061713 
-0.04634714444515618 -0.1144859667922027 0.3074602088196372 -0.06190788358843657 -0.02748204923315896 -0.08672675128880902 -0.01801249811861778 -0.06370498001372686 
-0.002720021458256820 0.1420485601544870 -0.07531733385119055 -0.01287358355634136 -0.001859041079652575 -0.005891305870017702 -0.001571165616613478 -0.002358212388061713 
-0.05731235463971427 0.09093168753060749 0.4121354667218594 -0.2124397377246809 -0.06326230071356877 -0.1239751941831012 -0.06358387815642147 -0.1912324128958119 
-0.08637729677079116 0.2532879692804004 -0.01712615262344919 -0.1219826186375116 -0.03699011590495385 -0.2343185470261719 0.03587001666253747 0.1376987321062593 
0.5505471730245411 0.5352874714982259 -0.7893570418502185 -0.07413189338589493 -0.09352466321851273 0.005979620254849376 -0.8374709070239608 -0.2218112891752042 
-0.2503886146307450 0.6735687070698408 -0.4377902394041877 -0.2659723303221659 0.01444446089682209 -0.2241430180097081 0.1299566957576952 -0.1329577936594073 
0 0 0 0 0 0 0 0 
-0.03908343139414552 0.4047289926902822 -0.4042660441945559 -0.03628649813087535 -0.02640001505364623 0.2202657251117325 -0.03286699013906286 -0.05120768297383292 
-0.008090831590137092 0.1343490647159969 -0.09404277400392105 -0.01417561556777942 -0.008085787331590197 -0.04351552394255787 -0.01550885445347901 -0.01997380805793203 
-0.03087893945034744 -0.04891406053112318 0.1368882065481543 -0.04462536157905395 -0.02191523180091538 -0.08093204488797541 -0.02160285810632551 -0.03419099175783162 
-0.0003520815076981491 -0.0004386216296641530 0.004945103419919538 -0.002256185024538083 -0.0009078798915540397 -0.001991257251500998 -0.002179610446058934 -0.0002533780736934893 
0.06179365843862446 0.03628652607527580 0.003424935312204273 -0.04926988513669538 -0.02093464285416109 -0.06740008774337718 -0.07219697793051488 -0.04360190240126668 
-0.05509163977241258 -0.2176120586049334 0.2551531183390128 -0.08566835235190887 -0.03283109922276694 -0.1671236275134032 -0.02328441672300661 -0.06753759922589546 
0.004356030421184670 0.1999051796972887 -0.1104356016521257 -0.0003653358682754182 -0.002308920611105888 -0.004331435737864621 -0.003149928023914060 -0.0003562278224114501 
-0.006460396883865660 0.1103228916827606 -0.007704221970429265 -0.02413443994611823 -0.007598630205994176 -0.02017818011645598 -0.009369386046998492 -0.01145682236299229 
0.04231444204241972 0.2968791735684613 -0.3548355805633627 0.2369265777546284 -0.02120786160050961 -0.07419259262154289 -0.03874248288065241 0.3255850973471052 
-0.02576728382615932 0.1526397054845235 0.03042897573583662 -0.05923196556407750 0.005737802454619363 0.008377237969166320 -0.02917475023365092 -0.04787078448710613 
-0.003489493744356123 0.2014388431179990 -0.1096496016361856 -0.0001302932649885422 -0.0005066687538853228 -0.004020834927668449 -0.0001359468780430007 -0.0001933939001327543 
0.03874422504767834 0.2807419280888042 -0.1459434133908970 -0.04641281711228035 0.007714215896364340 -0.02191154653641367 -0.06938108945571349 -0.01184195326021782 
-0.05789585735914819 0.6840153083480419 -0.3283174674553668 -0.1083228886078665 -0.03011099312936928 -0.1029736054321912 -0.01702962286601211 -0.04717460658217185 
0.07331891019345056 0.2156782879122993 -0.4028056985087953 0.06465537348813258 0.06196350660666536 0.06451142765835889 -0.2003372981336847 -0.2149257251710074 
-0.01451228115557556 0.1798543902022686 -0.1443821280989489 -0.03122576775723700 0.01287482742938668 -0.02780799620685362 -0.04315078482149282 -0.02277394186932023 
-0.01711344003886221 0.02701742612460156 0.07288429546137136 -0.1015420201371781 -0.01957616882289451 0.1428024779090781 -0.03717089816901615 -0.02171385375510086 
-0.003489493744356123 0.2014388431179990 -0.1096496016361856 -0.0001302932649885422 -0.0005066687538853228 -0.004020834927668449 -0.0001359468780430007 -0.0001933939001327543 
-0.002631931106621006 -0.07458535205956770 0.08455373077820469 -0.05722743503965710 -0.01428317523586852 -0.02414556808210928 -0.04851623779385436 -0.02777760113177460 
0.01279347576405947 -0.002611384915596377 -0.001608982093780038 -0.002067755736013689 -0.001908858345212891 -0.001249774990016900 -0.01209445108903276 -0.001052059529255115 
-0.06051365102097159 -0.01514685415063030 -0.02714621238677149 -0.02934329537398996 -0.01868774031620388 -0.01099399386876781 0.03494015054517628 -0.01534147165734047 
0.01279347576405947 -0.002611384915596377 -0.001608982093780038 -0.002067755736013689 -0.001908858345212891 -0.001249774990016900 -0.01209445108903276 -0.001052059529255115 
-0.01552192729089806 -0.1432685547762467 0.1622904325095124 -0.08972674175756794 -0.02909228975720907 -0.09897696320708482 -0.04870580410654142 -0.04912810028974688 
0.01279347576405947 -0.002611384915596377 -0.001608982093780038 -0.002067755736013689 -0.001908858345212891 -0.001249774990016900 -0.01209445108903276 -0.001052059529255115 
-0.1221893850938166 0.1412027995579784 0.1332772883715807 -0.01519558777043930 -0.01387492077392428 -0.006452847790470349 0.1544096719770174 -0.003188793856461454 
-0.2633810419536726 0.1088331084275370 0.07768177500660206 -0.05520389679342969 -0.02799193407057825 -0.02032641227928723 0.3150564726005946 -0.02409789681142973 
-0.2079219665595976 0.3250373717887087 0.01405325915162110 -0.09444198380934714 -0.04294700908592687 -0.07119027408674505 0.2874017018829705 -0.04411421634017906 
0.6479384867051292 -0.2289218781676299 -0.3841475155645628 0.2460728163769848 0.05958756709017349 -0.1985402596205538 -0.8710940018893607 0.04207547522486575 
0.01279347576405947 -0.002611384915596377 -0.001608982093780038 -0.002067755736013689 -0.001908858345212891 -0.001249774990016900 -0.01209445108903276 -0.001052059529255115 
0.05529241312106233 -0.02545328248281393 -0.01056060179466959 -0.02272633001918298 0.01818017654515489 -0.009980564339412842 -0.07057458631487015 -0.007085651863138438 
0.2723287139556328 -0.02022023504122717 -0.04513622833146038 -0.01874819725935411 -0.04005524427011336 -0.02189905081664992 -0.1986648411999966 -0.01997269581035545 
-0.002710062368484417 -0.001802110976807093 -0.003843224202150021 -0.0004320499611052862 0.008556410761973311 -0.0008744048595608616 -0.001995185173344428 -0.0006623533335168195 
-0.004875650183118911 -0.05765953570115433 0.02279245445824449 -0.01437901917373386 0.006724380944811282 -0.01582709314965755 -0.02003088379874791 -0.01311283510012937 
0.02245101499596247 -0.006934078587962192 -0.01467356721218261 -0.001959918585648460 0.02760391255622743 -0.004435297094457595 -0.01946635150363378 -0.003981957832587424 
-0.002710062368484417 -0.001802110976807093 -0.003843224202150021 -0.0004320499611052862 0.008556410761973311 -0.0008744048595608616 -0.001995185173344428 -0.0006623533335168195 
-0.4535615601013767 -0.02696167966593269 -0.02747909266733950 -0.02942978638276146 -0.0002498338280104409 -0.03862896424666477 0.3953632644123957 -0.02503985324037460 
0.5168738831756448 -0.1759433882827195 0.01933688453510730 -0.1520912852346719 -0.002066231897733582 -0.1469353678604099 -0.5033614893549845 -0.1366019121742016 
-0.09103202458240960 -0.007029564248384628 -0.02388805075968856 -0.001438079823538645 0.02106325562890554 -0.0009796574532737483 0.1288119111528864 -0.0004216506368280451 
0.07149632853801095 0.2350622945474758 -0.1500162095896302 0.07774647070779865 0.1574853138951547 -0.05923007890751154 -0.1757985663154714 -0.04534639616868665 
-0.3381888046466035 0.04901125043084870 -0.1895884104412919 0.4885898231971488 0.05031635961554283 -0.1400757341480402 0.1164243666607099 -0.2461042989829340 
-0.0008294103277902498 0.09363068465819746 -0.08039707238071780 -0.01870879825548816 0.05597818913179326 -0.03311723304072545 -0.03595201240386454 -0.01451430187542791 
-0.01456368285688959 -0.01917390394923226 -0.005869401719906319 -0.01445745037643758 0.02994774592526530 -0.004275303048063864 -0.01353730541254145 -0.004426267180610099 
-0.007003325767838191 -0.006565492389163200 -0.002373402348700369 -0.006924354434460671 0.01337995527022401 -0.001128530813337141 -0.006930467053094214 -0.001950011180826669 
0.08238427385457027 -0.02156533275370045 -0.02835278620523027 -0.01259325169352845 0.02059634649199770 -0.01111977325810287 -0.06165663757441072 -0.01273899597264848 
0.03546779631729748 -0.01144599403757571 0.01631563288287037 -0.02795179127755529 0.01328990413264619 -0.01152731059137710 -0.03370755478387776 -0.005712881006227862 
-0.002052505448025672 -0.007290808235883861 0.03156028917654970 -0.008535111860083865 -0.001192725918337059 -0.002632704181366150 -0.001377644826082165 -0.0007326117836642345 
-0.002052505448025672 -0.007290808235883861 0.03156028917654970 -0.008535111860083865 -0.001192725918337059 -0.002632704181366150 -0.001377644826082165 -0.0007326117836642345 
-0.2897215661548241 -0.02297230228273955 0.01376750397352678 -0.01519769556343226 -0.004241145343857848 -0.01381871152828883 0.3213333816193449 -0.01292335043438081 
0.003399965702619207 -0.09405363759840173 0.1785691001257266 -0.02158070184119214 0.004587502706098511 -0.006585704409791367 -0.01599862095995054 -0.004022662961905120 
0.008056381798016883 -0.009039986276060199 0.02928562468636440 -0.01021550395159294 -0.003702438821626369 -0.003212320263840492 -0.01170206628032111 -0.001348054743583128 
-0.002052505448025672 -0.007290808235883861 0.03156028917654970 -0.008535111860083865 -0.001192725918337059 -0.002632704181366150 -0.001377644826082165 -0.0007326117836642345 
-0.002052505448025672 -0.007290808235883861 0.03156028917654970 -0.008535111860083865 -0.001192725918337059 -0.002632704181366150 -0.001377644826082165 -0.0007326117836642345 
-0.002052505448025672 -0.007290808235883861 0.03156028917654970 -0.008535111860083865 -0.001192725918337059 -0.002632704181366150 -0.001377644826082165 -0.0007326117836642345 
0.09062090316609701 0.5859349521318847 -0.4998242049405134 0.09428193770575558 0.008154462370033614 -0.1348810799267295 -0.1869557298164806 -0.08784465761698246 
0.3998925814081878 -0.2773938197296581 -0.3318359634912524 -0.09575010917092082 -0.03765947044786783 0.7509228820962006 -0.4554326384440159 -0.08810280952522957 
0.1103059251533255 -0.01882423640346969 -0.008316980129655939 -0.006589324052718089 0.02430755311076340 -0.01440372151235692 -0.07786842376313785 -0.01080814658799023 
-0.008026056729236803 -0.005503133376489472 -0.004004415966432156 -0.003711006523311409 0.01068253363728929 -0.02304043852772431 -0.006123196791256308 -0.005362619134243162 
-0.005665730474065008 -0.003033076957813145 -0.002452926196581999 -0.002947615405912422 0.005064346779947940 -0.001250146659633850 -0.001313774711386277 -0.001291432286276532 
-0.005665730474065008 -0.003033076957813145 -0.002452926196581999 -0.002947615405912422 0.005064346779947940 -0.001250146659633850 -0.001313774711386277 -0.001291432286276532 
-0.009447912894113022 -0.002993906293000839 -0.0006934595807614303 -0.001536446403133715 0.006281256879573368 -0.008215398052248040 -0.0002826334434699270 -0.0007985510217071784 
0.1488338063340346 0.2524969678186036 -0.2714191510508099 0.1947567894991286 0.03981828220501395 -0.2296174369714637 -0.2877523562316017 -0.1335192390042734 
0.01733552089857367 -0.2381624891595540 -0.1995205459492819 -0.06151729467801700 0.09173275802296804 0.5094218989176466 -0.1628739645904676 0.07796418726634165 
0.01919736962510473 -0.03041331250635373 -0.01151104594902866 -0.01632136690151474 0.02922228425499127 -0.02110619303392077 -0.07803995716400810 -0.01457007528123605 
-0.02259063385464896 -0.02339860471261134 -0.1434230903448767 -0.008257153270305220 0.02142725489149575 0.1606876155801006 -0.003848474308419214 -0.01381005094948506 
0.01707226236278354 -0.009150097166752406 -0.05275064832797796 -0.01439660040503216 0.02629999676466679 -0.02209469929312674 -0.05007472074917726 -0.01066929148609278 
-0.03094959338205517 -0.03069701953805436 -0.02374991149325057 -0.02694721174565851 0.02970014679468093 -0.02284393899294243 -0.03813887860164635 -0.01830544921929729 
0.1350058209901034 -0.1055019168950586 0.1486635220496272 -0.07419237059495933 0.01837929611610667 -0.1352693041193374 -0.1873710719900582 -0.04563139989648985 
-0.002611710587151104 -0.001546382141951923 -0.01958617100644577 -0.003706313639627324 0.007960277146705046 -0.001816896565460482 -0.01340935595180653 -0.002752406435142908 
-0.007801737780288861 -0.004736498208460884 -0.02135097944884599 -0.007956443236131204 0.01358609467429165 -0.003180162101165887 -0.01540422451248644 -0.004586419163179956 
-0.002611710587151104 -0.001546382141951923 -0.01958617100644577 -0.003706313639627324 0.007960277146705046 -0.001816896565460482 -0.01340935595180653 -0.002752406435142908 
-0.01806998936269673 -0.01128330253736394 -0.02389197916789058 -0.01220200579020427 0.03120424199009701 -0.004942752470716137 -0.01865984691615747 -0.006560554802378281 
-0.006378551381256039 -0.01033366134886642 -0.02052893028464149 -0.009876155160213870 0.01903758939052429 -0.003966590020649988 -0.01975256161993639 -0.005141317499960775 
-0.1236815882736616 0.1778063867955545 -0.1977518050130617 -0.08943347499477869 0.01560896100829327 -0.06477278306051311 0.03300737387239074 -0.09693504172746396 
-0.003058778153187835 -0.02405113133979395 -0.02426772625170308 0.04903978413004299 -0.004123863546311709 -0.008967272894431812 -0.008279029695353941 -0.003277496120334070 
-0.01770752479402050 -0.09451987700657480 0.1485625172725783 -0.06198639157800662 -0.01515745286999683 -0.05156821778090080 -0.02188802241145577 -0.02299002423007791 
-0.001109142671253940 -0.002291061556604092 0.004213322828747253 -0.002798201716891217 -0.001501477828428744 -0.003765101008407947 -0.003907844578145933 -0.001321218220280766 
0.05963805026896417 -0.007345963655678065 -0.007433976547078950 -0.005169631444934486 -0.01014222938401800 -0.003096940352280940 -0.03674189834768822 -0.005005370011478309 
0.1287154956252460 -0.06540742657868127 0.05370828035047393 -0.06259026905557381 -0.005621745206408439 -0.08645703122883575 -0.1472938540416345 -0.03886911479264896 
0.1512665701020516 -0.03261668693161043 -0.05452236336725420 -0.04910092939564970 -0.03581420930943730 -0.03877283989388709 -0.1580961366858370 -0.04040024126141342 
0.06092000739483339 -0.007742243349536289 -0.005441027275582318 -0.006634714562816088 -0.01249924130163104 -0.003119082473861313 -0.03570635370348499 -0.004783932289166808 
0.03768464508949355 -0.003887693846779338 -0.003762291079199545 -0.004251781720728562 -0.008445771296270277 -0.001897705267429207 -0.02151438896028134 -0.002372589129671070 
0.2531749054859846 -0.1294330756058628 0.2252107351549905 -0.05673105869943574 -0.05714543468893402 -0.1274061332972116 -0.2093956350625079 -0.03398203550132440 
-0.3204751826744239 -0.2603887857980745 -0.04593361390060192 0.09110185726566220 -0.06645958114223840 -0.2486082812982328 0.09173169979872920 0.4293017721110078 
0.05724428441321129 -0.002994052334722124 -0.02088943390024444 -0.002681000280403101 -0.0006798301213881397 -0.01059780655700672 -0.04019532932349579 -0.007426453880320940 
0.1275532570060265 -0.02354480557767599 -0.04257197835469039 -0.01419421586471537 -0.02166914116818114 -0.01656000759855772 -0.08756182769607149 -0.01531690127230476 
-0.03243594105538812 -0.1005081162077671 -0.4959792069363573 -0.01792417278432578 -0.03119160762258569 0.7766318677154107 0.1046224914793634 -0.02686361444592210 
0.01984668075686565 -0.004061672598109649 -0.003770085075083594 -0.004052680560152937 0.01038648586345691 -0.005455603871719157 -0.01799927880558859 -0.001878923790882114 
0.02491183069400572 -0.01417577377678308 -0.004664038309357183 -0.009092314467673220 -0.001172481286814619 -0.01013600735039107 -0.01735793542016680 -0.004248368333418943 
0.02240100579826033 -0.01335494921983517 0.06160671051238402 -0.1676662822764077 0.01457857594896040 -0.09143356431086380 -0.05794274813416356 -0.05936742756781213 
-0.001502807456275824 -0.003230888088647835 -0.002192305711466407 -0.003921859288851799 0.006331622300433124 -0.001509928330063839 -0.01279797903508086 -0.005190156457845331 
-0.001502807456275824 -0.003230888088647835 -0.002192305711466407 -0.003921859288851799 0.006331622300433124 -0.001509928330063839 -0.01279797903508086 -0.005190156457845331 
-0.1803316696835784 -0.03548653511638785 -0.09256340697954181 -0.04163788634678252 -0.01212065680477252 -0.02777505820618981 0.2386762695416927 -0.03419692657728860 
0.03902530209089949 -0.09836087654011354 -0.07426144684146181 -0.05473812959025448 0.02806526816784258 -0.05332863013266927 0.03637562442383238 -0.04421006076352620 
-0.2848670377591188 -0.03734940832923380 -0.01962191557724657 -0.04794818460387717 0.02538376137825158 -0.03789705961723285 0.3363506846927564 -0.01830652495159112 
0.01094038948799342 -0.02367852368900809 -0.02188081402571359 -0.01091026651888104 0.01356877757518367 -0.009309551036140491 -0.01599427779928523 -0.006369431134911471 
-0.002665165585387571 -0.02276204144119199 -0.0009349370613475703 -0.01019195525590227 0.005734697878525859 -0.005236284673790568 -0.008650032708894518 -0.005354138728039176 
0.1159389085066082 -0.07686199641284475 0.1303874095545694 -0.01705776952750316 -0.02998425082339943 -0.09170088540301294 -0.09398829333387794 -0.01575647022569053 
-0.002665165585387571 -0.02276204144119199 -0.0009349370613475703 -0.01019195525590227 0.005734697878525859 -0.005236284673790568 -0.008650032708894518 -0.005354138728039176 
-0.2558366541760036 0.1567850538104763 -0.1148766386471640 -0.1031638049844030 -0.01785958469979461 -0.1328861646958799 0.1085953641839689 0.1283565996790682 
0.0005514546291740872 -0.007506249686028661 -0.009908728139357530 -0.01003117154463985 0.01450910357355237 -0.005030936232860436 -0.03819943056316820 -0.006956880523650216 
-0.005190027193137755 -0.003190116066508961 -0.001764808442400224 -0.004250129596503880 0.005625817527586599 -0.001363265535705406 -0.001994868560679910 -0.001834012728037049 
0.1225082126330284 -0.1578459096057427 0.1011897523948278 -0.04765946050230167 -0.004907785268985013 -0.07090350232591360 -0.1662141744082560 -0.05542230602768399 
0.1001671296257350 0.06623614545603701 -0.5699501560399823 0.1352462265119749 -0.02089718961010220 0.2436640474517265 -0.2541927744634652 0.1674046616392963 
-0.0005046248797135220 -0.006104896733172886 -0.004771220721074679 -0.007038597258346510 0.003052301555728755 -0.002954874650001934 -0.01407896032364778 -0.002968402849772343 
-0.04279790378106537 0.1379472848480554 -0.09462252074037844 -0.01433357243853206 0.06150483299231081 -0.01876221844969678 -0.01083402427625881 -0.009397329316147821 
-0.005190027193137755 -0.003190116066508961 -0.001764808442400224 -0.004250129596503880 0.005625817527586599 -0.001363265535705406 -0.001994868560679910 -0.001834012728037049 
0.007137622239989134 -0.008246561951116858 -0.005219692064467449 -0.003740589121541981 0.02122964908779659 -0.004413026252004664 -0.01792947850173370 -0.002355054746930135 
-0.0006734658066491930 -0.002843985093237535 -0.0004515860321625607 -0.002068171304143497 0.003487523269594199 -0.001099793890883674 -0.003620629142456352 -0.0006548100039653126 
0.02816728445717725 -0.01319081074460986 -0.01851830181137648 -0.01966392538360800 0.002349111406942747 -0.01731076455148842 -0.03217260953953635 -0.02939055832780867 
-0.0006734658066491930 -0.002843985093237535 -0.0004515860321625607 -0.002068171304143497 0.003487523269594199 -0.001099793890883674 -0.003620629142456352 -0.0006548100039653126 
-0.3651800724664647 -0.03286063724411699 -0.01119354761394697 -0.004967468695854900 -0.02020745350838669 -0.01012893637044050 0.4860593840147710 -0.003670560141846102 
0.2028498668118067 0.1554923001345422 -0.007347458848117446 -0.1164553732597651 -0.02066432256941316 0.06073465718989915 -0.1805540103969538 -0.07855261844768634 
0.001012682310422651 -0.04000655659398338 -0.1892626427063692 -0.01413661134345212 0.03377941977440740 0.2333782374334134 -0.06197178884032461 -0.02923004487361317 
0.05623210432666179 -0.07616797738355327 0.1026033447104919 -0.02336228186504411 -0.01770711240919519 -0.04340625796584196 -0.05111257951552324 -0.02406735905754505 
0.05726138594018380 -0.05886814095069581 -0.007103793793513370 -0.008870875739450484 0.003971805314874909 -0.03247982156135457 -0.07572913018051420 -0.01520979194486228 
0.09093774800393806 0.05481656501906714 -0.02656926979340225 -0.09791325215420862 0.0004549492049603814 -0.09500576856400730 -0.1768642854753892 -0.07130102523065990 
0.03489048415739385 -0.003687648373079324 -0.02688628778219153 -0.01834024040165545 0.007435020619100421 -0.002873373337507454 -0.03493075875964440 -0.002177798654130589 
0.09049612781260419 -0.03763994684894152 -0.007117202801378044 -0.01454643161963228 -0.01118568149342100 -0.01365971400552654 -0.06652229835063664 -0.009346679485608599 
0.03706165390460640 -0.002890933072712949 -0.002953417147012877 -0.0003129581344080608 -0.003794584251187678 -0.001522699857828068 -0.01711573846771643 -0.0004106463508378570 
0.1179288734515603 -0.09960165005196511 0.2220922989877803 -0.02618504436471320 0.02086001735733989 -0.02601501623157344 -0.1209601996679430 -0.02549093094390934 
0.1881709238712302 -0.04312863151159167 -0.08597948263543570 -0.09839256866908948 -0.07982598065031592 -0.06089793224785567 -0.04435906706073216 -0.05256977820416466 
0.2346763797140914 -0.2147742376018596 -0.3150222054427388 -0.2815414363791670 -0.2929597983757460 -0.2589978684377672 -0.2548115120363066 -0.2589187221710250 
-0.002697939198782389 -0.02923240895755421 0.03518241851310845 -0.03707060204110626 0.001139533753801627 0.1346270514955083 -0.02320102582925802 -0.006914687570358849 
0.09481056604423431 -0.01108444488705817 -0.01679222248413376 -0.006749838279080651 0.004650265571391076 -0.01254460977087050 -0.05025707060165086 -0.008903009488193368 
0.004685402313424233 -0.002914780666663925 -0.003006412278674456 -0.002788467661842632 -0.002573515971857844 -0.001591609114296527 -0.01208409176296787 -0.001134390121735294 
0.02449468215263948 -0.005776011762172047 -0.007006092930518430 -0.004047262688188198 -0.007496221396344860 -0.002633801271586955 -0.02314854631354343 -0.003879697403575364 
-0.3761563447509771 -0.2327960356046584 -0.02647433874757022 -0.1174781670237493 -0.03528142909464310 -0.1035625482813654 0.2437207622678520 -0.1136231706680050 
-0.1346309084379980 -0.08245972187410723 0.08960248360223882 -0.09734241303893136 0.005895357625341678 -0.07294642659254397 0.07133969500724292 -0.06230118312742979 
0 0 0 0 0 0 0 0 
-0.006668559938222692 -0.004832344125785375 -0.009715658685788345 -0.01050860732657469 0.01817780389983653 -0.008429735810912282 -0.007877233677829262 -0.005817582174002206 
-0.007230370161519636 0.1394610634265547 -0.1237665002921459 -0.01934825106838134 0.007115887500979263 -0.05333426340125033 -0.02013142455900843 -0.02302070414580549 
-0.003782866614466472 -0.004482210972008779 -0.004040141981356698 -0.006426115638488932 0.003925373670109005 -0.005712577131698983 -0.004786890897890107 -0.005488648149562766 
0.04222719952129388 -0.004785715199454687 -0.006518973685809227 -0.006728288269247170 0.0004669866866633134 -0.01469939359479215 -0.02395333858285852 -0.006271818189459094 
0.05023924736104124 -0.06527783589743877 -0.02526900080953065 -0.03355386020347406 0.03099348302132643 -0.05389529531865815 -0.1294508218108374 -0.04321093883213117 
-0.008940238617242257 -0.006417449543258863 -0.01662731786128367 -0.02548354308608440 0.02279591471833522 -0.01357038068391800 -0.01450803154744497 -0.01001623847197318 
0.1203119392222399 -0.5128514405145836 0.1735178490024086 -0.2289249834183750 0.1156048099278355 -0.1985411946902119 -0.4388312292996590 0.2815374144311253 
0.08915952438024186 0.1725221656138175 0.02170710383412921 -0.1270359657851664 -0.03391638033757649 -0.1110535755661159 -0.1908214451252968 -0.06217337506239493 
-0.01039533869862713 -0.002210432102160796 -0.01961373407403300 -0.007233831528163428 0.02865946706022059 -0.07283708319361133 -0.01839921585870693 -0.01425065077206306 
-0.1691512168197593 -0.01157846665666515 -0.006252328033047153 -0.02203707387168315 -0.0009357332972290905 -0.008340829700207861 0.1589232622225991 -0.009603821907461072 
-0.004196347542307787 -0.006328754906275177 -0.02814042683174032 -0.02369823668252021 0.04670867636590141 -0.01104204300014642 -0.03015227076505102 -0.006024811095294450 
-0.005157372002775783 -0.001935238571250082 -0.01258717587992697 -0.01905742744759547 0.01887054104822622 -0.007857803552219017 -0.009721140649554861 -0.004527590322410415 
-0.4084534018953556 -0.08042551152579010 -0.1355835901570551 -0.07766674597256747 -0.08263716127871652 -0.05747909112108387 0.5136200811781795 -0.06451612412129416 
-0.02117614938985102 -0.01012098952917675 -0.01709429166229233 -0.008457237235405946 0.0007493423492356064 -0.008472710473600244 0.02081748864556499 -0.007115440412945788 
-0.09427475007390988 -0.07697496210038390 0.02631692275242922 -0.08259336960677728 -0.009761007337655891 -0.1254860111635054 0.09589374262656410 -0.05948066927260055 
0.03863189941565966 -0.01922987912375612 -0.004079143736405463 -0.01090091631746948 -0.009664740592569915 -0.004794614109642308 -0.07206759381938370 -0.007887748598003855 
-0.0003543678550658631 0.1392744652898469 -0.1696285438579752 -0.02102723748380527 -0.01310851446438252 -0.03701650305479615 -0.03653692172941792 -0.03458582515688277 
0.02099368338156586 -0.1079572208635537 -0.02972749681327252 -0.01722326736204766 0.04156405480616000 -0.01636049932139705 -0.1057960119330215 -0.02017716536501191 
0.1587408126995868 -0.1396469781789045 0.1604629407485202 -0.07039794692308218 -0.02541073895289764 -0.1135992199312885 -0.1711281860473368 -0.05512976505639287 
-0.4520950662578792 0.2899997514886986 -0.4528170274848575 0.3006001336137530 -0.04256877174320263 -0.2433567295417677 0.3696155068472692 -0.1743244197490904 
0.009173742042634773 -0.01467838945118277 -0.02174348702094506 -0.009724890885801904 0.01696103486117403 -0.007421808242172321 -0.01912097729005241 -0.007553834674752826 
-0.003886498721561653 -0.003155836402737469 -0.007144687105867544 -0.003395663237944407 0.004089367052337317 -0.002334317215235751 -0.005203868788142366 -0.002677469576734736 
0.008321863643864537 -0.0008794719707496180 -0.003516165382113855 -0.0002218403662354944 -0.002126133420518668 -0.0008667975020909579 -0.004466544245214359 -0.0003760665792221605 
0.05623664879529478 -0.1045951392935512 0.1794848002076589 -0.03755223961074516 -0.01356492641743875 -0.1091351597394469 -0.08488155207010990 -0.02942712644919320 
0.008321863643864537 -0.0008794719707496180 -0.003516165382113855 -0.0002218403662354944 -0.002126133420518668 -0.0008667975020909579 -0.004466544245214359 -0.0003760665792221605 
0.04484545597898676 -0.002424681245503398 -0.007863119509018010 -0.001812381411366805 -0.005715588242708568 -0.001683210625391298 -0.03564382575828067 -0.002921549696368759 
0.008321863643864537 -0.0008794719707496180 -0.003516165382113855 -0.0002218403662354944 -0.002126133420518668 -0.0008667975020909579 -0.004466544245214359 -0.0003760665792221605 
0.4478282564860852 -0.05976544075899798 -0.03038725985030905 -0.06030963797065575 -0.02827048954234086 -0.02717545115660641 -0.4428014547846524 -0.03687305421802346 
0.07392525281090832 0.1453217135117992 -0.07357405840734880 -0.02767929476136823 0.03457203267624404 -0.03895946564650971 -0.07057263213156440 -0.01474450028262210 
-0.009054937148903427 0.1331745139834355 -0.1134789953322273 -0.02015771525300644 0.01763490838161914 0.2278224691683411 -0.01083754695908571 -0.01108956798294185 
0.01251035751270922 0.09943675899998636 -0.02545609484738433 -0.003876229158411822 -0.003742403009367846 -0.007662813130529974 -0.004363493644479998 -0.001323320173212070 
-0.004676780846912707 0.09998438697749318 -0.02443938762659757 -0.003822120775980497 -0.001646436499222009 -0.007143598196803662 -0.0004734800807902980 -0.0007342428670180578 
0 0 0 0 0 0 0 0 
-0.3836494534896420 0.7371163847104160 -0.2521857998411383 -0.1870156444584840 -0.05333309828765379 -0.1855518195590710 0.4066147183674033 0.06894866083849180 
-0.1147286749378383 -0.05475394929741147 0.08655665364153454 -0.02610532898760816 -0.04554193841851352 -0.04282138191846156 0.1700532264890175 -0.02482141414562456 
-0.02624024547840376 -0.1394504100422228 0.2370401934322471 -0.07628038920539523 -0.03097198184225199 -0.03571671212080482 -0.02531184394460267 -0.02945465907818516 
0.05623694787144659 -0.01619657719390787 0.07890305821974940 -0.01644991762740278 -0.007560092378053647 -0.007602494915373351 -0.04303523399187797 -0.002452150060685025 
-0.5010835221691698 -0.5349773342286864 0.6611548856087034 -0.2222419345718129 -0.06325068626248034 -0.1879581421032633 0.3693116339348899 -0.1255587794993853 
0.1762044458407178 -0.05550290121913155 0.1610984613946717 -0.03150144420003505 0.01738115925961966 -0.02246957418673046 -0.1266378994140965 -0.01374204176164242 
0.08111423921257964 -0.03565520560529033 0.09934018920139116 -0.02039019585253658 0.002589431198763072 -0.02444393092509397 -0.07823122119105765 -0.004137560975351490 
0.02145168959469712 -0.004086335826759733 0.05250651160632872 -0.004546191976287911 -0.003448147295640960 -0.001157104495561659 -0.004610640544284463 -0.0003349557911064883 
0.1347196455565135 -0.08549919799463519 0.09850675499628020 -0.07287011850044565 -0.03027437267602421 0.1625654807298896 -0.1113868370399695 -0.03613958427767389 
0.01678294434296039 -0.01115408901887425 0.08458355648654167 -0.008383198241236872 -0.0004161677848102316 -0.01132548302187079 -0.01151573944834320 -0.006442323293437855 
-0.1889050176371552 -0.008859789996502426 0.05527837212716742 -0.008955926704531390 0.005148230213742934 -0.005512113103641770 0.2243987920984115 -0.002801615991282260 
0.009340430571242700 -0.004893132777547590 -0.005957249822165316 -0.004767818388112763 -0.003708511327088882 -0.01659717519481803 -0.02537098554904994 -0.005799748096510990 
0.009340430571242700 -0.004893132777547590 -0.005957249822165316 -0.004767818388112763 -0.003708511327088882 -0.01659717519481803 -0.02537098554904994 -0.005799748096510990 
-0.006277907509966860 -0.04007476272159896 0.06780774224921562 -0.003783507674398157 -0.003015088722218737 -0.008294463720314192 -0.001338067392147740 -0.003857497294636734 
0.04931827577822776 -0.07559046479627632 -0.1243246802990424 -0.02564504428385202 -0.007061096012021791 0.3168194283195544 -0.08982685881982735 -0.01562454393127447 
-0.01928497143175271 -0.1021704659620617 0.2725612107017581 -0.01556119342690777 -0.01150877763176028 -0.03582350439431999 -0.004025759211312102 -0.01293339632299333 
-0.01116663381924100 -0.08775203658109208 0.1612756728619406 -0.009747827473962970 -0.007772902325394391 -0.01966143922758987 -0.002149443634947126 -0.007708809733716489 
0 0 0 0 0 0 0 0 
-0.004087038549823799 -0.1299489889532244 0.1426090142847539 -0.04513379051670424 -0.007577831534716002 -0.01023685400399984 -0.01254716822828490 -0.006270238556034818 
