solver_type L2R_LR_DUAL
nr_class 8
label 6 4 2 3 8 1 7 5
nr_feature 23702
bias 0.000000000000000
w
0.1091499495813952 0.3738164324198312 -0.4481505345296480 -0.1026267364604576 -0.09422341360634938 -0.07581689913905768 0.1401637657792716 -0.05506242181601428 
-0.01904269989840046 -0.1253745539473801 0.1886036864680157 -0.02716057797401043 -0.004493238790996559 -0.03677366467017272 -0.01515813616527254 -0.02341023462209773 
0 0 0 0 0 0 0 0 
0.02217144738799955 -0.2001917950374928 0.2166435732274263 -0.06564659847666668 0.002510922295853480 -0.06518686727993561 -0.1625663151415833 -0.05962496334629440 
0.1204440511198117 -0.01946644867228521 -0.08671558394771665 -0.01536620666230970 -0.01385951252745127 -0.008774961834181472 -0.01675457653686112 -0.007369061179638189 
0.7510859736886493 -0.2434884586604198 -0.5476205120328594 -0.1785989532441034 -0.1857616586236074 -0.1235853557796804 -0.2198332354340157 -0.1144248372349650 
0.1337430511810873 -0.03290149735182060 -0.04313901469142659 -0.01478683527343608 -0.01910048491174139 -0.01590736705749281 -0.06422728335824628 -0.01241052912076589 
0.03194681980597280 0.1487764578318162 -0.1885473315908706 -0.05080001613335962 0.03514266661497381 -0.05961822167759653 -0.1426456577419354 -0.05194115936623389 
-0.05926221906336053 0.3638925658267215 -0.3949703628874987 -0.08162188572806002 -0.02512681889227960 -0.1249030794139582 -0.01849544477343606 -0.08327168154254470 
-0.09682163735116509 0.5263660100474664 -0.6886057679563435 -0.1732165530037510 -0.04577076205476436 -0.2339343714864678 -0.06199499764315011 -0.1743043966545584 
-0.06914153112953897 0.1704371868057140 -0.2546767531746167 -0.06599406247484196 -0.06103685446626202 -0.07603401433132054 -0.08404302373940903 -0.06824219691961564 
-0.1215383222815659 -0.02354021316392666 0.1746785450363440 -0.02015545243262066 -0.01716707394679568 -0.01122258004649712 -0.02633909748769597 -0.009071588375205294 
-0.2629104562170378 -0.03486254382261042 0.4317225911127515 -0.02611867962008726 -0.02219422520408082 -0.01275541883594322 -0.05522017069751305 -0.01045847125215714 
0 0 0 0 0 0 0 0 
-0.2156839658551784 -0.06473786301798484 -0.2258739321861539 0.5388383385519960 -0.05072861165807022 -0.03557056933003205 -0.06819480653422558 -0.02936802320365925 
-0.03143280521820771 -0.06321396748626434 -0.06867231278386760 -0.06009758469955957 0.03184914412521284 -0.04408438304930978 -0.1094407621568200 -0.04196740920120220 
-0.03046787010921942 0.1120721313061067 0.09888781621693238 -0.03992693222346092 -0.002303552093586823 -0.06602003946772506 -0.02034681694642225 -0.03492945500638335 
-0.006246776397734456 -0.007757799754330339 -0.03248887492132098 -0.007403503295388343 0.01599434396431038 -0.005521678864936384 -0.006102876242578641 -0.004012067472088939 
-0.02978167132271632 -0.004408824850082439 -0.007987603053400780 -0.003020971093520793 0.02967580127526068 -0.002914250959019233 -0.002851315246629763 -0.002090056173429192 
-0.08923881997451319 -0.01513796849674266 -0.02789111764483783 -0.01277971407564681 0.1274689004763785 -0.01009335271530431 -0.02118529238454989 -0.007518743975214751 
-0.06031039443883161 -0.009217775170970941 -0.01562423904099661 -0.006383488904630178 0.08351865421480500 -0.005473365855566365 -0.008085101285640911 -0.003930686683328842 
-0.005453819073258755 0.2015879188560474 -0.1791305024494783 -0.06858204847879609 0.1004281131788894 -0.06371200318252254 -0.1485381589482928 -0.04602231427776947 
-0.1804971199485495 0.6096600122299742 -0.6235591858988337 -0.1751519897609342 -0.05716581946583360 0.07305396194480225 -0.003371881598041301 -0.2145578929580637 
-0.01602683099477201 -0.01824274220455565 0.07423181060539819 -0.006374786240356752 0.01750126124497251 -0.006997473074105071 -0.006275988550534515 -0.007886225919109131 
-0.004153297428441670 -0.001033865699523559 -0.001631430122433667 -0.0007145128395195176 0.007183565749439362 -0.0005770023370152129 -0.0007669548143352140 -0.0004572964412961680 
-0.1889374294316900 -0.1449423650539026 -0.1042411771119464 0.4369355339841335 -0.05893259862127726 -0.04206015110849354 -0.07064309534284310 -0.04176456047814887 
0.1054691032841934 -0.02098976845224975 -0.1116540680375208 -0.03054289754309262 -0.02427773186250922 -0.01136509794748915 -0.02541550089865072 -0.01061802458670060 
0.06657319816662731 -0.2228739022704418 0.1292962607428288 0.1284344860375289 0.1102110467834688 -0.2204517026814243 -0.1562582903090362 -0.1513815470691584 
0.2988684236885716 -0.3863535482792406 -0.02395198413212328 0.08529486393746709 -0.1058383856267716 -0.2043919989578564 -0.1314983672083425 -0.1654727345386872 
0.3312441366978252 -0.06220508176459533 -0.3126442837153897 -0.07668130002829272 -0.06224672196307983 -0.03521239630852450 -0.07304821586573372 -0.02969598372840896 
0.5627795675567730 -0.2274647813633786 -0.2042945176856670 -0.1428518629443331 -0.1039029314634765 -0.1024668969971985 -0.1702094525319908 -0.08481232931310767 
0.1229609542453012 -0.01890427183844007 -0.02020181431538675 -0.01722322929095000 -0.01867764212952418 -0.02740174629297800 -0.1031912171455508 -0.02153980660683900 
-0.01648546217042204 0.2430596821917525 -0.02634177419819758 -0.01063275749337541 0.01471496643760914 -0.01811368431194605 -0.01074973589368918 -0.01282551605187325 
-0.2155341779742364 -0.06466589477952420 -0.2262853255936819 0.5374810230557059 -0.05051231113174878 -0.03566283457725374 -0.06823440471134806 -0.02915717269182529 
0.03145619403720695 -0.07492030097937440 0.05608157935770208 -0.05230384984823006 0.03863856538461373 -0.05928694551959516 -0.1475509364271424 -0.05395030201795980 
0.07582126007731886 -0.05092740599503688 -0.02834492295932470 -0.04191963054435693 -0.02474620193617647 -0.04377463638181138 -0.1387246990361318 -0.04175452432781210 
0 0 0 0 0 0 0 0 
0.07510246159099127 -0.01250789384304773 -0.09278090860174543 -0.01056207820477529 -0.01679996806838846 -0.007038705031729100 -0.01468154341455078 -0.007070739326587669 
-0.004894618191506794 -0.008580043393904653 0.01681898493883582 -0.007724539153742008 -0.01067776075485755 -0.02091154647339492 -0.01527728646058497 -0.009829431665326930 
-0.3928148554772028 -0.1195608406798218 -0.5456619910508158 -0.1558558738246294 0.09280269330659169 0.7116101921686436 0.4478661731082222 0.6105568236513423 
0 0 0 0 0 0 0 0 
-0.05551557311281920 0.1496866010938386 -0.1880894272644035 -0.04791935600137087 -0.009684966512214052 -0.06230671002036416 0.07412705440443061 -0.05790449728062139 
0.9866172382555303 -0.4214528243146866 -0.9244704428808111 -0.3545457639013448 -0.3060308340288031 -0.2362215000441121 -0.02397435997379890 -0.2032891672076512 
0 0 0 0 0 0 0 0 
-0.2536623548713666 -0.05092627123548162 -0.2355964914940754 -0.04070151439505002 -0.02953006760402660 -0.01762802261512909 0.7289758044140916 -0.01512105560441819 
0.5521741839692684 -0.1169841795356559 -0.3965229516473261 -0.1029401320760964 -0.09945750603923065 -0.07014287076964411 -0.1258066569536162 -0.05812978592596265 
0.04630946250655398 -0.02430839114727955 -0.02156830438124497 -0.02645092123219499 -0.009630771058578184 -0.02749777097202145 -0.1057590442996882 -0.02569043147695312 
0 0 0 0 0 0 0 0 
0 0 0 0 0 0 0 0 
0 0 0 0 0 0 0 0 
0.3830278015743707 -0.5946920927084713 -0.6492519390936438 -0.4823430601097908 -0.7614044212636737 -1.029015970248629 0.1732955542218107 -0.9034111114924395 
0.4354600408168469 -0.1258979858502491 -0.2295542429706073 -0.1116664224536126 -0.06478681225656574 -0.05969187414669081 -0.1250580199255718 -0.04423777185901494 
0.2932960486235862 -0.01915695165893524 -0.02428761809019096 -0.01956120310498130 -0.005673364721630473 -0.02190509021780410 -0.1614048014734672 -0.01034360091312549 
-0.02323068472785810 -0.03773348904937639 0.1170457779516254 -0.01219307964955982 -0.008038866890437837 -0.01672989606299373 -0.003387457527280642 -0.01097437034189884 
-0.01751275118861814 -0.1377208041421235 0.2713232701545808 -0.02762809119263109 -0.02203443757767221 -0.06328290679359250 -0.01188202338022958 -0.04250895640191151 
-0.4546580913955661 -0.02554922193056764 0.02942114833799259 0.4946591392896351 0.01679218377128708 -0.2569790918394737 -0.1915743694905265 -0.2095686981370958 
0 0 0 0 0 0 0 0 
0.2187483324883235 -0.08821678124395932 -0.09591595491108565 -0.05810990919803727 -0.05034482578977111 -0.04985766612970453 -0.08436724167795848 -0.03894257062529368 
0.5777417211657345 -0.1073823937395771 -0.7585410751066143 -0.5534851185583569 -0.2661722196375306 0.08395478684333371 0.02638628256123541 -0.2269488278547172 
0.8513088833301320 -0.4052432337124505 -0.8173213828305738 -0.5784699636105056 -0.4330000425461580 -0.1271172570608785 -0.1964546891836944 -0.4920530928712253 
-0.2515465327672308 0.5318523155274125 0.1249440883825004 -0.05829537191151342 -0.06395688893938278 -0.09993626915525075 -0.1170437489741235 -0.05008613684392836 
-0.05253753358789582 -0.1892743708490557 0.07946419904145503 -0.03603791534487912 -0.003839479759306576 0.2489922081800589 -0.01435949010492227 -0.05066967987635185 
-0.1351277983642189 -0.04470876432905946 0.2542428536143829 -0.01929034698343309 -0.01674066465367294 -0.01052222049511023 -0.02516405226384222 -0.008691597784852642 
-0.002357160240479965 -0.001053080860395504 -0.003822054450490279 -0.0009749410015846830 0.007631119721955073 -0.0007847655383077152 -0.001073124187972595 -0.0005720532104627083 
0 0 0 0 0 0 0 0 
0 0 0 0 0 0 0 0 
-0.06091905259856034 -0.03367649049452688 0.1851441227410748 -0.03948079637384075 -0.01459220678520038 -0.01113973678965039 -0.04052020392074624 -0.007045716280157150 
-0.01373656131896120 -0.0006212239040545481 -0.0008224527280582965 -0.0006418359290791802 0.009367616072556992 -0.0005885762207483112 -0.0006966409823652237 -0.0004523950631760622 
0.1794973948420498 -0.1937604524347313 -0.08669532871011122 0.3337760395214980 0.009060646482030532 -0.08947700495587865 -0.1746332927824572 -0.05634151815821981 
0.1240233001716185 -0.01178047525319281 -0.09598678912085383 -0.01580891016865125 -0.003674514080415246 -0.009059100571410047 -0.01982203534327049 -0.008841071564408440 
-0.6007300063438868 -0.2634166667382258 0.3775814316751034 0.09010135170678475 -0.2265739114595089 -0.1960798214766497 -0.2472586451338682 0.3249993245611692 
-0.004759509787206241 -0.002926952053403610 -0.004753865004952594 -0.0006022366175342884 0.03375292335439074 -0.0004053351578094770 -0.001859158534047203 -0.0003059310653364120 
-0.006080102232874826 0.2224341534381109 -0.1266825061604784 -0.005121340769795145 -0.002562204696187697 -0.002909830872852773 -0.002833446375807998 -0.001850768364220225 
-0.01357094021289058 -0.01437602547425092 -0.008736544853858014 -0.002733624672271766 0.03568304391813083 -0.002280318051326983 -0.002569432221971194 -0.003439464232637696 
0.5845899600205917 -0.4207011256134878 -0.5201130180745703 -0.2667743713593418 -0.1740401899824713 -0.3319535642202142 -0.7367784607459605 0.2235137181526892 
-0.01357094021289058 -0.01437602547425092 -0.008736544853858014 -0.002733624672271766 0.03568304391813083 -0.002280318051326983 -0.002569432221971194 -0.003439464232637696 
-0.007874658114752568 -0.1358550008624232 0.1431278770300125 -0.01550294965544264 0.0008795350097928435 -0.02685706435545726 -0.007528655694650773 -0.03269880681439145 
0 0 0 0 0 0 0 0 
0 0 0 0 0 0 0 0 
-0.2440500465846346 0.1749960992208836 0.2096236425026481 -0.05508793593023176 -0.04414348337106320 -0.06987893034522630 -0.04616309352099538 -0.04751668095291588 
-0.06353680510189808 -0.3846396162085394 0.2330618481903293 -0.3807000540127631 -0.1500007190918704 -0.3782613556968144 -0.3012083269046554 -0.07574678694457548 
-0.07913531451768485 -0.08313197073301731 0.1237429535063847 -0.08733879270698217 -0.06789818606515749 -0.06604199291560844 -0.06538342952792350 -0.06130384764456248 
-0.004496561532234438 -0.2856173579431739 -0.05635769270049797 0.2070704232712350 -0.1625008376500153 0.07279468580946208 -0.2079849921800168 -0.1770160242334014 
-0.005805337887430030 -0.001696358181180277 -0.008712489674150940 -0.001691844129047060 0.01598597711761745 -0.001548428215635600 -0.001593866660931390 -0.0009802529950226776 
0.1786748618282269 0.04616915476401116 -0.3600057747415384 0.1296012840133693 -0.02355907761165467 -0.1825382510977102 -0.3335480383746552 -0.2111578910562546 
0.06919099281997823 -0.1993920251984371 0.1475704802210239 -0.06810147101561206 0.01423781678046292 0.2238852752106214 -0.1249822058595032 -0.07504769158973144 
0.05247134380171718 -0.1999131442561606 -0.05216016285132602 -0.1002563859120119 -0.03642917087400076 -0.09873729049805817 -0.2205262317353620 0.4350717005875796 
0.2247780269977893 -0.1796706554289120 0.06099985908993877 -0.08993833592895147 -0.02432580786445070 -0.1057182598061763 -0.3444648812796707 -0.08675555925150917 
-0.1119011719152749 -0.1728652751067002 0.07064408765458077 -0.08331498653085842 0.006118669638145698 -0.1363270347403903 0.2068523534991313 -0.07854558946887968 
0.07501182912290160 -0.01138333061531492 -0.01600584826366687 -0.007142648968303359 -0.004432345110032217 -0.007513690625054923 -0.05685154648777755 -0.005958549671470035 
-0.03977021005724613 -0.03586408298745085 -0.02259549307977217 -0.04135911446039911 0.04116654161632666 -0.04449911550098183 -0.02817586772144253 -0.06111370379939188 
-0.001405439093038739 -0.002219105742614057 -0.002557205146688924 -0.0009827309851708939 0.003418436693900041 -0.001477737715429136 -0.003091380353253516 -0.001565206280576948 
-0.001405439093038739 -0.002219105742614057 -0.002557205146688924 -0.0009827309851708939 0.003418436693900041 -0.001477737715429136 -0.003091380353253516 -0.001565206280576948 
0.03900475367842485 -0.03418411133609552 -0.01543559275665496 -0.02138552673259062 -0.01635398955382024 -0.02683847965804971 -0.02903655663797194 -0.02022496126634527 
-0.007583382282982560 -0.03246062492153547 0.1000462902742123 -0.009031156376682682 -0.004087149301543680 -0.04905135739752890 -0.007618458928724823 -0.01290810373552617 
-0.001538491090977729 -0.002711198533328630 -0.002691622340274522 -0.001390210727795071 0.003048706202434525 -0.002620074009671073 -0.003984461034335592 -0.001660535446139819 
-0.02343358417637256 -0.01076616567326264 -0.01078406013820120 -0.006943934431222574 0.04745407510713755 -0.009571384991412269 -0.01546073964419358 -0.007393416961519273 
0.1863465621460526 -0.06394965494303874 -0.05857757858526237 -0.05807462647945583 0.01016809728525131 -0.04848308843985359 -0.3257832661764704 -0.04621536445327310 
1.064101459324069 -0.4036883780379900 -0.8222366106486898 -0.3343067953309062 -0.2657876131544102 -0.2322893188014440 -0.1429515503571811 -0.1873081044676256 
-0.003258322018636205 -0.07292907557559540 0.1076714120764677 -0.009020462682762225 -0.008282992377566486 -0.02879222546645064 -0.003921910082162521 -0.01315619732299604 
1.462061969143724 -0.5720065417598568 -1.083263352301874 -0.4461237995319853 -0.4180533656370999 -0.3889851000022093 -0.3647165676573179 -0.3219850886018948 
0 0 0 0 0 0 0 0 
-0.001450808269256581 -0.0005173999082453509 -0.01270942825614372 -0.0006220671632394023 0.009588117102248706 -0.0006497704168509701 -0.0005791695943483694 -0.0003951992509624903 
0.3927528593103984 -0.5022450817929466 -0.1419156622227198 0.09069805664285788 -0.07873041863196353 0.1066981441096890 -0.2103268885893062 0.4069621695471941 
0 0 0 0 0 0 0 0 
0.03822525157603041 -0.02867124865910455 -0.01075501155736565 -0.01523888892944083 -0.01034498585462771 -0.01378650841453852 -0.08889189436268354 -0.01157225403540830 
-0.3862546055239948 0.2770573508673723 0.01965638894817171 0.3577727188142809 -0.02576837290768073 -0.04519696286892622 -0.08461053436714047 -0.02968237572037528 
0 0 0 0 0 0 0 0 
0 0 0 0 0 0 0 0 
-0.08298332456153878 -0.07475092752603645 0.1114716017247577 -0.07616922128234775 -0.07699535959314570 -0.05946914106303299 -0.08286292705057902 -0.06935018761264766 
0 0 0 0 0 0 0 0 
-0.005204563343593540 -0.003599310269609557 -0.003623411713287920 -0.003250466508118543 0.01828082493289838 -0.003586524598944899 -0.008255399885694504 -0.003088210486689251 
-0.1329994393922191 -0.1571590756756561 -0.02027010831731534 0.2808140095876646 -0.02301409812843120 -0.07266345253265928 0.1418635752346305 -0.05934901690315210 
0.5005624304802372 -0.009639646691563310 -0.4417128318428346 -0.5485207401809358 -0.4219827958270005 -0.5705016225813416 -0.2499786626165767 -0.5505423621884988 
0 0 0 0 0 0 0 0 
-0.04979870466976150 -0.1318759059397418 0.2377466249944416 -0.03307683204797702 0.01161754864638676 -0.1448506798674299 -0.01662958307216911 -0.04474482149990285 
-0.005929256119167206 -0.03763653854919361 0.1013254086116360 -0.009309867149207524 -0.007047742604111697 -0.01686916102848356 -0.002470803410766489 -0.01632153653198410 
-0.009573933330699246 -0.1255648881781190 0.1756732473790126 -0.02416155608196216 -0.009487202176264450 -0.04539047593481486 -0.01004456431069848 -0.03285830937730314 
-0.01794325043343412 -0.2524903605244029 0.2477920917607187 -0.07826669458121657 -0.03629411479643770 -0.1305818783388816 -0.04727605772414548 -0.09700860586073354 
-0.8368956255052680 0.4403357261877628 0.5591605143930454 0.4315740231355449 -0.1562923612431819 -0.09596526545741185 -0.2638808103273920 -0.08958943712958622 
-0.2611062815160185 -0.1936522520195003 0.2584784965224189 -0.1965552554068848 -0.1985939711490972 -0.1823767506536444 -0.1973855394714963 -0.1947062068992026 
-0.1213136816043057 -0.02084092396169950 0.1295295686513484 -0.01791327830339601 -0.02428209169279497 -0.01250368815792707 -0.02080884367265742 -0.01446729731808169 
-0.003525511371172910 -0.08012062498809559 0.1538497484187023 -0.005897551775791730 -0.003265011381546366 -0.007102900482192785 -0.003849642617876005 -0.004645355841012444 
-0.003525511371172910 -0.08012062498809559 0.1538497484187023 -0.005897551775791730 -0.003265011381546366 -0.007102900482192785 -0.003849642617876005 -0.004645355841012444 
-0.009082553575570466 0.1974214786388841 -0.1870595149848199 -0.03808187270763750 -0.01543017899522443 -0.05596818942407789 -0.02152732464340887 -0.04339844604228658 
-0.1408961611965322 -0.02868622122919697 0.2070023462981775 -0.01891803443787051 -0.01715620169463918 -0.01067791925255631 -0.02309294344847951 -0.008770346188560565 
-0.5157379527471981 -0.09091522135555842 0.1942256261154424 -0.07009540726318134 -0.06829223970010213 0.5525221922231164 -0.08121882185587820 -0.05071676102509164 
-0.6156242153006595 -0.1906288696880776 0.5145476273267255 -0.1170200986691805 -0.1069477559602013 0.4558890057219801 -0.1948256083414125 -0.07236364352771530 
-0.005929256119167206 -0.03763653854919361 0.1013254086116360 -0.009309867149207524 -0.007047742604111697 -0.01686916102848356 -0.002470803410766489 -0.01632153653198410 
-0.01170728442032487 0.1955285017179271 -0.1785413576851995 -0.006113850001517275 0.01430613243803192 -0.02739229061109003 -0.005910820527849345 -0.006521956990601259 
-0.1039992735677923 -0.009530927672649736 0.1164695831334464 -0.007344485381545688 -0.008896373467808307 -0.004101142484104714 -0.009943755750437409 -0.003686336740356731 
0.2868153780644633 -0.2125432899476737 0.2166315483057181 -0.04789256728357477 0.01525085481421067 -0.09873620092188708 -0.2518883154446125 -0.05638745016214669 
0.3356051878860987 -0.1342275346330105 -0.1519559782482253 -0.08854290396653082 -0.05318898202936725 -0.08625070682922067 -0.1040327050630058 -0.07574596508868495 
-0.2877570645523480 -0.5233157814540425 0.5886195599919337 -0.1936285480541272 -0.04909745057083229 -0.2726667455179368 0.2857407598405539 -0.2327332727918552 
-0.1089303281107504 -0.04844364082784578 0.08068063169166988 -0.01867799668409047 -0.02900729769394977 -0.02688294447241064 0.1375196092698293 -0.02676994707913161 
-0.2266341795898336 0.3249937759997907 -0.3285861120745794 -0.05328277369551535 -0.01054281274555869 -0.08127807856162768 0.09301933087807304 0.3028178682366665 
0.1275903018427053 -0.04043318426097622 0.07403637145747875 -0.007474041338666996 -0.01998435004157163 -0.01616019103197806 -0.1044804078669160 -0.009965515638239518 
-0.009132930558751540 -0.08774483056784241 0.1629898780487022 -0.01665515197884119 -0.01377747338235907 -0.03415219816591029 -0.008791190422908754 -0.02003217678091136 
0 0 0 0 0 0 0 0 
0 0 0 0 0 0 0 0 
0.3494105417649506 0.06154152342639532 -0.9808220937985807 0.7123756091279212 -0.3568480160155418 -0.006135302040360339 -0.2231015844310207 -0.4580575234369609 
0.1939954980785170 -0.07979291768605296 -0.07209805268832224 -0.06687112373054807 -0.04756864973765128 -0.06119510514666454 -0.09922003771566928 -0.05432572337327758 
0.1074759734929958 -0.09996094107505703 0.06057078451564273 -0.06837246598308931 -0.002329394673372631 -0.05580687847123013 -0.06073224850728273 -0.03208193607684770 
0.2903373411243870 -0.3865096784728028 -0.3587800385545512 -0.2858582161879258 -0.2079696469248701 -0.2279535460089363 0.2846617245233721 -0.1883717423445473 
0.4039664172983775 -0.1228751831080506 -0.2196293795703600 -0.1109635417265199 -0.1164024351733383 -0.1082949594619213 -0.09909317294343174 -0.07171117108352466 
0 0 0 0 0 0 0 0 
0.01181286228450980 -0.01559864654340605 -0.006036983348443646 -0.006910551014623892 -0.007946702864928400 -0.007981768047235637 -0.01108055621229083 -0.006865086587331233 
1.757136755062476 -0.8239549692913581 -1.261424090115297 -0.6283014381635218 -0.5810779597157394 -0.6068131198345187 -0.5799482300470715 -0.4884247714186751 
-0.09037955512706064 -0.01925864435651428 0.1221437355810752 -0.01700435481000334 -0.01461467942331873 -0.01009549226089055 -0.02152524242893278 -0.008327159506847547 
-0.3210585858326729 -0.04958106432916830 0.4069002336662789 -0.04820522205755824 -0.04371505964539350 -0.02693452466289725 -0.05812124189025730 -0.02235495416915864 
-0.05014963007036230 -0.1274891129613791 0.2315669102103989 -0.08662340101026520 -0.08426668279547847 -0.04932251746228547 -0.1342367320136441 -0.04215782110765332 
0 0 0 0 0 0 0 0 
-0.007268467878005606 -0.02524372916559127 0.04898105403444576 -0.005494935579605897 -0.004370795206052141 -0.005593944931131899 -0.001394723867756869 -0.003328057342475521 
0.1518667427961030 -0.03973606725150114 0.09356741992985843 -0.01157564133157229 -0.003939890297912979 -0.04205285008627873 -0.1314656533063713 -0.01121258703518543 
-0.1491301774635857 -0.01478384396108960 0.1753717578107634 -0.007794241017397265 -0.008965795288090585 -0.004086412405537978 -0.008675449345247166 -0.006112245685538427 
-0.4917753309145342 0.1347107152181118 0.5150183869878499 -0.06514440010892414 -0.06077360465525980 -0.04562543473336188 -0.1343320040573056 -0.03751431236423303 
-0.1565665823506882 -0.1163124447686241 0.2466811268269756 -0.01850973891383450 0.0001673703656991975 -0.02146439311451633 -0.02228643342878294 -0.01726643119966548 
0.02435979648963858 -0.3939107593571883 -0.1395460742124582 -0.1447104358174431 -0.08477022203038134 -0.1983911368117921 0.08995242572874122 0.3453060622438205 
-0.5566424147608402 -0.06255421121997654 0.4758302547933954 -0.1957997804966288 -0.08756118908567980 -0.1864506112106604 0.1518351163378537 -0.1746738103987116 
0.1950118341968036 -0.08926848546493829 -0.08498856431399940 -0.07559739501204055 0.003082674091942463 -0.05886220141095375 -0.07296898051914856 -0.03588096672762551 
0.8604087055400427 -0.06410837588623713 -0.9076540241442920 -0.2677041623879513 -0.2453773004816690 -0.1832519365110513 -0.1604734698115260 -0.1496554947966889 
0.1026326075636029 -0.07716588017623444 0.005287625463862952 -0.04761186385209107 -0.04552112682498125 -0.05245547590030326 -0.07103426658954831 -0.04124159309090415 
-0.02878326948316780 -0.01190652793727506 0.06110834025698999 -0.005525115587071028 -0.005104426115549770 -0.002667699734100032 -0.02004499946821750 -0.003540393649610360 
-0.4260487555826313 -0.05489265141375369 0.07276394390642206 -0.03773946491522524 -0.03707370339075137 -0.04777785437299598 0.3390338276267741 -0.04298169675137964 
-0.04553866325586329 -0.02512071801996998 0.1055223561413010 -0.01543290578674073 -0.01327651009511655 -0.007589372063751425 -0.04763465963121204 -0.009839937941782000 
-0.01238846801649737 -0.02417078354238979 0.05503290366152425 -0.02111642555028415 -0.02882008701643393 -0.07746830608793254 -0.04968729522901885 -0.02822770698100744 
0 0 0 0 0 0 0 0 
-0.1610411869463865 -0.01109955000263363 -0.01599217734279271 -0.01088508902903180 -0.02467807528930710 -0.01189209343835606 0.2045388524721252 -0.01227089357707911 
-0.01494233642691075 0.3923059103002690 -0.2700046083731567 -0.01129118905704324 -0.008963986529387383 -0.01576072403321846 -0.003271229573089565 -0.006863156379825684 
0 0 0 0 0 0 0 0 
0.2604220166313590 -0.07944859905875164 -0.3038213661290378 -0.04600882228605972 -0.05676643835825086 -0.07128301752140072 0.1570637245216376 -0.04316355605108591 
-0.004225363142822485 -0.02744393845249174 0.06563635996669840 -0.003984414434175560 -0.004978103625738918 -0.009522286108815080 -0.004736480874025692 -0.005411628159825766 
-0.05083879807658660 -0.1627734896972774 0.3615625213068107 -0.06167905808116808 -0.04176811370339292 -0.07644489265725887 -0.01696091072410941 -0.07273880340749678 
0 0 0 0 0 0 0 0 
0 0 0 0 0 0 0 0 
-0.3035507215021457 0.3211167800032476 0.1393094403966748 -0.02804906834872489 -0.03016576116010534 -0.03105316486891632 -0.08080147183670658 -0.02310392266565321 
-0.1444179625895960 0.3268161258701472 -0.1558734638058897 0.1593226232945937 0.05045379868426214 -0.1192865199852337 -0.1378646470973765 -0.07557869905608766 
0 0 0 0 0 0 0 0 
0 0 0 0 0 0 0 0 
-0.03175474224347324 -0.02709254306842046 0.04205873619103583 -0.02784164455714416 -0.02778947865823247 -0.02138835379790041 -0.02852886550081305 -0.02506003862559522 
-0.08107398705235365 -0.07790202102929573 0.1115570989234638 -0.07265810959263193 -0.07313899085798682 -0.05616246096139486 -0.07543209691476310 -0.06581795415628604 
-0.002352689372599608 -0.001047738801251908 -0.003897287190099198 -0.0009843565915707037 0.007775708955577234 -0.0007765196966579159 -0.001077718830035772 -0.0005615090046847028 
0 0 0 0 0 0 0 0 
-0.07181186638683511 0.2200109378760095 -0.2105909017663327 -0.08397908134316504 -0.07699799917930280 -0.07775594887518096 -0.06838168493128566 -0.07809301683399952 
-0.09777722431462656 -0.1430370357303159 0.09176034289690420 -0.05659444073632383 -0.03410593055128509 -0.06250608167525300 -0.09181084314035397 -0.05314626046449035 
0.008168749621762394 -0.03744121814628597 0.1833661749184663 -0.1158195708561295 0.04010285877191433 -0.1452386865076994 -0.07218179654658358 -0.1017711593140665 
0 0 0 0 0 0 0 0 
0 0 0 0 0 0 0 0 
0 0 0 0 0 0 0 0 
0 0 0 0 0 0 0 0 
-0.1454107536457136 -0.05629260178368122 -0.1932697279510786 -0.05607398072521114 0.1087179149771920 -0.04697269294500259 0.1181149995381752 -0.04748131559232727 
0 0 0 0 0 0 0 0 
-0.02752255855027976 -0.2094360695727753 0.1493268503833552 -0.06338266407709811 -0.02453497439741515 -0.1222192912692381 -0.03845992081555441 0.2804320458866678 
0 0 0 0 0 0 0 0 
0.07874725217359550 -0.1018514237274532 -0.2190020880267253 0.2953897664620969 -0.05008660802549080 -0.07912020501020052 0.04238072805529626 -0.04789332299415926 
-0.2248099293944203 0.2710866403912223 -0.5187464148960412 -0.1224898897615339 -0.05892571250817613 -0.1642057093045149 0.1914283970946520 0.2621530699289193 
0 0 0 0 0 0 0 0 
-0.2735695678570184 -0.03189488247004628 -0.03291585043084808 -0.02133842255935559 -0.005641207534851127 -0.02320131032759937 0.3563482271339314 -0.01832242096249643 
-0.002175664728532068 -0.002525299031402698 -0.007302721803255160 -0.001467287830202091 0.01516805188267409 -0.001086238088679351 -0.003403062951853230 -0.0009850252225766690 
-0.01059119548691938 0.2578655375002680 -0.2350335488375038 -0.01606544581880910 -0.01138006946134585 -0.02056112901655412 -0.006469142366641082 -0.01279575080575740 
0 0 0 0 0 0 0 0 
-0.1639766682036753 -0.03348915962796017 0.2304491426896690 -0.02656074312663311 -0.02263690440676299 -0.01887196054046650 -0.04071159065129131 -0.01429492213515658 
-0.01871909133405484 -0.01233974218008641 0.03891481232616941 -0.009709415491598648 -0.007912634926582346 -0.006241346796097169 -0.01897419606468872 -0.006326262197402707 
-0.03470490128871319 -0.04696148498363751 0.05388289954301410 -0.03191011037941469 -0.03380009506772613 -0.02740424738318354 -0.03399226254902929 -0.03069530668346199 
-0.08415572109512400 -0.01666771980483468 0.1537825771447032 -0.01486583941873314 -0.01663065257320436 -0.009403634284307886 -0.02687804980858313 -0.007735314099655857 
-0.06224986614120338 -0.03689038467833714 0.08211307996301864 -0.03044171705086175 -0.03486105581649242 -0.02434964401426735 -0.02044464947201112 -0.04583114684687587 
-0.04574886003060855 -0.03972651644754256 0.06747527402696413 -0.02861351229323603 -0.03147492897824745 -0.02371550285154191 -0.02579989556258872 -0.03418520798883859 
0 0 0 0 0 0 0 0 
-0.1009829930175490 -0.02037654649782682 0.1657110655028201 -0.01768491620461931 -0.01555086278513214 -0.01008205042564039 -0.03111257007344305 -0.008329095353067077 
-0.01603223065569719 -0.1076318605173124 -0.1016237978545750 -0.04927019884288313 0.008513781517505467 -0.04675207422809124 -0.02908213641024181 -0.03549676102678167 
-1.024081067949144 -0.2586644097534898 0.9446093799484893 0.1165286223857817 -0.1168577641757061 -0.1345667775804823 -0.2221506842518815 -0.1111335120047161 
-0.04301133987308252 -0.0001683147041142794 -0.0002683913704704366 -0.0001224648774576852 0.02400915167262735 -9.801836646017289e-05 -6.287949582386611e-05 -5.801432895805894e-05 
-0.2337721781360008 -0.1104325101759032 0.1752381884654524 -0.01671285574313054 -0.009122556559024792 -0.03116870350359639 0.2270920231519915 -0.01952431896171530 
0.2709089557623106 -0.07790804863221076 -0.1753333234558799 -0.03841817895270699 -0.04055162315008497 -0.02238799279938822 -0.07611549012338675 -0.01980286693849468 
0 0 0 0 0 0 0 0 
-0.002495508174625811 -0.0008288498079548169 -0.004381969208902534 -0.0008951934663081232 0.007916891771041153 -0.0006781479220474750 -0.001094213092691787 -0.0005102197865619111 
0.01993976960696202 -0.1492236109953937 0.03168644720893062 -0.06363608993383894 -0.04150398056693853 -0.1002883444367104 0.05816203244148272 -0.07245217910806953 
-0.01839473195019273 -0.08098226427544158 0.1272254491852138 -0.01786780431724198 0.004134276704942528 -0.03294538284476214 -0.008269319472994188 -0.02129417236335015 
-0.2301306957145221 0.1147821227352088 0.1851084683407621 -0.03080729514884668 -0.02929162293770515 -0.03285746019053736 -0.03762257393964791 -0.02383690975097858 
-0.07203013732702616 0.1761346021733688 -0.02365479953066554 -0.01069037558377103 -0.009292841858089497 -0.007461622859219490 -0.02641592548464005 -0.006746046091239631 
-0.5846341291604401 0.4661567037556846 0.4836538169171191 -0.07345500385379830 -0.04564164210640105 -0.04100910041280628 -0.1016501990600281 -0.02632376831465258 
-0.1621770365475762 0.09779541766620416 -0.1695060849337474 -0.05968027060536334 0.04152935189956510 -0.09145995747655280 0.1748104084161552 -0.05396765582373946 
-0.02027511295886708 -0.02121119084004986 0.02481958712101752 -0.02395946581096880 -0.02417387546239943 -0.01830802410044911 -0.03449462026953140 -0.02263569395233251 
-0.002632464689323087 -0.03464055084185474 0.03842371044400571 -0.009479325610843558 -0.006957544100768131 -0.01759436839614141 -0.004438258378666070 -0.01115553067228651 
-0.2216284310884720 0.3288448120899553 0.07938109373208413 -0.05943181592403032 -0.02678221085052453 -0.02089094593633348 -0.04308474787558879 -0.01165404670279006 
-0.02243588809399325 -0.0007482942117397601 -0.004129407312002218 -0.0006610450695377690 0.02619754468366790 -0.0004293849740348484 -0.0008282950741085062 -0.0003644737093353247 
-0.005125071937661471 -0.08499960662518191 0.1874172134486331 -0.01962981867108411 -0.01302945281540768 -0.02849985531120756 -0.01273140296530324 -0.04971076778362640 
0.1128771225201366 -0.01496952162001224 -0.06547302181921161 -0.02594574664220457 -0.01419870415555619 -0.008150323691169447 -0.01342790786174330 -0.01604152989041804 
0.1128771225201366 -0.01496952162001224 -0.06547302181921161 -0.02594574664220457 -0.01419870415555619 -0.008150323691169447 -0.01342790786174330 -0.01604152989041804 
0.07309734575499346 -0.1011992727570023 0.1469744885118674 -0.04984371994723325 0.06814875237092413 -0.05359332840109562 -0.1470970985998334 -0.06506254886053621 
0 0 0 0 0 0 0 0 
-0.01392803727637970 -0.002933345027363733 -0.002931767786506778 -0.005691042889161777 0.02704150003683783 -0.002024425596776568 -0.009555068995983785 -0.002046749545173376 
0.6009069372645807 -0.1613669878145896 -0.5095027808419621 -0.1594206705924862 -0.1230731330366756 -0.08595123116399592 0.1031713984736587 -0.1047585103170887 
-0.005147328447787734 -0.05009664478854697 0.05691833122077938 -0.008992742437711396 0.0009821415141807576 -0.01577337263924120 -0.007190004516282759 -0.009867074521647172 
-0.007234018004874696 -0.003009938138987980 -0.008020565448898148 -0.002882889891719181 0.01013231511423685 -0.002558980318846949 -0.007259895659780219 -0.003370262941619173 
0 0 0 0 0 0 0 0 
-0.02141363287492314 -0.007744693539850226 -0.003692849494540076 -0.004970493460220116 0.02368829680023062 -0.003858809130268045 -0.005291159262762914 -0.002599491080671689 
-0.1949334016467050 -0.03155675357006045 -0.02129123024127406 -0.02766645418442405 0.003840015315543528 -0.02205388025492261 0.09688714719231167 -0.02652626084480128 
-0.004332670363537137 -0.001349306912015609 -0.001032523926884126 -0.0008097205518003563 0.005503942125081185 -0.0008700658877553461 -0.002643025023376977 -0.0005290047483222539 
0 0 0 0 0 0 0 0 
0 0 0 0 0 0 0 0 
0.05835169583570393 -0.002801216337982808 -0.003733996582629606 -0.004030378897349154 0.02253570384213826 -0.0008849412194535062 -0.06288303665870366 -0.004140841322047406 
0.08558481842563881 -0.06935994713590202 0.06829654955023456 -0.01750896397381870 -0.009413984863356203 -0.01442365195959747 -0.03406301582295259 -0.01174577525896064 
-0.004379054210953783 -0.05314472668893094 0.1314069887582096 -0.009451124199205520 -0.004270381640361668 -0.009060008644144543 -0.004779069044931222 -0.005891158890280753 
0 0 0 0 0 0 0 0 
0.05174396646564831 0.5348965763071893 -0.2419569903075754 -0.06049829231687415 -0.03591482810593159 -0.1354446842747917 -0.08714582059686907 -0.06259410129531581 
0.1832594862422995 -0.1730846741936784 -0.1287639779414316 -0.06719218441656492 -0.007500924171730809 0.2957428888972686 -0.2332695939744038 -0.07104679156628597 
0.1619788241114375 -0.01751947250696082 -0.02011123781020076 -0.006151770112013910 0.01452122408146163 -0.01693622142515669 -0.1044419399521054 -0.006785639492711397 
-0.1861850028394371 0.03923268964539721 0.1652308513216354 0.09253365402477935 0.04849928380122243 0.04423316746808300 -0.1490964493784044 -0.1956749057472491 
-0.0002913713586188402 -0.0001566576809482833 -0.01758424881662036 -0.0001279245832104540 0.02804026093331695 -0.0004060838791561269 -0.0002673201646504459 -0.0001500872533731068 
0 0 0 0 0 0 0 0 
0 0 0 0 0 0 0 0 
-0.2131619574150970 -0.1549675858004098 0.2861893767118467 -0.1143150108943629 -0.1108706034674136 -0.1168456422467538 -0.1370459125119513 -0.1139248740150313 
-0.2131619574150970 -0.1549675858004098 0.2861893767118467 -0.1143150108943629 -0.1108706034674136 -0.1168456422467538 -0.1370459125119513 -0.1139248740150313 
-0.002527023551656021 -0.001469304131044082 -0.002179311047974271 -0.001425290413978880 0.007855916985031571 -0.0006279210133111465 -0.0006398615461529387 -0.0003770883608089482 
0.002865852621109920 0.2768512703983622 -0.3583427794951336 0.3166344512481153 0.03887474572911736 -0.09604586196547778 -0.04090947139211498 -0.05724961152196102 
-0.05334902124235898 -0.05478946827445033 -0.1950217414721537 -0.02210781619016260 0.04471183908113142 0.3057312110065221 -0.01302120589683897 -0.03016611880639174 
-0.01236530202391191 -0.001440385606892726 -0.004781015429363949 -0.001089663361011360 0.02604699998484387 -0.0008647444087695364 -0.001510397849881207 -0.0006425635664438090 
0.01564159134512372 -0.06950858888077010 -0.01871410730592071 -0.03929638567311437 0.04842647248570919 -0.05074354106896725 -0.07902150632729082 -0.04268064992638251 
-0.01285772195669137 -0.001966818799017347 -0.007371588337393783 -0.001744698086891910 0.01333447562429834 -0.001350741289482110 -0.006687904225751562 -0.001094154693283603 
-0.01285772195669137 -0.001966818799017347 -0.007371588337393783 -0.001744698086891910 0.01333447562429834 -0.001350741289482110 -0.006687904225751562 -0.001094154693283603 
-0.01285772195669137 -0.001966818799017347 -0.007371588337393783 -0.001744698086891910 0.01333447562429834 -0.001350741289482110 -0.006687904225751562 -0.001094154693283603 
-0.002030442685561147 -0.001442754957242430 -0.0003525316829973028 -0.0008868521701680628 0.006526920672153673 -0.0005718379977508221 -0.004000280090894963 -0.0006547385045920724 
0 0 0 0 0 0 0 0 
-0.04850222977207229 0.08153906353146433 -0.1415607744242413 -0.09961767086365306 0.01156242084816071 -0.09709413411449132 -0.03252213164608554 -0.07409855241188472 
-0.1391467415620641 -0.02429807512341120 0.2090671150885454 -0.02064818851243532 -0.01726918666283458 -0.01145082596327713 -0.02764301889191473 -0.009167823250954861 
0 0 0 0 0 0 0 0 
0.1805019982274483 -0.1197936872086765 -0.08293984001488222 -0.08238598851216437 -0.08369237826521687 -0.09631132596835316 -0.1060762847659418 -0.07830580224347494 
0 0 0 0 0 0 0 0 
0 0 0 0 0 0 0 0 
0.3560767213813713 -0.2225104302559612 -0.1184529068980677 -0.1940940912570004 -0.1763624540286972 -0.1800068503449627 -0.3203197587993380 -0.1538953614551717 
-0.005218476519595838 -0.001246930392139935 -0.005979185263891067 -0.0009461025231562139 0.02858633391334857 -0.0004241689199737245 -0.001853225250155691 -0.0003746314774395035 
-0.0006825689209332769 -0.002226098158170295 -0.001270692481069505 -0.001715426013840645 0.01069811017334949 -0.0005767078787823264 -0.001412100073131640 -0.0003678998152085019 
0 0 0 0 0 0 0 0 
-0.03037682013880830 -0.03272856574564358 0.07105236167055996 -0.01315685944138521 0.005138106899578997 -0.01091483703736781 -0.02577739217452091 -0.01222641917377864 
-0.05720226130354691 -0.002253494399128521 -0.0003031725007903730 -0.001950004072003783 0.01074913996298691 -0.003380402622983997 -0.0007937516048216688 -0.003394021135595416 
-0.05720226130354691 -0.002253494399128521 -0.0003031725007903730 -0.001950004072003783 0.01074913996298691 -0.003380402622983997 -0.0007937516048216688 -0.003394021135595416 
-0.1240776394409897 -0.1094054046203060 0.2003747559902049 -0.03653214002696781 -0.01999333354813523 -0.05228879418704770 0.09422601292172339 -0.03953790746116613 
-0.01372601294917372 -0.003538226042562076 -0.008807159717506154 -0.003975301616273011 0.03428662763671339 -0.003830474899323266 -0.006023324450971590 -0.003563438093955262 
-0.004415289575557712 -0.003402026818319246 -0.005849962446489753 -0.003769371748092150 0.009328887425460182 -0.003773268752216167 -0.005777862865410569 -0.003460099803622112 
-0.001698946286944350 -0.06986731607067226 0.07380005439350835 -0.02084036122039074 -0.01816458409212340 -0.03710095582636163 -0.01003319935889357 -0.02338666896495040 
0 0 0 0 0 0 0 0 
-0.002030442685561147 -0.001442754957242430 -0.0003525316829973028 -0.0008868521701680628 0.006526920672153673 -0.0005718379977508221 -0.004000280090894963 -0.0006547385045920724 
-0.02975341682421901 -0.1353471302005024 0.1904666189508377 -0.03408622796039609 -0.002317790046016195 -0.05754358069911703 -0.01962845590285692 -0.03499303276255805 
-0.05789956660671169 0.2503185724806268 -0.8903527512601382 0.2812223382827248 -0.01942115064134172 0.4122376323671765 -0.04237187423457822 0.5718948627332392 
-0.002030442685561147 -0.001442754957242430 -0.0003525316829973028 -0.0008868521701680628 0.006526920672153673 -0.0005718379977508221 -0.004000280090894963 -0.0006547385045920724 
0 0 0 0 0 0 0 0 
0 0 0 0 0 0 0 0 
0 0 0 0 0 0 0 0 
0.02885780615411641 -0.006341802516370267 -0.02545518177109430 -0.006011087672190553 0.002760641723160353 -0.002753462072347841 -0.007760646102909227 -0.002018402146741179 
0 0 0 0 0 0 0 0 
0.1262591868805678 -0.07988020803735062 -0.2519066401912108 -0.03280327632111391 -0.005716759865003855 0.2648030062230238 -0.03895160971825736 -0.02492467091783931 
0.1447472800103510 -0.02812597116698147 -0.08749917424569738 -0.02138951855849162 -0.02286897507050691 -0.02012605952566184 -0.03201652908932991 -0.01010179124781080 
0.1432201205123978 -0.02906276385365173 -0.09206230017011421 -0.02230720397594099 -0.01505207992929965 -0.02062904805651684 -0.03321734956916119 -0.01051274096507750 
-0.01451362010530869 0.1728168108626645 -0.1932226740676528 -0.01031070670935044 0.02044532486378440 -0.03840796209136200 -0.006211842664878008 -0.009511473810114220 
-0.1560741723162138 0.05216547686769466 -0.1259106260855037 -0.05225195927718423 -0.01969832974724101 -0.05873550685521071 0.2009100617382454 -0.04607606254508632 
0 0 0 0 0 0 0 0 
0 0 0 0 0 0 0 0 
0 0 0 0 0 0 0 0 
0.05491986477483745 -0.05491087154303516 -0.2603177868181627 -0.03712454145468843 -0.03493963049932884 -0.02163134505846107 0.3258887768158994 -0.02069698395551568 
0.4140984851957467 0.09470406684093068 -0.3247714429795451 -0.1200671712147234 -0.08763372334065592 -0.05993506969662091 -0.1662527336139840 -0.05083285427163158 
0.08598475035501253 0.04593956732092850 -0.5170520191122647 -0.2276503987173589 -0.1922924585199216 -0.1767661764856384 0.2432626267235767 -0.1766303673460303 
1.349758802603853 -0.7849341759120781 -1.510306790819132 -0.6513468620102680 -0.6273044037387686 -0.5417760577604600 0.03085296666462994 -0.4792037561343783 
-0.005754241235068449 -0.001719723846096047 -0.0006926398820409800 -0.001240644409388166 0.01276831402726180 -0.0001442425555208612 -0.0001382775254221113 -9.570518133931080e-05 
0.1479931133126505 -0.007546037466728746 -0.01486424854360316 -0.006959306337217219 -0.003346619701784390 -0.004317956352364807 -0.1343591224530120 -0.005312963538357983 
0 0 0 0 0 0 0 0 
0 0 0 0 0 0 0 0 
-0.2540792262164562 -0.03314368395654070 -0.02427856677234241 -0.02721422970083467 0.05549301873863234 -0.01280974172683980 0.1163569798826525 -0.01829901158349498 
-0.003337300831064855 -0.0007302670607643453 -0.002206927998604674 -0.0005326708800464537 0.01240077755067930 -0.0002864682797928444 -0.0008569996303337932 -0.0001913594104825433 
-0.003337300831064855 -0.0007302670607643453 -0.002206927998604674 -0.0005326708800464537 0.01240077755067930 -0.0002864682797928444 -0.0008569996303337932 -0.0001913594104825433 
-0.02960918109246991 -8.031574453642662e-05 -0.0009573664263242030 -7.456404727146898e-05 0.02477182167115078 -5.852921112785272e-05 -0.0002249884575036324 -8.218289171672414e-05 
-0.0007951403902576704 -0.001336546015223455 -0.003112196526226981 -0.001485593143231384 0.003980611581247834 -0.001759519842708407 -0.005940560473383270 -0.001266141244922513 
-0.09012682400780138 -0.01736042224704607 -0.01976889500436937 -0.01059990428016724 -0.01872864522398669 -0.01215404096264382 0.1219299919000767 -0.01650526696728097 
0 0 0 0 0 0 0 0 
-0.0007850946756900929 -0.001381758546694570 -0.005331520508456836 -0.001526852476843176 0.003148246077232075 -0.002930157805552696 -0.005795892070016574 -0.001834212884935826 
1.262695583033245 -0.4781193424963730 -1.149619464902435 -0.4181716715798982 -0.4033690806682923 -0.2784622275139835 -0.1169105092883025 -0.2952463000781392 
0.05125550652882045 -0.01880572766901260 -0.01434033811141332 -0.004010558905824996 -0.004225292922972050 -0.001892103753380564 -0.01136101449035803 -0.002419814349756076 
-0.001378870037262758 -0.1162336170402072 0.1165618408015739 -0.01015879214194182 -0.009004629995416364 -0.01906468104773523 -0.005444706635005282 -0.01195772860937872 
-0.007234018004874696 -0.003009938138987980 -0.008020565448898148 -0.002882889891719181 0.01013231511423685 -0.002558980318846949 -0.007259895659780219 -0.003370262941619173 
0.08467541625477479 -0.006643593776237232 -0.009093958380623702 -0.006739974244703639 -0.01514092908204785 -0.007458545261175686 -0.07538044359779623 -0.01007145127373697 
0 0 0 0 0 0 0 0 
-0.03739690994337201 -0.004304131301115947 -0.01193152938783307 -0.003549983611601973 0.05603159845403164 -0.002863424233217665 -0.008269149574646256 -0.003565330666271554 
-0.3185996714304223 -0.1736046176559774 0.3021729121074409 -0.06709301423348099 0.008605014097917770 -0.08305333318840395 0.1188933300533781 -0.06242291947840664 
0.1355595083002106 -0.08620359197999693 -0.5296417103246660 0.6174356168732813 0.02130061827702798 -0.1544784501983155 -0.1690957044117008 -0.09866468344331365 
-0.008355179198075213 -0.002596673857891239 -0.009137492329560216 -0.005116899225126850 0.03831708956593199 -0.001065726503733320 -0.003180258725017395 -0.0007388092076700951 
0.1456674052503237 -0.03609081995379782 -0.06879822222811742 -0.01229085961357090 0.008815440718564195 -0.005839275142833333 -0.03063727472383909 -0.004307011742250534 
0 0 0 0 0 0 0 0 
-0.007293607156281212 -0.0004355241558815154 -0.0009503279909030792 -0.0002839656537086949 0.01531007745315930 -0.0001820318517224723 -0.0003275984404212179 -0.0001889085154698566 
-0.09115662078067709 0.7947140745703754 -0.5358369706060556 -0.1293614353391285 -0.1320826793370405 -0.09363107041320026 -0.1951783360722584 -0.07769082329373278 
0 0 0 0 0 0 0 0 
-0.3921286418054355 -0.06186755495393301 0.5831428545571908 -0.04229555852524705 -0.03410368871430558 -0.01671027697740470 -0.07138454429312871 -0.02372611428585208 
-0.2327699447386993 -0.3407405245008128 0.4134167487383385 -0.1188208490006589 -0.09183081918467649 -0.1853264743916066 0.1563329917168282 -0.1396222370219815 
0.1369807805311803 -0.08715867395675528 0.1507146659312836 -0.04688517353119139 -0.03090658846148808 -0.05853638167422105 -0.05514918080579566 -0.05372232960174574 
0 0 0 0 0 0 0 0 
0 0 0 0 0 0 0 0 
0.1375320942485907 -0.02424681408895785 -0.09569423846289137 -0.01297553218256877 -0.01365377073477121 -0.006924233384721397 -0.01605671401381954 -0.006354465462071163 
0 0 0 0 0 0 0 0 
-0.008503775033314303 -0.07217703935040772 0.1846422097754896 -0.01109404775722627 -0.007114609636173847 -0.01508201649112878 -0.009775885311902571 -0.008350824463345705 
0.09946992773414366 -0.02565016331968059 -0.02161638373592729 -0.01279823760246927 -0.01010609496638920 -0.008766856195583546 -0.04945265191364409 -0.007802071685010071 
-0.3655743707036177 0.1514068149087169 0.4507485088133975 -0.03783488431692512 -0.04017140936864834 -0.02240961288724682 -0.1107323874004072 -0.02109852142728230 
-0.1007872266326375 -0.03961560991666571 0.2162634888488466 -0.02665880260515999 -0.02611780988247011 -0.03476463787132842 -0.07856985696230726 -0.01307325556180625 
0 0 0 0 0 0 0 0 
0 0 0 0 0 0 0 0 
-0.007357695388450445 -0.08626543071282450 0.1392429730750297 -0.05506469680140014 -0.01270680236475789 -0.04227880716820319 -0.03014946273852978 -0.03023898422092482 
0.3479968701131523 -0.08698919978831134 -0.1686300866361211 -0.1606628907194188 -0.1727329548742999 -0.2204698920217111 -0.3148110354317490 -0.1631285527549646 
-0.1188320086310243 -0.02262713383037499 0.1773816598072082 -0.009239050709769901 -0.001394678580037323 -0.004415129811840163 -0.01813633641104747 -0.004232439200607069 
-0.1169688205446554 -0.02162261753081656 0.1827933195661763 -0.008273580583138807 -0.009103925921621634 -0.003680914483685397 -0.01709909212634021 -0.003674726779392903 
-0.1169688205446554 -0.02162261753081656 0.1827933195661763 -0.008273580583138807 -0.009103925921621634 -0.003680914483685397 -0.01709909212634021 -0.003674726779392903 
0.1716230333827009 -0.05187005595323087 -0.09581045125854963 -0.03352199359368142 -0.04049808202788558 -0.01856987919438445 -0.08381651808569350 -0.01723422366957214 
-0.1169688205446554 -0.02162261753081656 0.1827933195661763 -0.008273580583138807 -0.009103925921621634 -0.003680914483685397 -0.01709909212634021 -0.003674726779392903 
-0.5401875016339153 -0.1678745501265154 0.8519958844894877 -0.1157258393120164 -0.1072757301550757 -0.09695321976189247 -0.2304888394238571 -0.05772298584174090 
0.4024144863226130 -0.2469893668161762 -0.8193327132294588 -0.2183272398513638 -0.1806795615266262 -0.1427656439322690 0.8149763027019111 -0.1028707849370032 
-0.03991502116990744 0.4140701659206233 -0.2240287103934085 -0.03657124507414352 -0.02565031330932884 -0.09770831591231903 -0.03197549446339686 -0.03055884373917456 
0 0 0 0 0 0 0 0 
-0.04002355830210017 -0.04614074136380973 -0.4509059437705258 0.7170337708913107 -0.01104853035781220 -0.1068414717085928 -0.02343481363933711 -0.05585826574867486 
-0.2529354497673189 -0.1825725327124462 -0.2611930576564543 0.9404269286915347 -0.04595176579073852 -0.1682268182696991 -0.08280066860387300 -0.09939768697805414 
-0.02860373820445774 0.4981551789713933 -0.2740889207941987 -0.02526142280838033 0.01076797797105461 -0.04311808735535756 -0.01148223020927945 -0.03572157255426223 
-0.06486361235074690 0.1007501749840416 0.1924673205084529 -0.1002710173203341 -0.06950056758391130 -0.1371228004736773 -0.02595361168540498 -0.1498177156618147 
-0.01040588188157303 0.3474515782002459 -0.2572243524202150 -0.01446412535473793 -0.01370002710236217 -0.02977929747409280 -0.004642191144256734 -0.02679080399700838 
-0.01040588188157303 0.3474515782002459 -0.2572243524202150 -0.01446412535473793 -0.01370002710236217 -0.02977929747409280 -0.004642191144256734 -0.02679080399700838 
-0.006394553876897092 0.3472490219969660 -0.2915227482232919 -0.02040638550017328 -0.01623988205842475 -0.04416618435728398 -0.009580258744027882 -0.02499515431345885 
-0.04700222600616985 0.3313208552092729 -0.2924675969215538 -0.02435841023046074 0.006426529614700699 -0.05220277639878884 -0.01395521327855311 -0.02982362496203172 
-0.006394553876897092 0.3472490219969660 -0.2915227482232919 -0.02040638550017328 -0.01623988205842475 -0.04416618435728398 -0.009580258744027882 -0.02499515431345885 
-0.05387320939958101 -0.09032623032952290 -0.1755818000041529 0.3854197576276535 0.0003307739554980508 -0.04709065360599823 -0.03697199584245287 -0.03585976753878049 
-0.004847632219311691 -0.0004295592046699130 -0.002779650812657292 -0.0006727574575951573 0.009963637188843815 -0.0004727369120518482 -0.0003922111883027585 -0.0003143779268971977 
0 0 0 0 0 0 0 0 
-0.2360911286863763 -0.2737237868390545 0.4580440366253458 -0.1521853745068604 -0.1326041387706395 -0.1250541332024654 -0.3299654874452616 0.4401296044275323 
0 0 0 0 0 0 0 0 
-0.5589255016383985 0.1800022110434466 0.4480901000804459 -0.1175502079241125 -0.1141548414984666 0.1539456132966289 -0.2378074005557819 -0.07097543431486804 
-0.2161392388841859 0.3191912620659435 0.02947801505989495 -0.04114333462398444 -0.03196581391011312 -0.02272250221259669 -0.04147501311994042 -0.01699068035513913 
0.2059197034219167 -0.02150073961704980 -0.1253377703263088 -0.01849839896412641 -0.01613047455010444 -0.01026898759151334 -0.03825452607514721 -0.008562309706841116 
0.2149179790172819 -0.03294847521509069 -0.1282936798686106 -0.02743743250602324 -0.02487764384527729 -0.01939377937405531 -0.06776745206495259 -0.01545731380234416 
0 0 0 0 0 0 0 0 
-0.008131492330543878 -0.06498547981566928 0.09502547751309800 -0.01859591197894503 -0.01467218292633540 -0.03406883081298844 -0.006491569395953445 -0.02384105190328726 
0.4830278096330095 -0.08823992598170304 -0.2121617563341027 -0.05994167242307565 -0.05092409249474813 -0.03220450115481644 -0.1613169925577636 -0.02563951504257145 
-0.01961230179141149 -0.01759649844877453 -0.005166004900609438 -0.007773920298833644 0.01787188407938567 -0.004156196288166656 -0.008327685058691917 -0.003892765209950912 
0.1428581184674388 -0.01606411518398850 -0.07648813832665968 -0.02801209121845914 -0.01515736139616734 -0.008627473408951905 -0.01507625038273808 -0.01687454213875759 
0.1428581184674388 -0.01606411518398850 -0.07648813832665968 -0.02801209121845914 -0.01515736139616734 -0.008627473408951905 -0.01507625038273808 -0.01687454213875759 
0 0 0 0 0 0 0 0 
-0.2069534072911814 0.2045294529262872 0.1577528386150764 -0.05960576506134496 -0.03010061256697941 -0.04013577679733477 -0.06841248222863032 -0.02874111865757478 
-0.1249232899806335 -0.02884401359819131 0.1960792545262959 -0.01959111255605120 -0.01703808803397212 -0.01091993121090093 -0.02604280596235497 -0.008940333214194308 
0 0 0 0 0 0 0 0 
0.5721582561412806 -0.1097937340458030 -0.3494553288964211 -0.09409044052582427 -0.08294803598650291 -0.06021535777504575 -0.1972387923686949 -0.05392328109361547 
0.8826328094763445 -0.3381569167913254 -1.047581018133174 -0.3002796173872468 -0.2582837999081967 -0.2027060352375087 0.3580031633152455 -0.2111750268792075 
0 0 0 0 0 0 0 0 
0 0 0 0 0 0 0 0 
-0.002885850692644397 -0.0009937368864336266 -0.001529184275569395 -0.0008245171467912508 0.003774708507999777 -0.001235640822882143 -0.004407454996270292 -0.001045837192001540 
-0.002885850692644397 -0.0009937368864336266 -0.001529184275569395 -0.0008245171467912508 0.003774708507999777 -0.001235640822882143 -0.004407454996270292 -0.001045837192001540 
-0.01073386626218081 -0.0003311620676004035 -0.001977617543818919 -0.0002642101409598372 0.01802288909760063 -0.0001978911253514723 -0.0003422787212358002 -0.0001265958631992310 
0.01986394653492900 -0.3884971352166486 0.3383062920752196 -0.1685654369250516 -0.06293741110588418 0.03375696201798363 -0.1850784981468861 -0.1770822148591671 
0 0 0 0 0 0 0 0 
0.4287670427163495 -0.1845163003469793 -0.4582701156795703 -0.1140158350270093 -0.08663443451356906 0.1426312941817216 -0.1287604585028211 -0.1042533201558869 
-0.1277573307557997 -0.01618215041658437 0.1976835200379092 -0.01294269344930195 0.01447196700797289 -0.007590185345573285 -0.03125414421062246 -0.005338169730890872 
-0.003695450813230001 -0.002640173503468906 -0.004724439380191762 -0.003226413479703366 0.007159936669247777 -0.004159076867522328 -0.005629199086927161 -0.003183004401762990 
-0.004259122052373797 -0.002598570340657954 -0.005974791026522640 -0.002737503604194636 0.01718053291735390 -0.003651258855901945 -0.004641021312937813 -0.002675237413162654 
0 0 0 0 0 0 0 0 
-0.006965999638446636 -0.001975033415168691 -0.006179446127032521 -0.001051451649313212 0.02035496159492729 -0.0008826116877395931 -0.001610942946630325 -0.0006678707888020331 
0.1413696044041671 -0.1569367728520955 0.1513094559210182 -0.06659636945452671 -0.03622491293445927 -0.09816939876953365 -0.1767026251801472 -0.07550450442892612 
-0.003656862596843409 -0.04074454459992872 0.06056904983386919 -0.01072321945409826 -0.008179091224959157 -0.02035136395394464 -0.004182448946708516 -0.01238630527355495 
0 0 0 0 0 0 0 0 
-0.001350270443817746 -0.0002107596701176119 -0.0002600916708063382 -8.357783938675116e-05 0.01562885876586065 -0.001682552140337352 -0.004233748119809488 -0.001334911808878993 
-0.01448849133677904 -0.07341856467106973 0.08086326251873693 -0.01522770656546164 0.02066599337193133 -0.02495213453626461 -0.008257012707899272 -0.01570495002813454 
-0.003647248202931030 -0.001635374085566282 -0.01477037296369060 -0.001556456281058901 0.01686875602089533 -0.001336216942767391 -0.001383859048680301 -0.0009805570366553480 
-0.001995687588391676 -0.0007020844773659449 -0.008077194414980997 -0.0006843624971680487 0.008993703617034199 -0.0006037441714695882 -0.0004718945552826069 -0.0004462459749122913 
-0.1711449605161168 -0.06993201487684442 -0.03099659899391151 -0.06756283000518312 -0.07068253604201297 -0.04902716138474139 -0.07423263810300994 0.3302923740604847 
0 0 0 0 0 0 0 0 
-0.007590053003043000 -0.05528519931927879 0.1710539206250591 -0.02571864426192631 -0.003405336616363006 -0.01999087886613735 -0.007479093503526924 -0.01371381178642619 
-0.01722163233666911 -0.1099443971999044 0.2242102470613226 -0.04284273039991561 -0.02957330811197258 -0.07845547252826567 -0.01705306539914702 -0.06333140121419623 
-0.04361389057680824 0.2189841196149588 -0.1448111652330821 -0.01185623738927623 -0.01147301216498646 -0.007266749768223120 -0.01396098641002705 -0.008862491160452608 
-0.04361389057680824 0.2189841196149588 -0.1448111652330821 -0.01185623738927623 -0.01147301216498646 -0.007266749768223120 -0.01396098641002705 -0.008862491160452608 
-0.007844295535409770 -0.1113718519714187 0.1537655115885555 -0.02811224831860359 -0.01901053040389512 -0.04042089645114064 -0.009086990691064532 -0.05569973641713533 
0.005696364799282966 -0.4403859255350047 0.1456287196498792 -0.1156122498285513 -0.08204212322809480 -0.1564960682029179 -0.1158159571051607 0.3349228125135313 
-0.03057928255053605 -0.02645552459696450 0.04116318309513554 -0.02669741997542296 -0.02983567853879810 -0.01988273616636849 -0.02769110101577497 -0.02241860081830452 
-0.004600315616430554 -0.08889504807782680 -0.2155930734202056 -0.009644690303403713 0.0003041273549485787 0.3641873780021925 -0.006169246411564932 -0.01043273695386529 
-0.003215814734457211 -0.05529028337825550 0.1315720808595781 -0.01038820266027164 -0.008174228799000950 -0.06107015979416388 -0.005147270953543478 -0.01230054770070161 
0.2837629175508428 0.1414460451475059 -0.2651830906384594 -0.04615575185058816 -0.02904003603701006 -0.03532874595546452 -0.1328252066505889 -0.02672690617934460 
0.1261732894788941 -0.09431017292047092 -0.2263493737048305 -0.08121813277503755 -0.04008507796445866 -0.05422044477633839 -0.03231828144983839 -0.05875797421912181 
0 0 0 0 0 0 0 0 
0.2410003863123910 -0.07164888008390946 -0.2752926328208615 -0.06379867447853645 -0.05519723534880341 -0.03769679400578981 0.1272639678914334 -0.03479950774241700 
-0.007088504924543338 -0.04330928699950473 0.07271197019504650 -0.01822076952211427 0.0001789874883827260 -0.01711613687420871 -0.008203077498836649 -0.01272422808160707 
-0.03699413331831998 -0.07542572722503199 0.05605506033284023 -0.05596766254745919 0.03488852154599627 -0.05911094939697727 -0.03420481985070839 -0.07165856514449084 
-0.0001785613522091927 -0.05099090270302878 0.08657038327469449 -0.003999093867981151 -0.004863785278863324 -0.1219136412383068 -0.01069385577883860 -0.01730587248974877 
-0.3271010256514090 -0.06713209436778952 0.4797517270643269 -0.05772071608698000 -0.05061386521533288 -0.03212853451822190 -0.07540136649501081 -0.02662623687432575 
-0.003725109978548176 -0.05780706249422155 0.07788483956829453 -0.01214699326904200 -0.008863118069428917 -0.02310891338073932 -0.004463391382216969 -0.01400984660738883 
0 0 0 0 0 0 0 0 
-0.3297391580575478 0.6403625401142852 -0.1028345051986316 -0.07450185371903031 -0.07198398605170757 -0.04616086740088386 -0.1111021045277113 -0.04860406254340648 
-0.001605922838322926 -0.002290455860615567 -0.003116940756392064 -0.002770611357275853 0.002208133765781179 -0.003247678663677358 -0.005033625447786297 -0.002828248620615306 
0 0 0 0 0 0 0 0 
0.1207599279756445 -0.06790365619406619 0.05772148830462650 -0.02069608095761803 -0.02073949938545916 -0.03165598099762126 -0.07896691259557594 -0.02323351366655623 
0 0 0 0 0 0 0 0 
0 0 0 0 0 0 0 0 
-0.003425938574873706 0.1801321739390771 -0.2239711988990144 -0.02948639761851457 -0.007819044659536457 -0.04022974368078099 -0.02412475673233628 -0.03076327778793007 
-0.1284065277644856 0.1309689806823341 -0.1809843261791808 -0.06181211626558533 -0.003312226127106404 -0.05754220645438614 0.1989543051603918 -0.04372487843853603 
-0.003425938574873706 0.1801321739390771 -0.2239711988990144 -0.02948639761851457 -0.007819044659536457 -0.04022974368078099 -0.02412475673233628 -0.03076327778793007 
0 0 0 0 0 0 0 0 
-0.01504012436551267 -0.03993253513756278 0.09559276289896240 -0.005893170914643794 -0.005611101991901642 -0.01043035996149688 -0.001388564401783035 -0.006994427301033315 
0 0 0 0 0 0 0 0 
0 0 0 0 0 0 0 0 
0.02129076573969629 -0.03782235219733462 0.1399240039927408 -0.01652939600985411 0.01868266783579220 -0.01925614863339348 -0.01145053629733705 -0.01346384229849509 
0.1285059324984586 -0.005898993685076149 -0.03175005464952575 -0.007714157786973532 -0.02125440890364403 -0.007318602102786811 -0.07413917815106240 -0.008622794808235622 
0.06293496723666088 -0.009428634160095093 -0.01583794875184226 -0.006664123036927433 0.002591246100208999 -0.006296460175579222 -0.05403043304661830 -0.004618487900126605 
0 0 0 0 0 0 0 0 
-0.002846320016511281 -0.001285847860617555 -0.002159709702482189 -0.0004674277652636359 0.01524945589392022 -0.0002341221488066604 -0.0002740676431656329 -0.0001821194574106788 
0.08860298216317210 -0.1168617475259084 0.1904690485364385 -0.009701921194487366 -0.01328009561506727 -0.07358292931927400 -0.05455903144062627 -0.02063403663350124 
-0.01156513509091046 -0.001235909386679740 -0.007586769551458026 -0.0007612847579266262 0.02476969797169605 -0.0006360572131300843 -0.001024801192787588 -0.0004966427996242033 
0 0 0 0 0 0 0 0 
0 0 0 0 0 0 0 0 
-0.2075088196057470 0.06834215535218799 -0.1767985935417967 -0.09845281471638412 -0.1003532596215814 -0.08640797913015696 0.3096172196762582 -0.08182289785192136 
0 0 0 0 0 0 0 0 
0.1505379920692600 -0.004335334161125745 -0.01098390044545039 -0.005814984248763242 -0.01053997310165115 -0.003503489154364185 -0.1538737688886459 -0.004320647006357386 
0.01590457758860911 -0.2613332307502668 0.3524704782007169 -0.06758534220109974 -0.04747919981467767 -0.1015472401768845 -0.09084235170590015 -0.07150450254870355 
-0.05176114469189441 0.1913749931710579 -0.1070617300452407 -0.01173923070740203 -0.01166280861202475 -0.007270798969485225 -0.01445798069739382 -0.008730996780806195 
-0.2227655513942191 0.1613086490019259 0.2511956969965977 -0.03756144506741019 -0.03529766583833859 -0.05471045193020384 -0.06210383698554446 -0.02960948057372536 
-0.1325717041015044 0.4148784852235601 -0.3319247336833771 -0.03969740840719773 -0.02939965736238658 -0.06412208387573479 0.03931539063837677 -0.05079093313773910 
-0.09483991690444896 0.1221773813127925 -0.1202726057744539 -0.1063130637768821 -0.09792999491772880 -0.09125670350537363 -0.09187392870879488 -0.09600354447750171 
-0.01746564769579125 -0.1309190802343913 -0.1546937744455915 -0.01828219686760823 -0.01723209229225781 0.2431665629155138 -0.01460856729117514 0.3695315644924574 
-0.02390752181350427 -0.1767433958086640 -0.02160036667122350 -0.02527739950742058 -0.02379691210261019 0.2120119669661053 -0.01911486890303152 0.3537577068471555 
0 0 0 0 0 0 0 0 
-0.06360250427520390 -0.03333246677843659 0.1844419905684215 -0.03911160896954188 -0.01477705111770311 -0.01103471414933202 -0.04003664668180797 -0.007066679036338133 
-0.005502343160208964 -0.003478187235946066 -0.01180513432382308 -0.003680471515650416 0.02008808107886352 -0.002718531698972054 -0.007166862221303645 -0.002039340639304585 
-0.001878385169720098 -0.0002711684740663036 -0.0003323884514669414 -0.0001721563623391495 0.008755901993052099 -0.003195214640138620 -0.003420979350637441 -0.001521334704551882 
0 0 0 0 0 0 0 0 
-0.003106417868705962 -0.0004676772059829855 -0.001370978767992890 -0.001491250380904475 0.01577893515441793 -0.0002128868177634292 -0.001110393055354785 -0.0002026614185226700 
-0.1247693957000205 -0.01005632786891346 0.1659676222651225 -0.008653992079899971 -0.01012265392637154 -0.004435384879710421 -0.02590872651612154 -0.003407917554364768 
0.09293688476842293 -0.01170897246114075 -0.03168790278287387 -0.006706399112423826 -0.005482015779662693 -0.003135059202298921 -0.02663687154290677 -0.002181689805509314 
0.09293688476842293 -0.01170897246114075 -0.03168790278287387 -0.006706399112423826 -0.005482015779662693 -0.003135059202298921 -0.02663687154290677 -0.002181689805509314 
-0.1427842836129031 0.1808849248377827 0.05011468594838009 -0.03014315630492897 -0.02756529261046734 -0.01740264035307640 -0.03606690029678414 -0.01728645230530591 
0 0 0 0 0 0 0 0 
0 0 0 0 0 0 0 0 
0 0 0 0 0 0 0 0 
0.3826394226463907 -0.04375044885706343 -0.2734226120954962 -0.04971159893241764 -0.04431195496380413 -0.03456932276855275 -0.1055947643600544 -0.03475228657824807 
0 0 0 0 0 0 0 0 
0.09947263853431561 -0.05890430168386472 -0.2280728939378376 -0.02137708592368696 -0.03037861587164415 -0.03233613067190759 -0.08091541082810494 0.3385086877920405 
0.3603973805927380 -0.1091298763454937 -0.1877170784504523 -0.06930121488296048 -0.07257572628524028 -0.07790938473646587 -0.1071562643448523 -0.05876708125347699 
0.1314158770467707 -0.06525935223895937 -0.05582071479312704 -0.04208674826502003 -0.04041670070943147 -0.04978777616620324 -0.05098926712133082 -0.03770119944129381 
0 0 0 0 0 0 0 0 
0.1588290055720102 -0.01083750447753588 -0.01386133000166958 -0.01631441498772313 -0.01803122588257718 -0.006969701502545119 -0.07762985460410315 -0.006126909797830741 
0 0 0 0 0 0 0 0 
0 0 0 0 0 0 0 0 
-0.007440942067562662 -0.01832952035535062 0.1123149587320568 -0.002969541219804475 -0.004696030192813725 -0.009556023804600160 -0.002002491706864877 -0.008382633090646234 
-0.03782863535755519 -0.1032964045824948 0.2475514825114107 -0.02830777788369814 0.03185725527231701 -0.03386767215350913 -0.01068679659979060 -0.02295468441317866 
-0.1265592992601440 -0.02307197610150831 0.1797021076870707 -0.01961449902217795 -0.01702765454911823 -0.01114449283014202 -0.02611156692485276 -0.009112538259243930 
-0.009989205388352494 -0.07233351655224285 0.1040822839162635 -0.02464052962489222 -0.02262318461279607 -0.04135286588387956 -0.009068918339360313 -0.03380406576653285 
-0.003731008552449995 -0.02833566285362496 0.05529240626381399 -0.01111565060004348 -0.008548498044753513 -0.01718135165327014 -0.003410418956804570 -0.01298114659388463 
-0.08440362458305120 -0.04690601128786319 -0.03864328703282162 -0.03091252567791279 -0.04516823842592312 -0.03511923982568072 0.1836566521088682 -0.02949265280523641 
-0.1730423938610383 -0.06341815153471839 0.005676737573061037 0.2977201418526477 -0.04129458050157890 -0.02780458798264650 -0.06255925109420134 -0.02321828786330947 
-0.03666484935907345 -0.06187926397173876 0.1119018673324847 -0.05616821389863327 -0.07422148903590240 -0.1301110598868043 -0.1036178323852915 -0.06977541028774743 
-0.004432845397453769 -0.007529260374479930 0.01312630751326329 -0.006868933632597172 -0.009026344620129254 -0.01606565342530301 -0.01245792722743028 -0.008385948955409032 
-0.05194501723005954 -0.07272101062235145 0.1390642772837851 -0.07288816314264157 -0.08987381990378183 -0.1450425408599891 -0.1116876151278650 -0.08733078418587611 
-0.004987684848569323 -0.05863873769881265 0.01833780664439233 -0.03183263746493371 0.06460012667064925 -0.04880004458166105 -0.1125191825918005 -0.04472462274578043 
-0.01177111932013591 -0.002954485538340487 -0.007487548559726243 -0.002410350490481304 0.02342051065059469 -0.001862292089408952 -0.002602628233323255 -0.001425144350803761 
0 0 0 0 0 0 0 0 
0.2056819112517132 -0.1363711341102547 -0.2335808363104248 -0.1824643573998166 -0.07200326472837290 0.3294179224804709 -0.05332923963168116 -0.1435572461448031 
0.08059973239583894 -0.1149858007588433 -0.03250864404644550 -0.04767948906981337 -0.02172232680445427 0.2094585393063548 -0.1041412230790083 -0.03310179782554618 
0.08405122701709954 -0.005007681886481159 -0.009551510745028488 -0.006269686093302848 -0.001521213549771861 -0.005761436463735740 -0.04109060874590284 -0.002595571262705872 
0 0 0 0 0 0 0 0 
0.4394194225287694 -0.4090259411535964 -0.7431920935842231 -0.2515028742116868 -0.2081694894270282 0.04882714293904669 0.5508561334213593 -0.1785325085508984 
-0.3872710245245381 -0.09027546455187269 0.03721184794944520 -0.07759284630485785 -0.09320912472908174 -0.08103816662350344 0.2961607423765104 -0.07753910729276696 
-0.02673771448422727 -0.03137905681402701 -0.4006384177510311 -0.1187994907878664 0.06083654721297802 -0.09674320009037443 -0.06811123031216333 0.2060912266347629 
-0.006547020102018904 -0.001961227456256363 -0.01220653079443443 -0.002609357809524379 0.009524790099127586 -0.001681392417320637 -0.003654101735291287 -0.001653573164502579 
0.09472499781922979 -0.1063126709792197 0.1673401435792239 -0.02022559908961286 0.07088474660965713 -0.02916807048964779 -0.1493558623000655 -0.02265361744165451 
0.09186384106340721 -0.008360916192169344 -0.01206246157085493 -0.008242052895208489 -0.01872093025694407 -0.008596396164029687 -0.06006894209207013 -0.009346531473684175 
0.08842515975092949 -0.009190826434845636 -0.01415941221098154 -0.008740847596369918 -0.006004376939270549 -0.008891896291228414 -0.06082599044581186 -0.009554791960757173 
0.4798991255035552 -0.4510441514762279 -0.8613580752890058 -0.3663991979492903 -0.3559629284143598 -0.2856405303125568 0.08410500734013798 -0.2677838702858855 
-0.01124305928364881 -0.1414293377834419 -0.1515488333730657 -0.02806514122247681 -0.006124999193575724 0.3701373911861789 -0.01859957491878229 -0.03074629193378602 
-0.003742997167888115 -0.05579405697162868 0.1018319830461525 -0.01201338894242811 -0.008749454875120268 -0.03374622974958888 -0.004428218666765525 -0.01403702167406515 
0 0 0 0 0 0 0 0 
1.260589206028416 -0.4228448635466183 -0.8065742583779956 -0.3249957353934946 -0.2986028881617330 -0.3220731983900440 -0.5811648828575515 -0.2467782172538352 
0.1847100550890382 -0.03923307072328424 -0.8760192579736950 -0.08648088841122428 -0.1141978029496884 0.8770894063382099 -0.07453834789015472 0.1833160597668030 
0.3566130067466049 -0.3623122710572185 0.1638895261767688 -0.2094920434930049 -0.1273924635369436 -0.2058634782836087 -0.1115586932637766 -0.1373135979849390 
-0.1735197687717818 -0.02381206003021022 -0.01759838074673400 -0.02269596072420393 -0.01984828148468709 -0.01819507112465457 0.1021783064550746 -0.02392676976412959 
0 0 0 0 0 0 0 0 
-0.1071057118406886 -0.005012814119374060 -0.09676504315901709 -0.01525865320665299 -0.007631213971144386 -0.007681444267554603 -0.003023834406125500 0.2322153035311406 
-0.5116700872800088 0.1949454710344463 0.4825880618508899 -0.1315049051528247 -0.1317905813097825 -0.09896121546426725 -0.1869388512618293 -0.09545345805988242 
-0.1432593816894990 0.3611428951005297 -0.1211572195202134 -0.04780713063338436 -0.06249740804836365 -0.04762726012592332 -0.08566928607413843 -0.04747877404611231 
-0.003757266272083506 0.1966647736363210 -0.2442054798238155 -0.03010684758122477 -0.007790387368942863 -0.04147499871849834 -0.02016790822144986 -0.03130103663317372 
0 0 0 0 0 0 0 0 
-0.01509261993924658 0.1259361242648607 -0.2173416677818433 -0.04082816718099087 -0.007575393703616257 -0.05275757832027888 -0.01637755475353357 -0.04102805387478024 
0 0 0 0 0 0 0 0 
-0.1866227242138122 -0.04161469841726224 0.1091732469692681 -0.03068564815222910 -0.04428277967374806 0.2690226132990727 -0.1352985215565033 -0.02352845376515865 
-0.02059467494036113 -0.003156041231168368 -0.006290585722364775 -0.001886612731483238 0.03816548940535917 -0.001663446853923921 -0.002651866024276859 -0.001123170972632233 
-0.09851356004766207 -0.07638886872729753 0.07731520733211288 -0.1004094279255596 -0.01010587949242596 -0.05279360937248381 0.1335193721845971 -0.03707222391684372 
-0.02588941058608881 -0.04343676558866344 0.07239545968989984 -0.01059585555484945 0.03906664275560812 -0.05081301234425252 -0.01702099776415811 -0.01724860770227978 
-0.06636850531494580 -0.4102234871416923 -0.004789679681374476 0.07991079839833151 -0.09092130293916120 0.1187618747291327 -0.1119515695522526 0.3855264023584798 
-0.5649152923352927 -0.001205643084729529 0.3233195775596117 0.3793943495019092 -0.1272159552311580 -0.1097083720121027 -0.2074687313565292 -0.1010293530054603 
0 0 0 0 0 0 0 0 
0 0 0 0 0 0 0 0 
-0.002527017895595245 -0.001697785670086163 -0.01150682498575890 -0.001337290313240544 0.02423942831606997 -0.0007228179212951391 -0.001726841320193784 -0.0005914323456000094 
-0.1022098385370675 -0.2387376958388635 0.3669518863145385 -0.07893718333400507 -0.02138326283411992 -0.1208094580579121 -0.007960055998870515 -0.09835238797357627 
-0.005184979596836793 -0.001905131064375005 -0.006956427612073709 -0.001474531606873132 0.01802389701255599 -0.001560254950978950 -0.002065704158644018 -0.0009854941620546331 
-0.009295083487365104 0.1301440925308669 -0.08538093401084110 -0.04769445878999148 -0.01487046249082880 -0.06788791685863670 -0.01634514871831161 -0.03807781164805385 
-0.01264363521691524 -0.2260951119868652 0.2892726814977127 -0.05787025908260088 -0.03211470365619401 -0.08714536131425696 -0.01981507938298686 -0.05043465113291726 
0 0 0 0 0 0 0 0 
-0.3979027341118499 -0.1650798204553130 0.6708039763097339 -0.1564536871088630 -0.1493588076787520 -0.1319313701122028 -0.2325630365526640 -0.1385881977730911 
-0.2007892139439033 0.04312530567214316 0.1895087429780068 -0.1535746182653602 -0.08526335503642962 0.1752059116425857 -0.1850742031524204 -0.1424190457177530 
0 0 0 0 0 0 0 0 
-0.002353577048835925 -0.001046370133923323 -0.003843588739935237 -0.0009807092693564028 0.007782146607556856 -0.0007696497133457660 -0.001075859867021478 -0.0005621875402975174 
0 0 0 0 0 0 0 0 
-0.01331343845777539 -0.009575199208736784 -0.004892550826797786 -0.004494761463013440 0.01738027736084161 -0.002574987666556033 -0.004824725100573800 -0.002431042169889465 
-0.01331343845777539 -0.009575199208736784 -0.004892550826797786 -0.004494761463013440 0.01738027736084161 -0.002574987666556033 -0.004824725100573800 -0.002431042169889465 
0 0 0 0 0 0 0 0 
-0.08759048063986483 -0.01774919829629744 0.1321721207053629 -0.01523945939199537 -0.01468489037113691 -0.009298123504769594 -0.02514352449023436 -0.007749863342048965 
-0.1408581890905539 -0.06873471672607201 -0.2041426044890106 -0.06223502660063057 -0.03054122863042109 -0.02107787013800161 0.5361850932499614 -0.01547355871132749 
-0.2275366618722768 -0.09815091748768950 -0.2805573687244821 -0.09498971063705253 -0.04630731436614409 -0.03089679069313455 0.8145709777278628 -0.02391959978798082 
0 0 0 0 0 0 0 0 
0.1950327531444059 0.2763999707386189 -0.2504669252962801 0.1744640755689330 -0.01996958102153799 -0.2827217125813313 -0.2147676996079103 0.1502286890656492 
0 0 0 0 0 0 0 0 
-0.01448629987150689 0.1124869872539659 -0.02492116278171060 -0.03558694623844919 -0.01464867788338579 -0.04634982990118025 -0.01015498739501005 -0.04912002418013664 
-0.06240861469029985 -0.07716950519814686 0.1764283785817756 -0.05529350482986066 -0.05499124862924162 -0.07230124577452499 -0.05590661203993293 -0.05255507068456808 
0.2952385561182732 -0.3403034162260313 -0.2584888205965904 -0.1524554231609662 -0.1280475540766703 0.09466291967283116 0.01951464522865692 -0.1453999862897903 
0 0 0 0 0 0 0 0 
-0.03206489043563143 -0.02705091544609135 0.1147932533649327 -0.01301527421619565 -0.01175339910611664 -0.03476154403100337 -0.02997032615183872 -0.005902978098364615 
-0.7105419322273645 -0.1741574433295168 0.8207733295401549 0.1252192220777921 -0.1290902223208410 -0.08654203058315653 -0.2217238251212242 -0.06916262367496516 
-0.009400867804354958 -0.01521576154679855 -0.1730692904805538 -0.004495076505124979 -0.005367226553372832 0.2882618299609295 -0.02732001623585537 -0.002940059761503846 
-0.1586439144832793 0.2044240192836997 -0.02732419908377217 -0.01995514257525081 -0.02048395657344755 -0.02450339064175976 -0.02230753700319712 -0.01850434740947899 
-0.1586439144832793 0.2044240192836997 -0.02732419908377217 -0.01995514257525081 -0.02048395657344755 -0.02450339064175976 -0.02230753700319712 -0.01850434740947899 
-0.1586439144832793 0.2044240192836997 -0.02732419908377217 -0.01995514257525081 -0.02048395657344755 -0.02450339064175976 -0.02230753700319712 -0.01850434740947899 
0 0 0 0 0 0 0 0 
0 0 0 0 0 0 0 0 
0 0 0 0 0 0 0 0 
0 0 0 0 0 0 0 0 
-0.01021102506762425 -0.2252258322326107 0.3520142623307462 -0.1566746454217362 -0.08775572149782622 -0.1020980936377301 -0.1226357450116743 -0.07584880916061287 
0 0 0 0 0 0 0 0 
0.2943344902940808 -0.07292027876094939 -0.03440712278807962 -0.02354759012283848 -0.03312191679764843 -0.02730591546186657 -0.1691480799684623 -0.02288384310162184 
-0.1884687369398886 0.06353677960131447 -0.1099189392772162 -0.1641695216712014 -0.1744921433017119 0.06038207979909858 -0.1790116506630122 -0.1544840561844851 
-0.1666560458360014 -0.05349505871871669 -0.1677323953455983 -0.02849707822889493 -0.01934028087822595 0.4765554762959837 -0.08257700463636050 0.3276347681934222 
-0.03337857127546227 -0.07908741195316640 0.1906144627136147 -0.02033494280805127 0.01833764891849599 -0.03522933721452364 -0.01076510177288359 -0.01705484276112228 
-0.04531364337107285 -0.01940490261729531 0.1127984421527735 -0.01210541166249628 0.03157743770288077 -0.01812090206320444 -0.002322675580161005 -0.01628170775355781 
0 0 0 0 0 0 0 0 
-0.01412446570063323 -0.02333742864259045 -0.1537761917155525 -0.01208880559406917 -0.01568748133097129 0.2590400680020235 -0.04118811601859404 -0.01264824921366541 
0.1038130153456037 -0.01780688767845921 -0.08697855202987506 -0.01903367102316853 -0.01639305759584429 -0.007301279556005671 -0.02105115888420740 -0.006375758945969429 
0 0 0 0 0 0 0 0 
0 0 0 0 0 0 0 0 
0 0 0 0 0 0 0 0 
0.1049244962491587 -0.05641627635262236 -0.03444870252972421 -0.02604599910411472 -0.01445604685968954 -0.02757165303102522 -0.04496351239772627 -0.02061498811087189 
0 0 0 0 0 0 0 0 
1.259383750392458 -0.4201202152095812 -1.038267674204936 -0.3802965114401808 -0.3376865167432407 -0.2644376600484653 -0.2554946604032265 -0.2208088001478419 
0.2304890820774062 -0.04660314852029124 -0.05537428266276721 -0.04212658106880741 -0.002378214883569277 -0.04675179555282653 -0.2658490457348454 -0.05103735387899035 
-0.004041348483173762 -0.006221697315216709 -0.007821791791072447 -0.004264054771132262 0.01712462731368602 -0.002696523289578446 -0.01014466518605660 -0.002491503101486123 
0.1858418093370919 -0.08142039236392376 -0.08004997736569144 -0.04318700947637650 -0.04197452053487675 -0.03920203498436750 -0.09070935151416276 -0.03518599279016324 
-0.01088518247195920 -0.1544406372485270 0.2405218546065625 -0.04234024470126852 -0.02986323713534254 -0.06211730928272207 -0.01724399819805866 -0.04111975162028704 
0 0 0 0 0 0 0 0 
0 0 0 0 0 0 0 0 
1.365343175710353 -0.4193031038797188 -1.002696825621058 -0.3274557399732987 -0.3311997838528598 -0.2454966274188787 -0.4942207718330985 -0.2028743864172437 
0.3670075249239827 -0.1064853872206979 0.1205075254019437 -0.04194986700401700 -0.03096855030341134 -0.05417389176720065 -0.3545877854068844 -0.03752065665471289 
0 0 0 0 0 0 0 0 
0 0 0 0 0 0 0 0 
0 0 0 0 0 0 0 0 
0 0 0 0 0 0 0 0 
0 0 0 0 0 0 0 0 
0 0 0 0 0 0 0 0 
0.1744098418122455 -0.1290004416056509 0.07460683502539607 -0.05984542197107742 -0.04467561763128582 -0.05956087010831906 -0.08281694154807014 -0.03162925691563523 
-0.02912583051767445 0.3351217400333920 -0.1917146144529978 -0.009956626124316137 -0.01010354055318708 -0.03557888656569520 -0.02917352542197825 -0.007742148661489556 
-0.1000212240972978 0.2880700028608616 0.01775199956148459 -0.05112999592445850 -0.009516474079637243 -0.04789820329812063 -0.07119683368164920 -0.01584462750812229 
-0.003638669036283630 -0.04941021437288985 0.06645270132420074 -0.01191086605349480 -0.008315400870556872 -0.02127455339561169 -0.004388430983195460 -0.01337900381124748 
-0.1038097723146548 -0.05893276059483714 -0.03370311887764513 -0.04173424875364727 -0.05250307423981231 -0.03664411561808850 0.009888171745358568 -0.04563535628893371 
-0.01054818613021165 0.1703411865028412 -0.08554763778375400 -0.01650662064772455 0.009917770298891360 -0.01244908534069660 -0.006626030381375920 -0.02613247466579632 
-0.001610830967580033 -0.0007256876230526951 -0.002117789759158629 -0.001230029884444976 0.007607696387759082 -0.0005362599419143728 -0.0008745422099604366 -0.0007280734222506860 
-0.001610830967580033 -0.0007256876230526951 -0.002117789759158629 -0.001230029884444976 0.007607696387759082 -0.0005362599419143728 -0.0008745422099604366 -0.0007280734222506860 
-0.04285281594697086 0.01307461695762814 -0.05034069238867695 -0.07935776257943636 -0.003514208507244100 -0.1316608986377796 -0.04380607761126670 -0.1006503480876614 
-0.0004867915812720494 -0.005793803650214948 -0.002514960268470910 -0.0007086108863000425 0.008401527239383205 -0.0005097240809010626 -0.0009091620675124452 -0.0004122076620643274 
0.09321241574956883 -0.05221806146696027 -0.2226601725285486 -0.03628944321592345 -0.03480218096255182 -0.01961920393933529 0.2792398492064574 -0.01571464500342877 
0.2105488590522767 -0.02734861733721830 -0.1199680467388817 -0.02186072092717000 -0.02303503162328358 -0.01347513739802905 -0.06353051092219295 -0.01115258446422811 
0.09386332792517818 -0.008941928680588958 -0.07718318368602135 -0.005847138903329630 -0.009095937199390088 -0.005672408814824073 -0.01787650325149732 -0.003318608806795176 
0 0 0 0 0 0 0 0 
-0.03991207223149227 -0.002901335218580286 0.05890581015567090 0.3371960782764292 -0.02528989154055693 -0.1353729132354296 -0.03279841429270401 -0.06747493774934532 
-0.002502780935254781 -0.001155652838256008 -0.001534903884792620 -0.002243080925885265 0.005102454212057186 -0.001373874317243112 -0.004696908642748318 -0.001040246622325750 
0.09146897863685344 -0.01165257020252286 -0.07810421440126035 -0.009229590458576250 -0.006694990997775973 -0.01203845179178853 -0.02167249270737445 -0.008177765692305869 
0.02358181858891588 -0.05661863572752300 -0.1675242094723853 -0.05236476935012505 0.01472025249794235 -0.02768992400963600 0.1830483862065699 -0.02194474827151796 
0 0 0 0 0 0 0 0 
-0.007516917138714023 -0.1288282163157347 0.06575470744348279 -0.03235746288071858 0.009110431553672037 -0.04398477343642592 -0.02218899459810897 -0.03292736421504978 
-0.08850694751957257 -0.08007864784830615 0.3004760675322749 -0.07082292203085208 -0.09107512100584719 -0.1603389664492510 -0.1506247650313995 -0.08241811656174032 
0 0 0 0 0 0 0 0 
-0.02578820992883962 -0.05911426448510001 0.09126392549755832 -0.01582208197054854 0.01542878834348032 -0.03218682160450902 -0.009126882085314075 -0.02598116894023433 
0 0 0 0 0 0 0 0 
-0.1673908527181723 -0.04568408288460377 -0.1743657834857257 0.5507746913863445 -0.02991159341121021 -0.01887361506334525 -0.07191630704387698 -0.01609960428828103 
-0.1673908527181723 -0.04568408288460377 -0.1743657834857257 0.5507746913863445 -0.02991159341121021 -0.01887361506334525 -0.07191630704387698 -0.01609960428828103 
0.2981938874113045 -0.4466090504632685 -0.7539191725040021 -0.2970148818002547 -0.2629350544436175 -0.2480241553804278 0.5811130592053306 -0.2159740056086826 
-0.3801935510613292 -0.1313189183798416 -0.5882298745079529 -0.1669376405034110 -0.1118498670200144 -0.08674730094977784 1.150547202581455 -0.08524094623740008 
-0.1060098560848794 -0.05521105874548098 -0.02108534185948234 -0.01914664384380497 -0.02017972018076686 -0.07641758727541130 0.09817312835101133 -0.04464165930782820 
-0.2475564647170864 -0.003745422703554484 -0.007328622468722778 -0.003594116998967489 0.01704447328209617 -0.003836498109851259 0.2342139505072143 -0.004419788412731506 
-0.02474753759848395 -0.08895350810659569 0.2166632087323604 -0.02226943742866968 -0.02148833251086440 -0.04199698892652912 -0.01208463856893311 -0.03143745339560631 
-0.2258038832884519 -0.3482796732373943 0.4185288574394910 -0.1092866151047095 -0.01225652641275218 -0.1497265211262988 0.1223451381862313 0.2992409294199870 
0 0 0 0 0 0 0 0 
-0.01061981469672760 -0.004557879319849398 -0.01417267440658291 -0.004140591789418386 0.02955544663473098 -0.003430606023533335 -0.009504375849861200 -0.004202226433634788 
-0.01061981469672760 -0.004557879319849398 -0.01417267440658291 -0.004140591789418386 0.02955544663473098 -0.003430606023533335 -0.009504375849861200 -0.004202226433634788 
0 0 0 0 0 0 0 0 
-0.003558913484154913 -0.07294557497255127 -0.1532169285072653 -0.04600628764429488 -0.03111180070010217 -0.03829622901163714 0.3587525134300104 -0.03963493300689047 
-0.003517593577479925 -0.08646075734745247 -0.2266421351944170 0.4487543930420330 -0.008306950906331453 -0.01976916163140543 -0.004166893105340609 -0.01209736410422996 
0 0 0 0 0 0 0 0 
0 0 0 0 0 0 0 0 
0 0 0 0 0 0 0 0 
-0.05416818400909014 -0.01745814839500288 0.2271294620305483 -0.009719760067837934 -0.003877546223883960 -0.004883112600162744 -0.04365432546457376 -0.001552150110998324 
0 0 0 0 0 0 0 0 
0 0 0 0 0 0 0 0 
0 0 0 0 0 0 0 0 
0 0 0 0 0 0 0 0 
0 0 0 0 0 0 0 0 
0 0 0 0 0 0 0 0 
0 0 0 0 0 0 0 0 
-0.1062769780864146 -0.2550822577503173 0.1276043710092242 -0.07970168385017473 0.001671477790392997 0.2363751634539721 0.1287645625458083 -0.06337168091192122 
0.02851858788417129 -0.09746240132716606 0.1835338018235340 -0.1943925081266940 0.01732795599833548 0.1320058049821927 -0.001918401670785741 -0.1170885721208769 
-0.1480142440037147 -0.07702996983551125 0.08766950771221149 -0.05398890103307093 -0.04972110340048312 0.3362431456542774 -0.09662696053530650 -0.04361292605584412 
-0.05949891423711085 -0.1259979668901499 -0.3541093113626246 -0.1102160557886525 -0.08410917307279805 -0.05673723391530522 0.5708819632462280 -0.04670772733915889 
-0.02251756281862249 -0.006529407736475607 -0.01354436797111845 -0.01100302429261393 0.03554539680329649 -0.006276666746349078 -0.01220002430937064 -0.005551896326338379 
-0.005785518676145871 -0.001992075838617434 -0.002418158882172626 -0.007216979861877958 0.007036525416063616 -0.002882490102578236 -0.002597783254563976 -0.001636993422006341 
0 0 0 0 0 0 0 0 
0.3349170866218240 -0.03106925202586756 -0.1521269022041960 -0.03281677794754269 0.03769601547134274 -0.01261641178463002 -0.1020935396836960 -0.01030979859842997 
-0.005755754596449515 -0.0005797041533882803 -0.001679768287698209 -0.0004883697069714854 0.01618722722907151 -0.0002365102977397682 -0.0008294900600786694 -0.0002009142565751837 
0.05397543353724635 -0.02833599262888937 -0.04901447236539853 -0.02689755067467837 -0.05813308520226461 -0.02990401683449412 0.04594410621711672 -0.03055060366000378 
-0.009882844383586423 -0.04921328047150339 0.05260991058994391 -0.02313278075831580 0.01325654326119789 -0.02760567507227377 -0.04048729966924154 -0.04746973928271689 
0.1862744907358160 -0.02597394787494316 -0.1659452944809107 -0.02444618808144151 -0.02322773991687179 -0.007837538241625547 -0.03682912655436976 -0.007433749729965295 
0.1862744907358160 -0.02597394787494316 -0.1659452944809107 -0.02444618808144151 -0.02322773991687179 -0.007837538241625547 -0.03682912655436976 -0.007433749729965295 
0 0 0 0 0 0 0 0 
0.08948592348204470 -0.1488131423952508 0.3146158176036354 -0.08522486920173926 -0.02661116648152410 -0.09477631250122062 -0.07329173366725290 -0.04205481047688354 
-0.007518415064038005 -0.04111991412709726 -0.06328859244263427 -0.04945543587684556 -0.01613712489942830 -0.02154479972619778 0.03858035174874226 -0.02004979605155235 
0.1595559617904534 -0.04554084273383403 -0.06352637174835009 -0.04189358526590467 -0.02694187773882800 -0.03328367071795154 -0.04090677326748484 -0.01924432154457040 
0 0 0 0 0 0 0 0 
-0.0008553837176754849 -0.001445982516024135 -0.004693957445007932 -0.0006672346002966411 0.009308343660968872 -0.001759868563323869 -0.001333552908671012 -0.0003920547317427811 
-0.007007615989925648 -0.0004977842058969739 -0.001655210681242619 -0.0004078622784411150 0.006744760862411083 -0.0003488632127021471 -0.0003640399863690656 -0.0003784435208681484 
-0.07110445011841934 -0.03880109720452134 -0.1149488272983429 -0.02071387455384604 -0.01855135665713758 -0.01235350689177587 0.2994415248317059 -0.008731795291163129 
0.06103817803968772 -0.05055733634540148 -0.2078445756398857 -0.03357302594251363 -0.02875002083740315 -0.01708773077126170 0.2898918770970146 -0.01361216490655607 
0 0 0 0 0 0 0 0 
0 0 0 0 0 0 0 0 
-0.4538977435906720 -0.05621896520638389 0.5442431331891817 -0.05625332933709681 -0.05106004191397352 -0.03897637682481103 -0.04993129890513656 -0.02017174343612065 
-0.09450123104254401 -0.04452852572631899 0.1252007513917066 0.3260887753290498 -0.03275262285924410 -0.03315284883981062 -0.06799434220417500 -0.01625440243540885 
0 0 0 0 0 0 0 0 
0.2830767068407530 -0.1004781690585246 -0.1462752212693984 -0.05600446749659193 -0.05960141198507154 -0.04737726382400132 -0.1065078556729298 -0.04187526140349429 
-0.02478397190394113 -0.03022501665190789 0.05275621930840548 -0.02141685752498651 0.02776020303408318 -0.01942969758449879 -0.01368940990319210 -0.01284100316479789 
0.2531811139954593 -0.1849068827581318 -0.02861731624576391 -0.1026291486986611 0.008346091793420139 -0.1081631001278754 -0.09660232646274988 -0.06956197223449302 
-0.04095276038127989 -0.09498510337464783 0.1350836897621439 -0.03580801450049456 0.06908835371513908 -0.04179994552496912 -0.03375497832092745 -0.03299417587930910 
0 0 0 0 0 0 0 0 
-0.04042788366738731 0.3094525721525562 -0.3035410303856589 -0.06607059879932595 0.04333747404694157 -0.08785554955031397 -0.03527629922465839 0.2554989028747113 
-0.01101449492774065 0.2963255349355044 -0.1576709288340493 -0.006922968633811747 0.01996424058998057 -0.008466029646491909 -0.006409463128373047 -0.007598893225643104 
-0.09226737945615993 -0.01960933096117050 0.2027445129798707 -0.04843549491323661 -0.01439076449455704 -0.009823748657104244 -0.02218897889505999 -0.007927575869100340 
0.1047237698283970 0.1737541994252557 -0.1546497576799929 -0.03817263635969485 0.002715018587662394 -0.05832796232265269 -0.1360628103776591 -0.03337779357232003 
0 0 0 0 0 0 0 0 
0 0 0 0 0 0 0 0 
0 0 0 0 0 0 0 0 
-0.01028154759485491 -0.001609193229157460 -0.004851743198502814 -0.002939106224320335 0.008956350017958007 -0.001540252553703244 -0.003162703666968635 -0.001340486775886020 
-0.002057533193772457 -0.001221458573075258 -0.003131249104465647 -0.0008227839875368260 0.008561996406669263 -0.0006761664220033247 -0.001440109870138934 -0.0005150720896751008 
-0.002370892199719742 -0.001054147983021434 -0.003866097282347011 -0.0009708101297739091 0.007742960195825876 -0.0007546365951116880 -0.001075640049777341 -0.0005650653166141441 
-0.002370892199719742 -0.001054147983021434 -0.003866097282347011 -0.0009708101297739091 0.007742960195825876 -0.0007546365951116880 -0.001075640049777341 -0.0005650653166141441 
-0.05445264320886002 -0.2827055231585643 0.2647805960532292 -0.1154056624470330 -0.001486388668310725 -0.1378897379101985 -0.04706846645603985 -0.1039191058936844 
-0.1847267544686327 -0.01705334230688574 0.2275506031585853 -0.01619907222271507 -0.01580025049520823 -0.009349784263513301 -0.02460983540762463 -0.007789720559939494 
-0.001705483081921128 -0.002517823351363815 -0.005033573524666189 -0.002242601212973816 0.007992694929252482 -0.001213901373691106 -0.005439994419151751 -0.001525334617637279 
-0.1111360156381582 -0.07575420148857659 -0.04214403945480945 -0.05080155462644483 -0.04507406050907434 -0.05865675715734232 0.09073173886191141 -0.06741340449355884 
-0.002325755082551478 -0.0006180952335587337 -0.003536370698718267 -0.0007067988194282283 0.008043568757194840 -0.0007551042723621357 -0.001556030284008614 -0.0004211452439233359 
-0.004596514329178850 -0.002054724252774089 -0.007856286523957838 -0.001897089289319772 0.01476119319564810 -0.001518146602900117 -0.002090439000811258 -0.001110492060591490 
-0.004832132643081560 -0.002133094699926812 -0.006660571756514463 -0.002437576938124637 0.01097601982197175 -0.002703585359785221 -0.003720996272677737 -0.003509063257508988 
-0.003796718889597661 -0.005241262670666859 -0.007961758459459876 -0.004821784470381108 0.01282214106606964 -0.002623628729724594 -0.02295599368842366 -0.003149721268532976 
0.04001129149689811 -0.008926924894048215 -0.03623886981613236 -0.007976275962711400 -0.01121490185961676 -0.005296706901774085 -0.008171763883628475 -0.004851504895419155 
0 0 0 0 0 0 0 0 
0 0 0 0 0 0 0 0 
0.1032696474950139 -0.02214168887426703 -0.08774264867808007 -0.01954779496778693 0.003076457962621104 -0.01136429292778458 -0.03133151229527209 -0.01008201604543436 
-0.1266988590835528 0.1857065765028280 -0.08521344627651492 0.3033985943715973 -0.01336560872906992 -0.07511773283804879 -0.09998371364270310 -0.03756175533474222 
0 0 0 0 0 0 0 0 
0.1668865066939476 -0.03726664065744750 -0.07436870644598376 -0.03279883446852545 -0.03517776568866463 -0.01813965523427673 -0.04521137058663403 -0.02947510884600505 
-0.3038551447016735 -0.03585377644075839 0.3970215455073290 -0.04711938102189116 -0.02966619103849808 -0.01984639678133390 -0.03914805153687125 -0.01538324080064612 
-0.2583919858818328 -0.006004239058303335 -0.01615134692520112 -0.009343346811479492 0.03957932294549602 -0.006823809360688776 0.2523025857945813 -0.006327979941175695 
0.05595213209904467 -0.01061173110369161 -0.07914685150883498 -0.009423688116584667 -0.01508339355176933 -0.006482130736922416 -0.01312059291188999 -0.006572170218219903 
0.02086096200495152 -0.007030762154692106 -0.02260481272322194 -0.006837885874520778 -0.009498327342997628 -0.004740132606967401 -0.006610813380967686 -0.004352935787051389 
0 0 0 0 0 0 0 0 
-0.001024723739333371 -0.0005260792107036588 -0.005979799916370958 -0.001938120740622806 0.009570802058001258 -0.0004684688451003743 -0.0007930489427496550 -0.0004751826680376297 
-0.2173365312959889 -0.04661531984669844 -0.03425051098995748 -0.04235391307631808 0.007736054714476236 -0.02908783628204340 0.1519862918823531 -0.03414578645339991 
-0.01579803078029539 -0.003017118576215542 -0.003079329165080878 -0.005358584731444722 0.02630397124392283 -0.003179940316029935 -0.003636455607686213 -0.002008106889734417 
0.1167594860365130 -0.1174439809732861 0.04464178221451794 -0.06631229749265848 -0.01690283776974811 -0.08217588441638721 -0.1966750879858596 -0.06525551525586887 
-0.006312524873017287 -0.003385659549100391 -0.01040670145277773 -0.002014403817437185 0.01927868427019862 -0.002401755567810717 -0.01071340729988091 -0.001985091734227629 
0 0 0 0 0 0 0 0 
0 0 0 0 0 0 0 0 
0 0 0 0 0 0 0 0 
0 0 0 0 0 0 0 0 
-0.03279698578772640 -0.2487906539993087 0.3565461655861722 -0.07584595468036583 -0.05752874250814272 -0.1520549920350547 -0.03167998963346839 -0.08636297666985021 
-0.1785104104377159 -0.06549675009261959 0.06371525215798701 -0.05757837484947532 -0.03156533736133351 0.4165643526669137 -0.06451599705451500 -0.01598293733888726 
-0.01012842503048966 -0.08944469959231045 0.1220340178476657 -0.02239795931573966 0.0002544487302542798 -0.04061682755738375 -0.009722271455351370 -0.02540263730096919 
0.2142318761062322 0.4716633663144818 -0.4878720595449210 -0.07654943212443906 -0.07525478896627530 -0.08232854522820686 -0.1100542641057057 -0.06490671027359914 
-0.004516355823789270 -0.0007404437847025996 -0.001460544426029947 -0.003958025689260709 0.003308623715246415 -0.001551367310232197 -0.001115620669542905 -0.002197266687164420 
-0.004516355823789270 -0.0007404437847025996 -0.001460544426029947 -0.003958025689260709 0.003308623715246415 -0.001551367310232197 -0.001115620669542905 -0.002197266687164420 
-0.01172388035682173 -0.004860314978484364 -0.01045440120813276 -0.005382114235086599 0.01482892203333306 -0.01029835327921102 -0.01388053715092207 -0.006613544392251902 
0.05877118255880332 -0.004575704322233580 -0.01004613733098288 -0.006052272619327778 0.02907632628736973 -0.006830228723387484 -0.06561848174886203 -0.006886388364539728 
-0.001392025773690445 -0.001131488862638586 -0.004661865125295446 -0.001565633468070119 0.002739619650405694 -0.005736437308113319 -0.001643575951634802 -0.002538199217041924 
0.07654311030328684 -0.006237748517814682 -0.01086408715188440 -0.002557326317808480 -0.009208199330558964 -0.003691120857276041 -0.05547883364962786 -0.002288697143267735 
-0.01057142152502186 -0.07619217542519174 0.1216324111055545 -0.02691463279255386 -0.02370151007181641 -0.04564553925266172 -0.02373429222724808 -0.03272384484784989 
-0.2044700091811228 -0.03456715680663160 0.2561408959394412 -0.03341683346081645 -0.03020693092191579 -0.01877086202431772 -0.02521665252651700 -0.01063375992472895 
-0.008252827501484697 -0.005519104177321123 -0.0006067822556806790 -0.005783339523828030 0.01081159720096130 -0.004978916494718604 -0.003844134463854862 -0.002202432432218701 
0 0 0 0 0 0 0 0 
-0.001355632750045719 -0.002053800220978869 -0.002070496280372427 -0.002481707045289209 0.002264555189771444 -0.002889750892886966 -0.007016262443495751 -0.002569690568724441 
-0.001355632750045719 -0.002053800220978869 -0.002070496280372427 -0.002481707045289209 0.002264555189771444 -0.002889750892886966 -0.007016262443495751 -0.002569690568724441 
0.07737577812367880 -0.03304051006267940 -0.02921760597272087 -0.02055449086198405 -0.02153092065201102 -0.02464283621342349 -0.02566737063343799 -0.01770448071080633 
0.05827529484203215 -0.06965192769276049 -0.06607613527774067 -0.07970007735168333 -0.006794274600849365 -0.07592993383385593 -0.07228557973320138 -0.1146921443632063 
0.03529941131664927 -0.02221907662547065 -0.01760788544379708 -0.02473537778600667 -0.01591433033741707 -0.02561381575832138 -0.08262221881462505 -0.02391992157147695 
0.1075640904247760 -0.009928953007972571 -0.009329728544944613 -0.005949821390350620 -0.01376224631593346 -0.004890430878873618 -0.09073694158043441 -0.005050586408472218 
0.1075640904247760 -0.009928953007972571 -0.009329728544944613 -0.005949821390350620 -0.01376224631593346 -0.004890430878873618 -0.09073694158043441 -0.005050586408472218 
0.1890353772787863 -0.1666152767791506 0.2505561201836516 -0.04206972363074703 0.1097697945856291 -0.06238990066503017 -0.2574920455253002 -0.02997529187812323 
0.05480199785173483 -0.08964267303066381 0.04765690891215382 -0.03246354959475165 0.004300118326223945 -0.05518413924485212 -0.05835561760318139 -0.02273553130665260 
0.07654311030328684 -0.006237748517814682 -0.01086408715188440 -0.002557326317808480 -0.009208199330558964 -0.003691120857276041 -0.05547883364962786 -0.002288697143267735 
0.07654311030328684 -0.006237748517814682 -0.01086408715188440 -0.002557326317808480 -0.009208199330558964 -0.003691120857276041 -0.05547883364962786 -0.002288697143267735 
0.1490428708095661 -0.01123801512880892 -0.01605507924640312 -0.01110474458798565 -0.02566760721611901 -0.01157436980425515 -0.1066644871180854 -0.01243197893202546 
-0.03119820105229831 -0.1805084112881066 0.09945743889001639 0.2334496840685557 -0.04709471951255211 -0.1011954594284838 -0.02522230345520788 -0.06699972438671625 
-0.01067010855385673 -0.1103495207382021 0.1491309367932291 -0.03110959310888716 -0.02318989435159945 -0.05520923729765631 -0.01246192804718872 -0.03532339870640402 
-0.02143489791569294 -0.2247804756143167 0.3114395090331446 -0.06268034119167235 -0.04710273045729904 -0.1118360184092863 -0.02492215747503794 -0.07118298102915706 
-0.2769511198166655 -0.07773475851041600 0.4113553041327918 -0.07547550900674815 -0.07321595882335213 -0.05540355155374437 -0.1136910389688045 -0.05164172521535356 
-0.02999260293479622 -0.002769985615131232 -0.006205365649629162 -0.001447297446623205 0.04669248919265993 -0.001143936319424178 -0.003360175163799860 -0.0008106035107774453 
0.1306281130833127 -0.05756509460961619 -0.07889954884128116 -0.02746209189667790 0.006456686292981077 -0.02688753202051975 -0.05121039571330911 -0.01660965931430894 
0 0 0 0 0 0 0 0 
0 0 0 0 0 0 0 0 
0 0 0 0 0 0 0 0 
0 0 0 0 0 0 0 0 
0 0 0 0 0 0 0 0 
0 0 0 0 0 0 0 0 
-0.006174076766743316 -0.04272740144468848 0.08561576402479779 -0.01012119799858501 -0.007957689084090306 -0.01976726704081883 -0.003162508131458546 -0.01186034998860530 
0 0 0 0 0 0 0 0 
0 0 0 0 0 0 0 0 
-0.005826475147329499 -0.001144399805433699 -0.007584587524430091 -0.001413662201481243 0.01957805914548932 -0.0008786192286867817 -0.001767760970370065 -0.0005371930185323714 
0 0 0 0 0 0 0 0 
0 0 0 0 0 0 0 0 
0 0 0 0 0 0 0 0 
0 0 0 0 0 0 0 0 
0 0 0 0 0 0 0 0 
-0.1267819375894116 -0.1652797361704751 -0.6392570048187445 -0.1051632175388603 -0.1029144769348673 -0.1127311993859564 1.151994855641788 -0.06156397656925104 
-0.005706426603531511 -0.0007855024950389483 -0.001658388047160390 -0.001676116861897131 0.004236566365105311 -0.0008084751098390682 -0.002732611546163195 -0.0008987698701081688 
0 0 0 0 0 0 0 0 
