solver_type L2R_LR_DUAL
nr_class 2
label 1 0
nr_feature 23702
bias 0.000000000000000
w
0.1018635261595341 
0.2462781069963134 
0 
-0.2260426913551781 
0.1764688131034211 
0.4652289856249708 
0.1088868035232878 
0.2952371426107079 
0.4287362210450800 
-0.1127650042466478 
0.04885843242483722 
0.1638970846393539 
0.2088625885047832 
-0.1030224290845768 
-0.01663230887871817 
0.6980672388796186 
0.4432075940946320 
-0.1509553340902997 
0.004177586706637988 
0.6727641433788097 
0.6322329430982548 
0.7891334208919204 
0.1897026429470954 
0.09595241968455948 
-0.5796013512326441 
0.3044533323533283 
-0.01373013089544777 
-0.2462480673214327 
0.08954460751521015 
-0.3066548767586446 
0.2350434038607108 
-0.1814024372577369 
0.1433758147302354 
0.2233727362541825 
0.2553130628153673 
0.4109155335500139 
-0.1312972597109201 
0.1464859958079334 
0.2561206206585532 
-0.2760498451511230 
0 
0.4518026173179957 
1.075101955774501 
0 
0.2731956854185299 
0.7064383901483687 
-0.3890348473388839 
-0.1874719646310600 
-0.1344608941997882 
0 
0.4738366015515453 
0.3261465418588989 
-0.09411088102382490 
-0.4638697600554067 
-0.2761288070137025 
0.1382004991231346 
-0.1049928646791869 
-0.09450487161076436 
0.7008305316026947 
0.5515859777775278 
1.105779120945260 
0.05757521109370435 
-0.3572075623467165 
0.01340504783931800 
0 
0 
0.1549132681237550 
0.3143448958268246 
0.2318734618205840 
0.3159075841389791 
0.6048331179239563 
-0.2157091249091223 
-0.1169991934268624 
-0.1933364492860815 
0.2011998721936700 
-0.6111494827970186 
-0.5673942270312301 
-0.1902962450517352 
-0.2261928129939737 
-0.1810822860826477 
0.2720866438329993 
0.4924331280712088 
0.2810034453346397 
-0.4103710946541549 
-0.04412080927140243 
-0.1260024126515865 
0.7454039186818855 
-0.2939148544093275 
-0.4378355846514165 
0.1379112451308517 
0.3001043145158409 
-0.1361282370043518 
-0.1059427465375769 
0.05441139228114655 
0.04171602366053738 
-0.2089957067243843 
0.1769892218845146 
0.9821421270794275 
0.3203307759234147 
0.2677811065878984 
1.122680584019325 
-0.4857050621904170 
-0.1619265754241875 
-0.2240584610961514 
-0.2493824753293214 
0.2768174492827279 
0.7846488638980798 
-0.4713340728015393 
-0.1996027472689179 
0.2784571983223051 
-0.4093907035535555 
0.2408911879592987 
0.3710722966901215 
0.6839493915342927 
-0.1034187407381923 
0.6233558631909495 
0.1262096691582199 
-0.02875425738440856 
-0.05531729170308730 
0.4626146444830886 
-0.1246418761094741 
0.06564740208998956 
0.1583668432692043 
0.1583668432692043 
-0.3971227793465720 
-0.1539269556873950 
0.4948170089845385 
-0.2852612269965759 
0.1262096691582199 
-0.04591644093912123 
0.2036780363643422 
-0.03551119569220489 
0.04782271963102729 
-0.2844355071632371 
-0.1092077182418493 
-0.1452407828872458 
0.1846345827075819 
0.1270801038669934 
0 
0 
0.3226443557923527 
0.1863911984317077 
0.8849194243700531 
-0.4755712327775705 
0.3191403261314812 
0 
0.09588335441634258 
1.317181884313559 
0.1292140384549974 
0.3447092341710845 
0.3983571002019972 
-0.03143782975158630 
0.1022538722998633 
0.2709640437761005 
0.1636173918941102 
-0.4072445285878506 
-0.2700228074466117 
-0.2440627367566177 
-0.04175444729418246 
-0.02546083588313151 
0.6088764814439055 
0.2034613283846140 
0.09450850957550608 
-0.5090619630881706 
0.2761142979228229 
0.3944818438327120 
0 
0.2232708443537264 
0.1829808468163749 
0 
0.07258766055917361 
0.08956059166865812 
-0.1978525082695540 
-0.1455965733610075 
-0.1455965733610075 
-0.6872156948223591 
0.5079920814591340 
0 
-0.07543128897453408 
0.2003591477153092 
0.4468462265608537 
-0.01307687202934346 
-0.07568710050717503 
0.1824489711870179 
0.1224950627399980 
1.225347615264008 
-0.1398872357589591 
-0.2593266785513197 
-0.3460794188986227 
0 
0.5152749105430806 
-0.6274959391654111 
-0.2115667634368482 
-0.3279817432656860 
0.2798637129022266 
-0.1682384508856321 
-0.2072902649386054 
0.08891385968725835 
0.07872948345104519 
-0.4861442501169066 
-0.07513638560795563 
0.2449293468763860 
0.1059214904439182 
-0.4666356012062871 
0.06039796938018471 
0.2181024421133978 
0.1583831237088813 
-0.1587027330385482 
-0.3003208224239304 
0.4918060468861728 
0.5633984694156979 
-0.2567403678114506 
-0.05764015667892394 
0.2063569058774167 
0 
-0.1124693401787689 
0.05613209364770287 
0.4952171102335460 
0.3769421352392301 
-0.03976258596099797 
-0.03650687942097208 
0.7389873067492602 
0.2700117739389744 
-0.3685118762140946 
-0.1572039749715969 
0.1621148561155848 
0.2076379243039770 
0.1174154563798543 
0.1174154563798543 
0.4451957948757818 
0 
0.3574970017314352 
0.8199102432610751 
0.4220757051654755 
0.1636855088530950 
0 
0.4668738776851680 
0.7603080104738211 
-0.1894648843205539 
-0.2209876829507739 
0 
-0.08643669752793316 
0.07908520042748417 
0.09146603415371471 
0 
0.5322902543231547 
0.1142778800054735 
0.4720422453864131 
0.004225598042717210 
0.04173928606420644 
0 
0 
-0.4087621756632014 
-0.4087621756632014 
0.2673004533505174 
-0.3168771972192209 
1.075442767857278 
0.1742946429772243 
0.5035754674254663 
0.1779478943608514 
0.1779478943608514 
0.1779478943608514 
0.08761577677649898 
0 
0.6111193014023926 
0.1804891663953185 
-0.03989966217520488 
0.6465307178958579 
-0.1019341366670582 
-0.03719229808347867 
0.06446678875590160 
0.2648638602038959 
0.03860275855921819 
-0.2918190960632977 
-0.2017199559734765 
0.4284997153228943 
0.4284997153228943 
-0.4056021861968003 
0.3356868862462220 
0.3959224206862868 
0.08383099079461732 
-0.1228345198907808 
0.08761577677649898 
-0.4066655740130289 
0.3792150583784510 
-0.07742695869265280 
0 
0 
0 
0.4349254974361064 
0 
0.2449491219448585 
0.1405189751741122 
0.1123421584527209 
-0.3101697095004466 
0.03556213878444001 
-0.1014163922091479 
-0.2481456772962661 
0 
0.2501373575721549 
-0.09380076182127240 
0.1884986176468617 
0.7710708629713138 
0.04074128230955346 
0.2052059142446013 
0 
-0.2522766138583382 
0.1665341790029763 
0.02355346554240392 
0.2551844921281093 
-0.4157035303636585 
0.07272792068280488 
0.03636202159516950 
0 
0.05244523593266854 
1.136846238405176 
-0.2514569978790887 
-0.8343125962159190 
0.1636855088530950 
0.2895353490086396 
0 
0.3857562361322236 
0.4499012116426550 
0.3470121470568789 
0.2899508333197681 
0.07694192503928193 
-0.07695556283047846 
-0.2817448589227067 
-0.09939204248364399 
0 
0.009899025818152551 
-0.2374105911805273 
-0.4825657158908565 
-0.1819489355943242 
-0.2436948816649710 
0.1256981333281471 
-0.1635298790306104 
-0.2285115406316016 
0.03902753757392452 
-0.1169931047947086 
-0.1488082338588010 
-0.2580668968647252 
-0.07355398307094192 
0.03543280908344048 
0.1904876632680808 
0.3908501580566545 
0.1712363001077022 
-0.007574015382879912 
0.3777238153164165 
-0.4842185537426486 
-0.09380218760224782 
0.9098341383836341 
0.1437363421732067 
0 
0.1144703857294171 
-0.001555267670480244 
0.2699952654055101 
-0.1413357228199951 
-0.04295252798276941 
-0.04295252798276941 
-0.03035524969863788 
0.5884179821265396 
-0.03035524969863788 
-0.09799351457244670 
-0.2068228143317079 
-0.1891524966979267 
-0.01644950736850746 
0 
0.2105416279558470 
0.1961845841664204 
0.1632540273676311 
0.2367069791378514 
-0.06362026493410420 
-0.1206036116259047 
0.2820859605597626 
-0.6444552939840330 
-0.02891404762489891 
-0.02891404762489891 
0 
-0.1862741567381198 
0.1764655940996518 
0 
0.3232542317441089 
0.7302161484228776 
-0.1237791014482951 
-0.1237791014482951 
0.1707531725557923 
0.1707531725557923 
0.2196856773874187 
0.5883579957260929 
-0.4086040927923376 
0.7490771789278572 
0.2928711186536816 
0.2256009338962287 
0.2500196949998751 
-0.4597368185445173 
0.4418954786373078 
0.6970357257874695 
0.07566115782127900 
-0.1876670455594237 
-0.5285269254386944 
0.4270446425412661 
-0.3290974207874627 
-0.1128345007674724 
0.1488053309074135 
0 
-0.3715517685836418 
-0.4003466351467161 
-0.02307849638679165 
-0.4636262574151239 
-0.1511889184919145 
-0.1990521922032077 
0.2181442827418298 
0.2998032679238666 
0.03598076303248021 
0.4055453815530383 
0.3605811731191981 
0 
0.2271078894294615 
-0.1229088584280694 
0.5605981708337340 
-0.1212091647806630 
-0.8030584061144431 
0.09089620362976847 
0 
-0.02850423586078790 
0.3247541230444825 
0 
-0.05258516697154848 
-0.3768008226902248 
0 
0.1354285047565020 
1.249646886747527 
-0.3464683610495083 
0 
-0.08532922132237289 
-0.2635645447975266 
-0.3069884924524502 
0.1225273674890884 
0.3466116609356739 
0.3434374742978748 
0 
-0.7145369757243580 
0.07728623313350616 
0.1567731071861467 
-0.2319766192591955 
-0.1689354536669395 
0.1924298810953947 
0 
0.2884734597189494 
0.1496290733269468 
0.09068216130322002 
0.09832955831025471 
0.1856060697153815 
-0.4681168761683824 
0.1393281766582920 
-0.2122525501892215 
0 
-0.1053390872652426 
-0.1495062384795501 
0.02751510036221757 
0 
0.2944903197193609 
0.07458586955444343 
-0.2902222281794260 
-0.1875686896417104 
0.1295221314372660 
-0.07027864207242744 
-0.3513307581823560 
-0.3899163750145856 
-0.1714585442349434 
-0.3075044710285157 
0.01440707350285872 
0.3595190337102581 
0.3299405017598818 
-0.1989691044323496 
0.08604275345034833 
0 
-0.4627805655827661 
-0.03974127276839988 
-0.2832617415132726 
0.1437416670070100 
-0.3492960106224886 
0.1391625718318298 
-0.07252765538438014 
0.2455604189022059 
0.9240269184351741 
0.1034445049027936 
0.7744388137712193 
0.2605279204109902 
-0.01859445020846175 
-0.3974738679126890 
0.6600075729999921 
-0.1325491409052515 
-0.5005867834626821 
0 
0.4663206270583968 
0.06521427420276890 
0.1254430885903738 
-0.002933338035217771 
-0.2194751265633866 
-0.03458588452191104 
0.2013281668583069 
0.1670411373901418 
0.4469425096758303 
-0.3385765519168227 
-0.07374678161148039 
1.319213015508980 
0.3389027722410016 
-0.02635371886891962 
-0.4821209339276459 
-0.5339744506667933 
-0.09032560788954412 
0.2132420766782283 
-0.06328095904554630 
0.1543624697647242 
0 
0.1442037770775370 
0 
-0.1602191091202502 
0.4896690454248218 
0.009675008242253438 
0.4324003219884092 
0.3632531751500600 
-0.02813124623409884 
-0.5216914850275423 
-0.1929128131452777 
0.2047910208684153 
-0.3675664666439361 
0.2177225827173711 
0.3101864924494163 
0.4342554979504730 
0 
-0.005921281632253056 
-0.1853498817896966 
0 
0.2684753007140954 
0 
0.2778904148637434 
0.06853088868846305 
0 
-0.1286009401917309 
0.3659758835969642 
0.4930830742781388 
-0.2696000889483796 
0.5347594101814920 
-0.01826263192474666 
-0.2956509837482829 
0.1355909244652487 
0.2601279126743304 
0 
0.1013963488444672 
0.6514357323452437 
-0.01080299903493126 
0.2336051413619954 
-0.1143998985665322 
0.07834348715296330 
-0.5407712347483080 
-0.2598831230994996 
-0.6078881630280273 
-0.1050090121212701 
-0.07330376724634806 
0 
0.1425951298518766 
0.6526975175995616 
-0.1337092983032389 
-0.1090677155211229 
-0.2875341166302827 
-0.3257774674410763 
-0.1339140913787707 
0.02616919814092508 
-0.08106201503265473 
-0.3114729907793882 
-0.1329872020666730 
0.04887018110298438 
-0.07860991269201052 
1.247070495778436 
0.1857825856423957 
-0.2798826396833040 
0.2877812220241562 
-0.3785213620580216 
-0.03362702924571037 
-0.09892871616459431 
1.203758116953213 
-0.1641631007633041 
0 
0 
-0.02845404720416307 
-0.02845404720416307 
0 
0 
-0.2612261884396342 
0.1488403039202776 
0.6540302744538051 
0.1668025868069301 
-0.1599761378700891 
0.1068716024213161 
-0.2056265842219245 
-0.2056265842219245 
0.3848150481291589 
-0.1379000135518133 
0.05980162531764979 
0.3539614940122884 
-0.02054525960808511 
-0.1871682577245870 
0.08369448328617468 
0.06217637185592426 
0.2005421785998595 
0.7380364899221835 
-0.5735424229794388 
0.3855150840577982 
1.004329153441125 
-0.2396550234969527 
-0.4591918336499156 
-0.08712386713347184 
0.2919785826733668 
-0.004191317234380793 
0.3692241104833112 
0.1393180911171168 
-0.07443251008196483 
0.1631818222047899 
0.07592364783178054 
0.5489859888763426 
0 
0.3851690128586117 
0.3851690128586117 
0 
-0.2182021132497306 
0.1246908849460127 
0 
0 
0 
0.04160247324023038 
0 
0 
0 
0 
0 
-0.03473140493512432 
0 
-0.2634197280507304 
0.1550054041403123 
-0.1459534601865458 
0.1584568602867698 
0.4084929540572330 
0.1119834223907907 
-0.1518695254739562 
-0.05203085583627611 
0.2098487886554940 
-0.08486833921405482 
0.4834391684213228 
0.2840858049074851 
0.1539062605675080 
-0.6102337925058952 
0.5019364430574250 
-0.2348165464139064 
0.07479752921084196 
-0.4995111935941232 
0.2715548374306186 
0.06253372185906898 
0.2557822647258832 
-0.2835907678041310 
-0.1973812760646825 
-0.09939240536585074 
-0.2889992621250547 
0.1089073966966529 
0 
0.1465730765812964 
0.1013913001997781 
0.2557751736496433 
-0.6146265844509785 
0 
0.6863473038409981 
0.1330281975477818 
0.07774943363828743 
0.1777665457508595 
0 
0 
-0.04020023264203950 
-0.07743541316164176 
0.3362612244325465 
0.1570962810776797 
0.1570962810776797 
-0.1660341475766194 
-0.5020231094279485 
0.1057006083235772 
0.2707585837741464 
0.3096262604047680 
0.1445732134509653 
-0.2656563414056756 
-0.3837269660701481 
0.07591145516806355 
-0.08200215669931785 
0 
0.4083285904635113 
-0.4580800958182151 
-0.2165258630773422 
-0.2544204975545007 
0.3874442096398083 
0.3495188756333568 
0.02317415956695740 
0.05821298007501272 
-0.2837010220328087 
-0.1932721188835352 
-0.5129791329944332 
-0.02270291747525048 
0.6736259050271637 
0.08434335898836055 
-0.1713416345698607 
0 
0 
0 
0.4219369818997614 
-0.05517349115974314 
0.1329436554428803 
0.01457520430782676 
0.1986979851402574 
0.1986979851402574 
0.1691609383091552 
-0.1036758553968642 
0.1870696310520051 
-0.03882046897439031 
0.06960977351027167 
0.4561957565050233 
0.4058373635737379 
-0.3818807597124051 
0.2108169560194507 
0.2108169560194507 
0.2989485209172890 
-0.4411477088431631 
0.07962921671647447 
0.1245176582169197 
0.1245176582169197 
0.5372636371764943 
0.3874343294476612 
-0.2504468717202312 
-0.03882046897439031 
0.1785251548961610 
0.1276184823936209 
0.4477639585653626 
0.1559705739212629 
0.3598745358993659 
0.1206522234303724 
0.2741626339367480 
-0.2209876829507739 
-0.2209876829507739 
-0.1879710816870453 
0 
-0.01132137812817851 
-0.05394767292558965 
0.03320832624263392 
-0.08762028833662144 
-0.08762028833662144 
-0.03425213158930549 
-0.08762028833662144 
-0.08762028833662144 
-0.1737894724059211 
-0.1307961006623118 
-0.01753770951479643 
-0.4210405653789063 
0.1524949390246492 
0 
0.2141540063229256 
0.2479296334706106 
0 
0.2119463570392104 
0.2866383340076212 
-0.1306796117940996 
-0.1306796117940996 
0 
0 
0 
0 
-0.2956591152176329 
0.3502168208539176 
-0.3908100203124000 
0.3616355165264990 
-0.3924393255360356 
0.3415394859082829 
0.1007510236360923 
0.3389830776860270 
-0.07429335809721786 
-0.2346822934209016 
-0.4808972713940349 
0.02803462448791701 
0.06463000200233449 
-0.1428430638837680 
0.1176403211122817 
-0.09034820338664065 
-0.4722622897402363 
0.3255955869068861 
0.1414773370848942 
0.1757457139239561 
0 
-0.2494511413346726 
0.4920925181312494 
-0.1108649413878490 
0.4570725404978478 
-0.5754992894175062 
0.1454770931216246 
-0.3002974200182840 
0.2429323001489194 
0.2850462201620148 
-0.1049881048808374 
0.3743165047484713 
0.4599021452748632 
0.1880023583942716 
0.2492730724770206 
0.02894011865395742 
-0.4983283245009599 
-0.8755284281261432 
0.2314549768208965 
0.8627386246382951 
0.4629750985126304 
-0.07469197696841086 
0 
0.04252281515091518 
-0.7955574902076570 
0.3710338546588388 
-0.03357195170732849 
-0.5697964338350632 
-0.2775998081828269 
-0.09675480569964995 
-0.02498976270023221 
0.2296381297387840 
-0.1055571264776271 
0.2403088904068808 
0.2470240577342621 
0.1324440339851749 
-0.3106908962472083 
0.6044898609461625 
0.4081259807684239 
0.7649182392316797 
-0.4491104388146899 
0.2111468549238019 
0.1813245816132592 
0.5667237045013580 
-0.3567021066474734 
0.7777783173932199 
-0.06108456671897983 
0.1548887745161243 
-0.1537893782456578 
0.2757688159490712 
0 
0 
0.07111053695222577 
0.1871971360635457 
0 
0 
0 
-0.2168600234068114 
-0.04629864451248528 
0.1023261597378526 
0.03390612977911185 
0.1023261597378526 
-0.007782076341924541 
-0.06744455727862050 
0.1278297265956483 
-0.1529564103106636 
0.3354596026601357 
0.1574999997056601 
0 
-0.4462256225441488 
0.5837539170278763 
0.5837539170278763 
-0.2386357580318342 
0.2363265819183079 
0.5792882229807633 
0 
0.1882548262062915 
-0.004556620613769415 
0.7538784792952932 
-0.2760035587438365 
-0.1154408842927057 
-0.1641365965317003 
0.1031132185829441 
0.2413749518137193 
0.2409657674001479 
0.3935311766889945 
-0.4031044965577206 
-0.4949998126804911 
-1.195505818937205 
0.1454757355537623 
-0.7771208847939210 
-0.2275016599200174 
-0.2275016599200174 
-0.7552581064994989 
0.06352067687638278 
-0.1332195238698666 
0.1673479842826669 
0 
0.1433966108370414 
0.1433966108370414 
-0.3150843227669522 
0.5335874104062533 
0.1317195615095844 
0 
-0.2120812340358998 
-0.1059078317643256 
0.1704503381670325 
0.3567219499817360 
-0.8628562759117954 
0.01453923984302130 
0.2789750728342769 
0.5381184867895452 
0.2275661394770464 
0 
-0.5929420877798055 
0.1199667611663589 
0 
0.4220757051654755 
-0.2212412013219426 
-0.2668066430337609 
0.8355706084752836 
0.1406844122653691 
0.05620288741744857 
0 
0.3144483243456239 
0.2093830955280683 
-0.3797485576574307 
0 
0.3995742696375327 
0.2064732714990875 
0.3650522634816026 
0 
0 
0.2645041004581840 
-0.1532531473479165 
-0.1532531473479165 
0.06984367681763275 
0.1800407531490750 
0.7951132518797427 
-0.7532471675102702 
0.2977467804479297 
0.1192395332580914 
0.2064371012144529 
0.2050555229175469 
0 
-0.2712137532321112 
0.2249004241550046 
0.2249004241550046 
0 
0.1444856772116277 
0 
0.8070169085635057 
-0.2073906460852575 
-0.1477729959672663 
-0.1477729959672663 
0.08815868344573172 
0.1815874759684431 
0.6960273753879451 
0.2576876583332750 
-0.2439514276598123 
0.09277824898208233 
-0.1524485157589288 
0.4229570171491199 
0.7020666671333079 
-0.08727416730224236 
0.5168032996413372 
0.1017583398130286 
0.1017583398130286 
-0.03838035449744199 
-0.1780491552154884 
-0.1683588257984502 
-0.2874874252966371 
0.06061659274729065 
0 
0.6217677713288760 
0.2301626166562387 
-0.03235088007721034 
0.2250536900929629 
0.2416711342895263 
-0.4307541358969390 
0.2724896271894654 
-0.05039023931932112 
0 
-0.1475802341737426 
0.001199752675047808 
0.2681362829298992 
0.2791815607747881 
0.02428032869535446 
0.3031461710457552 
-0.2357960291623255 
-0.4860202092357843 
-0.3026545129569712 
0.1506149122524278 
0.3724653853444451 
-0.2075267688725306 
-0.5707727794994446 
0.4854856032351387 
0.1224895302823127 
0.3440314241556579 
0.3795536792041017 
0.2602828480177269 
0.1111436125111187 
0.1944644705521456 
0.06845362028436547 
-0.005677438553517225 
0.2213063170223935 
-0.1208903494278346 
0.1506149122524278 
0.1506149122524278 
0.1855782048756959 
0 
-0.08169872805707858 
0 
0 
0.08305435525985928 
0.2154068402208105 
0 
0 
0.2093747204729074 
0.2093747204729074 
0.2093747204729074 
0 
0 
0.4654545698072976 
-0.08615201090438158 
0 
-0.7204970320264198 
0.1222655983512032 
0.5537736956444179 
-0.3536377398546313 
0.1250652172300303 
0.1250652172300303 
0.1250652172300303 
0.2439702035902550 
0.4147225947104025 
0.09388196369741252 
0.4242318133793727 
0.09382486260316325 
0.5912054773838806 
0.6528603977337026 
-0.1204861923630124 
0.3895040608203166 
-0.2053801456852457 
0 
0 
0.03531058227693349 
0.7927818034334817 
0.1606080514923848 
0.07960282305969968 
-0.2756390314850848 
0.1916248307837878 
0.4818596184971738 
-0.09028752272696572 
0.3076287042201884 
-0.1181330718519638 
-0.6361526589384977 
-0.2079896386633399 
-0.5825408585000955 
0.2348209283631689 
0.6563314427004180 
0.3273726278380734 
-0.5855673071573415 
-0.2572514608689130 
0.1621019597800046 
0 
0.1961047543094314 
0.2035033529134011 
-0.05070175239452108 
-0.3543240932218049 
0.1411410876269137 
0.2407884622721906 
0.2705228871558110 
0.01608132210189440 
0.2472772979666341 
-0.09340824433789957 
0.1719840615335942 
-0.08589352228112009 
-0.2162728890451755 
-0.2162728890451755 
0.1986491697524203 
0.1986491697524203 
0 
-0.009615134777898180 
0.1424884222379066 
0 
0 
-0.2264239391648649 
0.1648420643082099 
-0.3052494719424074 
0 
-0.2476716013843394 
0.2949994784224161 
0.9212660660143902 
0.1295859872101275 
0.04946960712350847 
0.2412183375836152 
-0.3245618846121192 
0.004926313124726495 
-0.04282724481304193 
0.08185541427787861 
-0.4774924026716578 
0.1404643308746849 
0.5042877221148088 
0.2069627672880652 
0 
-0.1412426696600729 
0 
0.2828305079517151 
0.5255773470144047 
0.1972712828262118 
0.2387691567614861 
-0.3051877739277905 
-0.2675943132493711 
0.1972000757240884 
0.06032875200984956 
0.01977400116239194 
0.01977400116239194 
-0.04895280245414635 
0.1523153431692064 
-0.1064197319650032 
-0.1280876089535999 
0.06520490568385720 
0 
-0.07978212844455874 
0.1511198363757187 
0.1511198363757187 
0.02357613899882887 
0.3213117590193311 
0.6319178410731685 
0.3813507737486397 
0.1654130634471564 
0.2496544754366058 
0.2496544754366058 
0.02217520163977871 
0.4537046061531737 
0.1948811975058408 
0 
-0.07082496901465184 
-0.09241307048064965 
-0.1390410400670755 
0.09108972257990820 
-0.01580786161755669 
-0.2763491977748932 
-0.06555205609550921 
0.2140389903484162 
-0.3960997281226984 
0.3126093925875548 
-0.5429200841940350 
-0.2081809133117233 
-0.01805198368469421 
-0.1555740228250471 
0.3101643105420791 
-0.2031293891530249 
-0.1904720445826064 
-0.1341824153811055 
0.09817166104248047 
0.8294431840621967 
0.3281081678430436 
-0.1577830340567597 
0.5679159245181988 
-0.2619767825157067 
0 
0 
0.2612199179156201 
0.1254448839472149 
-0.6366196844938687 
-0.1054428318421688 
-0.1054428318421688 
0.03323162053959653 
0.5054635059676447 
0.1318083060006617 
0.1318083060006617 
0.2370827537880335 
-0.1238363790896107 
0.01285487874490053 
0.1633269371427203 
0.1138740504202671 
0.1319855696625472 
0.6578248406625400 
0.09577364908132045 
0.1246196805716493 
-0.1281195828851540 
-0.1471558652773663 
0.2170978329592683 
0 
0.3653950522283915 
0.2180114885764828 
0.09282757428950011 
0 
0 
0 
0.01289205155465815 
-0.01895001859190769 
0.1214686892775308 
0.6533814879967921 
0 
0.1276915844729406 
0.3922143685421646 
0.3007548433359769 
0 
0.1920782046909481 
0.1182037409087592 
0.3238029615439964 
0.3238029615439964 
0.1825098901013732 
-0.03677039614816863 
0.1586415505857048 
0.3676873871650888 
0.6159646783236126 
0.1292781248823842 
-0.3246177379733649 
0 
-0.03801126115952638 
0 
0 
0.07841164073535947 
0.08149316267660000 
0.2984130296261793 
0.4228956931082655 
0 
0.7570622764479387 
0.1200474035629116 
0 
0.1715569202263451 
0.1244826634820864 
0.1244826634820864 
-0.4207182790312635 
-0.01473089293844712 
0 
0.1545006846693297 
-0.2708866485727014 
-0.2684191886104573 
-0.02772830967575004 
0.1826030483634966 
-0.2953876174862791 
0 
0 
0 
0.1228362955472259 
-0.03813826661426392 
0 
0 
0.5151470443093799 
0.2917554720980700 
0 
0 
0 
0.09293669552400440 
-0.6436535675991455 
-0.1397418381287232 
-0.02354164020181400 
-0.03412847698079803 
0 
-0.3775441079691186 
0.4888810680656962 
0.09404953584173630 
-0.4453887322187103 
-0.3685037590237335 
-0.1479498221966746 
-0.6705336083675580 
0.06837183771771670 
0.06478078482106545 
0.09196851110626651 
0.3098256010234778 
0.8511198427748617 
0.8181288906398090 
0 
0.1112584213882302 
0.1112584213882302 
0.6028312074977922 
0.1549458907803465 
0.1147598582358406 
-0.1675224980074303 
-0.09402900520722052 
0 
0.1471230465707496 
0 
-0.1444963230290826 
-0.8722516731560730 
0.4628781092352562 
0.4628781092352562 
0 
0.1147540540431799 
0.2381866399767758 
-0.3856962713866747 
-0.1987724201658396 
0.3465602981483361 
0 
-0.1407062842533133 
0.08740859302353858 
-0.1039693608483573 
0.3853863119771114 
0.2907226743879131 
0 
0.1526838375986876 
-0.5754927619655097 
0 
-0.06106350219289986 
-0.02718907278435812 
-0.2067904549023557 
0.4216910963321338 
-0.1339013796495135 
0.3452406231734098 
0.8807905521834728 
-0.1831213894601251 
0.05472030028233194 
0.3116190676922300 
0.1096302871886010 
0.5697858435204561 
0.1628124705430608 
0.1389214837929322 
0 
-0.2682777636036405 
-0.2893912326899893 
0 
0 
0.4152659484231477 
0.4152659484231477 
-0.05549028988033450 
0.001162674137539885 
0.4588695843808266 
-0.2569454602903361 
-0.2701684449205740 
0.07892858561777494 
0.1585789919825151 
0 
-0.1487542702829192 
0.02849302082177425 
0.3436466516490547 
-0.3882923509743708 
-0.3474946355477319 
-0.2408534628488472 
-0.09469339508450109 
-0.09469339508450109 
0.2289597757661437 
-0.08206492704009648 
0 
0.2618084167344488 
-0.2741024053337824 
0.5621840992525103 
0.3038394470463367 
0.04618443588130308 
0 
0.09736617554724919 
0 
-0.03236629585842231 
0.2824274002328596 
0 
0 
-0.009309418194660380 
0 
-0.5802080295465774 
-0.1683876123443091 
0.08907708270509927 
0.3412499519172419 
0 
0.2647651119075257 
-0.06972297049673638 
-0.2141235815046775 
-0.1179378111851589 
-0.1963562953114924 
0.1125194312433443 
0.02004559483873396 
0 
0.4661083454722672 
-0.1389085742523026 
0.2022064777117923 
0.03638940448693227 
-0.1653577536102394 
0.9340593142667131 
0 
0.1069224119128669 
0.1393241682567339 
0.1845800782887496 
-0.1084510376344554 
0.04766627682427278 
0 
0.06444616346767036 
0.06444616346767036 
0.2554110417336757 
0 
0.2766748980812174 
0.2617901462868992 
0 
0 
0 
0.05715856636064379 
0 
-0.3227166385882789 
0.2028935347849411 
0.03527751919719148 
0.03527751919719148 
0.06332312647829963 
-0.07936768370420670 
-0.07520475288058251 
-0.05039023931932112 
-0.1424127640745477 
-0.1424127640745477 
0.3461408957710034 
0.3461408957710034 
-0.1816255336337501 
-0.2869126646193914 
0.3416462494192742 
0.2314978933652161 
-0.09381093461450876 
-0.09381886006502443 
-0.09383521753016086 
0.1806844978521086 
0.1980096251981961 
-0.4931283094628274 
0 
0 
0 
0 
-0.2063726911026202 
0.07458586955444343 
0 
0.05363955954239084 
-0.2887796593930572 
-0.04341728957362259 
0 
0 
-0.005225692485840303 
0 
0.2800905661418427 
-0.2549781226970651 
-0.1532707347949016 
0.3840267661364022 
0 
0 
0.1352702596392347 
0.3574970017314352 
0.3574970017314352 
0.3574970017314352 
-0.1502450142774283 
-0.05780723302294452 
0 
0.4560369434059756 
0.1251995484381427 
-0.4967507867366263 
0.2410183809019760 
0.1659512654054920 
0.1659512654054920 
0.2479534221048099 
-0.2399644762270545 
0.1220328367863179 
0.1827606231028211 
0.1131405352887734 
-0.2120812340358998 
-0.1325607810727439 
0 
-0.2531376599184751 
0.1221093944520904 
0.1282461960014978 
0.1282461960014978 
0.1282461960014978 
-0.1567318063240509 
0 
-0.1307640119084650 
-0.06086801849571406 
-0.06086801849571406 
-0.8929361441758220 
0.1374958445185402 
0.2457574338878907 
0 
0 
-0.03278577034908883 
0.2551433527583715 
0.4415487790541397 
0.4279086769738308 
-0.02921865663737458 
-0.3402938971452875 
-0.2465038517273784 
0.2389971219327957 
-0.5457756571112670 
-0.1252362249997989 
-0.5073501413665539 
0.2201946473559053 
-0.1185602394363248 
0.2672342317085328 
-0.4204348022038416 
0 
0.1956329881189789 
0.3395143313527074 
0.1626139121165133 
0.02960376280812537 
-0.2267310409848444 
0.2589454910605489 
0.3495883897778186 
0 
0.4187399607115879 
0.1046968075691941 
0.5050121384670739 
0.07354337481234569 
0 
0 
0 
0.2122484385534932 
-0.2708419016671964 
0.4810864819730837 
0.4687183540385538 
0.1960021672870564 
0 
0 
-0.09238970992211876 
-0.09238970992211876 
0.2256783918616783 
0 
0.1520386581471572 
0.4314450555262613 
0.2164610918519445 
0.09720164118289627 
0.1224373432191895 
0.02260895710592734 
0.2122199485858813 
0.1306898459884103 
0 
0 
0.07630441011163051 
0.04450901021887578 
-0.5710808946693732 
0.1368461926796598 
-0.3365521960958700 
0.1515653520922805 
0.1515653520922805 
0.1515653520922805 
-0.2111438955615515 
0.3422401382302059 
0 
0.2648742852615605 
-0.8284481227309465 
0.4080727982286949 
0.09460211955697162 
-0.2347729705712043 
0.2193991720497939 
0.2193991720497939 
0 
0 
0.2857567902645789 
-0.6389332190643009 
0.1676805823799801 
0.2228963181457019 
0.2228963181457019 
-0.1437857122982679 
-0.09559170746866974 
0.1041698839711712 
0.1437047537082646 
0.2195780737722661 
-0.4934644072581106 
0.1249594508817569 
0.1249594508817569 
0.1249594508817569 
0 
0 
0 
0.3667697013179805 
-1.131846475350556 
-1.095044480472538 
0.6778097805195740 
0.4403165464067170 
0 
0 
0.05808264878597350 
0.3335560281771237 
-0.3762747016481125 
-0.4259260774300681 
0.2007898417885554 
0 
0.2440941859911769 
0.1788283931257646 
-0.07922752699486363 
0.09751926861936966 
-0.3863581492170519 
0.1929628410496725 
0 
0 
-0.4232688610247686 
-0.1274000747366927 
-0.1274000747366927 
-0.02498976270023221 
0 
0 
-0.4102169984222422 
0.4244923699611214 
0 
-0.3507432155848995 
-0.1190911332704589 
-0.02509793411008519 
-0.03695663228336491 
0.1975339378476955 
-0.4792787695061349 
-0.4534051986100645 
0.4104791656889726 
0.4104791656889726 
0.03599639709448414 
0.03250555299699115 
-0.08393730948056924 
-0.2400728327266580 
0.1123109545727531 
-0.3490012417247675 
0.2824389223497089 
0.1177829750573133 
0.01051096106409170 
0 
0 
0.2616588631885184 
-0.1899592142315804 
-0.2725237596888173 
0 
0 
0.05452053850876630 
-0.2523124372096088 
0.1172543819441448 
0.6080117885710705 
0.03384505386944759 
0.8340976027109789 
0.07144018767067192 
0.3096753312579287 
0.1699375591899377 
0.1699375591899377 
0.3096753312579287 
-0.08017019365355196 
-0.2748983066750671 
0 
0 
0 
0 
0.1563504306901031 
0 
0.4687028730284918 
-0.2239865703090606 
-0.03695663228336491 
0.004352099252408093 
0.8245913180037479 
-0.01520888181167382 
0.03458604303214199 
-0.2761122749858992 
0.4153958140019153 
0 
0.1385369895890688 
0 
0 
0.1487581556272751 
0.1981041785909233 
0.2726993148589255 
-0.01755693177392007 
0.3383805943915123 
0.1324027412177455 
-0.07680531171537336 
0.1374009141422252 
0.3796824012700853 
-0.8206773931858031 
-0.1609916994511755 
0.003831867494251198 
0 
-0.3757598037171078 
-0.06674529921796730 
0.04565522081322491 
0 
0.2672246980483023 
-0.1868189616539756 
-0.4430087348400327 
0.5270584289766331 
-0.2202069671391834 
-0.3332063174542786 
0 
0.1625026620912055 
-0.05099342423587736 
0.2393518583980804 
0.1623498877630568 
0 
-0.01973142150460516 
0 
-0.09238970992211876 
0.2813664050199906 
0.07765468578239420 
0.1898801535585888 
0.1898801535585888 
-0.1191241558277973 
0 
0.3161360085326788 
0.1227655570363539 
0.1227655570363539 
0 
0.02790964460587452 
0 
0 
0 
0.2260087371418479 
0.04108111154839840 
-0.2136650985914184 
0.1396247149928067 
-0.01821850274417454 
-0.01821850274417454 
0 
-0.1312380683914811 
0.2350193483736471 
0 
0 
0.2561076325893985 
0.2075553249557000 
-0.008324899221176636 
0 
0 
0.1432555997057054 
-0.05095263596015690 
0.2922020845383881 
0.2050669691167261 
0.5303804715735028 
-0.1879474519559865 
-0.1880089725856003 
-0.2481204503105879 
0 
0.09853237145093521 
0 
0.1167353926079279 
-0.1028351897810718 
0.2547989270585473 
0 
0.2326133463751456 
-0.09378732888424630 
0.02543591009037593 
0.4889457116264769 
0 
0 
0.01753292682134468 
0.1809095317249301 
-0.2413522268499841 
0 
0 
0.1002606730165268 
0.04892450063716788 
0 
-0.009103162602731613 
-0.009103162602731613 
0.1624519018428993 
0.02719540913069329 
-0.1556635681378182 
0.1219069994935181 
0 
-0.02178163984851947 
0.1407558875153016 
0.1300607512121623 
-0.2955412998157996 
0.08290370512266021 
0.08290370512266021 
0.08290370512266021 
0 
0.1759155052183954 
0.04278956037689474 
0 
0.09151549131707935 
-0.3000232525089215 
0 
0.1190731264129587 
0.1153590660085594 
0.1153590660085594 
0.1000846100526128 
-0.3807942970939097 
0.09779530031684579 
0 
-0.08210233050357926 
0.5135660551126437 
0.2166242115231598 
0.2000311555011080 
0.2112457059136494 
0.4062998861337627 
0.03340013367472969 
0 
-0.1927629388111130 
-0.1118805297784485 
0.1668025868069301 
0.1668025868069301 
0 
-0.2103836075073680 
0.5572374579057370 
0 
0.1092324805317879 
0.09911959472454697 
0 
0 
0.4109484171127861 
0 
0.1873760353995829 
0.2280737279621560 
-0.1984541314730436 
0.5452116136037229 
-0.03307625588786454 
0.07167726962236291 
0.07167726962236291 
0.3367512431680246 
0.3367512431680246 
0.6198153662125394 
-0.01770461818042481 
-0.07780975232991358 
0.2041982609822505 
0.3757887403361177 
0 
0 
-0.1420214486351564 
-0.1023780688017080 
-0.04912232761565875 
0 
-0.4999827991230101 
-0.02969230270260680 
-0.1272115713219765 
-0.3507432155848995 
0.3755200171194318 
0.1417552035316579 
-0.06757473775082767 
-0.06800916882322404 
-0.1299287546934037 
0.5417177568083333 
0.1467977068530416 
-0.1928371912954132 
0.06786714956455268 
0.2852116644859660 
0 
-0.5175703469623794 
0.2207794076573886 
0.04979571205547420 
-0.2715912321674033 
-0.2053765898333244 
-0.4229927939875144 
0.1114804525686547 
0 
0 
-0.05392526566750251 
0.4536189775062393 
-0.1119382125992124 
0.08678413135834990 
0.2468662745580650 
0.2468662745580650 
-0.1363175943269848 
-0.1250376905608459 
0 
0.6014017822415810 
-0.4388207911253787 
-0.1511239081791332 
0.2122235004531720 
0 
0.09632523517385172 
0 
0.3162562607466854 
0.3162562607466854 
-0.06114731167098260 
0 
0.1200398128142166 
-0.06039953145718671 
0.3214067294763545 
-0.01222264804343459 
-0.04779323134034160 
-0.09036292092309187 
-0.008627705937843573 
0.1507146461108473 
0.1861151492936078 
0.1861151492936078 
0.1861151492936078 
-0.1149309020956516 
0.1188071552367245 
-0.3696473985303422 
-0.1355881123779846 
0 
-0.04087590101480051 
-0.08271911260328295 
0.08147485175285166 
0.1958008482185795 
0.2161258656093513 
0 
0.1389214837929322 
0.1432510263027415 
-0.2605731704613361 
0.003042464216674257 
-0.2341241086091550 
-0.02261072597106955 
-0.2019761811428014 
-0.1255472919319802 
0 
0.1404642507429965 
0.1404217335173614 
0 
-0.1816255336337501 
-0.2240709909985144 
0.5807076747042876 
-0.1162233577034266 
0.2316612906190926 
0 
-0.1381508110880830 
0 
0 
0 
-0.1315692070627093 
0.06809462975667718 
-0.02465449188390764 
0 
-0.1505881358648546 
0 
0.1411850688109951 
0.5097921203267679 
0.1727789742784345 
-0.2492243225015274 
0 
0 
0.07856882923070277 
-0.1591212713781964 
-0.07375774561680506 
-0.02985722525096089 
0.07255697404986398 
0.1319449521271875 
0.1577648852054079 
0.1967054349755603 
0 
0.1967054349755603 
-0.03638699548189864 
0.3087996452137319 
0 
0.2828449766526101 
0 
0.1402624675442460 
-0.1137875506708691 
0 
0.2647651119075257 
-0.3077887835234475 
0.1728932141921639 
0.1479634887194236 
0.09153413013065934 
-0.01322298463023797 
-0.2224266754372825 
0.2553004742209752 
0 
0.2163962537413419 
0.4846116794878616 
-0.1377345570831632 
0.6557825351068458 
-0.3419966005792178 
-0.3419966005792178 
-0.1298391865058003 
0 
0.05922071857473074 
0.5018695748382388 
0.03060703874754416 
-0.09606339613220828 
0 
-0.1262075158183999 
-0.1276145301334574 
-0.05876062897190310 
-0.02120749856006923 
-0.1929087962698862 
0.2136918412895775 
0.3426140058611443 
0.06332990977577796 
-0.1228203043489908 
-0.2480529726403828 
-0.4499310126982184 
0 
0.3495470571616722 
0 
-0.3438478988897598 
0.3786630775902100 
0.2085571211904667 
0.1211170140511449 
0.2209094318629742 
0.01410650192825763 
0 
0.4737188356940334 
0.1513163991367293 
0.1650238916002858 
0 
0.4237115547362145 
0 
0 
-0.4219815827008699 
-0.2187732317420118 
0.06169596720297559 
0 
0 
0.1833737316273038 
0.1833737316273038 
0.2511133438679955 
0.2656705545483139 
-0.03236629585842231 
0.2652634877447755 
0.1502547443286678 
-0.1743929039603145 
0 
0.2453444809525672 
0 
0.1345346933414581 
0 
-0.06056348748567864 
0.5328579897909913 
0.5328579897909913 
-0.4038241967640776 
0.09558492216388209 
-0.08056736377739487 
-0.04342332996502026 
-0.1790458647458720 
0.2645227840692241 
-0.06640792946453038 
0 
0 
-0.4309706963716666 
-0.09211423019089089 
0.1727965816852207 
0.4411362399375378 
0.2900244312668678 
-0.5275735116394942 
0.1345058725981056 
-0.5704575499980133 
0.1613219778165047 
0.1613219778165047 
0.01059044813273868 
0 
-0.5516327865667312 
-0.4094277196203261 
0.4275363268981831 
-0.4121327580791326 
-0.2347259778184945 
-0.07732679085106128 
-0.1217988160105012 
-0.3104478374394553 
0 
0.1745577847027630 
-0.1922336228754101 
-0.3514159655366978 
0 
-0.003307590335940122 
-0.2522766138583382 
0 
0.1637415901047686 
0.2432930522857005 
0.2432930522857005 
0 
0.06845362028436547 
0.1040297830481626 
0.04194736076902118 
0 
0 
0 
0.02638797067327596 
0 
0 
0 
0.1550010593104524 
0 
0 
0.2107853979499847 
-0.1273266014795416 
-0.3900449096030956 
0.05183240484262480 
0.08642857485681650 
0.07358750230985547 
-0.02453158241319240 
0.1426882564149374 
-0.05877680040853571 
-0.6557889719370580 
0.3147804919548918 
0.008180820125067663 
-0.2195728576050338 
0.05247925652441066 
0 
-0.3621036187016259 
0.3262316452310942 
0.1636855088530950 
-0.09097482418357311 
0 
-0.1398501693351554 
0.2249250224505934 
0.4051541088758290 
0 
0.07320415592175301 
0 
0.2127362094214191 
0.2000303291474181 
-0.03318733078443092 
0 
-0.1385026379817783 
0.1727789742784345 
0 
-0.07018752325933966 
-0.3034461287048746 
-0.2312149976465897 
0.1186088783347293 
0.1948534136588821 
0.09502355062143174 
-0.09982986303745035 
-0.2089001256992625 
0.04397214780349792 
0.1135169555497734 
0.04173928606420644 
0.04173928606420644 
0 
0.1604014813168631 
-0.03868161680980334 
0.07081457308266746 
0 
0 
-0.02811753294945407 
-0.09017180532195913 
-0.09017180532195913 
0 
0.1728030441186658 
-0.1912959477570290 
0.2561319565596543 
-0.2760434055782527 
0.1206210437772701 
-0.09322702053714743 
-0.2075972561073810 
-0.09322702053714743 
0.1915015421674283 
-0.1039757007104538 
0.4726535780354231 
-0.1243014531595983 
-0.07290765215650576 
-0.03481344422486613 
0 
-0.03083356241260636 
0 
0.1837251425112642 
-0.1500187524077629 
-0.3862540223961877 
0.3332260888340221 
0 
-0.2080311066036141 
0 
0 
-0.1744672638364128 
-0.03431455522684426 
0 
0.2420477244606598 
-0.1348431969802154 
0 
-0.002018603733840191 
0.2196138579489521 
0.2196138579489521 
0 
0.06845689110509949 
0.08143090252732833 
0.1137505703787399 
-0.1043622605792088 
0.2282488400317662 
0.1940035444726647 
-0.01025872833077782 
0 
0.05128123331764063 
0 
0 
0.1505247136476094 
0.1223886189245505 
-0.1460104703262113 
0.05571262609376967 
0.1753163549389237 
0 
0 
0 
-0.01257534459766762 
0.003512389920687559 
0.1462194646304718 
0 
-0.2648304387879797 
0 
-0.06023289862929588 
-0.06023289862929588 
0.5512386160444476 
0 
0 
0.09717210466422962 
0 
0.1538426750133243 
0 
0.4415487790541397 
0.08300668762292528 
0.1907532388743592 
0.2033024202751069 
0 
0 
0 
0 
0.3441640407841174 
0 
0 
0.1057093696246272 
0 
0 
0.1428166475149772 
0.2196060356365175 
0.01810327953381841 
-0.4086661309080083 
-0.04193062489408251 
0 
0 
-0.4755123121000666 
0.1178768921692524 
-0.2394170671825116 
-0.1384449106966070 
0 
0 
0.1912821636166162 
0 
0.2571705906187927 
-0.07010197810289094 
-0.07010197810289094 
-0.1166020594690123 
0.2393315450081187 
0 
-0.3799047641474228 
-0.3267813020238178 
-0.05394767292558965 
0.03157979738195835 
0 
0.3495470571616722 
-0.1788993841611661 
0 
0.5568324309224411 
0.2716207664364753 
0.2716207664364753 
0.1845378912966083 
0 
0.1573081806013285 
0.1573081806013285 
0.1950394941474112 
0.2788395222012690 
0.1037858076640272 
-0.1397143671098067 
-0.2729432166336047 
0.1881740988889878 
0.2852116644859660 
-0.1768749055192193 
0.1546727641331720 
-0.06417066846951090 
0 
0.1574741644118060 
0.09048766747936679 
0.1599559639651708 
0.01099502341600588 
-0.07185303585503294 
-0.1223135676921000 
-0.1223135676921000 
-0.3339559395300438 
-0.07612649972838575 
-0.07543128897453408 
0 
-0.1439671488782323 
0 
0.1344129998770706 
-0.2293323438503320 
0.3754547295787623 
-0.1312380683914811 
0.1195758712216054 
0 
0 
0.4515765656819021 
-0.06502063350067366 
-0.06502063350067366 
-0.05502578534915950 
0 
0 
0 
0.2560638735931121 
-0.1335608374441215 
0.5516227839115470 
-0.1351759798835742 
-0.2111498657796866 
0.06991958379470553 
0.06991958379470553 
-0.1348431969802154 
0.03065542014367591 
0 
0 
0 
0.1742345910621019 
0.1742345910621019 
0 
0 
-0.6440735590682642 
-0.1735076720042671 
-0.6221385095632913 
-0.4082048152670519 
-0.1977880122023822 
0.05901441072456193 
0.1221832606212264 
0.2117886785675857 
0.4992810726951751 
-0.1242837006095555 
0.08368609636213359 
-0.1682547900636123 
-0.3975485493912673 
-0.2109894683887945 
-0.05379335915799632 
-0.3630767373380717 
-0.05211085209752799 
0.2560922723191802 
0.1716220469131428 
-0.07427532691691999 
0.1321016310153313 
0 
0 
-0.06381939457128370 
-0.06381939457128370 
0.2813782877619890 
0.2813782877619890 
0.2813782877619890 
0.1206210437772701 
-0.1302853751783653 
0 
0 
-0.1177316518101488 
-0.2116264027458407 
-0.2116264027458407 
0.1228743597277155 
0 
0.1802290864252356 
-0.02775402994589954 
0 
0.4272746581134721 
0.1967794966644723 
-0.3006838489097263 
0 
0.04174113721885587 
-0.5158926795580834 
0.4421719794218252 
0.4421719794218252 
-0.06125553956575237 
-0.06125553956575237 
0 
0.2056013612345885 
-0.1247904069747904 
0.06571143837435300 
0.2373851513250288 
0.1720137586479064 
0.1720137586479064 
0.1720137586479064 
0.1720137586479064 
0 
0 
0 
0.06580874100374592 
0 
0.09736617554724919 
0.03586740633660885 
-0.06889853376946780 
0 
-0.03917266427373852 
-0.2372699164084029 
0 
0.09827745291335825 
-0.09810050778331071 
-0.09810050778331071 
-0.02169543971863724 
-0.2820876186292530 
0.4278511329241926 
0 
0.04954020408782849 
0.2085810221704813 
0 
-0.01278733561265994 
-0.1067599047008059 
-0.03831078941326151 
0.1172337009030839 
0 
0.2515887347127898 
0.1050954361243529 
-0.03412196018128450 
-0.09932110236029051 
0.1830825050058180 
0 
0.1969728736416866 
-0.3099556933682143 
0.1463085102909105 
-0.1193263203185777 
-0.1067371455443626 
0 
0.2095320879623502 
0.2095320879623502 
0.2234380831627648 
-0.1098593037373457 
0 
0 
-0.6967561075329035 
0 
-0.09900467181519525 
-0.06351092674486859 
-0.09793395839239265 
-0.04314575779994564 
0.3278122400674187 
0.4471749338017932 
0.1048580013346134 
0 
0 
0.2595153650855155 
-0.2659796503610202 
0.1018230237110075 
0 
0.1344917853635209 
0 
0 
-0.04341728957362259 
0 
0 
0 
-0.3548991354576264 
-0.5880282936453542 
-0.2254380676626695 
-0.08198595231699371 
-0.08198595231699371 
-0.3783123719131303 
-0.05680264440350070 
-0.4387861080704679 
-0.4387861080704679 
0.1620993779850407 
0.1204747986271615 
0 
0.1742938609579112 
0.1742938609579112 
-0.1935794028248776 
0 
0 
-0.2264034653395065 
-0.6047158372526371 
-0.2647004409652416 
0.01788741284776151 
0.4257299090279237 
0.4257299090279237 
-0.1375040243039689 
0.01333827624964187 
0.1086619512715989 
0.1086619512715989 
-0.04240372395708239 
0 
0.1569744662828206 
-0.09067987000528298 
0 
0.2441103628762856 
-0.2238935690258027 
-0.1510656752286813 
0 
0 
0.1830307126048226 
-0.03821681508944439 
0.2192278147513764 
-0.1067371455443626 
0 
0 
0.3203344219781978 
0.1888825250368695 
0.04189159887648494 
0 
0.2283508070438377 
0 
0 
-0.2100667762505463 
0.1574413111106798 
0 
0 
-0.3230674536745864 
-0.4338241556671322 
-0.2276590002195701 
-0.3937579092027679 
0 
0 
0.2301425410979808 
0 
-0.1217674121304800 
0.03775936051762423 
0.03775936051762423 
-0.01017195291160408 
-0.01017195291160408 
0.2620027267684870 
0 
0.1399629311248476 
-0.07991212163125810 
0.1506340347178128 
0.1506340347178128 
0 
0.2561694646725790 
0.1982725041291879 
0.05924720392609392 
0.2690143492368438 
0 
0 
0.1653720106995977 
-0.02685629978610106 
0.1139099366407095 
0 
0.1218261261790755 
0 
-0.1940112260468762 
-0.1940112260468762 
0.1080189129307968 
0.06384608414755405 
-0.3839827852506925 
-0.07054109959569188 
0 
0.0006524293403844528 
0 
0 
0.1964475475963989 
0 
0.3341844284846008 
0.3341844284846008 
0 
-0.1213010936011875 
-0.1139303722715016 
0.1175565271575845 
0.1175565271575845 
0.1340912353867511 
0 
0 
0 
0 
-0.02497181449975258 
-0.1076802664911028 
-0.1024848424877494 
0.4154569018451507 
0.03495317208062081 
0.03495317208062081 
0 
0.1649963526985028 
-0.1567318063240509 
-0.1567318063240509 
0 
0 
0 
0.1260341311545017 
0.08253757568530151 
0.2725469342642926 
0.1836987314544381 
-0.1983110680595681 
-0.2168961662945628 
-0.2040313797618497 
-0.02616349865291822 
0.3357534074516122 
-0.03254191480937593 
0.2024489238544306 
0 
0.1909403061467416 
0.4754812787754700 
0.02570326680130615 
-0.1086552900892692 
0.1770085378261472 
0 
-0.5244830412826680 
0.1520620132827272 
0 
0 
-0.1466129601432783 
0 
0 
-0.08212715531592313 
0.04160247324023038 
-0.02985722525096089 
0.2266352020914841 
-0.2007789798407244 
0.06048708668992082 
0.03478354712662006 
0 
0 
0.1749439284688334 
0.1259752443182891 
0.1259752443182891 
0.08419557701429439 
-0.1007971865099384 
-0.03681630370118854 
-0.03681630370118854 
0.1254476811234793 
-0.3487250995791552 
0.1147716831013435 
0.09690019264782182 
-0.2216532246777507 
-0.1641728993953218 
0 
0 
0 
0 
0.1163034182376935 
0.2694957769058547 
0 
0.1805942297782239 
0.1805942297782239 
0 
0 
0 
-0.1313204608268770 
-0.7765418326667989 
0 
-0.4117036110494434 
-0.07043494456437427 
0.1745577847027630 
0 
0.1417118995194515 
0.04334098341021975 
0.3737044390872237 
0.3737044390872237 
-0.1116123880691586 
-0.1116123880691586 
-0.06512844382157085 
0.2586613224633428 
0.09841115502033734 
0 
0.08563177097667493 
-0.03062708394362327 
0 
0.04249394636777466 
0.01190503381851660 
0 
0.1759527590786723 
0 
0 
0.2561125955264675 
0.08480799020217814 
-0.1262106062775179 
0 
-0.2195433128855665 
-0.06581928681361401 
0.1520461281432947 
0 
0.3214306480783858 
-0.1627918022821634 
-0.1846332919993762 
0.1281813684858365 
0.1679674618379680 
-0.1044866445706981 
0.3263776150582947 
0.1955453427988961 
0.1060998273132170 
0 
-0.05020720061689750 
0 
-0.4625745398156328 
-0.08340492886272187 
-0.08340492886272187 
0 
-0.1742042347446187 
-0.02011102566834116 
0.3585314956457081 
-0.009886153806795120 
0 
0 
0.2382950553741183 
-0.2128965740366748 
-0.2128965740366748 
-0.01957626665827700 
-0.3452868951641991 
0.1182920329296107 
-0.06262129736984152 
0 
-0.06304116559225590 
0 
0.1114361756019016 
0.2617216340844802 
-0.009104715464595188 
0.06328703681366418 
0 
-0.1395928559012221 
0.1481156391011363 
-0.1249886208062042 
0.1625575097000521 
-0.04145827560210573 
-0.04145827560210573 
0.08073274413953359 
-0.002645448332481704 
-0.002645448332481704 
0.04730762458612680 
0 
0.3205476920200431 
-0.06403586227157851 
-0.07638943896936341 
0 
-0.08018778142721977 
0 
-0.1105047121285234 
0 
-0.05441209735075733 
0 
0 
0.2380399042189866 
0.1270707007729993 
0.3051759497862600 
0.3051759497862600 
0.3051759497862600 
0.2756790701607199 
0.1270965825574823 
0.09138091512853642 
0.1271555465349645 
0 
0 
0.1271012708592751 
0.1271047723893899 
0.1270566465241695 
0.1271085340270642 
-0.09853659542206306 
-0.02453188107714031 
0.1211276670439575 
-0.4054448086144298 
-0.2355567642355983 
-0.2355567642355983 
-0.1963165389470319 
-0.2503925182036552 
-0.2503925182036552 
-0.1443775689351236 
0 
-0.5137534458902622 
-0.1132089447302563 
-0.009859417300731569 
-0.3900849549621875 
-0.1042153888851924 
-0.2170170469814616 
-0.08503538374391725 
-0.06536343900552294 
-0.2257412143578215 
-0.3622965292585688 
-0.2807839166003693 
-0.1082086944704286 
-0.3675168296243130 
0 
-0.1455874469340959 
0 
-0.1150818026805340 
-0.02242205211494352 
0 
0 
-0.1324917973918086 
-0.2028351170169877 
-0.1205407401392881 
0 
0 
0 
-0.1716916572544047 
-0.007904264072858996 
-0.1345069054862232 
-0.4621571963779103 
-0.02845404720416307 
-0.2014399888673308 
0 
0 
-0.1352608073797252 
-0.1369915874953128 
0 
-0.06506311218751994 
0 
-0.06440486706253210 
0 
-0.1257156379919434 
-0.4873730862000708 
0 
-0.1958046594683065 
-0.04171242689006838 
-0.3497844086476297 
-0.1347699611862954 
-0.05365865727424527 
-0.1614231860738932 
0 
-0.2503791887094387 
-0.1906030008621733 
0 
-0.06743093126078094 
-0.06743093126078094 
-0.1609271960994270 
0 
-0.06127461293106629 
-0.04766114046854271 
-0.3984615812923459 
0 
-0.1139943624675535 
-0.1139943624675535 
0 
0 
-0.1371876224908298 
-0.08862059474580283 
0 
-0.2717335849715503 
-0.2717335849715503 
-0.6717546965115510 
-0.1461896133221116 
-0.1461896133221116 
-0.1540000545192101 
-0.1161303698951892 
-0.04253231654493900 
-0.04984486993211712 
-0.09272323779877267 
-0.1581751363036038 
-0.2269771692316020 
-0.01869932364680448 
-0.06043997214707125 
-0.07796521648980792 
0 
-0.1975162622555798 
-0.1910262807853944 
0 
-0.4550935177462194 
-0.06369196353702214 
0 
0 
0 
-0.1547376841890988 
-0.1330831617570098 
-0.1330831617570098 
0 
0 
0 
0 
0 
-0.01753770951479643 
-0.01132137812817851 
-0.05224931827978427 
-0.05224931827978427 
0 
-0.3899489240475796 
-0.01552810870987392 
-0.04230354144914428 
-0.1668537151671022 
-0.009309418194660380 
-0.06344224819283376 
0 
-0.5998381539225864 
-0.07400471434492274 
0 
0 
-0.1118363448504683 
-0.07646284047897679 
-0.2794154878879800 
-0.4000328362073374 
0 
0 
-0.02983188509940655 
0 
-0.2314578795748290 
0 
-0.09311846552483354 
-0.2039031974675664 
-0.1765410504640692 
0 
-0.8644116920744644 
-0.3405112718544031 
-0.005431240759580992 
-0.3731579126298359 
-0.1235351476416433 
0 
-0.3062625884705490 
-0.1654144724102706 
0 
0 
-0.05374826315690695 
-0.1737618345715625 
0 
-0.7192679453444905 
-0.4707208044610298 
-0.4209793112186248 
-0.1775810117818994 
-0.5031161187669030 
0 
0 
-0.3042578556346650 
-0.2877252693361920 
-0.1912871503926728 
0 
-0.1937704548199406 
0 
-0.02929674896569108 
-0.04446682237300362 
-0.08431178779386655 
0 
0 
-0.06558377630110286 
-0.06558377630110286 
-0.1179413991828279 
-0.06963228600946117 
0 
0 
0 
-0.01476180191105263 
0 
-0.09365329284731520 
-0.05452823738212149 
-0.1408434034847130 
-0.08775453128065117 
-0.009865616261060590 
-0.1508373603577464 
-0.1621085278648687 
0 
-0.1659972940356372 
-0.1166020594690123 
-0.1738161484557440 
-0.3203466786958743 
0 
-0.04947135075813557 
-0.009192110659772703 
-0.02183783551578303 
0 
-0.04687703011515074 
-0.1509926501903308 
-0.06737172731414089 
-0.05739727230940554 
0 
0 
0 
0 
0 
-0.01192645155259033 
0 
-0.1186472471083765 
0 
-0.1645037427620678 
-0.2443880814202167 
-0.2443880814202167 
0 
-0.1627918022821634 
0 
0 
-0.08519503716626999 
0 
-0.06216701008453428 
-0.1591027352397516 
0 
0 
-0.08577147568267693 
-0.1396671090468909 
-0.1377127149926195 
-0.2362176466357579 
0 
-0.4724865425851376 
0 
-0.01354502293003009 
-0.03563336211824510 
-0.08714676143265301 
-0.01046914116608334 
0 
0 
-0.01064986434600728 
0 
0 
0 
0 
0 
-0.4216824254929211 
-0.02542341868240679 
-0.03311101008209436 
0 
0 
-0.3525330198474508 
-0.3437642556533082 
0 
0 
-0.06106350219289986 
0 
-0.2103836075073680 
0 
-0.1984383632139682 
-0.03145539973109660 
-0.06507709193173905 
0 
-0.1868910089778074 
-0.1105764376741855 
0 
-0.02232178465028032 
-0.1285191900233561 
0 
-0.1527090398465041 
-0.2432671990068554 
-0.1316274365973885 
-0.1316274365973885 
-0.2935130950196373 
-0.2311959758647398 
0 
-0.01608773451835518 
-0.06018148976614053 
-0.1338675956966168 
-0.4517940498697020 
-0.1026535385377157 
-0.1026535385377157 
-0.1026535385377157 
-0.1373849434728399 
-0.1026535385377157 
-0.1026535385377157 
-0.1329398746738946 
-0.07704361403963761 
-0.2229077751483944 
0 
0 
-0.01407805524332423 
0 
-0.2966498631108027 
0 
0 
0 
-0.04524626780211398 
-0.3050833887308443 
-0.1141384161296054 
0 
0 
-0.1263571289794358 
-0.1263571289794358 
0 
-0.1811569636655798 
-0.1272014774465113 
-0.04826266561728437 
-0.03277738799923162 
-0.07768607579951847 
-0.1593848038565970 
0 
0 
-0.1535889557515557 
-0.02697487533509656 
-0.1471429687643991 
-0.1075558094117545 
-0.1075558094117545 
0 
-0.1899310880000695 
0 
-0.09901757774585050 
-0.07552246328937469 
0 
0 
0 
-0.1895445324287325 
-0.1895445324287325 
-0.1933622670411573 
-0.1295074140563954 
-0.07114069155718196 
-0.1056133611479252 
-0.1775471827702629 
0 
0 
-0.2413522268499841 
0 
0 
0 
0 
-0.03394588310895257 
-0.2139830346030758 
-0.2104945240633639 
-0.02349088922397588 
-0.2311561703404312 
-0.2071703992821136 
-0.1118805297784485 
-0.1118805297784485 
-0.1118805297784485 
0 
0 
0 
-0.06138158342448723 
-0.1075407508148024 
0 
-0.2208713683316351 
-0.02621213047324410 
-0.1600821431997152 
0 
0 
-0.1589131200477964 
0 
-0.1430836930949821 
-0.04161971139839383 
-0.1421789538577015 
-0.3541524250386218 
-0.03412196018128450 
-0.03412196018128450 
0 
-0.07650367378974132 
-0.2139875040927642 
0 
0 
0 
-0.1753679759489945 
-0.1565368848762603 
-0.09950233056417910 
0 
-0.01821875362035425 
0 
-0.1121832844763065 
-0.2625535424222995 
-0.2089066120956685 
-0.2256136499441485 
-0.1143547565055000 
0 
-0.2341525520494715 
-0.1040126340206282 
-0.03451385049393975 
-0.02613100414786017 
0 
-0.1860482502218321 
-0.2218038608216880 
-0.2218038608216880 
0 
-0.04320345246353745 
0 
-0.3890330234746885 
0 
-0.04507430201014892 
-0.09947264390796210 
-0.09947264390796210 
-0.003388965219355201 
-0.03370390682933827 
-0.03370390682933827 
-0.02308386010986052 
-0.1744672638364128 
-0.1072187938342398 
-0.2152158297680835 
0 
0 
0 
-0.05961765011799133 
-0.07613555687189086 
-0.1384001242306253 
0 
0 
-0.1384525806960511 
-0.1384416438167554 
-0.2160822329737756 
-0.2160822329737756 
-0.2061664320080376 
-0.2061664320080376 
-0.2061664320080376 
0 
-0.2301312387260915 
-0.01576934244994740 
-0.01002227805269726 
-0.06845505468605530 
-0.06576601413679087 
0 
-0.1552616542090321 
0 
0 
-0.2454473007565425 
-0.2040692697602749 
0 
0 
0 
-0.1517403038468272 
-0.2548966674224894 
-0.1694622458652768 
0 
0 
-0.1385808590636813 
-0.1385808590636813 
-0.1385808590636813 
-0.1385808590636813 
-0.1385808590636813 
-0.2328805062436614 
-0.5356060735681479 
-0.1018729925622814 
-0.1018729925622814 
-0.2192062700861319 
-0.09640187115944754 
-0.06015458071000721 
0 
-0.3848238815113795 
0 
-0.09636132518756019 
-0.09635262016659349 
0 
0 
-0.1270777208218065 
-0.2242159918094904 
0 
-0.1178658280530945 
-0.1178658280530945 
-0.01134772980768747 
0 
-0.03342740124846878 
-0.1759486649641932 
-0.2495207524972980 
-0.1902594056712718 
-0.06484282655656506 
0 
0 
0 
0 
-0.01075816460449519 
-0.01075816460449519 
0 
0 
-0.04135373208013974 
-0.03962551182908684 
-0.01068808905845849 
-0.02772206844483738 
0 
0 
0 
0 
0 
-0.1208492658475409 
0 
-0.4611794030777725 
-0.5960903172832230 
0 
-0.06514005972395635 
-0.1302695548167854 
0 
-0.03941514160385942 
0 
-0.05529027018061736 
-0.1516616643866336 
-0.1516616643866336 
0 
-0.1522959295060763 
0 
0 
-0.4071755833182071 
-0.1268443387630986 
0 
0 
-0.1088628746400103 
-0.2173848977146658 
-0.08110521292124002 
-0.09251642933633028 
-0.003332190069534064 
-0.01763674407709822 
-0.01763674407709822 
0 
-0.2243580221865627 
-0.05412679552045933 
-0.05412679552045933 
0 
-0.2518425777356395 
0 
-0.1693312491602237 
-0.1796162675983787 
0 
-0.1203410094657774 
-0.2335528461976126 
0 
-0.05849678057361999 
-0.05848862675118675 
-0.05845872561464033 
-0.2550973106039050 
-0.09533560173282683 
0 
-0.1390253002030940 
-0.1650427354691518 
-0.09185496434251966 
-0.2531376599184751 
0 
0 
-0.1201998739544807 
-0.1384570363616292 
0 
-0.09967382045466482 
-0.4178407579818579 
-0.1487510035144652 
-0.1487870426745842 
-0.2550841158460034 
-0.1981857251069713 
-0.2043836584107659 
-0.06158494455446887 
-0.05987022257345696 
-0.1836690120438447 
-0.3086781527617821 
-0.3624480228531784 
-0.2811911459420484 
-0.2811911459420484 
-0.4124105256213427 
0 
-0.03966079281202213 
-0.01512780687640282 
0 
-0.3716686274280486 
-0.2924496687584995 
-0.08169872805707858 
-0.1429553512305971 
0 
0 
-0.3843858333523532 
-0.3843858333523532 
-0.2549781226970651 
0 
-0.1344014758069599 
-0.1344014758069599 
-0.03364696494588304 
-0.005373409199412174 
-0.1529958680362412 
-0.1656941389148147 
-0.3010775536285629 
-0.3010775536285629 
-0.08615789663484266 
0 
-0.1422216000016160 
0 
-0.3787766198418876 
-0.1276199999094768 
-0.1085220230746554 
0 
-0.02980153487179024 
0 
0 
-0.008776034827914765 
-0.07652412139136847 
-0.01575799208822145 
-0.01255092603371105 
-0.2150080233383609 
-0.05133617237935892 
-0.07427532691691999 
-0.05096057321546670 
-0.1688975213200120 
-0.3477766075962412 
-0.1688975213200120 
-0.1476412273909945 
-0.1476412273909945 
-0.008996819258152320 
-0.2635645447975266 
-0.3247823918355987 
-0.2908183375311119 
-0.1552600381076939 
-0.04345729770031215 
-0.04385260913426850 
-0.04385260913426850 
-0.08219564770152120 
-0.08219564770152120 
0 
-0.1645128275780539 
-0.07779119880377929 
-0.3320568290362961 
-0.1009351884763300 
-0.2059906748773622 
0 
-0.07312452891385049 
0 
-0.09958111803975236 
-0.2518425777356395 
0 
-0.04317239446194242 
0 
0 
-0.1423727476736637 
-0.2407469678865134 
0 
0 
0 
-0.08240701948976716 
0 
0 
-0.03673391534678740 
0 
0 
-0.2607926788818805 
-0.3116068623585716 
-0.2018491368583143 
-0.2480117718278492 
-0.1492674293235258 
0 
0 
-0.2880435158276115 
-0.02478294967645122 
0 
-0.3783123719131303 
-0.3783123719131303 
-0.3783123719131303 
0 
-0.1789932644368415 
-0.1789932644368415 
0 
-0.02625796137414788 
0 
-0.2648304387879797 
-0.06995135484716797 
-0.06995135484716797 
-0.07378370446989316 
-0.1332947528544097 
-0.07383114217531161 
-0.4918275732483398 
-0.07383467021610615 
-0.07378748268670828 
0 
0 
0 
0 
0 
-0.1081556713804252 
0 
-0.1024989560893590 
-0.3472637956132661 
0 
-0.1620344429348151 
0 
-0.2523030585253918 
0 
0 
-0.01515449999569999 
-0.09536145024184062 
0 
-0.02108352171836752 
-0.2066744021545602 
-0.1691967214733149 
-0.4288178225008683 
-0.06807412515868068 
0 
-0.1149529575860176 
-0.1149529575860176 
-0.4280557579189637 
-0.3442506681412924 
0 
-0.1623018089752831 
-0.1007815085038208 
-0.2320220219808604 
-0.1312972597109201 
-0.2137794163931533 
-0.3864025388153153 
-0.3864255112466060 
-0.3864125482744050 
0 
-0.06885007769186312 
-0.03788596368714848 
-0.1649214734892716 
-0.3517492406892125 
0 
-0.07158446376550322 
-0.1545209328799499 
-0.1496053817819221 
-0.2372699164084029 
-0.09859810370257384 
0 
-0.1188349879885705 
-0.1188349879885705 
-0.1188349879885705 
-0.1188349879885705 
0 
0 
-0.1141150510503933 
-0.05583574035624572 
-0.2042798193459298 
-0.09882992897448759 
-0.1702312266661034 
-0.05579858391229145 
-0.2632338021039414 
0 
-0.1657191934836189 
-0.1565066138778481 
-0.2539871553993724 
-0.3878908925227781 
-0.2176786582428782 
-0.2176786582428782 
-0.2176786582428782 
-0.005900802652683970 
-0.1024999889408950 
-0.1024999889408950 
-0.1296142538838699 
-0.1494314338916240 
0 
-0.04367122473493159 
-0.04367122473493159 
0 
0 
-0.1298258214544055 
-0.2088890196469632 
-0.2088890196469632 
-0.2088890196469632 
-0.06623823644121060 
-0.06623823644121060 
-0.07678492177784728 
-0.1449847561811871 
-0.1339013796495135 
-0.01608366213573579 
-0.07570111663591356 
-0.03768057533035933 
-0.02841881427949283 
-0.4288008667292156 
-0.1076755995082095 
0 
-0.2300844872297158 
-0.02702154731621475 
-0.06599689884513543 
0 
0 
0 
0 
-0.1624625553860488 
-0.1624625553860488 
-0.2125907347375128 
-0.1788103154905822 
0 
-0.1235073808302433 
-0.1235073808302433 
0 
0 
-0.1042153888851924 
-0.01233975586251231 
-0.3376958425476819 
-0.4067380357941434 
-0.1592263690404515 
0 
0 
-0.01927674485341945 
0 
0 
-0.1371758781870210 
-0.1371758781870210 
-0.1200064194627921 
-0.01382022695044498 
0 
0 
0 
-0.1508461577438388 
-0.1545877323988761 
0 
-0.1131742545630351 
0 
-0.07730366363706620 
0 
0 
-0.08443292930618343 
-0.04798423940179098 
-0.09232597429024755 
0 
0 
-0.2071682925149699 
-0.07363022230610705 
-0.1208492658475409 
-0.1208492658475409 
0 
-0.04816900592324936 
-0.2490647361945460 
-0.2001164990153689 
-0.1097758358562469 
-0.1097758358562469 
-0.1523006735626016 
-0.02677959578765101 
0 
0 
0 
0 
0 
0 
0 
-0.1737894724059211 
0 
-0.06423755763488792 
-0.4880288488668768 
-0.4880437560712976 
-0.2550588314112644 
-0.1009721564859046 
-0.4879555092255912 
-0.4879838791336085 
-0.2993060459632249 
-0.3405761208392057 
0 
0 
-0.1996520493387655 
0 
0 
0 
0 
0 
-0.3832528945985351 
-0.03934300499576666 
-0.1585094734618117 
0 
0 
0 
0 
-0.3123861299513179 
-0.3123861299513179 
-0.1767189376356648 
0 
0 
-0.1585089266209416 
-0.1457919526005407 
-0.1457919526005407 
-0.1585454977510532 
-0.1584389978540708 
0 
-0.4071755833182071 
-0.01075981962580925 
-0.06740707493967528 
-0.1006141329063311 
-0.2186956455090076 
0.4831968643681665 
0.1235931758925608 
-0.2105627368221711 
-0.1351884031692168 
-0.02090198896662363 
-0.01726191613389536 
-0.2804943656062727 
0.5629435680409460 
0.03543934971733259 
0.7707850880414515 
-0.2071495624443057 
-0.2970402427769444 
0.04789263379075370 
-0.1430791582937049 
0.4845922332917285 
0.9241721842530152 
0.1860371951156604 
-0.2158724191816203 
-0.09371126667966452 
0.09004907926331854 
-0.1527128241972260 
0.2627373176038249 
-0.1786153128008055 
0.2226049223460013 
0.08817853662571563 
0 
0.1660175319777765 
0.03555006402248671 
-0.005663169863632446 
-0.06910750039462704 
0.1290932048496778 
0.1171080695177736 
0 
0.01054381144278543 
0.1042719046033643 
0.2271933426822503 
0.3884715101683973 
0 
-0.2804934742016727 
0.3047677987973788 
-0.3140804301705187 
-0.3745948884490660 
0.1335400663824869 
0.06696895338898616 
0 
-0.2186750434868525 
-0.04422246229480419 
-0.2732803107378538 
-0.2819815294784640 
0.2896510105017532 
0.08991709421223179 
0.1317184246504768 
-0.2143992915495568 
-0.2040775525414085 
0.07918782575656196 
0.1221638608997202 
-0.3557557125761607 
0.003842914514340590 
0.07332186377120439 
-0.5115224890747768 
0.2465151083913024 
-0.05917860073298016 
-0.02504226246751881 
0.2660146236920147 
0.2660146236920147 
-0.1749139182983617 
0 
0.05445748546921671 
-0.3158266707580716 
-0.2183617639387574 
-0.07479518302647478 
0.08136898291990545 
-0.07649260190000232 
0.1044143882421856 
0.2653341347170899 
0.02928592106247703 
0.04149007501217888 
-0.6348712595451135 
0.2726332794789459 
0.3682361654824689 
0 
0.08139802064824820 
0.09073301145359622 
-0.07048689966861296 
0.3033819164844472 
-0.2101092967748343 
-0.4093477547940161 
0.03969067903210297 
-0.2550657059049906 
0.01615434947010783 
0.2001906508671728 
0 
-0.09815036469943800 
-0.5421170182890132 
-0.3632699984954473 
0.3340859008926737 
-0.03666459159320306 
-0.06255436531392548 
0.07959386897598349 
-0.0003824887513326240 
-0.5115606926509401 
-0.1410363009839093 
0.4955078577917071 
-0.06614895488158705 
-0.3794558065870518 
0.1300271874489619 
-0.3743906179389689 
-0.06743048255163367 
-0.03149071386746528 
-0.2013848828832555 
-0.4250383670719378 
-0.1254125057799994 
0.2622141755603230 
0.1918774911648138 
-0.04640763530387723 
0.3374149270252903 
0.2034991775532669 
-0.2400757610689727 
0.7625133944280539 
0 
0.6395983056369579 
0 
0 
0.2127063596169682 
0.2060554287949680 
0.3123194321153954 
0.2633023103733808 
0.02312058859991633 
0.6698644730282950 
0 
-0.02862460915334008 
-0.2564759943743890 
0.2535832732580834 
-0.1351843004005124 
0.2354013294409343 
0 
0.1028735196058632 
0.1982349852781982 
0.2703528630277650 
0.5587679817980721 
0.2476542660602301 
-0.5179137055730368 
-0.05069118334673356 
-0.5201683173975670 
-0.1763520345707550 
0 
0.8791271461269639 
0 
0.4038545889955559 
0.4038545889955559 
-0.02388765535541156 
0 
0.08770722167637218 
0.3203771141130370 
0.3530497148351210 
0.1949448955732271 
-0.3371024535454542 
0.1265133216064384 
0.004861278986445186 
0.1730741895850023 
0.06426200640607539 
0 
-0.06047700901806533 
0 
0 
0.1830342292864824 
0 
0.04572366158346350 
0.2232708443537264 
0.2232708443537264 
-0.3089889951801990 
-0.2244674752896030 
0.3346446959170512 
0.3346446959170512 
0.1250730035333319 
0.1254080726464702 
0.1161125996785300 
-0.05018432070059439 
0 
0 
-0.2429938561504934 
0.3246057270607392 
0 
1.070467952463104 
0.3201465834730617 
0.03008486144304274 
0.02805730985254812 
-0.3557901629335470 
0.1012617024869486 
-0.2243680878019752 
-0.4601373712145221 
-0.3038611082785865 
-0.1834476190823216 
0.09049552391742635 
-0.1367808114758246 
0.1352578914533938 
0.5271663254533099 
-0.4679083574332482 
-0.03782209669517182 
0.1909618334207221 
-0.001274500003840051 
0.4532633583502554 
0 
0 
-0.07180296429130123 
-0.06717793046279878 
0.1979870123737115 
0.2808605655917791 
-0.1036143624724106 
-0.5811945710859892 
-0.1575402397784967 
0.6676184435911318 
0 
0.3056629245433679 
0.4491768472050328 
-0.08196794884784969 
0.009237139338032496 
0.02695610175463634 
0 
0.09018071966995300 
0.1014614594702956 
0 
0.005005344853237713 
-0.1712454218021477 
0.2772423787648817 
0.1000038301217046 
0 
0 
0.04673567293221441 
0.1174154563798543 
-0.1753432922241037 
0.02242432425624203 
0.2586834574424617 
-0.07198360347601280 
0.2586834574424617 
0 
-0.2307445676729326 
0.1490106856138458 
0.3457881967164974 
0.2842941332049469 
0.2807750646321386 
-0.1877659288048623 
0 
0.09146603415371471 
0.4964523358650134 
-0.2675242994992573 
0.09107282528347811 
-0.07996322056203190 
0.1724021185414861 
0.1724021185414861 
0.1724021185414861 
-0.1797592379739152 
-0.1797592379739152 
0 
0.3301905282827529 
0.1458829714430724 
-0.02424800112073660 
-0.3150706577138083 
0 
0.08761577677649898 
0 
0.5096489848180047 
0.4630633511625885 
0.4316062411384588 
0.08069192110742325 
0.06205330215784339 
0 
-0.08310187500899072 
-0.3072284356351998 
0.2544559488361503 
-0.1231483408630551 
-0.2812518967312675 
0.3356697331333122 
0.1141423428651682 
0 
0 
0.008313941627222021 
-0.04799493230045853 
0 
0.09602944707592746 
0.1803778256601478 
0 
-0.1523686015345010 
-0.4042059083746437 
-0.02372402206221325 
0.5602302879845467 
0.08761577677649898 
0.09271007513535837 
-0.1195980179222958 
0.09271007513535837 
0.2186789721305033 
0 
-0.08337879046616350 
0.2153905863943190 
0.03353023833236135 
0.1757240128287125 
0.1204819048034432 
0.1006051639555222 
-0.009687542956773328 
0.2323241289918462 
-0.2696622095865778 
-0.4038385358570584 
0.1953512742174174 
-0.1078752033891051 
0.04779722516646304 
0.1460970467151908 
-0.08093008415039488 
0 
0 
0.06620378571160247 
0.06741856332324704 
-0.3847281016065938 
0.4155316391337462 
-0.06422840145427333 
0.08836282347715174 
0.3941431756566600 
-0.5798596800115740 
0.06790710393953081 
-0.3412207281487737 
-0.01239339654256604 
0.06790710393953081 
-0.1259703050071185 
-0.2374707186880233 
0.1146874038676007 
-0.3054338901427149 
0.02134408299600058 
0.2809664917000155 
-0.02821223593688570 
0.06850878190242632 
0.3649017913304403 
0.2465784174608952 
0.3809924893577232 
0.2226774170234083 
0.06905555730225174 
0 
0.1256981333281471 
-0.4969197756204770 
0.07727617156708427 
0.8166528584586463 
-0.03618136212282445 
0.08030189563851071 
-0.02904370361875553 
0.09124401061338755 
0.6719562543663739 
-0.1642427820168830 
-0.1642427820168830 
-0.1642427820168830 
0.01883972298893499 
0.06320459652033983 
-0.4985062167437258 
0.05125918938244126 
0.2685294126054163 
-0.02393663960663638 
-0.08753227950355702 
-0.1088871043485271 
-0.06767273699836818 
0.2050192367847729 
0.2405680357808141 
0.2405680357808141 
0.09001166179273153 
-0.008387632187745589 
0.09001166179273153 
0.4203507047316328 
-0.07436907545515242 
0.1720577554956402 
-0.1980936126939058 
0.03380628619537730 
0.3406894456753695 
0.4452633577721418 
0 
0.01512433870247795 
-0.06839721354174666 
0.2115802686694474 
0 
0.1701318469954783 
-0.2506762943715527 
0 
0.08795118763418261 
-0.3646114235334009 
0 
0.1764655940996518 
0.09897552618080277 
-0.05406027821792911 
0.2684963391287000 
0.1998114749914233 
0.008547865431439192 
0.09630239671209036 
0 
0.3028468615660765 
0.3425083219923949 
0.2522350596163513 
0.2682474680434975 
0 
0 
0.3188523298277982 
-0.3586819590500289 
0.2265479871205567 
-0.2414548803367206 
0.2273797979061830 
-0.3166117749453917 
-0.2123284804209796 
-0.2790967991021402 
0.09712684451601354 
0.3447197267128982 
-0.1957917744100365 
0.1896922275002393 
0.1380534042020512 
0.3274721654372083 
-0.5072096744177397 
0.3560809641412545 
0.2057313517382108 
0 
0 
0.4001793904949408 
0.09316997729409716 
0.6754838030776584 
0.1808180367901037 
-0.09507069653912997 
-0.5047028218223972 
-0.1488849464777688 
0.2898414124934736 
0.01514028922733910 
0.3759800554257835 
0.3233554542974212 
0.6944845706866382 
-0.4833291605132867 
-0.02938745461530118 
0.6542608504461669 
0.5202780320736969 
0.5405945161490985 
-0.08283294296552095 
0.09966140680968565 
0.07406140931188619 
-0.03211774098741568 
-0.1368710318906766 
0.1229888389613305 
-0.08520557696599722 
-0.2829522679663124 
0 
0.3777884522549556 
0.2422335794628346 
0.2623725383211281 
-0.1226963605604200 
0.2392384099069210 
-0.2824198833995410 
0.004570034025645306 
0.06377500369273632 
-0.08953102647415274 
0.1443534339263909 
-0.8830203329018977 
0.2381345429804578 
-0.08928840460259665 
0.2859171041356680 
0.2460574849441029 
-0.4854797934905643 
-0.6955895895235497 
0.1323631162974034 
-0.0006636258203790019 
-0.03561967333055167 
-0.1894563576684411 
-0.2986812234295098 
0.03019843782008309 
0.2659349876523576 
-0.1178371352200283 
0 
-0.3578582705827496 
0.05475910343857782 
0.1554359609854734 
0.06006799292284130 
-0.3038552716256941 
0.3660433262794934 
-0.1826360901217903 
0.5937941237055071 
0.2265333133493361 
-0.004243356925333896 
-0.08997810936186122 
0.1615090670026852 
-0.1075129726929384 
-0.04527625920831112 
-0.2458842367283679 
0.2606103754041812 
-0.2876008726549313 
0 
-0.2987781654257823 
0.1306435073342791 
0 
0.2223647402990502 
0 
-0.03386285209365182 
-0.09782541937856372 
0.2897481127170956 
-0.6424487265942699 
0.2289204637506707 
0.4670461507872054 
0.4885586323877225 
0.002305142812319822 
0.08745288897992176 
0.2544605456995125 
0.2944989131530229 
0.3856240872010969 
0.05674277965489231 
0.02644687711012674 
0.1836825165014935 
0.1572893734995064 
0.05560718676622237 
0.1745721466801825 
1.123913103909467 
0.04882522245534528 
-0.07104181963057604 
0.1260965722066321 
0.04008283927692917 
0.2645820671424489 
0.02425022762897874 
0.1481633683726932 
0 
0.3086612568141565 
-0.2383199769107050 
-0.06370626272064040 
0.1282551402326090 
-0.4527057195881497 
-0.5935648328220718 
0.1803191705597218 
-0.1652941008410177 
0.4305735720256236 
0.03391617884607200 
0.07934499096598827 
0.3068531549319514 
0.2067679735912929 
0 
-0.3284486736579393 
0.3066486244685042 
0.1886573548220896 
0.1330935841145835 
-0.2166548898055724 
-0.1466151914072870 
0 
0.5182483959648324 
0.002082455528672105 
-0.01914536657317395 
0.1833680737051201 
0.2372221692170261 
-0.1446845853139706 
-0.1446845853139706 
-0.2901673179112762 
-0.3508968804450363 
-0.06585845223219805 
0.02126421485784916 
-0.03149071386746528 
-0.4116087363945629 
0.09783156394762435 
-0.1884261291136700 
-0.1931706312848524 
-0.2294085876482914 
-0.2644984470976196 
-0.2644984470976196 
-0.3891635090257274 
-0.2568369971286522 
-0.02457942659557178 
0.2215972440439868 
0.2275630464571366 
0.003736199181137146 
-0.1242400698655680 
-0.02609936837969354 
-0.04471805320083100 
0.4179326478101155 
-0.1697101771615086 
-0.02716909136305214 
-0.1277305570032974 
0 
0.1861151492936078 
0.01397634818651557 
0.1303039341671247 
0.1984075509805489 
0.09809274114826799 
-0.2019596540246347 
0.5127902095775061 
-0.06350260086137183 
0.3003762701630545 
0.2437497192277592 
-0.05946232918243427 
-0.5669501122741775 
0.2380162031285242 
0.1501421994099848 
0.2073412561508108 
-0.1659703270953301 
-0.1659703270953301 
-0.1659703270953301 
-0.1405344170049541 
0.1102141818577374 
-0.1929017865574679 
0.2091279169376159 
-0.1649321909746879 
0.1562672578521414 
-0.03593839065359216 
-0.2447763498029006 
-0.05245925386560890 
-0.3032958683516309 
-0.3032958683516309 
-0.3353331557791993 
0 
0.05601477898405768 
0.2598371217282511 
-0.2233175469415071 
-0.2250472687167300 
-0.3256366949280034 
0 
-0.09949845234832502 
-0.2312778254868262 
0.5737016691844303 
-0.1461029656307830 
-0.08469749419782832 
-0.2041172749346915 
0.6247944613203832 
0.09610854574280205 
0 
0 
0.2285642456725780 
-0.09541884849172265 
-0.4017026505370023 
0.09681902508802215 
-0.1365211496282414 
-0.02754464934829518 
0.08801390459875662 
0 
-0.06670107801284629 
0.1547824259926706 
-0.07158446376550322 
0.1093310969367561 
0.1010811641357177 
0.07307405155327681 
-0.08863119007641145 
0.1106870737697389 
0.02800711258244091 
0.03687061909842071 
0.03687061909842071 
0.03687061909842071 
0.03687061909842071 
0.08109176500762937 
0.06015876281516266 
-0.5500568474848548 
-0.03407839446824631 
-0.1546283236052824 
0.2563305004088406 
-0.3261815868484699 
0 
0.04080263754178550 
0.1755837539875317 
0 
-0.3523623614327525 
0.4813479381320421 
0 
0.2750666970704198 
0.08720886895408644 
0.1377356654112606 
-0.02888159972636509 
-0.2309652620772466 
0.2084470796785127 
0 
-0.04546995448301129 
-0.07930936874227197 
-0.2504419820287602 
0.03876559960334390 
-0.3130619429998315 
0.3994316006845436 
0.09909023063903685 
0.1061167014047423 
-0.06061501016887227 
-0.1794181959825307 
0.1933636042408695 
0.3649173814483074 
0.06783321042065530 
-0.1944743330872239 
-0.4064194039032801 
-0.1102895674200220 
-0.2488293659237690 
-0.3043618213049499 
0.1437416670070100 
0.09826184807607240 
-0.0002084612126117130 
0.2994788774600182 
-0.07385009788980541 
0 
-0.3633489209055047 
-0.5098928794838039 
-0.02752485358903854 
0.4320015558461212 
0.09603860824288442 
-0.2441004927076163 
0.9046510100691390 
0.6818518375298335 
0 
0.1966366826715253 
0.1341244352430763 
0.4652567142677767 
-0.7085363854686398 
-0.08825408121651330 
-0.08825408121651330 
-0.3848180805820403 
0.03141406250688215 
-0.1172583710313001 
0 
0.3186025171969010 
0.3825622228141029 
0.06249440242741478 
0.2909540241614519 
-0.7352018353690386 
0.4568074394597977 
0.1405916591621486 
-0.01211273484134526 
0.08014058133695373 
0.08014058133695373 
0.0009325740136571295 
0.1484242796373908 
0.6384216705015963 
0.6216190019881978 
0 
0 
0.1339326110029503 
-0.02935880933530803 
0 
0.2713917599119469 
0 
-0.3636764178059406 
-0.1374043383948798 
0.3651910166178701 
0 
0 
0 
-0.1070924641672766 
-0.1372299836953057 
-0.1282870915284531 
-0.1282870915284531 
0.3899125310412048 
0.06444616346767036 
0.02096955085761531 
0 
-0.2135427241125993 
-0.02812244773241792 
-0.2680374733842862 
-0.2789745008010664 
-0.01010135462400513 
0.3663593611677845 
0 
0.06149406351155035 
-0.02420273001897336 
0.3967055349387658 
0.02096511130816419 
0.02096511130816419 
0.08845237724216874 
0.2043807142684048 
0.1135491825916380 
0.07976103369675548 
0.2478247801273513 
0.07976103369675548 
0.07976103369675548 
0.1555293208982570 
0.02975974731298333 
0.1405946793969982 
0.2104524513332061 
0.2354769068888614 
0.2784419146027574 
0.09446905853570031 
0 
0.2723232554035555 
0.03700672721263179 
0 
0.2638406820986958 
0.2638406820986958 
0.1716638824476459 
-0.3663390730073531 
0.07979940935120725 
0.07979940935120725 
0.6378050007070170 
0 
-0.2772926378647735 
0 
0.2334518785811733 
-0.1507514677529278 
-0.2880223232590386 
0.1301075129889993 
0 
-0.4309630576323930 
-0.2395874929085075 
-0.04775051828044313 
-0.2011517555411963 
0.2607144633346745 
0.02712793399375667 
-0.1716136764293880 
-0.3748134033312363 
-0.5574393384006082 
0.1326327458572135 
0.2713264901921421 
0.2179844482533588 
-0.1408208255784037 
0 
0.2996534253359503 
-0.2108549381491824 
-0.1970390928121905 
-0.4019465135264634 
-0.04585661295751595 
-0.7441773330540744 
-0.1047993860468127 
-0.09509371062403082 
0.4265037038557344 
0 
0.08652947032797152 
0.2589005909773249 
-0.1037635444524622 
0.1293973187338659 
-0.08635832593580492 
0.9105212157532323 
0.09026752180601373 
0 
0.1116987041810427 
0.2926166412328975 
-0.2323346224687075 
0.3211266184756505 
0 
0.2071105932188048 
0.07992323583851070 
0.1237935107412166 
0.3829618301109368 
-0.4724063365740854 
0.1020080691706404 
0.04134419147532605 
0.2924303665958055 
-0.1975239674073041 
0 
-0.9315211039801465 
0.03826761035794062 
-0.07961589798225518 
0 
-0.2709666537638401 
0 
0.3604437180780573 
0 
-0.04448377893515972 
0.1238573896301144 
0.06744845429190968 
0 
-0.1885714564515429 
0 
0.05952732427428370 
0.1729208876106760 
0.1752327174759830 
0.07698011297618318 
0.05460654506828763 
0.05460654506828763 
0.05460654506828763 
-0.06103499376048002 
-0.08238244631821716 
0 
0 
0 
0.03390612977911185 
-0.01140685679923805 
0.5225005598243369 
-0.3853580265752695 
-0.2928804316004232 
0 
-0.05825048092523261 
0.2630524882792220 
0.09590081433353555 
0.09590081433353555 
0.03701383901228782 
-0.4160573086320908 
0.04129810217400863 
0.05687808848804633 
0.3240697813397182 
0.1088229601663127 
-0.2662999000236335 
0.04844025050475213 
0.4468960481893233 
-0.5223856120613248 
0.3807981529876970 
0.1809623637468550 
-0.04562611085563937 
-0.06108178176924512 
0.08038705718155326 
0.3444673346445549 
0.06864034824982379 
0 
-0.04551687218139261 
-0.02579698197576669 
-0.02579698197576669 
-0.5463439674626430 
-0.08268935768893695 
0.3896855363991244 
0.3748792666847909 
-0.04317866882257382 
0.1121794277449666 
0.1121794277449666 
-0.4137049852247705 
-0.004247958276683488 
-0.6344817519912459 
-0.4896623133459579 
0.3431653726016763 
0.1564054332059380 
-0.2129349915653236 
0.01802320854402822 
0.1804048234051232 
0.5008169132013504 
0 
0.08683652007643470 
-0.03399810405451571 
0.04506348272786826 
-0.05060860110712305 
0 
0.2305472803578341 
0 
0.03793111420118689 
-0.2254883557608113 
0.4685285162997052 
0 
0 
0.1406844122653691 
-0.5434634153114761 
0.2598524893401143 
0.2373624682375977 
0.09080610233182664 
-0.01747303249756602 
0.2883112185520971 
-0.1661918076699550 
0.06868486413727665 
0.09321594732120421 
0 
0.1069144760623219 
-0.03710530489087591 
-0.08232266525085143 
0 
-0.8480753014406415 
-0.3365726260292552 
0.1021413606029392 
0.2831294694350526 
0 
-0.06961862943255948 
0.1002842306309059 
0.1597393835433774 
0 
0 
0.2249004241550046 
-0.09175732548853818 
0.3069548480593449 
0.1469106002916197 
0.2265450162042446 
0.2265450162042446 
-0.2898974645920837 
-0.6622477548790240 
-0.1230534826026784 
-0.03072801627973361 
-0.03400862699344232 
-0.02659923250912300 
-0.09762293161928885 
-0.1054347962332837 
0.3760616277819565 
0.06619814566130625 
0.1644586140771920 
-0.08432566456561492 
-0.1834451326978465 
0 
0.05377396688596273 
-0.002199001409863830 
-0.01059700196513152 
0.3613722619641454 
0.07976617312001497 
0.3371433732194319 
-0.1883648815111683 
0.2068175061555893 
-0.2303600128938450 
0.2762253783813202 
-0.03375647512910379 
0.2654699941686756 
0.1740382507467790 
0.2853514153399654 
0.006156871874117779 
0.2145789665666432 
0.3496177448961174 
0 
0.1764264389298706 
-0.5218737482377056 
0.6521239531947340 
0.01858257119834054 
0.4425236236636426 
-0.8137658219858722 
0.1812390005459483 
0.4635787542818237 
0.4155590197791286 
-0.1626924103796913 
-0.3298963442725333 
0.1170517121855157 
0 
0.2339010581668428 
-0.05987022257345696 
0.2602828480177269 
0.09552205195564512 
0.3998464700026547 
0.1873561640483214 
0.3939423123624143 
0.1358061633602898 
0 
0 
-0.1755819370111964 
0.1506149122524278 
0.2088563958257420 
0.1506149122524278 
0.1506149122524278 
-0.4617622819910757 
0.2347692940527145 
0.1434786945891136 
0.1434786945891136 
0 
0 
0 
0.2093747204729074 
0.2093747204729074 
-0.008553332543320257 
0.1543350015672071 
-0.02758717005412193 
0.1419734060106757 
0 
-0.3849649870710680 
-0.2458392131506876 
0 
0 
-0.05388154618718070 
-0.1794551868410132 
0.03410114300777331 
0 
0.2796460367634910 
0 
0.1415391876866374 
-0.1380155806232199 
0 
-0.08601988795082133 
0.09187665021815679 
0.2341663097847601 
0.2341975633280881 
0 
-0.1487171426025164 
0 
0 
-0.6268337581802910 
0.2808859842603581 
0.4336621731107190 
0.1097459523999934 
0.2732251598153112 
0.3518145587590899 
-0.1362635667198718 
-0.1893057311504777 
-0.2984423675227946 
-0.3372397424796087 
-0.08969017881679138 
0 
-0.2584232388031960 
-0.1414111524252608 
0 
0.1621019597800046 
-0.4685698665246700 
-0.4939310439059488 
-0.008699207372536027 
0.06515590936828748 
0.2905719652225061 
0.08272994318005521 
0 
-0.2897942298822124 
-0.005388229171674357 
-0.03001398562170678 
0 
0.04926768026164814 
0.06150323582239375 
-0.1462939211596098 
0.1060713252118209 
0.1060713252118209 
0.2294945524080527 
0.04443892972552785 
0 
0.1424884222379066 
0.1424884222379066 
0.1025742864542870 
-0.06552258019818316 
0.1946540985999236 
0.2492673860925280 
0.5161109857149513 
-0.6554354355823786 
-0.1217674121304800 
-0.008708753651236470 
-0.04804309777084922 
0 
-0.03060829867042283 
0 
-0.03406399451438758 
-0.01466342814196424 
0.6052706193739902 
0.3509215213045602 
0.5661890791413720 
0.09464862694506428 
0.08183883629219033 
0.1988680492083421 
0.2640160722113308 
0 
0 
0 
0 
0.1646535171212989 
0.1210894731483243 
0 
-0.1125817260519856 
0 
0 
0 
0.1992241010890661 
-0.2484969067490790 
0 
-0.03330118072885464 
0.4997681052181801 
0.06172078595601165 
-0.2273900761374720 
-0.2273900761374720 
0 
0.1424236787327775 
0.2039485987875123 
0.06151551647799251 
-0.05174296089898448 
0.2956566978099902 
0.5343585846260346 
0.1756984234691728 
0.1647290439805861 
0.1784807857251609 
0.03857561342045868 
-0.2986999826105088 
-0.2067196433683115 
-0.1345016336555731 
0.3139073882857217 
-0.5289765654660640 
0.09795426230505447 
0.2994348608492255 
0.2427678854129390 
0.2260861094294974 
0.001046077705493913 
0.03442990528242441 
0.06122163540384118 
0.04501723387736849 
0.04830900759860113 
0.1698971848554775 
0.1661169157168158 
0.1657490101316609 
0.1220831198279319 
-0.5415505480063004 
-0.1353634686032302 
0.2272915800968095 
0.09615549033479405 
0.2202720500776586 
-0.1169392590780393 
0.1436486829318893 
0.1182127728415134 
0.4330128411477368 
0.1000223223775146 
-0.4324253737446903 
-0.04584393194000316 
-0.2920696413400017 
-0.6053127148803151 
0.07428940984141635 
-0.3644124072277701 
0 
-0.1653689465044717 
0.4927240922803534 
0.2669819498497804 
0.1095492311890124 
0 
-0.1409620154090145 
0.1402624675442460 
0 
0.02992146447722619 
-0.2704981836431567 
-0.04759098520235915 
0.2784378128764447 
0.2570629344223404 
-0.1033567684843894 
0 
0.2464988050379662 
0.02001924515455211 
0.05085866982123032 
0.3154702771839655 
0.005340239664077855 
0 
0 
0.1253968169943389 
0.1214686892775308 
-0.03012187434031535 
-0.1490481204468672 
0.4956278928222464 
-0.1596056233415333 
0.2152341182664066 
0.008201424833348042 
0 
0 
-0.009229921079432330 
0.1131491508577463 
0.3611406435888697 
0.2317002218651258 
0 
0.1655990773385419 
0.2137503224860242 
0.06354739889956176 
0 
0.06261445211164010 
0.06261445211164010 
0 
-0.2189891519203047 
-0.3663676146037577 
-0.1115513238507370 
-0.06068789326759767 
0.003030936553490078 
0 
0.1307206987048497 
0.08448096002760941 
0.2548162907530208 
0.2548162907530208 
-0.6082175965098991 
-0.07591139704759525 
0.09818631446909376 
0 
0.8249555397700494 
-0.02930998306926438 
-0.02930998306926438 
-0.07965769292927027 
0.2231202173970671 
0.1211509557165135 
0.1211509557165135 
0.08066224302534280 
0.004841834089645281 
0.04042446592841589 
0.08071061903759187 
0.08070721985686904 
-0.4535323980364081 
0.03114508206275181 
0.1020477649317914 
0.08067204465205732 
0.08066869966139631 
0 
-0.1896919838054908 
0.05941157637574648 
0.2522995599362449 
0.1459253806430712 
0.1640137136483275 
-0.02577388965169805 
0 
-0.1621469893924266 
-0.02957192815765711 
0.3086779878005268 
-0.3933760853309766 
-0.04097120016560470 
0.1636103740940672 
0.2803779697492750 
0.1448138071196923 
-0.03045282488045602 
0.5013976295957714 
0.2533228787393279 
0.05110155467043992 
0 
0 
0.08444304631592427 
-0.1101958166544462 
0.1764417777990220 
-0.005862982677464004 
0.3322049575557580 
-0.09917802064266057 
0 
0.1471230465707496 
0.1471230465707496 
-0.1746516161322452 
0.02453108318392759 
0 
0.04765393787659734 
0 
-0.1807168787542433 
-0.05888697532124774 
0.04846499595994153 
-0.1515471937931109 
0.3731868847053098 
0.03304383820198538 
-0.05321051875557546 
0.1982807635481333 
0.3164397987594294 
-0.06160480458644503 
0.1251463591219576 
0 
-0.5360284310158987 
0.4448182817070780 
0.2657022336209805 
0.09644012276820478 
0.2466089181358361 
-0.04002248733451317 
-0.007293280564700938 
0.1175060262708663 
0.009324845293961478 
-0.1351549086244538 
-0.01785466785563494 
0.1164619882000468 
-0.3643637866808304 
-0.3290629775431039 
-0.5276749496253103 
-0.04616947563277965 
0.1301559207499523 
0.1638300693885217 
0.07360058931173172 
0.1899843870500615 
-0.1321742670496850 
0.1545986745175573 
0.1545986745175573 
-0.3300883092819288 
0.2487980350441338 
-0.1996938271308518 
-0.1624382609983882 
0.05395799274295365 
0.1421486362274988 
-0.05177989100158445 
0.1072302875573086 
0.04692679934263556 
0.001525527686066341 
0.3399421698380912 
-0.08750039735475490 
0.2842193683094355 
-0.1693053527836089 
-0.1049278414080207 
-0.1049278414080207 
-0.1759163455227278 
0.1809095317249301 
0.08700944777854266 
-0.5042462549292188 
0.03984059209359790 
0.2128738983694783 
-0.2559341047932329 
-0.3630409293600286 
-0.05919102609087378 
-0.1320283500784595 
-0.03201873237200064 
-0.2700368343748049 
0.1898140717810728 
0.1874310856465412 
0.1874310856465412 
-0.05857677244374718 
0.1874310856465412 
-0.7155107435809848 
0.3809528503396231 
0 
0 
-0.03074456676397534 
-0.03074456676397534 
-0.004702796305431550 
-0.1218094588722690 
-0.2832248446327383 
0.03948418622179338 
-0.1131165862196850 
0.3935173060690420 
-0.08618895687558713 
0.2619173653687301 
-0.3492949069377081 
0.1017287482288948 
0.06125263246291893 
0.03333149386613137 
-0.2379112187720923 
0.09789018216182432 
0.006461714701059157 
0 
0.3109963081950743 
-0.3533098409712671 
0.1951152533644560 
0.1845800782887496 
0 
0 
0.1102191501572719 
0.06444616346767036 
-0.08438618938294565 
0.06930183400351389 
0.06207841567481548 
0.06898974090408093 
0.03395424567727697 
0.5018078408550231 
0.4111610401360567 
0.3266585015357503 
0 
-0.05001334833841114 
-0.05001334833841114 
-0.01428019689726775 
0.3599515830926600 
0 
0.7590399058704884 
-0.1897582233181336 
-0.1897582233181336 
0 
-0.5806449189218085 
-0.2672235123632914 
-0.07177305082107234 
0 
0.06974830584803154 
-0.04443227465122297 
-0.04438193308306000 
-0.04440490605708722 
0.1898140717810728 
0 
0.1820712605644662 
0.1256351123348420 
0.1256351123348420 
0.3025167901251088 
0.04593627600639902 
0.7129459987187104 
0.03796102828644379 
0.07458586955444343 
0.1849213010682678 
0.03660610919800019 
0.04823524137322749 
-0.06547465270194011 
0.3130998961177377 
0.4437897421061480 
0.04800164983271080 
0 
-0.1631692646878663 
-0.02955934134075515 
0 
0.3343194557429465 
-0.03355527588733330 
0.09630334580432050 
0.03790831231451652 
0.03790831231451652 
0.03790831231451652 
0.1111559613577992 
0.02702521869072555 
0.1413257009366176 
-0.2786978319731085 
0.3212001571647329 
0.5207521568983422 
0.09348405559796197 
0 
0 
0 
0.02364882067563823 
-0.3836059243602784 
0 
-0.2024425329132377 
0.1056152264854427 
0.04207806410782565 
0.2665998020324243 
0.08740089448958326 
0.02002936256986755 
0 
0 
0 
0.1365107423759497 
0.09002048085760196 
0.1239371083477852 
0.1239371083477852 
0.1239371083477852 
0.4008331133354214 
-0.06167618972361282 
0 
0.1657420798363729 
-0.1166270084316971 
0.05964141246263055 
0 
0.2033572090065853 
0.09603137115970385 
0 
0.08263542858755049 
0.6461357867885900 
0.1730199356817402 
0.6058424628546577 
0 
0.2073202212294065 
0 
0.1858837208805039 
0 
0.1506316461386931 
0.1506316461386931 
-0.2409489718717817 
-0.1996095876202137 
-0.2679716904381531 
-0.1245128462379582 
-0.2378734360168648 
0 
-0.2495724736232893 
-0.1053557998328208 
-0.2420854888074964 
-0.4985772946052179 
-0.01255092603371105 
0 
0.1300538379304894 
0.2456449088534683 
0.2456449088534683 
-0.3481846239281570 
-0.01059987637277353 
0 
0.5340554170723617 
0.2176779580357949 
0.1851165704964477 
0.1851165704964477 
0.2507214213900206 
0.2507214213900206 
0 
0.09514517504919978 
0 
0.1224373432191895 
0.2208005606348979 
0.2626788269546578 
0 
0.1757733700326683 
0.2874616979017456 
-0.4089969791370598 
-0.06040584913267634 
0.01853212893316133 
0.1851671960191559 
0.1185329867902135 
-0.3358083847219132 
0.1185329867902135 
0.2901835035681352 
-0.06218361320066725 
-0.06218361320066725 
-0.06218361320066725 
0.03732947696894438 
0 
0.1347591883873248 
0.06580874100374592 
0.03894614178962511 
-0.1057190059660364 
0.2599572498330651 
0.3131424602382091 
0 
0 
0.08493871288689459 
0.08493871288689459 
0.2944454113699221 
0.1893145593938523 
-0.04428275828512517 
0.04997815785556205 
-0.06598103668832600 
0.1350218674957741 
0.1671744463869611 
-0.03914091804567271 
-0.6304933157130264 
0.1378160561942567 
0.3437142155602626 
0 
0 
0 
0.2114106860380393 
0.2332155483525995 
0.2228963181457019 
0.3503421704394282 
-0.1613421331943038 
-0.2366406436321616 
0 
0.09876171678511365 
0.1819221848132973 
0.08202490061747508 
-0.1771975143709862 
-0.07534311372153786 
-0.2703958311406330 
0.2534120455989344 
0 
0.06028098007893479 
0.2000630162123089 
0 
0.1867237299153132 
0.6060507518369233 
0.2332796936626397 
-0.3783934736547363 
-0.08030050048209686 
-0.08030050048209686 
-0.3063242498811573 
-0.1335816617409548 
-0.1335816617409548 
-0.2518665487892028 
-0.1836570679542545 
0.1234603666451600 
-0.3655851719417311 
0 
0.04226950066715737 
0.1590992256070699 
0.07442157463363422 
0.1578387924178298 
0.1945780015171342 
-0.6325896888605198 
0.4347181341939885 
-0.06828837653478177 
-0.2839930532287893 
-0.2370560808325076 
-0.2828702181431105 
-0.06237158067973336 
0.2311797128752822 
0.3079015603887639 
0 
0.1800483793241255 
0.2948602957395012 
0.1962264726199416 
0 
-0.04660703687569851 
0.02212123819454999 
0.2426463885075542 
0.2946196649935425 
0.3970380112136469 
0.1542994540924723 
0.06242731131930464 
0 
-0.1087129781242158 
0 
0.1245277595178998 
-0.1092370651968740 
0 
0.3951598758694239 
0.09755163596383169 
0.09755163596383169 
0.09755163596383169 
0.09755163596383169 
-0.2209862623613458 
-0.1952771079710759 
-0.1728806926781951 
0.2124015323052939 
0.07582954451051664 
0.07582954451051664 
0 
0.3451644093950014 
-0.08875605712637952 
0.03855217462625588 
0.08491299527434874 
0 
0 
0.06552555869974730 
0.08324847618075351 
0.2118447906788456 
-0.6586156368599937 
0.3054377332343129 
0 
0.1765567081505702 
0.002354007515859458 
-0.02621810806785200 
0.02679672165571893 
0.4368317830419208 
0.2069278774888701 
0 
0.2408102722610126 
0.3635784995407871 
0 
-0.2204345581628956 
-0.1948235791240876 
0.2254725550222696 
0.3117438265274188 
0.2935904510531435 
0.2142203962236201 
-0.07313230427275813 
0.06084825793345621 
-0.4740411146472544 
0.1343830954904037 
-0.03576727638366649 
0.1319794099505310 
0.1360122647788666 
0.3243912959998622 
0.4114039020402716 
-0.1585952526278465 
-0.1938458386571807 
0.02728132673866271 
-0.1585465414399312 
0 
0.1623498877630568 
0 
0.2179920258425666 
0.06560485089357297 
0 
0 
0.2294490181750299 
0.2294490181750299 
0.3247675742199988 
0.2135193386354579 
0 
0 
0 
0.1227655570363539 
-0.01640902206416938 
0.1815529190592265 
0.1815529190592265 
0.1946682425769709 
-0.1140354124567715 
-0.1394784317894214 
0.04262909097976315 
0.04262909097976315 
0.5817537768480512 
0.1232149289486958 
-0.04820402538780105 
-0.1225913780245410 
0.05810347088763995 
-0.02490012588885925 
-0.02490012588885925 
0 
0.2282597144752887 
0.2744805569099140 
0.4049035058112375 
0.1275998649710975 
0 
-0.07228538373531530 
0 
0 
0.2033094926525921 
0.2032800993185551 
0.2033189458380611 
-0.08092612982655400 
0.2350091020362124 
0 
0.3171950041382448 
-0.09045587496422827 
-0.04018962717282919 
-0.1489440855142890 
0.1204948162365497 
-0.1945842695563041 
-0.5012902594985942 
0 
0.2258118375309237 
0.02543591009037593 
0.02543591009037593 
0.08828302517063785 
0 
0.02645722943252546 
0.1809095317249301 
0.02645722943252546 
-0.2161368244525308 
-0.1484448123239599 
0.2738429947565191 
0 
0 
0 
0.2381787539331778 
0 
-0.2457239551268149 
0.1026805133660728 
0 
0 
-0.1074098092219061 
-0.1740481086573048 
0 
0 
0 
0.08290370512266021 
0.4997209053369526 
0.2477239188084068 
0.3143152633688535 
0.003478536230110886 
0.03605907164616113 
0.09151549131707935 
0.06735681284778083 
0.09370649777305595 
0.02287950035722383 
0.1248203168427236 
0.1237863438280296 
0 
0.03574184622062825 
0.1680637464305957 
0.09982130326587087 
0 
0 
0 
0.05455941313668613 
-0.05155252144782452 
0.2953125068052677 
-0.3109048946559491 
0.1063246577280520 
0.2776898851625941 
-0.1178373682141266 
0.3148845911060479 
-0.3486352224592364 
0.2940534983040128 
0.04876854266807779 
-0.2489616881405677 
0 
0.09911959472454697 
0.09911959472454697 
0 
0.1814404734271426 
0 
-0.1064728369988599 
0.2240644247077483 
0 
0.1169971722191438 
0 
0 
0 
0 
-0.2418996623202440 
-0.1312802422248338 
-0.06875690038857551 
0 
0.06918465164587297 
0.1714882913729243 
0.1714882913729243 
0.1311753345501774 
0.08695354758790542 
0.1419209255146889 
0.2015603292309756 
-0.3198080706242623 
0.3201570388742827 
0.08164034533804677 
0.2198783553920075 
0.4347101422103841 
-0.1554566274491474 
0 
0.1642828769350503 
-0.1299660567417998 
0.3327784865061806 
0 
0.1429116342649409 
0.07771048289858920 
-0.08922042433745325 
-0.08516968178172311 
-0.1948716172678710 
-0.1732476833747161 
-0.1087904731734179 
-0.05006848557469507 
0.2267565923382543 
-0.1874152010481131 
-0.1472932414722436 
-0.1920531095905109 
0.1398328876028333 
0.1010023412642716 
0 
0.1047314211676118 
-0.1133743311389082 
0 
0 
0.2803724272114674 
-0.07920473460851969 
-0.04219264965101510 
0.04818213889201729 
0 
0.2884698183147412 
0.03260740661538714 
-0.04212025757976287 
0 
0.09396790906979786 
0 
-0.3448076875547798 
0.1000353309100833 
0.1178657187066928 
0 
0.04959872914686481 
0.2269594855535849 
0 
0.2398093543892864 
0.3709723378687987 
0.2149669302852230 
0.1028735196058632 
0.1695783011074859 
0 
-0.2879022852292507 
-0.1247240752430037 
0 
0.3058354863688876 
-0.3157131068030927 
-0.1577441367664572 
0 
0.1670762015284500 
0 
-0.3276293370979494 
-0.3276293370979494 
0.1958008482185795 
0.1506141663261017 
0 
0.3624508547368710 
0.2698310722397545 
0.1334521160957359 
0.3631586621924035 
-0.2149649968717103 
0.2046393834303394 
0.1904751179344847 
-0.3586554110675028 
-0.1000959048779814 
-0.02227928482842854 
0.1608689284794305 
0.02226015453406413 
0.03208569467104645 
-0.1056922413773480 
0.1155567881813905 
0.08751882732071316 
0.1702893849658656 
0.1146887795952637 
0.1146887795952637 
0.08173513497599334 
0.1055009497860225 
0 
0 
0.1405933427346671 
0.1593906041674156 
0.09515984605279935 
0 
0 
0.3415843595127922 
-0.2520649226660750 
0.06289155734800386 
0.06289155734800386 
0 
0.2310301491145572 
0.2939222727751139 
0.1507868044955424 
0.03925819964987948 
0.2082691249514359 
0.1536920637218445 
0.3128724666972954 
0.1930870161321254 
0 
0.2446731726891998 
0 
0.1011058355254895 
0 
0.2828449766526101 
-0.3630066433267364 
0.1131491508577463 
0.1131491508577463 
0.1305332168124785 
0.6539544405568994 
0 
0.1609213318719552 
-0.001001916195371121 
0.2163962537413419 
0.2566309294250744 
-0.03080369746604995 
0.07907456719475878 
-0.01197188232020880 
0.04511765501156280 
0.3613175781154905 
-0.08010343832749130 
0.3084083588143211 
0.3084083588143211 
-0.05181495756098786 
0.06057532054492991 
0 
0.4095863439250681 
0.005753196696240612 
0.2110226430067030 
-0.08468555465253019 
0.1349415959430279 
-0.1866099849016051 
-0.1347777313688534 
0.1266023667411307 
0.2187308062151857 
-0.09642051716369560 
-0.1992353062654787 
-0.1485025566562619 
-0.1297485059889484 
0.1284360613287472 
0.09567444805736505 
0.03450737886137990 
-0.2594818200328420 
0.1059863801712493 
-0.3225233402881830 
0.2268570861090867 
0.1903071462114517 
0 
0 
-0.2646626973935856 
0.1475566546295690 
-0.4700449349084969 
0 
-0.04804534742899642 
0.2901450969559434 
0.1356165506598897 
0.1595443287198878 
0.1595443287198878 
-0.1231000397255968 
0.1366994874119702 
-0.006569714930470264 
0.1017884891851147 
0.1017884891851147 
0 
0 
0 
-0.02901020639145365 
-0.2969611395291907 
0 
0 
0 
-0.05340025225317061 
-0.05757027559527689 
0.06418634509320317 
0.1767956204557264 
-0.09925105726705388 
0.1050697602209013 
0 
0 
0.3624508547368710 
-0.3167732583596287 
0.1183154100757327 
0.05019987368269101 
0.02829766650677984 
-0.1189262461065519 
0.4870264981816107 
0.1057156881540421 
0.05555354962652315 
0.05360204404875479 
-0.2140294788936440 
-0.09237946954455493 
0 
0 
-0.1519512864665148 
0 
0.1608990370327934 
-0.02616501534915696 
-0.02616501534915696 
0.1774286042497115 
0.1936887954248363 
0.3464064936623327 
-0.08603536631371668 
-0.1163471457764872 
-0.5142376416201736 
-0.4148468290306203 
0.1442133498363441 
0.08838798570223634 
-0.2499325712059781 
0.005194086448320956 
0.05576550239173542 
0 
0.1726179374163308 
0.08814140593636784 
-0.1351449477591724 
0.09829982154872768 
-0.07004321449053208 
-0.2219440353956131 
0.005202361045860034 
-0.06000845287228216 
0.1420704909829845 
0 
-0.1644449859621864 
-0.1897057006634147 
0.04194736076902118 
0.04194736076902118 
0.04194736076902118 
0.04248325086424509 
0.1160443106874790 
0.1160443106874790 
0.1160443106874790 
0.05398552500165568 
0.1850482364365063 
0.1850482364365063 
-0.3173830346247873 
-0.09563111236066985 
-0.1264847932495742 
0 
0 
0 
0.06610906847449677 
0.1867401127529484 
0 
-0.5600971745956135 
0 
0.1994707761306202 
0.1951080187689293 
0 
-0.1408830105167467 
-0.1777746323011020 
-0.1568058437124040 
0 
-0.02680748397895063 
-0.09895050695262819 
-0.1064420262695080 
0 
0 
0.2249250224505934 
0.1751232264056155 
0.05599593368948262 
-0.08131012650016195 
-0.1736523614225284 
0.2019411707786136 
0.2228552899225894 
0.04236244064845154 
0 
0.1727789742784345 
-0.03178213684451973 
-0.02682388117355656 
-0.3931978882382811 
0 
0 
-0.2218897699810640 
-0.2218897699810640 
0.2805962183073334 
-0.1148421415472114 
0 
0 
0.02411029772132342 
-0.02109068524161888 
-0.09104631426265708 
-0.1131783611491560 
0 
0.07081457308266746 
0.07081457308266746 
-0.04610910474986597 
-0.03985264675721054 
-0.03985264675721054 
0.06251224742844905 
0 
0.2160210358624022 
0.03574155039452257 
-0.1398378482103996 
-0.1073401687961157 
0.05429983064990197 
0.05429983064990197 
0.05429983064990197 
0 
0.3598874912718529 
-0.1752915683757861 
0.1716643467722778 
0.2759746606056212 
-0.01526375723727713 
0.03572819504532084 
-0.6178315241865505 
0.1778616206538279 
0 
-0.07081962733960012 
0.02718123017118363 
0 
0.4162173636139913 
-0.4318839893995827 
0.2085764455212595 
0.2085764455212595 
0.2085764455212595 
0.2031894224150108 
0.3356640250511916 
0 
0.2599518816676053 
0.1209854904544988 
0 
0 
0 
0.2196138579489521 
0 
0 
0 
-0.04819352105033194 
-0.09367984806117884 
0 
0.1094874616892231 
0.1046183435060701 
-0.2409559995957063 
-0.1599957548757774 
0.2938747200639347 
0.3443854856799546 
0.2971734979488901 
0.05049983000011167 
0.04719847954077884 
-0.2171866827949984 
-0.05697414856732466 
0.1583578166788722 
0.03687270875939334 
-0.2103129039722786 
-0.1959177932032400 
-0.04389826132865593 
0.03687270875939334 
0.03687270875939334 
0.03687270875939334 
0.1379687056403100 
0.1379687056403100 
-0.2124691746090767 
0.1456201280319914 
0.1456201280319914 
-0.5737776257587435 
0.2646363628347812 
0 
0.1538426750133243 
0.1602536966640491 
0.1540257673716569 
0 
-0.2755106295279192 
0.02411029772132342 
0.02411029772132342 
0.02411029772132342 
