solver_type L2R_LR_DUAL
nr_class 8
label 6 4 2 3 8 1 7 5
nr_feature 39
bias 0.000000000000000
w
-0.3995061434690369 -0.8324121627252052 -1.998423665339921 -0.5606419588817949 -0.3889134015407906 2.631113371914177 -0.5621936626301828 -0.5286052049848028 
-3.469197328815967 -2.483040773314990 3.272669825928626 -1.642126253339332 -2.692950673363117 -2.554276724772668 -2.369274401405710 -2.417356899229583 
-1.147068402184824 -0.9349920542505807 -1.223971323094976 2.072948102569071 -0.8706359303261564 -0.8673521251398455 -1.075761504950576 -0.7744379443135367 
-1.488708325361845 3.053892237953067 -2.856189527374062 -1.142048851969652 -1.252701192803617 -1.786127522862225 -1.538130100385008 -1.507022874054139 
-0.2704694529065921 -0.1813093159303072 -0.3149164622652019 -0.1053751317141364 -0.1424610482958112 0.06975265904857621 -0.2665436887653842 0.7328159049947981 
3.106538834976921 -2.569777786235532 -3.177750067337421 -2.687374342987609 -2.619121828553395 -2.809557323795073 -1.599428880027928 -2.576590014552765 
-1.731727272088454 -1.342590834035066 -2.420549721571186 -1.113200376220657 -1.165381999416832 -1.151645238535064 3.573880440977058 -0.9796291684307749 
0.3379459929643139 -0.8342167824179417 -1.155555893124263 -1.435709933348643 -0.1083403169476339 -1.661230762437198 -0.9049877522710185 -1.099017114687857 
-0.6459295324212524 -0.8968271056337062 -1.927329964455026 -0.5454185850127107 -0.3443641649474866 1.762945461228877 -0.2622035558286380 -0.2273465925276000 
-1.693944222828278 -2.815489815952652 2.093315332100351 -2.393123368848117 -2.365501959132487 -2.066432638855525 -1.857361824921521 -2.458353408560952 
-0.7384227206603716 -1.085612106374714 -2.450394932899932 2.863876639958801 -0.6424509037480288 -0.9775574722341311 -0.4247287143955654 -0.8338300165989665 
-1.599118637763306 3.046881938115284 -3.150287725817045 -1.284672021440673 -1.128182194079648 -1.618811851865452 -0.8539810259628625 -1.507979334658164 
-0.2393274663162979 -0.5992395395397980 -1.270595005479505 -0.1939253302631428 -0.1216521801666728 -0.1742850116302238 -0.06467073720637719 1.861091144891962 
2.724864484093306 -2.391264171024634 -1.897653340789758 -2.458991109800899 -2.707020455325745 -2.625895143486436 -2.344210444825261 -2.697267860458993 
-2.695076454768862 -0.6047158997768622 -0.3635689691242180 -0.8197288420879163 -0.8992539157479154 -0.7295598289575265 2.176322797623585 -0.9077274584899876 
-0.1752375462204716 -0.7781807707694253 -0.9081722277132304 -1.781546128398136 -1.032080618099319 -1.699727180778943 -1.111606043942154 -2.378429788855977 
0 0 0 0 0 0 0 0 
0 0 0 0 0 0 0 0 
0 0 0 0 0 0 0 0 
0 0 0 0 0 0 0 0 
0 0 0 0 0 0 0 0 
0 0 0 0 0 0 0 0 
0 0 0 0 0 0 0 0 
0 0 0 0 0 0 0 0 
0 0 0 0 0 0 0 0 
0 0 0 0 0 0 0 0 
0 0 0 0 0 0 0 0 
0 0 0 0 0 0 0 0 
0 0 0 0 0 0 0 0 
0 0 0 0 0 0 0 0 
0 0 0 0 0 0 0 0 
0 0 0 0 0 0 0 0 
-0.3041537208361396 -1.117794340694300 -2.000052372886916 -0.8418697528516409 -0.9499205294828366 -0.8526844489981966 1.776078239255098 -0.7479985544882582 
-3.731702108656666 0.9706801827862582 1.645069222445357 -0.3012506795259204 -1.855716260436524 0.7024161285534500 -2.305506301635081 0.1604474393989320 
-5.192980859874729 -2.826365923226231 -3.691663864145184 -1.621136036204164 7.300134651225956 -1.587199861455736 -2.488226794555513 -1.407681996732085 
-0.2637444648931707 -0.05244429670467879 0.3470776142508587 0.05209626604402635 0.05346095509533535 0.3076386955243337 -0.2697257395227469 0.2441922686820451 
-0.7376714347580731 0.2794235437413042 -0.4791061458332401 -0.5219639803307338 0.2896304333200952 0.008036012413296992 0.4191186840024683 -0.02400168058166053 
0.2876859853831295 -0.5463456157817480 -0.3304260919690109 0.6327945360501490 -0.2542463781352446 -0.4095381793452517 -0.4660536386454838 0.2078005626960604 
-0.04591361901101437 0.07593416339639289 0.02385284192382466 -0.3503415276068618 -0.3745688324540681 0.05094937299295600 -0.5718774646247400 -0.9491386532255642 
0 0 0 0 0 0 0 0 
