solver_type L2R_LR_DUAL
nr_class 8
label 6 4 2 3 8 1 7 5
nr_feature 12
bias 0.000000000000000
w
-0.4227425910157170 0.3810101967765837 -0.4161770233681255 -0.1149101003818283 -0.2245690279408894 -0.1512064961330222 0.3063804567162458 -0.09672394843398462 
-0.1656480370042303 -0.3212033644248616 0.1028961057904695 -0.07572213386118738 -0.05503893440149685 -0.3991909494513579 0.08627241272405882 -0.3513177620465640 
-0.3806368719145525 -0.6869525642082752 -0.02350754669239272 0.6508576845574009 -0.6560837762597294 0.3531278781176404 -0.06624642690070104 0.07099691869487298 
-2.614023423261175 -2.482323397696470 -2.121303301503807 -2.772931551163113 2.041908603463761 -2.575860520257741 -2.424929849940083 -2.637397186329007 
4.150831861253030 -2.339695000497591 -2.664465008878136 -2.209859624406637 -5.811195585540615 -2.114322603889490 0.7508986344305535 -1.825527875892573 
-2.573544621994831 0.9794748070374919 3.710754560593678 0.3244270550227840 -5.252954166393604 -0.2896064929744472 -1.967971088309388 -0.9928579490307848 
0.2669158292002533 0.04319414592399350 -0.05633684091465923 -0.8471697112648494 -0.1764237974933198 -0.1392559032441046 -0.3605911033848694 -0.7660205031266077 
-0.4066174018154646 0.1269482405677816 -0.9435399134413641 -0.3348215044968782 -0.4112779402850917 1.089902899316107 0.4653435473542169 -0.5243481502519763 
-0.1211821257633071 0.3675030283360120 -0.06887123804557203 -0.3117328595488965 -0.5078750056451439 -0.8772277023989640 -0.2550759991258201 0.01056484348737318 
-2.009876474266995 -3.031094305206143 -2.439477659017519 -2.876615083928586 1.538842998235759 -3.330834617297826 -2.940725925696928 -3.452879709980794 
3.181936982836465 -1.649541864216634 -1.690573515846421 -1.285505353818341 -4.786336434714943 -1.603995486310176 1.724836995706904 -1.336363872703685 
-2.208796692572446 0.8380925782662028 3.055037425075698 -0.4962436828000344 -5.774747711991233 -0.04495951351367690 -2.426113373828893 -0.6665394285679085 
0 0 0 0 0 0 0 0 
