solver_type L2R_LR_DUAL
nr_class 9
label 6 4 2 3 8 0 1 7 5
nr_feature 14
bias 0.000000000000000
w
-0.04003010134266933 -0.8152351180687695 -0.3526277845330910 -0.4022634417727977 -0.5449311497266224 0.05536184847428563 -0.7108876487134722 -0.5331372960781199 -0.8665426176320127 
-0.005241229773942215 0.0006027065947303923 0.001591192359528735 -0.003185702272766737 0.002764182415488478 -0.001401660344317871 0.0004637400905893644 -0.006969694209523598 0.0003217271921140706 
-0.01389705839880445 -0.001897864066930531 -0.001456258659156726 -0.0009660291720010927 -0.001060690273580626 0.002660541328996099 0.004164819311133879 0.0009213520180445158 -0.0006264539632370671 
-0.005709150871737482 0.0001318455472562049 -0.0002109522044383473 -0.003492729259688236 -0.001770941203594217 0.001323862767372369 -0.02039771726231808 -0.005553377759031200 0.007485719450175800 
0.0003793121230129729 -9.591924142724503e-05 -0.001013870832739951 -0.004920287340037782 -0.001657882489496084 0.002509743589362775 -0.01589416621680975 -0.007833572975726157 -0.02137580205192362 
-0.0004444813071056706 -0.004149389465376420 -0.004874246967263396 0.0002505769979170964 0.001217144826556471 0.007194687770173764 -0.003583960568073911 -0.0004732417073213009 -0.0008823584317493450 
-0.008274779180326002 -0.007134373115333954 -0.001842295439433998 -0.04256025644976657 -0.004397041540782766 0.003348720637547637 -0.03683220809755645 -0.01048624764828859 -0.009194416560507077 
0.007344458455960381 -0.002048520049733621 0.006740842583960308 -0.003573832442706336 -0.003460594767836816 0.003695536609198558 -0.0007368009085103734 -0.0008529852433017742 -0.01633468699597804 
0.003054933733652099 -0.005985536682607201 -0.002215052034172118 -0.001231202890087881 -0.005943525908781270 0.0004773873369971918 -0.0006209777943608759 -0.006649198291821705 -0.007052871023028345 
0.004868945594919327 -0.004139537546153069 -0.001354159995941298 -0.004626079366769555 -0.004341662650107156 -0.0004228609809048836 -0.01083454357829345 0.003423083113113403 -0.01028969930447285 
-0.006372760233998051 -0.0005378187372300822 -0.002936385134722850 -0.01833621105033373 0.0002675604871087160 -0.0002813056850563374 0.0006816544956382842 -0.007176417581354018 0.004734980153424413 
-0.0007219591146105616 0.0007447145512661930 -0.003938688993367986 -0.002854920180885544 -0.0008539344778399732 -0.0005714112685820515 -0.001925544976172166 -0.01007569318241569 -0.03010377094896900 
-0.0003727867606758654 -0.001309336449225387 0.0008020947504179106 -0.001869291732587687 -0.004683196462510822 0.005003594851103720 -0.002494172167885022 0.005168749973245701 2.099445385773257e-05 
0.001197519875278846 0.001164217263091784 -0.001958659956315384 0.0007058944782756716 0.002259483868473337 -0.003310524665105956 0.0003826971582586012 -0.002596794321689828 -0.005226554628899831 
0.0005588244851571227 -0.001905302740807391 -0.002432223512138057 -0.004665404610083571 0.0008378951290311308 -9.179131385085321e-05 -0.003895587705765675 -6.181800696219899e-05 -0.001658432959142729 
