solver_type L1R_LR
nr_class 6
label 6 1 2 8 3 0
nr_feature 14
bias 0.000000000000000
w
0.07942684010202024 0 0.05055379172704357 -0.03926901534797413 0 -0.01955381349574021 
0.03914249206849909 0.06139378994960554 -0.03860217390082213 -0.007509827675919035 0.02907185409640392 -0.007216664988030457 
-0.06909543814294537 0 -0.01784590782488706 -0.003668742908905400 0 0.03082492564688686 
-0.08455876804824747 0.01412341429837944 0.08482516414958571 0.03163784355220967 0.04511158017540106 -0.02955210819126781 
0.0009287572843730391 -0.04284298284823714 0.007291490548498106 -0.02234893919281223 -0.004979141814719540 0.0005633155793545586 
-0.01360111538671134 -0.07043120650565218 -0.01350624510117877 0.001360531943022404 -0.04141106939364220 0.004736385331866578 
-0.09531161220902340 -0.1994825157379336 0.0003856964471312570 0.02405665327245957 -0.006258430021317921 0.009224552937617383 
0.04581997422935648 0 0.03402571731334705 -0.03953710545411485 -0.2021834744154406 -0.007015347765431804 
0.03930737206001541 -0.08634428781369512 -0.0004911926706955182 0.001257662379542651 0.01057687080432427 -0.01903077047983628 
-0.001093071239328731 -0.07182518280567820 0.003522121615724338 0.004134270606705980 0 -0.006721372956010896 
-0.003020522743291363 0.01317267526564062 0.01927993143740257 -0.02227837211318962 -0.1460171728753594 0.01060581376437952 
-0.01781202278785571 0 0.05979025205771675 -0.01796218242057241 -0.04822184277896258 0.005355406684354136 
-0.002751731854645992 -0.02341838697365666 -0.04685784318373493 0.01497530166934753 -0.03025914235571021 -0.002858547540021542 
-0.01918019909421108 -0.004320483826782740 -0.06716140663458654 -0.003927267680643049 0 0.02626177807965867 
0.006898781314998935 -0.002389788934833279 -0.03728972612297325 -0.009762345240023335 -0.01133148998662391 -0.008116349979629303 
